121 64
109 0.37891185 -0.07057894 0.573742 -0.10701683 0.48824275 -0.392508 -0.33694786 0.3631368 -0.68351674 -1.1226766 0.65759856 -0.45370594 -0.8970559 0.1631262 0.07919193 0.08803318 0.10614957 -0.15704301 0.29353046 0.7705039 -0.1496504 0.18203641 0.9550489 -1.0040745 -0.07867288 -0.09631692 -0.5439921 -0.3105238 -0.2997329 -0.09589626 -0.3748103 -0.2924663 -0.3378977 -0.90316665 -0.565566 -0.8744122 -0.4413273 -0.39337197 0.30622435 0.76444435 0.2856835 -0.26807332 -0.4486758 -0.7686405 1.1738855 0.038045157 0.28910136 -0.44844985 0.38068345 0.5138811 -1.0131139 0.19610603 0.26847106 -0.002498815 0.6271486 0.7591497 0.29234874 -0.21360543 0.24957368 0.871508 -0.05858024 -0.45765296 -0.20570837 0.12101099
32 0.37034518 -0.018811995 0.52936506 -0.12450253 0.49363154 -0.33259812 -0.33824027 0.37536836 -0.6191573 -1.1276977 0.61633736 -0.33158737 -0.84584564 0.18543443 0.048369534 0.056121826 0.08083682 -0.15542537 0.2620131 0.76107186 -0.21073821 0.10667666 0.9401734 -1.0122154 -0.10648836 -0.0933813 -0.50698173 -0.3092135 -0.28413242 -0.08805352 -0.33379546 -0.30543125 -0.34067106 -0.87405163 -0.5490341 -0.8615037 -0.49076197 -0.38897863 0.28013214 0.8028553 0.32999757 -0.2761556 -0.42761233 -0.7517441 1.2047851 0.10273881 0.27639106 -0.45251888 0.3823771 0.48349142 -1.0021492 0.26250345 0.25377187 -0.03987679 0.58028734 0.8205778 0.31893277 -0.1748246 0.3300512 0.7721705 -0.05852207 -0.44745302 -0.2363179 0.16330764
42 0.34457645 -0.08060494 0.5661633 -0.15937527 0.5479671 -0.31127816 -0.36389935 0.41938874 -0.67875785 -1.1190594 0.6575167 -0.33144328 -0.8745597 0.13504048 -0.022685472 0.09368731 0.022610622 -0.14836557 0.29674563 0.7731351 -0.2707751 0.04651726 1.0197825 -1.0623276 -0.05473569 -0.116227806 -0.5622641 -0.2965621 -0.33057666 -0.108873025 -0.3489921 -0.32917222 -0.33893716 -0.9275556 -0.5717922 -0.9001758 -0.4696286 -0.4757824 0.24191158 0.82105136 0.28982383 -0.34538895 -0.44951618 -0.81868684 1.2350794 0.18460487 0.2757407 -0.54003066 0.39166084 0.48791456 -1.1222159 0.27030933 0.29927856 -0.12640288 0.62889415 0.7805548 0.34082258 -0.17170653 0.34673437 0.8361532 -0.075406246 -0.45106998 -0.22240843 0.13070107
9 -0.57969487 -0.35931292 -0.40566987 0.42344147 -0.36179286 0.6604726 0.017237317 -0.52692145 0.2545864 1.0754731 -1.2314951 0.74577 -0.16110915 -0.9742287 -0.65314305 0.09951569 -0.2361553 0.4388717 -0.35036844 0.74837065 -0.7517263 0.11396365 0.06873028 -0.5891822 0.030830834 -0.01268439 -0.57496756 -0.10611151 -0.08335441 -0.0672555 0.22376394 -0.44542143 0.017446984 0.5111749 0.28329948 -0.9036316 -0.29495123 -1.253506 -0.867251 0.037639603 -0.32459894 -0.46668574 0.33535427 0.24273977 0.16464987 0.49719352 0.3806655 -0.02492993 -0.32497153 -0.41334367 0.016138826 0.6083607 0.43820786 -0.5534945 -0.6983727 1.0986073 -0.18975578 0.5189186 0.8186275 -0.0038336143 -0.7331689 -0.46214622 0.04462365 0.40632597
88 0.34883967 -0.023764918 0.52816963 -0.16112243 0.5285316 -0.32611287 -0.33916843 0.38972583 -0.62595606 -1.1037062 0.63562816 -0.2749973 -0.8548715 0.19098175 0.03347082 0.04379879 0.06961332 -0.1691217 0.26302394 0.74804825 -0.24985963 0.051053878 0.92693096 -1.004939 -0.08805369 -0.14652361 -0.5176116 -0.3023717 -0.31677428 -0.114930905 -0.36281264 -0.33042523 -0.3082536 -0.9026267 -0.54206574 -0.8705095 -0.4783434 -0.41491702 0.26387754 0.82380503 0.32436702 -0.2791879 -0.42770037 -0.77969515 1.2173349 0.16933359 0.28285596 -0.44836265 0.410602 0.45810905 -1.0620606 0.29172203 0.24762194 -0.12587781 0.6185674 0.8261559 0.33179313 -0.15883918 0.34655884 0.7723703 -0.054006472 -0.42514935 -0.24359287 0.1577031
60 -0.046571843 -0.83054656 0.55568796 0.29316068 -0.113374956 -0.6433153 0.101269774 -0.3707827 -0.8500096 0.3349823 0.19335097 -1.6234167 -0.64376044 -0.767881 0.41489932 0.33408558 0.25910416 0.21796188 0.69337875 0.84699327 0.5851987 1.1878625 0.16267174 -0.25077075 0.16926557 0.20433287 -0.7903578 -0.13062969 0.057357624 -0.049640164 -0.10625365 0.35353407 -0.48374778 -0.31860128 -0.043898467 -0.28402558 0.31528485 -0.06270342 0.35611913 -0.3766843 -0.3672032 -0.23674202 -0.01718364 0.109442905 -0.53673553 -1.0557318 0.5433785 -0.28242853 -0.3872265 0.33996493 0.100220986 -0.76141024 0.57267284 0.7527252 0.2565635 -0.3414422 -0.49380544 -0.37689626 -0.7622579 1.0627514 -0.024472306 -0.27640146 0.51289535 -0.25816673
84 -0.6331953 -0.318498 -0.36117756 0.37074584 -0.36408186 0.6415903 0.024324404 -0.47389925 0.23843883 1.0246658 -1.1488215 0.77614 -0.1333343 -0.94358236 -0.6187621 0.021381756 -0.24276222 0.4309547 -0.31169817 0.6865799 -0.76932424 0.05393642 -0.00016402206 -0.52433693 0.042064864 -0.082262285 -0.539621 -0.03496296 -0.107144065 -0.058938485 0.22705221 -0.3938564 0.017497152 0.4760164 0.31810936 -0.8660431 -0.2573649 -1.1951876 -0.8370727 0.03784913 -0.29168877 -0.46034256 0.31588876 0.27076423 0.13413951 0.5099672 0.37891194 -0.0040315394 -0.2873162 -0.44558302 -0.02736791 0.5661517 0.3921119 -0.5732519 -0.6506773 1.0159146 -0.14180651 0.48200697 0.76954854 -0.0019086221 -0.68638015 -0.38267002 0.08990718 0.39625397
28 -0.12432422 -0.89222205 0.48161307 0.31818965 -0.15234524 -0.5403538 0.11746471 -0.37452078 -0.92744285 0.39789927 0.09993222 -1.6795913 -0.60167485 -0.77891237 0.42472178 0.40569502 0.19950101 0.30567235 0.67855364 0.8347306 0.647503 1.2050145 0.10654949 -0.18665992 0.20747785 0.21327731 -0.81165284 -0.059724636 0.0902964 -0.028692149 0.0019127798 0.3457723 -0.42259842 -0.18038952 -0.03817191 -0.20409797 0.40996328 -0.14584059 0.30937588 -0.45211333 -0.4431222 -0.3346264 0.043693572 0.1712488 -0.6668101 -1.0466152 0.48553607 -0.34257358 -0.42346123 0.3113857 0.15067467 -0.8164764 0.6530536 0.7875932 0.17523713 -0.48160344 -0.4631524 -0.4428753 -0.7208096 1.0977532 -0.07470255 -0.29927647 0.523945 -0.2678447
8 -0.05608471 -0.8789511 0.5419523 0.26847702 -0.10773633 -0.66294575 0.08789698 -0.37189478 -0.9098229 0.33053797 0.22841802 -1.6732513 -0.658652 -0.7748155 0.42546293 0.3446734 0.24202444 0.2470888 0.7285643 0.831621 0.616255 1.1915302 0.17147194 -0.23001653 0.17814142 0.22879091 -0.81501055 -0.13428454 0.08772777 -0.056182057 -0.12124314 0.36176577 -0.46832657 -0.30674228 -0.055724356 -0.25248444 0.34204078 -0.082155295 0.36894763 -0.39989528 -0.37034371 -0.25182083 -0.03610536 0.109671876 -0.5603914 -1.0846432 0.52384144 -0.33833712 -0.3807297 0.36708534 0.11137884 -0.8099623 0.6128507 0.7780643 0.27240515 -0.3710334 -0.4939186 -0.4293452 -0.77345276 1.1104324 -0.0014241555 -0.29081443 0.5103988 -0.2675852
41 0.39633387 -0.008875789 0.61392945 -0.10497254 0.4951385 -0.4582589 -0.3371841 0.3066974 -0.67081237 -1.182889 0.647285 -0.46342877 -0.95031273 0.19143425 0.17152217 0.07621226 0.14721274 -0.16020851 0.33114892 0.8667963 -0.111994766 0.24277541 0.94347113 -1.0733606 -0.12476705 -0.09457543 -0.55879503 -0.33627358 -0.2508655 -0.0690828 -0.3785976 -0.2811488 -0.40512845 -0.90761733 -0.5733292 -0.9519779 -0.4992315 -0.3207873 0.35984242 0.790595 0.37690315 -0.21293487 -0.45591727 -0.7856511 1.2608453 -0.028171588 0.3595516 -0.41055658 0.386898 0.52867717 -0.98473537 0.17275754 0.24430685 0.07541162 0.64134836 0.9025259 0.28162885 -0.2097237 0.2438756 0.8795912 -0.075519934 -0.517863 -0.21620026 0.15626912
45 0.10746168 -0.18650548 0.48708045 -0.2586047 0.63273054 -0.034529783 -0.39043012 0.5366057 -0.67997634 -0.9463408 0.58985436 -0.021108935 -0.724049 0.017308064 -0.27371025 -0.05779903 -0.18886301 -0.18619291 0.31377238 0.56868476 -0.66473305 -0.37401685 0.955733 -0.93375623 0.11792575 -0.29654774 -0.54976493 -0.20982777 -0.56713027 -0.24838004 -0.29037815 -0.3641797 -0.1935085 -1.0160937 -0.36896405 -0.79804057 -0.43101886 -0.6730479 -0.034790874 0.8504427 0.12934351 -0.5566572 -0.44994238 -0.74985826 1.0968869 0.48321298 0.26870447 -0.6173344 0.3972425 0.36191082 -1.4335434 0.4434092 0.35799176 -0.60273165 0.60880864 0.57827365 0.3922106 -0.062112153 0.46460825 0.74043113 -0.091029696 -0.18733928 -0.16047932 0.03509466
85 0.4455086 -0.06982413 0.5589057 -0.110747136 0.5043279 -0.3936897 -0.35760146 0.3523804 -0.67669255 -1.1812017 0.65154094 -0.47586733 -0.92373943 0.18963711 0.061698075 0.15959726 0.10130522 -0.14208315 0.24865256 0.8210705 -0.12489756 0.20953718 1.0223765 -1.0530323 -0.14083122 -0.02081604 -0.57071817 -0.3484884 -0.2565404 -0.08288898 -0.3667058 -0.3224585 -0.37122327 -0.8739925 -0.64751524 -0.89152026 -0.45346287 -0.41363803 0.31839967 0.82414216 0.334733 -0.29284194 -0.42627117 -0.8184975 1.2463398 0.05916584 0.24991821 -0.5040727 0.40425605 0.5216567 -0.9815445 0.22041339 0.27950555 0.059165083 0.6040316 0.85106844 0.33370733 -0.21611094 0.29373035 0.8976956 -0.058611393 -0.5319611 -0.2638987 0.18020876
5 -0.076656036 -0.8927363 0.5261122 0.2900759 -0.096954145 -0.62834287 0.095674865 -0.3839613 -0.8489214 0.39310586 0.18102343 -1.645846 -0.6207143 -0.81595826 0.36144528 0.35589463 0.22183464 0.23811056 0.71813077 0.8452732 0.58510274 1.1680833 0.15531084 -0.2280737 0.16485186 0.22830296 -0.81716895 -0.11946347 0.057339516 -0.065219715 -0.088373184 0.35528827 -0.47082844 -0.26979363 -0.010142671 -0.23780511 0.35887456 -0.1031653 0.33599684 -0.40588993 -0.4266476 -0.268605 0.0056099035 0.11838974 -0.5996343 -1.0463952 0.5495474 -0.32055295 -0.41633332 0.34308743 0.08943904 -0.7750658 0.6081695 0.73967266 0.2607812 -0.39624596 -0.4968893 -0.37726566 -0.77106977 1.0526464 -0.018559754 -0.2902287 0.5280125 -0.3002497
15 -0.17724712 -0.82062536 0.36357564 0.33254823 -0.22961025 -0.3777717 0.14398263 -0.36675638 -0.85317147 0.473771 -0.01842708 -1.5507598 -0.5322273 -0.71770775 0.39128718 0.44879302 0.15176265 0.34717518 0.5542119 0.7439574 0.66550267 1.1019636 0.0687089 -0.13832963 0.22726552 0.20796753 -0.7401792 -0.03846978 0.120852426 -0.02627233 0.09238624 0.32966962 -0.34632212 -0.012994603 -0.04676014 -0.113058574 0.44668168 -0.16275811 0.20355462 -0.49496374 -0.42311764 -0.3342081 0.089001946 0.21892516 -0.73074806 -0.9611024 0.36927024 -0.31647032 -0.44362876 0.21233523 0.23636092 -0.7937413 0.6805414 0.7655253 0.061778303 -0.5171064 -0.39568833 -0.42197743 -0.64413047 1.0021245 -0.1045439 -0.27926627 0.51928884 -0.20903395
31 0.45556787 -0.013360321 0.5627947 -0.07838866 0.45011303 -0.43119222 -0.34959933 0.30550417 -0.6462497 -1.1558176 0.60724 -0.49688575 -0.9284806 0.1996962 0.16142197 0.14422593 0.15719584 -0.14561684 0.2559766 0.8515751 -0.027688207 0.27162203 0.9569081 -1.0442301 -0.1534026 -0.014439306 -0.5339848 -0.35771435 -0.18926208 -0.051652238 -0.37488744 -0.27871177 -0.3801074 -0.8124157 -0.60328776 -0.8955848 -0.4582189 -0.3239367 0.3448377 0.76991534 0.35430378 -0.19794373 -0.40550777 -0.76062095 1.2246275 -0.03030565 0.27990207 -0.42460525 0.36228687 0.5275663 -0.87348205 0.16805148 0.25935712 0.14859878 0.5789169 0.8717352 0.27841184 -0.20012864 0.25719205 0.83966565 -0.07640183 -0.54882294 -0.22114617 0.18136455
21 0.54394245 0.023224538 0.64673877 0.016838439 0.3009157 -0.6845937 -0.27863592 0.09078468 -0.6668335 -1.1275433 0.63793266 -0.9275296 -0.97659415 0.23881124 0.52438116 0.14202453 0.38989782 -0.13461107 0.3693631 0.8743374 0.39454007 0.72773075 0.7234037 -0.89009136 -0.23653199 0.060733933 -0.5017878 -0.37166288 0.0012742591 0.05770173 -0.4089891 -0.106722884 -0.46566588 -0.6605685 -0.61912537 -0.82895356 -0.3967374 0.004642617 0.6426519 0.5532086 0.41849282 0.015457772 -0.38604224 -0.6303901 1.0077499 -0.5247295 0.36857665 -0.22835316 0.2446452 0.552057 -0.46983957 -0.18503822 0.19461827 0.58207417 0.57035875 0.73569083 0.11917976 -0.3765457 -0.06144756 0.89362353 0.0027452265 -0.60668147 -0.10793983 0.17799346
37 0.3302351 -0.10076772 0.46576163 -0.16192773 0.57272846 -0.17878641 -0.38028863 0.44868803 -0.63255835 -1.0788754 0.5994338 -0.21488945 -0.8243595 0.14539532 -0.13101487 0.147035 -0.04949837 -0.15644814 0.18935929 0.73363495 -0.3557352 -0.09196248 1.0404074 -1.0376375 -0.055536464 -0.10893484 -0.54101276 -0.30464962 -0.37299204 -0.12247082 -0.29986474 -0.3898258 -0.27209687 -0.880707 -0.55544657 -0.84670186 -0.4793329 -0.5782549 0.14246473 0.86160827 0.2286131 -0.4058403 -0.40999576 -0.82862777 1.2184242 0.3069331 0.2037463 -0.5603604 0.40574074 0.47226223 -1.1424781 0.36957595 0.34573516 -0.24376611 0.56075233 0.7894566 0.39412746 -0.11106374 0.45167089 0.8045267 -0.1126548 -0.43413037 -0.2744514 0.14582378
55 0.48900267 0.002631681 0.61295855 -0.070265025 0.44159722 -0.5081199 -0.33372793 0.2512783 -0.62107927 -1.149531 0.65681976 -0.5982775 -0.9098077 0.21626173 0.24335015 0.10012903 0.22348605 -0.17528501 0.30827096 0.8427558 0.016809797 0.36904493 0.88618666 -0.99542177 -0.18088372 -0.03279399 -0.50435203 -0.36925662 -0.18389145 -0.043610483 -0.4058405 -0.2531088 -0.41950566 -0.8453223 -0.5902636 -0.91050535 -0.49296418 -0.24295044 0.43225846 0.738466 0.37501368 -0.13557217 -0.4389193 -0.74105 1.1750432 -0.15463337 0.34499237 -0.35695186 0.34443188 0.5377757 -0.82438755 0.08095686 0.19453765 0.20717335 0.6090365 0.8538038 0.22050896 -0.24334134 0.17306113 0.8480748 -0.029611068 -0.5165921 -0.1879275 0.15787332
38 -0.009978338 -0.8627142 0.5480011 0.28577453 -0.09124736 -0.68002766 0.09369835 -0.38677624 -0.88958126 0.3367032 0.23559353 -1.715891 -0.64978373 -0.76543677 0.44501257 0.3645062 0.24403426 0.22652388 0.7271657 0.848945 0.6381002 1.2342707 0.1693346 -0.21576026 0.15680754 0.23828882 -0.8118686 -0.1424619 0.07116096 -0.028711753 -0.13241096 0.37984478 -0.46548605 -0.3159833 -0.055582747 -0.2621663 0.35841048 -0.040908292 0.38922635 -0.3946991 -0.39929223 -0.23750864 -0.016754674 0.099747755 -0.6098759 -1.108083 0.5357184 -0.31866497 -0.40137205 0.37611672 0.13294497 -0.822349 0.59863806 0.79551053 0.28024137 -0.37820154 -0.49085945 -0.42227128 -0.8218348 1.0906074 -0.0041918494 -0.29556763 0.5148888 -0.30700085
87 -0.11963293 -0.8738081 0.4895953 0.31584275 -0.16935824 -0.5470179 0.11615484 -0.3680199 -0.898177 0.4284612 0.08729017 -1.6468295 -0.61756337 -0.765113 0.4054502 0.40386838 0.21080615 0.30052695 0.6613928 0.8197286 0.63377696 1.1851742 0.12721282 -0.20791434 0.19801226 0.2233783 -0.819336 -0.088776276 0.081502974 -0.051187515 -0.01547234 0.35123202 -0.4323161 -0.17176977 -0.028181594 -0.23556267 0.40216592 -0.14515448 0.29894906 -0.4548356 -0.42465934 -0.30595148 0.051096953 0.18115702 -0.6711186 -1.0562496 0.5043779 -0.32001168 -0.4362296 0.31384665 0.17372471 -0.81095225 0.6405825 0.7809209 0.18572673 -0.41941687 -0.45560443 -0.43099272 -0.7308808 1.0864468 -0.057929665 -0.30759865 0.5150168 -0.25732067
0 -1.3752747 -0.43193638 0.15248792 0.0075994204 -0.15480918 0.61123544 0.07100374 0.060692605 -0.42898557 0.85032886 -0.65114623 0.6998476 -0.2200951 -0.9806465 -0.44467247 -0.5668255 -0.3687463 0.44817504 0.5378393 0.65555644 -1.1651124 -0.41373378 -0.2303529 -0.4826941 0.5413048 -0.7669085 -0.75715274 0.34462073 -0.584586 -0.33294946 0.23994689 -0.08056769 -0.017706567 -0.3543421 0.67705554 -0.84748757 -0.0064396285 -1.0977136 -0.81623304 -0.1151457 -0.35717788 -0.8373575 -0.046660617 0.34741375 0.13410677 0.5753109 0.5835743 -0.10850145 -0.1312457 -0.4052008 -1.1458412 0.4361145 0.5738564 -1.0283937 -0.0951223 0.31137916 0.015415555 0.32417682 0.53943104 0.3975083 -0.6670781 0.3781968 0.4756166 0.07225596
39 -1.2659009 -0.42174086 0.1771862 -0.034476057 -0.0990454 0.53794336 0.030711642 0.07343245 -0.41321844 0.75290793 -0.5960158 0.699485 -0.2606522 -0.9333744 -0.45108137 -0.55751413 -0.34109503 0.4169099 0.5117825 0.67414737 -1.1308224 -0.40627298 -0.14235188 -0.52351123 0.50771725 -0.73981255 -0.7515598 0.30770606 -0.59327567 -0.31377068 0.2066554 -0.094507486 -0.036986917 -0.39143687 0.62059027 -0.90534157 -0.08086825 -1.0768124 -0.74235874 -0.021082245 -0.31336832 -0.79498816 -0.087771304 0.2860696 0.2124745 0.5473482 0.6331776 -0.093089476 -0.09551229 -0.37787035 -1.1851733 0.44278046 0.53197813 -1.0025727 -0.06819338 0.43176904 0.047522347 0.31447017 0.5493877 0.39061713 -0.6175943 0.31936416 0.43866172 0.08870974
29 -0.059451245 -0.8701447 0.5409492 0.25750428 -0.12692094 -0.6459851 0.09785783 -0.3615655 -0.84876287 0.37595633 0.19261345 -1.6428465 -0.5887125 -0.77446985 0.4052215 0.32360274 0.21648255 0.2501288 0.7062983 0.79359376 0.6054956 1.1665436 0.10792388 -0.19931784 0.18442068 0.19034524 -0.8041562 -0.115284555 0.08104777 -0.0394674 -0.08943828 0.38669294 -0.43904853 -0.28224656 -0.0063222563 -0.21704674 0.36058125 -0.054946087 0.33465454 -0.41204256 -0.39930364 -0.25700393 -0.011380719 0.15042873 -0.61713535 -1.0613766 0.526891 -0.31753087 -0.38989645 0.34417513 0.108633064 -0.7804539 0.57999367 0.7317004 0.25649408 -0.3991766 -0.48393193 -0.39518657 -0.77506894 1.048938 -0.006906594 -0.26855108 0.5175953 -0.30112413
78 -0.011169269 -0.8511527 0.5414872 0.26553038 -0.06489743 -0.6727495 0.09136352 -0.38468218 -0.8529838 0.3482029 0.22470401 -1.6335881 -0.6132742 -0.78376955 0.39819422 0.3327137 0.24075699 0.19668497 0.7274242 0.8279437 0.57240665 1.188616 0.17268245 -0.24928662 0.15524559 0.23167472 -0.8075327 -0.13053887 0.04658604 -0.043595612 -0.13162838 0.37302673 -0.48060396 -0.33363777 -0.035926238 -0.27536732 0.29846996 -0.061296526 0.34220237 -0.3711214 -0.38636243 -0.22253236 -0.04059657 0.086951315 -0.5670097 -1.0432489 0.5529277 -0.3009488 -0.38659266 0.38162363 0.0834447 -0.75343716 0.5525368 0.720738 0.27239674 -0.3157366 -0.5080596 -0.38197482 -0.78493434 1.0443623 0.0073525654 -0.27233976 0.495017 -0.26960936
86 -0.11242225 -0.86520314 0.420884 0.33903486 -0.16411592 -0.49809083 0.107268274 -0.35455638 -0.8687374 0.42699853 0.05658093 -1.6323936 -0.58686584 -0.7560141 0.3948897 0.42172304 0.20932348 0.3211736 0.615562 0.81407654 0.6701315 1.1547258 0.13547336 -0.1829163 0.20111415 0.21521342 -0.7959701 -0.08410318 0.12402891 -0.04231159 0.0027214584 0.35277358 -0.38642976 -0.11109322 -0.06946819 -0.19511499 0.42353833 -0.15218219 0.2856649 -0.43714875 -0.41613072 -0.31978703 0.061577134 0.16248326 -0.66674227 -1.00865 0.43866822 -0.3156894 -0.436502 0.2951276 0.16906 -0.80941415 0.67066026 0.7920618 0.1348646 -0.43793195 -0.43935224 -0.43579435 -0.6994519 1.0644947 -0.06938497 -0.2842213 0.51455146 -0.22838712
53 0.33757862 -0.14756541 0.4825176 -0.15324856 0.5711191 -0.19446044 -0.36827737 0.4495518 -0.65320206 -1.0677552 0.59169114 -0.26529297 -0.8336256 0.14095734 -0.13753472 0.17236121 -0.061746873 -0.15033977 0.21125253 0.7066598 -0.31911787 -0.053727858 1.046573 -1.007984 -0.034223855 -0.08203205 -0.53002244 -0.31776533 -0.3647294 -0.13246588 -0.29828033 -0.37577626 -0.266405 -0.8918983 -0.5493817 -0.8256772 -0.435328 -0.5705027 0.12695743 0.8217461 0.22914648 -0.4262027 -0.40312934 -0.80019563 1.1864793 0.2909114 0.1838529 -0.5884942 0.41457176 0.46748367 -1.139239 0.3210198 0.34293157 -0.20903061 0.5707439 0.75268734 0.36376268 -0.14554092 0.39896384 0.8029363 -0.08273894 -0.4264097 -0.2521501 0.13156368
12 -0.22839084 -0.80869293 0.2744808 0.35594636 -0.2781528 -0.23945259 0.15142252 -0.2635702 -0.94192076 0.37191045 -0.07023658 -1.6503628 -0.53920984 -0.57138854 0.4901499 0.57485205 0.12564564 0.42127514 0.4516543 0.71006703 0.8297902 1.113001 0.053099018 -0.12510496 0.24044861 0.21802095 -0.7219791 0.038483746 0.21862762 0.022738723 0.18763211 0.31745368 -0.26948133 0.15551294 -0.16734985 -0.006254575 0.5754174 -0.1765672 0.22133033 -0.57270193 -0.40577078 -0.42628863 0.17683275 0.24991025 -0.7539423 -0.94176644 0.23911816 -0.37635875 -0.4262909 0.18184803 0.30020484 -0.9052992 0.77276105 0.89592046 -0.006969587 -0.6583341 -0.2539318 -0.5546647 -0.57572484 1.0434291 -0.16671838 -0.3262583 0.4652908 -0.18733571
120 0.0073039844 -0.8401136 0.56047744 0.2906006 -0.080931485 -0.7191768 0.098229185 -0.39723358 -0.8330464 0.3620466 0.24157967 -1.6206942 -0.60786986 -0.81693673 0.3960916 0.31208622 0.2662172 0.17658736 0.7207244 0.82879055 0.55241627 1.2005225 0.18516615 -0.22829674 0.15452504 0.2147228 -0.7749024 -0.16692358 0.062389348 -0.04326099 -0.16491917 0.3766412 -0.5005897 -0.36462227 -0.01961538 -0.3044496 0.2880393 -0.05285128 0.3651902 -0.33597118 -0.35867772 -0.21315183 -0.037380245 0.07587628 -0.5386433 -1.056656 0.5823474 -0.26983327 -0.37065554 0.39978018 0.1137092 -0.7205577 0.5270433 0.7338047 0.29816383 -0.2966902 -0.52019477 -0.34075767 -0.78050333 1.0492152 0.03205761 -0.28455678 0.52278674 -0.28143445
94 -0.25845283 -0.34647974 -0.590717 0.734969 -0.4327627 0.7371741 0.048842844 -0.64316034 0.19280745 0.8699352 -1.2659069 0.28415382 -0.20490214 -0.6607497 -0.4228988 0.7001525 -0.1493029 0.4166436 -0.5361543 0.78222585 -0.1353173 0.4014647 0.29041404 -0.5278464 -0.109820075 0.3750816 -0.3546359 -0.2522206 0.2702601 0.05320804 0.33110526 -0.5020512 0.084955715 0.9835591 -0.13739775 -0.6724165 -0.05156679 -1.2178046 -0.76590204 -0.06331011 -0.26921773 -0.3475452 0.6382245 0.12505528 0.09610093 0.2154701 -0.024845764 -0.101549916 -0.36770806 -0.26815817 0.60270095 0.3529974 0.55313593 -0.014851175 -0.92757773 0.883047 -0.12053033 0.4055204 0.7002921 0.08933679 -0.74472666 -0.6809742 -0.10802079 0.5084362
112 0.50899184 0.0038715648 0.6062112 -0.05882371 0.46779293 -0.45744887 -0.3429197 0.28644356 -0.6645428 -1.2085949 0.64918935 -0.54465747 -0.99413204 0.240082 0.22609413 0.13935503 0.22191162 -0.16275528 0.27920637 0.89344484 -0.0035626825 0.37453842 0.95758176 -1.1105323 -0.21629326 -0.009159813 -0.54452336 -0.38112667 -0.1670176 -0.030768203 -0.39963183 -0.30997258 -0.4153662 -0.83936316 -0.6570401 -0.98460245 -0.5141049 -0.30496788 0.4304124 0.81089616 0.40778524 -0.18075308 -0.42466518 -0.7950001 1.3128196 -0.086460076 0.32967824 -0.39218745 0.36064985 0.5631222 -0.844905 0.13585597 0.24766685 0.1906076 0.60055035 0.9539005 0.2904763 -0.23451287 0.25506765 0.8896002 -0.050471585 -0.6179323 -0.25499347 0.21542305
108 -0.045508347 -0.84250236 0.55909806 0.26096076 -0.10056288 -0.68717515 0.09191207 -0.40046996 -0.85438836 0.36491776 0.22540599 -1.655471 -0.6257094 -0.7978601 0.39971787 0.30807883 0.24346466 0.20720477 0.7413345 0.8205295 0.57169527 1.2166817 0.14853482 -0.22318065 0.1649689 0.194077 -0.8206489 -0.14268307 0.05728995 -0.052874934 -0.1524207 0.37385666 -0.50169677 -0.3584505 -0.0039802 -0.2721903 0.3182715 -0.046937067 0.3862524 -0.3734764 -0.38403273 -0.25064477 -0.04786959 0.10747551 -0.5697648 -1.0647224 0.56575155 -0.29791307 -0.39917177 0.3661324 0.07097303 -0.76812756 0.5670508 0.7258584 0.28915137 -0.34132698 -0.50430596 -0.38268912 -0.8008797 1.0679842 -0.004767163 -0.27285716 0.53096104 -0.2904315
17 -0.29023564 -0.33761132 -0.55416733 0.68582463 -0.38338944 0.7006112 0.025794555 -0.6064806 0.16326079 0.8782943 -1.2231055 0.342043 -0.24335365 -0.66584677 -0.45365548 0.623235 -0.14200485 0.3980637 -0.46395147 0.82751113 -0.23843999 0.32669508 0.2904981 -0.57351416 -0.09520076 0.30357775 -0.37933308 -0.26192853 0.2080709 0.051841114 0.2983282 -0.50088525 0.04711165 0.87976813 -0.086705856 -0.765491 -0.11441019 -1.2210859 -0.8044242 -0.0090613 -0.24428457 -0.35960504 0.6000649 0.10032153 0.16149169 0.23481329 0.01421544 -0.09328916 -0.32795966 -0.24535592 0.46865442 0.4019232 0.5373564 -0.094335996 -0.8555325 0.94272244 -0.12988931 0.45246485 0.69498646 0.119582586 -0.7437592 -0.64560014 -0.11153627 0.48162302
73 0.4756681 0.0398492 0.577923 -0.07440986 0.42380756 -0.46704948 -0.3363266 0.27312082 -0.61728895 -1.1731942 0.59745365 -0.54847336 -0.93276036 0.26434678 0.25993365 0.09722573 0.20358393 -0.13957506 0.26032743 0.8283458 0.04560267 0.35024646 0.88735396 -1.017111 -0.1985985 -0.02756435 -0.4863225 -0.3343822 -0.15553612 -0.014443371 -0.37805027 -0.27256823 -0.3992557 -0.772432 -0.62495285 -0.91362286 -0.48795658 -0.23716694 0.42949554 0.73210406 0.39075395 -0.13103998 -0.42726406 -0.7271138 1.2234572 -0.105398126 0.32327902 -0.35412356 0.360187 0.51542705 -0.81428343 0.10476128 0.2149426 0.22911328 0.58573323 0.8895265 0.25357208 -0.23175408 0.20569679 0.8317326 -0.05560984 -0.5440095 -0.21053925 0.21554907
3 0.13751504 -0.17059544 0.42008463 -0.23089808 0.59892464 -0.037160017 -0.36431068 0.5302139 -0.6490747 -0.9254998 0.5414544 -0.018727439 -0.6877068 0.045223784 -0.26073542 0.026948905 -0.16636442 -0.14710525 0.2763434 0.57163817 -0.58328754 -0.34795332 0.94657236 -0.9312001 0.094915725 -0.26864487 -0.5180411 -0.21274361 -0.5048916 -0.209907 -0.25165585 -0.38136694 -0.19093305 -0.94329315 -0.39995503 -0.75834775 -0.4269067 -0.67750895 -0.017491875 0.8184958 0.10655319 -0.52523315 -0.4046311 -0.7511751 1.0667845 0.47849774 0.19326645 -0.6098267 0.3899911 0.36453286 -1.3405105 0.4361158 0.36582008 -0.5290791 0.57436925 0.58260024 0.37632826 -0.048444163 0.47836083 0.7218085 -0.114643864 -0.22690852 -0.19043595 0.03352819
20 0.5131669 0.015844164 0.6123609 -0.013077624 0.36133406 -0.6014995 -0.28662774 0.1746402 -0.649369 -1.117568 0.64677197 -0.7612875 -0.93252414 0.24076395 0.4037243 0.10305374 0.30575788 -0.15837744 0.32918188 0.82115954 0.2036278 0.56030655 0.7710276 -0.9139604 -0.20265663 0.025616124 -0.47221124 -0.3440955 -0.08903839 0.0017152616 -0.39612067 -0.16891807 -0.4368698 -0.74902946 -0.61385125 -0.84151775 -0.41059664 -0.093689166 0.54592353 0.6319869 0.37702015 -0.04382782 -0.39662507 -0.6580158 1.0770136 -0.33245066 0.33802804 -0.27303147 0.30414882 0.5592872 -0.63727164 -0.045928977 0.19328067 0.39287576 0.56399405 0.7569638 0.14913301 -0.3102769 0.034984034 0.86676157 0.012305585 -0.5511023 -0.16434507 0.18064009
46 0.18382554 -0.16899195 0.48334032 -0.2421707 0.6266853 -0.101615675 -0.3855833 0.5463623 -0.71003234 -1.0400599 0.6423385 -0.103938825 -0.77823216 0.07966662 -0.2046366 0.032933664 -0.15055816 -0.18678279 0.31505468 0.6311884 -0.5870634 -0.29817808 1.009474 -0.9726914 0.091636464 -0.24989502 -0.5556784 -0.23776612 -0.5158724 -0.20762295 -0.3134163 -0.38191196 -0.22345392 -1.025681 -0.46586326 -0.79954517 -0.46157128 -0.654943 0.037503384 0.87662476 0.1515302 -0.5167696 -0.42411184 -0.8088924 1.153147 0.44911307 0.24510531 -0.6212494 0.43282968 0.40759188 -1.3843446 0.40642533 0.35884926 -0.49166882 0.6322513 0.60422677 0.39363298 -0.08430538 0.4550508 0.7961091 -0.10037298 -0.26227677 -0.18939129 0.03314914
52 -0.060869563 -0.884838 0.55363613 0.30452576 -0.088077575 -0.686313 0.07768377 -0.4058923 -0.8919521 0.36116505 0.21468371 -1.6738918 -0.65808976 -0.8343938 0.4244981 0.33833575 0.2701038 0.23070385 0.7551342 0.88271827 0.569994 1.2499137 0.17951448 -0.27219522 0.1730207 0.21535677 -0.82414025 -0.15516916 0.044139244 -0.062093034 -0.13664815 0.3471838 -0.48162717 -0.3248621 -0.045117944 -0.3160333 0.329243 -0.10698647 0.3621339 -0.3871226 -0.3848958 -0.27407932 -0.030872023 0.098148815 -0.54847354 -1.0906452 0.58389026 -0.30897108 -0.39253572 0.39535707 0.08117328 -0.76090395 0.6136528 0.76949286 0.281572 -0.32430896 -0.525845 -0.38264975 -0.78637344 1.1334387 -0.025997618 -0.29836676 0.5342266 -0.28705502
13 -0.39804196 -0.37279558 -0.53672355 0.60793626 -0.4431471 0.6962729 0.059113678 -0.66929907 0.28754112 1.0985675 -1.3377019 0.54279566 -0.2058886 -0.93617946 -0.59244657 0.4048761 -0.17781611 0.44655067 -0.5026767 0.8326242 -0.51634145 0.32900405 0.1791101 -0.5936301 -0.074821144 0.18513633 -0.51724064 -0.20632775 0.123464376 0.0035898176 0.27478603 -0.47477314 0.009409984 0.79795694 0.09648953 -0.8588078 -0.2334698 -1.3268763 -0.85389876 0.020867443 -0.33711568 -0.4265034 0.5155663 0.21955687 0.09681998 0.35568243 0.22223881 -0.046305053 -0.3865171 -0.3423872 0.34136263 0.50566494 0.4922015 -0.3169947 -0.87863487 1.112148 -0.2432875 0.49359736 0.81272596 0.006033173 -0.75076985 -0.6499465 -0.010120768 0.48161408
70 0.25088385 -0.08649149 0.47813183 -0.1743099 0.5524042 -0.17912856 -0.34302983 0.4412937 -0.6242032 -1.019674 0.5644691 -0.15839158 -0.77659386 0.09455247 -0.106503315 0.06326004 -0.03650833 -0.14965358 0.24815884 0.7116361 -0.40229082 -0.110502616 0.9665105 -0.98498815 -0.0028780666 -0.15285182 -0.51454246 -0.2526487 -0.37065658 -0.14459495 -0.29730988 -0.36875042 -0.25544 -0.87986016 -0.5006598 -0.87414837 -0.46530887 -0.5540414 0.1005003 0.8066856 0.23936951 -0.40889224 -0.3988854 -0.7528965 1.1862538 0.32852018 0.23980694 -0.5217654 0.40991557 0.4174518 -1.1745434 0.3724435 0.32809088 -0.28387165 0.55108815 0.7663338 0.37229007 -0.08521392 0.4347276 0.7380472 -0.11211792 -0.36883706 -0.2185994 0.113089465
65 -0.62466943 -0.38844746 -0.3821594 0.4155596 -0.38273105 0.6730844 0.05998568 -0.54751843 0.21221681 1.1137704 -1.2352309 0.70121646 -0.16418141 -0.99477607 -0.62504 0.113147736 -0.21790984 0.45775548 -0.3114141 0.7655876 -0.7136435 0.14836107 0.0009152702 -0.55716115 0.042385712 -0.043555874 -0.5879928 -0.077940874 -0.066621736 -0.05930337 0.2399857 -0.39223137 0.007863077 0.5473115 0.30208302 -0.8812459 -0.23504555 -1.2469124 -0.8701934 -0.007629841 -0.3244466 -0.47951666 0.36874098 0.27226648 0.09078976 0.43617293 0.38487697 -0.019977843 -0.3448311 -0.43556693 0.034447834 0.5261828 0.4494379 -0.5286823 -0.70822495 1.0105209 -0.2055248 0.49520418 0.7676506 0.025897384 -0.74131876 -0.4186797 0.08842285 0.3925786
2 -0.15247296 -0.7619474 0.29656154 0.33678228 -0.24610813 -0.26128015 0.13629657 -0.2736883 -0.9250751 0.2739454 -0.043540817 -1.6172826 -0.5719387 -0.49346417 0.48710042 0.5713799 0.12973808 0.40640694 0.45006162 0.7117577 0.8567563 1.1034465 0.09659253 -0.12964495 0.21038094 0.23065165 -0.68187994 0.017778235 0.20190878 0.027827574 0.15932202 0.28414804 -0.24538971 0.12730537 -0.18790816 -0.042821623 0.5169047 -0.13942978 0.2349005 -0.49897367 -0.3817396 -0.3801799 0.12546235 0.20802563 -0.65820825 -0.9089747 0.2413812 -0.35198364 -0.4156173 0.22781737 0.27430245 -0.8452391 0.7285105 0.89689404 -0.011988344 -0.59758836 -0.23512526 -0.5478463 -0.5498471 1.0169351 -0.12517293 -0.33763513 0.45005217 -0.162784
81 -1.2304888 -0.40615326 0.14698544 -0.01931837 -0.11273728 0.555944 0.028218007 0.058667578 -0.35004714 0.7601735 -0.6120057 0.7289765 -0.26915282 -0.9200633 -0.4612987 -0.548579 -0.33619192 0.39136612 0.45116347 0.6446087 -1.1366408 -0.40188387 -0.14452758 -0.53308713 0.48075143 -0.70676243 -0.7236851 0.30066726 -0.56195015 -0.29475856 0.18133856 -0.114640936 -0.028953206 -0.37140676 0.5892637 -0.90643114 -0.09968436 -1.0653864 -0.75947887 -0.02527735 -0.32214564 -0.7706398 -0.07657629 0.2668487 0.20554714 0.57744116 0.6072157 -0.11091303 -0.10186873 -0.3828007 -1.1212853 0.4503874 0.50650775 -0.98236054 -0.07968307 0.46423694 0.037356317 0.32302195 0.556315 0.3806813 -0.621666 0.27872702 0.40258437 0.11758422
95 0.16654117 -0.6952531 0.68026537 0.1881173 0.051537573 -0.86802834 0.012237593 -0.33657038 -0.7985442 0.050041594 0.44697315 -1.5790623 -0.6933857 -0.6232059 0.44413313 0.2196324 0.3459103 0.06940005 0.7681001 0.81517875 0.5366955 1.1643584 0.28142574 -0.35705188 0.061083656 0.1957435 -0.7466279 -0.23432724 0.031005913 -0.051567167 -0.29589894 0.3537968 -0.55929565 -0.5355468 -0.09426152 -0.387189 0.131915 0.050834067 0.48508865 -0.17426205 -0.23022859 -0.10872423 -0.15783006 -0.075368926 -0.284494 -1.0692627 0.58913755 -0.27321354 -0.2590198 0.49993002 -0.018165387 -0.6841164 0.4024387 0.7111294 0.43023103 -0.15243806 -0.4892634 -0.35808608 -0.8000538 1.0444247 0.09530824 -0.2990942 0.4231488 -0.27786765
116 0.3145677 -0.13138047 0.5785741 -0.21897395 0.6697477 -0.22205225 -0.42317414 0.5463749 -0.76089156 -1.2208468 0.70914006 -0.21969606 -0.9124065 0.12953006 -0.14510897 0.05800667 -0.06286816 -0.19689476 0.31019768 0.7812834 -0.46023437 -0.16356666 1.108416 -1.1395727 -0.012972751 -0.2105789 -0.6060911 -0.31646088 -0.47716126 -0.18213668 -0.35096028 -0.4042387 -0.2846225 -1.0897164 -0.5725372 -0.94986904 -0.50926703 -0.6223838 0.1518713 0.9556122 0.26136065 -0.48835638 -0.48522055 -0.883922 1.3476937 0.36797905 0.26511675 -0.63421434 0.48134485 0.49432448 -1.4036618 0.4086094 0.35217485 -0.34049302 0.6959293 0.8009176 0.42053044 -0.1240847 0.45535132 0.88262165 -0.08053031 -0.38069722 -0.26578525 0.12020146
49 0.56669754 -0.009174375 0.6603947 -0.020452388 0.37074336 -0.6999145 -0.26897886 0.12973548 -0.63069534 -1.1071873 0.6730098 -0.8613536 -0.9401037 0.2067258 0.47135717 0.10207994 0.38082984 -0.18118793 0.3781729 0.85132664 0.28534243 0.6581844 0.72279257 -0.9050321 -0.24359058 0.05659359 -0.48508418 -0.39178243 -0.056285184 0.03133127 -0.44462082 -0.12604322 -0.4793157 -0.7453319 -0.600604 -0.8345616 -0.43229586 -0.015219346 0.6171253 0.5794519 0.38244465 0.015888749 -0.43564507 -0.6238183 1.0355239 -0.47677964 0.40062287 -0.23723833 0.25190052 0.5636134 -0.5739265 -0.12934469 0.16887498 0.4940402 0.6108396 0.7325415 0.10155002 -0.31324816 -0.06830162 0.85982 0.030451765 -0.55993706 -0.1275845 0.15022793
61 -1.1122998 -0.37680086 -0.10105434 0.12327132 -0.30005082 0.6360186 0.07448821 -0.16704503 -0.09892413 0.97634256 -0.9188787 0.81916034 -0.16180672 -0.9740607 -0.5395954 -0.38551858 -0.33321983 0.45310602 0.17392038 0.6502428 -1.020326 -0.2648281 -0.21846189 -0.4688949 0.36066732 -0.504371 -0.6613224 0.23077397 -0.3941411 -0.19080225 0.2571332 -0.18773508 0.025353463 0.03546434 0.59337807 -0.8615616 -0.09575862 -1.1162292 -0.8541189 -0.111746386 -0.3302187 -0.6673438 0.08222886 0.37342542 0.112717226 0.5790677 0.52013636 0.00077940273 -0.20321697 -0.48447907 -0.6772559 0.50675416 0.43642095 -0.84366584 -0.34535334 0.6142774 -0.032952975 0.37440932 0.6598432 0.18984957 -0.7008204 0.08213772 0.34988704 0.23323971
98 -0.3089788 -0.31851918 -0.6389038 0.778605 -0.40827554 0.780252 0.042121917 -0.63411266 0.18933417 0.90129256 -1.2767321 0.37705302 -0.18651913 -0.62469745 -0.4524643 0.701243 -0.15217215 0.394681 -0.4878331 0.823327 -0.19612792 0.2940301 0.29949084 -0.562778 -0.13120876 0.35826415 -0.32941377 -0.25822252 0.23058502 0.05347996 0.32599452 -0.5253369 0.09650708 0.99707955 -0.10026297 -0.7391273 -0.084700674 -1.2621979 -0.8553332 -0.054234643 -0.24511325 -0.31989318 0.66930866 0.11245437 0.17559738 0.24810347 -0.07410074 -0.049119126 -0.3318451 -0.24340469 0.5714841 0.4059441 0.5561946 -0.09612283 -0.94438666 0.9191066 -0.115540646 0.49621063 0.72690296 0.09262254 -0.78402096 -0.6258996 -0.12051358 0.5220392
47 -0.016281078 -0.18355334 0.45362812 -0.2592797 0.5771108 -0.018059121 -0.33927867 0.51414615 -0.6598652 -0.81451195 0.5405829 0.015847575 -0.61771184 -0.05154319 -0.25169277 -0.09842902 -0.20271955 -0.14397432 0.36387113 0.51986444 -0.6892612 -0.41147783 0.82613987 -0.8289767 0.1855578 -0.36193007 -0.50616515 -0.15782459 -0.5451076 -0.2470145 -0.25592577 -0.31362045 -0.16862613 -0.9911428 -0.278455 -0.704183 -0.38640475 -0.6733786 -0.057174075 0.7386504 0.07334751 -0.5475521 -0.4157661 -0.6474372 0.9665588 0.4847876 0.24871315 -0.55161464 0.3711834 0.2904291 -1.4124433 0.42067042 0.3765188 -0.64300525 0.5810526 0.4507022 0.32951114 -0.040415894 0.41121104 0.69504684 -0.11424587 -0.089718744 -0.109826855 -0.019710504
114 -0.23896398 -0.36008412 -0.62227345 0.8228369 -0.42773557 0.7835067 0.04630925 -0.6784676 0.15413503 0.88041747 -1.2892677 0.24831004 -0.24335499 -0.63586813 -0.42031127 0.8039476 -0.12348116 0.41243643 -0.5171033 0.8491489 -0.0613028 0.40487614 0.35844645 -0.55537003 -0.14439625 0.42364806 -0.35808635 -0.31504953 0.29232064 0.06588433 0.36151296 -0.5117699 0.08380738 1.0463517 -0.1793358 -0.73234755 -0.020839348 -1.2641108 -0.80316156 -0.09529223 -0.24360274 -0.3235444 0.7172572 0.08873599 0.12346176 0.15913573 -0.09525315 -0.07938983 -0.36767656 -0.21794651 0.67576706 0.31317353 0.6074793 0.036085445 -0.97319454 0.8894924 -0.13783383 0.46649817 0.68313515 0.14191322 -0.7741172 -0.7014729 -0.14773187 0.5295251
26 -0.22578067 -0.36224285 -0.5779467 0.74909854 -0.38788745 0.6856323 0.039644547 -0.67022276 0.2111459 0.8874613 -1.2438538 0.31430817 -0.24555145 -0.7080642 -0.45390078 0.7032857 -0.10595207 0.38896486 -0.5167115 0.8561454 -0.203307 0.4091628 0.34352428 -0.5855703 -0.13460979 0.38012016 -0.38905665 -0.31077915 0.25493592 0.04840705 0.2853233 -0.5176559 0.050891887 0.9468004 -0.12726781 -0.7722017 -0.12465273 -1.2409682 -0.77510136 -0.0077144043 -0.25811237 -0.32802534 0.6493599 0.09577068 0.17821728 0.19495268 -0.0015776296 -0.09603065 -0.35734373 -0.21976063 0.5603298 0.37438262 0.5579811 -0.036959354 -0.88099766 0.9888549 -0.17872791 0.45700616 0.70401806 0.09503141 -0.75446707 -0.698808 -0.1391262 0.4852226
97 0.18726605 -0.14293435 0.4884461 -0.2168912 0.6215806 -0.10139723 -0.404762 0.53393257 -0.67048377 -1.0571553 0.60439634 -0.045712095 -0.8186915 0.064319715 -0.19973563 0.012587986 -0.1284494 -0.17787573 0.2997343 0.6809192 -0.5963716 -0.26359406 1.0270948 -1.0592334 0.059981707 -0.26167604 -0.5619505 -0.2428963 -0.50145775 -0.18998128 -0.30939776 -0.42642245 -0.22342704 -1.0161284 -0.46061012 -0.910669 -0.50886446 -0.69511294 0.03696733 0.8941872 0.20220861 -0.52533245 -0.45483246 -0.8166828 1.2582097 0.4307143 0.27638322 -0.5989302 0.4320629 0.42105648 -1.3947508 0.43510193 0.36388892 -0.47721058 0.62237614 0.7427766 0.40316337 -0.06234796 0.49723577 0.79495025 -0.13808133 -0.29992646 -0.2154037 0.10449457
68 0.02817228 -0.82414657 0.5997213 0.2907252 -0.061372574 -0.75788224 0.093433045 -0.43128777 -0.7699851 0.3380532 0.2637406 -1.6080137 -0.6262134 -0.81906 0.37048316 0.260736 0.29611182 0.13975687 0.740604 0.8497352 0.53546023 1.2095878 0.17448144 -0.25130263 0.11376559 0.24133147 -0.7962082 -0.18743317 0.049364917 -0.058964495 -0.20650394 0.37800595 -0.5034648 -0.4010915 0.020854264 -0.3441548 0.25050852 -0.035877038 0.37903184 -0.3144079 -0.36398765 -0.17225379 -0.052981246 0.08112162 -0.5240835 -1.1018339 0.601054 -0.24473138 -0.3896516 0.4243141 0.09092165 -0.7126332 0.48824918 0.69166994 0.33052492 -0.23678948 -0.57761383 -0.32339793 -0.82105106 1.0321252 0.051146857 -0.28534073 0.5161472 -0.30582944
74 -0.35169467 -0.7429171 0.16510126 0.3256552 -0.38868502 -0.014493384 0.14578323 -0.15378173 -1.0141116 0.33223397 -0.2008476 -1.5775442 -0.54055566 -0.39936975 0.51155 0.6768894 0.064744815 0.55765325 0.31865922 0.65245664 0.92994493 1.0179658 0.009754933 -0.060232885 0.3034595 0.16244926 -0.68610686 0.14334425 0.23463175 0.027510602 0.37108868 0.2476373 -0.13603543 0.37569422 -0.2340071 0.12187685 0.69149786 -0.25598928 0.1468609 -0.6213617 -0.4073784 -0.5338064 0.24021265 0.30531356 -0.7958003 -0.8072546 0.10708838 -0.40900365 -0.44537303 0.07209348 0.3271905 -0.92007244 0.87980294 0.92256415 -0.14049369 -0.7947667 -0.07636437 -0.64759517 -0.39507958 1.0334848 -0.23420486 -0.311664 0.42810616 -0.11886266
119 0.24490054 -0.553797 0.6431467 0.1416483 0.10672036 -0.8617693 -0.009744175 -0.25733295 -0.7098959 -0.12764618 0.48486862 -1.38634 -0.68381464 -0.4955656 0.41830426 0.13914551 0.3491875 -0.011724287 0.7048063 0.74017954 0.45333695 1.0391923 0.29597276 -0.39371252 0.0019914608 0.15365823 -0.64965653 -0.237305 0.006988625 -0.02602129 -0.34463087 0.29080045 -0.53300196 -0.6174774 -0.11696989 -0.4521428 0.020026235 0.103837736 0.5090652 -0.04716065 -0.101268664 -0.043534834 -0.24156074 -0.13286245 -0.07611716 -0.9564384 0.57705677 -0.21122411 -0.14802554 0.48448187 -0.10370577 -0.5724193 0.30660108 0.63118786 0.48629025 -0.003896685 -0.40718806 -0.32210615 -0.70699686 0.91859925 0.120764546 -0.29526675 0.35173285 -0.21269208
62 -1.2103066 -0.384911 0.17214917 -0.03607646 -0.13575816 0.5166393 0.053174492 0.050482247 -0.38016504 0.766993 -0.59208137 0.6483814 -0.23921938 -0.8802309 -0.38732246 -0.5412426 -0.31642184 0.40136603 0.4891911 0.6283059 -1.047068 -0.3646348 -0.21644823 -0.44643164 0.47239825 -0.6867847 -0.70191133 0.33400518 -0.5124195 -0.28499654 0.21056077 -0.06247204 -0.021306282 -0.3277037 0.60913014 -0.82633454 -0.034795847 -0.98507893 -0.7218719 -0.06980018 -0.32212493 -0.7491658 -0.08102455 0.31209785 0.15852298 0.49401885 0.58852535 -0.07439345 -0.12799037 -0.3789982 -1.0565751 0.38545254 0.48543322 -0.9160241 -0.06834626 0.3681048 0.026557911 0.28212127 0.48527285 0.37071005 -0.61073583 0.3196462 0.43487516 0.09312388
77 -0.9620182 -0.351524 -0.22751677 0.21851535 -0.37871578 0.66452736 0.09181607 -0.31349844 0.047296353 1.0821034 -1.0765518 0.80722845 -0.12919119 -0.9957567 -0.5495085 -0.21762028 -0.29668483 0.49199793 -0.047113236 0.66681767 -0.90664333 -0.10630794 -0.19312988 -0.46994328 0.2430805 -0.33470035 -0.61270654 0.15624408 -0.22513783 -0.12090666 0.30256423 -0.22307162 0.012340329 0.25480512 0.53238475 -0.84885234 -0.12693736 -1.126344 -0.8770798 -0.12924463 -0.3352612 -0.5776168 0.20663367 0.37129813 0.050479297 0.5429678 0.45342284 -0.0020117043 -0.27219552 -0.50287956 -0.34925106 0.50257605 0.4412163 -0.69697815 -0.52905816 0.76699007 -0.07258625 0.41535115 0.68532664 0.1066082 -0.73705196 -0.09699342 0.25404835 0.3285094
48 -0.48819375 -0.38143927 -0.4212356 0.46304846 -0.38188067 0.6323073 0.029353186 -0.5947277 0.27281824 1.0684184 -1.2503321 0.6304469 -0.20860162 -0.9816612 -0.6253875 0.16574033 -0.17670639 0.45269448 -0.41127887 0.79798806 -0.67600626 0.2563511 0.11643437 -0.59901065 -0.016267324 0.06889265 -0.57107323 -0.16458042 -0.0015128542 -0.032452807 0.21290971 -0.4329727 -0.023723824 0.5996416 0.2057502 -0.9113677 -0.29371136 -1.2660466 -0.84632593 0.06352853 -0.32480448 -0.43088925 0.37887332 0.21877308 0.13782935 0.4091584 0.3635252 -0.04011215 -0.3319708 -0.39646757 0.13495876 0.572948 0.455853 -0.4304003 -0.74762243 1.1549863 -0.23311481 0.49876246 0.80901307 0.017628454 -0.7036829 -0.57497853 0.046088807 0.44154763
33 -0.42258474 -0.35949773 -0.549777 0.6405644 -0.42288083 0.7576178 0.03723965 -0.6270296 0.20949914 1.0075272 -1.2980171 0.50672776 -0.23041146 -0.8439423 -0.57618785 0.46678677 -0.18837215 0.4409697 -0.47401944 0.85394126 -0.45307004 0.2620619 0.23399954 -0.61054856 -0.055213097 0.21230541 -0.46829107 -0.20441407 0.11896579 0.00470756 0.32024625 -0.49997535 0.042299457 0.8157528 0.03747094 -0.8655427 -0.16742466 -1.3565702 -0.8889309 0.0070563746 -0.29639336 -0.43621856 0.5280641 0.17718223 0.16987391 0.3697016 0.15733738 -0.07785082 -0.34552822 -0.32335648 0.334903 0.49186915 0.553979 -0.3022406 -0.8639573 1.0368919 -0.16246022 0.48697278 0.8330219 0.077747 -0.78885436 -0.6194094 -0.05528413 0.48621655
80 0.24813443 -0.5410329 0.6629709 0.14214405 0.14144146 -0.8445387 -0.033870902 -0.25723565 -0.70674694 -0.13702397 0.51967067 -1.3639708 -0.67864585 -0.46783936 0.4038026 0.119980685 0.32906017 -0.020809256 0.696591 0.76938117 0.42392534 0.9924631 0.31386098 -0.40486547 -0.016472178 0.13200791 -0.6554309 -0.26615542 -0.019816842 -0.035744436 -0.36040398 0.28250766 -0.52051246 -0.64297056 -0.12096111 -0.48178047 -0.008903203 0.09221276 0.5127132 -0.017460836 -0.09912805 -0.024448998 -0.25252393 -0.18142605 -0.037366897 -0.91832584 0.57590675 -0.22436115 -0.13322085 0.49863568 -0.13514954 -0.5164167 0.28340855 0.6071795 0.48310977 0.03549251 -0.41588795 -0.2965427 -0.68849266 0.94146407 0.12658724 -0.31156653 0.32983235 -0.1937666
22 -0.81122243 -0.36076587 -0.34044215 0.32626274 -0.38038102 0.6885318 0.036419522 -0.45178124 0.17797813 1.1328516 -1.1993513 0.82621264 -0.18142608 -1.075784 -0.6535365 -0.084353946 -0.27094823 0.48926103 -0.21430331 0.74321926 -0.8992203 0.018226309 -0.08411282 -0.56301975 0.117279835 -0.22120304 -0.64678895 0.04099533 -0.18161416 -0.08557245 0.2574662 -0.37511656 0.017530316 0.3962799 0.41147462 -0.93582517 -0.26621073 -1.2584678 -0.92268735 -0.016643852 -0.35683686 -0.5491286 0.27157763 0.34244725 0.13487136 0.5492057 0.48935702 -0.015721804 -0.3004303 -0.50029 -0.1857993 0.58786684 0.46023086 -0.68258613 -0.63130385 1.0286007 -0.13714713 0.4912986 0.836305 0.04331357 -0.7522096 -0.30105013 0.17672051 0.37794003
103 -1.0980067 -0.38872343 -0.08334884 0.1258647 -0.28238502 0.65085787 0.05897766 -0.19727707 -0.08911693 0.9805613 -0.92915916 0.82360446 -0.18281366 -1.0103735 -0.5685074 -0.34461904 -0.32949612 0.4821029 0.14100137 0.70590425 -1.0469928 -0.23678027 -0.16028225 -0.53094786 0.3256936 -0.5146578 -0.68561107 0.21839814 -0.39645514 -0.180033 0.26061973 -0.22220795 0.0015507938 0.0236925 0.5577811 -0.91968155 -0.12848997 -1.1597111 -0.86052126 -0.059208408 -0.32952353 -0.6999099 0.10850182 0.33035 0.14741805 0.579328 0.5494316 -0.050717156 -0.20151895 -0.4669368 -0.68942106 0.5170094 0.4632827 -0.8552226 -0.3805462 0.7075434 -0.041077886 0.39477667 0.68114907 0.2205465 -0.7200433 0.05401175 0.3109575 0.23362054
111 -0.1303133 -0.35228896 -0.70669895 0.9279067 -0.43349752 0.79029185 0.047400955 -0.70796025 0.089313 0.7594205 -1.2495631 0.029979972 -0.26418254 -0.4746757 -0.32627317 1.070508 -0.08680988 0.42042384 -0.54366773 0.8933883 0.18182366 0.5061081 0.44856957 -0.58537287 -0.18439138 0.56493735 -0.2859344 -0.3836486 0.42150307 0.14445648 0.38527095 -0.5275025 0.10371406 1.2184895 -0.3462933 -0.6647891 0.04917558 -1.2407982 -0.7556046 -0.11906324 -0.22258951 -0.28489685 0.83771014 0.005910713 0.13972531 0.04160165 -0.29280496 -0.10930254 -0.34961224 -0.1233676 0.88640666 0.20025927 0.646137 0.24543539 -1.0322193 0.7783296 -0.088232145 0.40995425 0.61748064 0.22134505 -0.7849693 -0.7783599 -0.22092271 0.549987
6 -1.0694215 -0.39479578 -0.10976353 0.16202751 -0.31523716 0.62372184 0.06765641 -0.24861032 -0.073578015 1.0647253 -0.99990195 0.7566175 -0.19845976 -1.0606178 -0.5530564 -0.31940612 -0.29525226 0.5020621 0.10724387 0.7270015 -1.0001216 -0.13643724 -0.18739636 -0.5170941 0.30138206 -0.45505 -0.7044834 0.19172214 -0.3522469 -0.1653499 0.2569316 -0.2112401 -0.02195298 0.07702592 0.55839884 -0.9341399 -0.13804786 -1.1700987 -0.86633545 -0.10745714 -0.33142105 -0.66478115 0.114773676 0.3799664 0.074329875 0.5300796 0.56299907 -0.037442178 -0.26313174 -0.4872448 -0.5561721 0.5192674 0.4822276 -0.7892707 -0.40407485 0.7236659 -0.06600952 0.4161079 0.67367184 0.21670009 -0.7331796 -0.015581156 0.34707457 0.25766075
79 -0.4177659 -0.37962657 -0.5448394 0.6123797 -0.43475077 0.73710775 0.036939114 -0.63383365 0.23304833 1.0499009 -1.3294116 0.48753706 -0.2275281 -0.8896555 -0.57172465 0.44377875 -0.17199539 0.45963064 -0.48139632 0.8270649 -0.44657797 0.31855103 0.21180995 -0.5835993 -0.07380886 0.20640391 -0.50865185 -0.22214757 0.11069608 0.012271093 0.28175563 -0.50090903 0.03148641 0.822547 0.035829607 -0.8409164 -0.18530795 -1.3042847 -0.86360884 0.019221686 -0.28928244 -0.42057922 0.5275183 0.17886712 0.11697464 0.34443608 0.1931499 -0.0695108 -0.38618943 -0.33680645 0.3557359 0.5021422 0.5353661 -0.2825351 -0.86279386 1.0900759 -0.19851719 0.46738204 0.82048684 0.060894888 -0.74707144 -0.6628984 -0.04022299 0.49800906
64 -0.40598223 -0.35807613 -0.5129864 0.5653431 -0.40136117 0.71105206 0.028250678 -0.61688817 0.25749844 1.0002229 -1.2567385 0.538983 -0.19710554 -0.8714338 -0.5742745 0.3725636 -0.16190127 0.4270294 -0.44924387 0.78060526 -0.49582523 0.2635689 0.1816746 -0.5916081 -0.06530886 0.17612235 -0.4907253 -0.21645565 0.093216725 -0.008383855 0.2727125 -0.48292598 0.014797966 0.7283305 0.07640157 -0.83030564 -0.22651583 -1.280924 -0.85454947 0.03733163 -0.29952925 -0.40042594 0.4811327 0.16464962 0.14697196 0.3623851 0.20755231 -0.068514064 -0.3610412 -0.34545794 0.30124015 0.50529194 0.4950858 -0.3189308 -0.807215 1.0644071 -0.19175984 0.49218675 0.7764371 0.027245976 -0.71928465 -0.59630966 -0.05560985 0.46398926
16 0.55228984 0.017005691 0.6314796 -0.0068323 0.3507991 -0.65388095 -0.3086974 0.12102101 -0.6563957 -1.1272765 0.6553051 -0.8214028 -0.97157985 0.24646609 0.4373964 0.11628464 0.34980017 -0.15065774 0.3373963 0.8730772 0.2785373 0.6423202 0.772604 -0.96048313 -0.22927321 0.044376805 -0.5116726 -0.36979818 -0.07156898 0.030458648 -0.39897966 -0.1675988 -0.454836 -0.7351056 -0.6431705 -0.8745095 -0.43687364 -0.09429149 0.58563 0.6122342 0.41867808 -0.021966314 -0.4274205 -0.6801815 1.1157956 -0.4121064 0.3889083 -0.26728973 0.30070668 0.5732858 -0.5736722 -0.063468315 0.16772892 0.44918013 0.5683905 0.8049365 0.1508297 -0.3107505 0.006067453 0.89721864 -0.015258949 -0.60185647 -0.14146307 0.1744275
63 -0.02216737 -0.8539185 0.5818341 0.26482666 -0.05629491 -0.71240085 0.09605585 -0.41034675 -0.81762344 0.3551736 0.24226189 -1.5932329 -0.64199096 -0.82654816 0.37993512 0.2737398 0.26298696 0.18414612 0.7572003 0.84177655 0.51091754 1.1736679 0.1603678 -0.2563073 0.14079052 0.21266997 -0.80828774 -0.15308815 0.040222973 -0.044456545 -0.1847367 0.36949852 -0.47996834 -0.37780058 0.0056252754 -0.33175924 0.2712926 -0.09006647 0.35080248 -0.32919982 -0.35858843 -0.21162333 -0.06585782 0.082313396 -0.5222238 -1.0507991 0.57710594 -0.28253794 -0.3766431 0.37982932 0.06470811 -0.7321487 0.54175925 0.67784894 0.29028463 -0.2810598 -0.5418728 -0.32465467 -0.7872198 1.0584321 -0.0069638505 -0.277437 0.5118402 -0.2946683
19 -1.2590228 -0.38540342 0.116838485 -0.027772952 -0.1293893 0.5755398 0.035243146 0.03165409 -0.32423425 0.78997135 -0.65321314 0.77100223 -0.2217337 -0.94089514 -0.49307618 -0.5861461 -0.34855655 0.38314497 0.44150937 0.6366769 -1.1567186 -0.4423941 -0.17042364 -0.51668066 0.47381994 -0.70773685 -0.70781416 0.324271 -0.561902 -0.29884282 0.21143165 -0.14018412 -0.024316829 -0.3544509 0.62744635 -0.8989814 -0.10362417 -1.0834152 -0.78889495 -0.030171534 -0.30533212 -0.7813147 -0.07848065 0.30195862 0.22495358 0.58861446 0.6010253 -0.081199676 -0.103703566 -0.4162105 -1.1254828 0.49235183 0.48495656 -1.0143068 -0.119771145 0.45969015 0.028527685 0.3377426 0.5779418 0.33410174 -0.6458611 0.32290345 0.41229215 0.10467837
113 -0.32388034 -0.729203 0.20702416 0.32797852 -0.317342 -0.048470598 0.13984342 -0.15458879 -0.9847837 0.2871101 -0.1624806 -1.497949 -0.5608258 -0.41472173 0.47485647 0.61681026 0.07120309 0.49221793 0.3766037 0.6666058 0.85863936 0.9915434 0.05029796 -0.14199235 0.3059688 0.14034449 -0.7082566 0.103481606 0.1927815 0.036589008 0.328705 0.23728447 -0.13754618 0.29857865 -0.19956169 0.027640687 0.62723416 -0.268434 0.14214192 -0.5402568 -0.40043813 -0.50469184 0.20061658 0.27204934 -0.7005606 -0.7827856 0.1359845 -0.38352066 -0.41856942 0.10601231 0.23939629 -0.8380626 0.82024914 0.859076 -0.1029216 -0.69004315 -0.10352963 -0.6081408 -0.38644835 1.04388 -0.23879756 -0.3275047 0.41786116 -0.094272085
100 -0.8076481 -0.37714854 -0.296007 0.31258813 -0.38989636 0.6879613 0.04544716 -0.42931715 0.16227837 1.1105165 -1.175328 0.7956465 -0.1657591 -1.0453093 -0.6296589 -0.08877864 -0.27840075 0.4812249 -0.18761095 0.73095214 -0.89161384 -0.007297508 -0.07039393 -0.54621816 0.14759733 -0.22173333 -0.63156265 0.02870169 -0.16836561 -0.115559675 0.26468194 -0.35330257 0.012008712 0.35994467 0.4056495 -0.9031944 -0.2393064 -1.2284658 -0.8888069 -0.024635818 -0.34524673 -0.56856894 0.26822096 0.32826817 0.11502526 0.5357725 0.47470877 -0.018581431 -0.3153773 -0.47149408 -0.23004964 0.5787017 0.46187052 -0.6728412 -0.58978844 0.9655981 -0.13693091 0.48323265 0.79044944 0.056198064 -0.7422956 -0.28313035 0.1809351 0.35829094
110 -0.37804815 -0.7902398 0.15355259 0.3287597 -0.3932052 0.02259091 0.15193358 -0.12880626 -1.0616235 0.30141228 -0.20674299 -1.5837922 -0.5191636 -0.36595377 0.53462476 0.6850656 0.015497689 0.590032 0.3144829 0.6278805 0.96454334 1.0082977 -0.0041705314 -0.07491153 0.36018467 0.14030366 -0.7128728 0.18381998 0.23982303 0.03604102 0.4032417 0.27376637 -0.09049384 0.39276016 -0.21794322 0.13387173 0.73231953 -0.27435943 0.14933941 -0.61868143 -0.416529 -0.5813965 0.2323166 0.3251199 -0.80916655 -0.7987073 0.07227558 -0.41467944 -0.44244477 0.065624624 0.2790657 -0.9531843 0.911262 0.93509626 -0.1466931 -0.83402514 -0.051853795 -0.6834138 -0.4051834 1.0894648 -0.27322993 -0.28769124 0.4615402 -0.112425394
11 0.023601077 -0.8251323 0.5987065 0.29474074 -0.04870054 -0.8037943 0.09135432 -0.47427157 -0.776459 0.36734703 0.27127677 -1.5998847 -0.62476164 -0.8511139 0.3656359 0.23786765 0.30316943 0.13056178 0.7758435 0.87034553 0.5021406 1.2345934 0.17349166 -0.26301 0.09784219 0.24673836 -0.78968066 -0.2006551 0.04298193 -0.061349314 -0.22540006 0.37916628 -0.5316738 -0.42937514 0.031385317 -0.35656098 0.21879132 -0.031962983 0.36533898 -0.32318923 -0.35883263 -0.14261447 -0.061144322 0.07730796 -0.5169538 -1.1091377 0.6470104 -0.24961698 -0.3920897 0.40609565 0.09456786 -0.7261806 0.48009846 0.70163095 0.31318358 -0.24012296 -0.6151906 -0.28742248 -0.861847 1.0269569 0.05194665 -0.26951692 0.5063405 -0.29400477
58 0.5235754 0.016495949 0.67298466 0.028620543 0.31771544 -0.7519392 -0.2566437 0.054282937 -0.65556693 -1.0951467 0.65965706 -0.96563095 -0.99172056 0.18623465 0.54354715 0.09130153 0.420915 -0.16168475 0.416914 0.89359915 0.35220575 0.7768568 0.70814204 -0.90344644 -0.25026226 0.04835312 -0.5019064 -0.39109787 -0.022967413 0.031021263 -0.42992142 -0.104922004 -0.52616334 -0.7128053 -0.60516727 -0.85222876 -0.40000114 0.041485578 0.6550719 0.5350981 0.4063867 0.06029743 -0.41071793 -0.5996018 1.0190552 -0.5759543 0.46286747 -0.20145112 0.22840253 0.58729655 -0.49045888 -0.19639035 0.14516692 0.5940407 0.5795411 0.7502929 0.06473642 -0.35401413 -0.14558323 0.90415734 0.023680594 -0.58356756 -0.074475415 0.15863541
115 -1.0290865 -0.38234773 -0.13709415 0.15787098 -0.32604536 0.61079806 0.0816452 -0.26647562 -0.055833217 1.0293039 -0.9955464 0.7650539 -0.19384256 -1.0133853 -0.5455463 -0.29489794 -0.27867782 0.50381404 0.09736482 0.7138774 -0.9720848 -0.12400541 -0.19060317 -0.500045 0.28330895 -0.42367008 -0.6720892 0.1776301 -0.32323322 -0.15636253 0.26365337 -0.22093786 0.0011035962 0.11181367 0.5553222 -0.9122053 -0.1496823 -1.1159616 -0.85668755 -0.11054012 -0.31186056 -0.6506556 0.12518732 0.3665552 0.10253512 0.52136487 0.54288584 -0.012887889 -0.23114961 -0.47733325 -0.5252058 0.48096433 0.4632286 -0.7699761 -0.4099161 0.7232117 -0.07369515 0.39203435 0.6624715 0.19699886 -0.7078405 -0.029403232 0.3059757 0.28525722
36 -0.4258451 -0.3710671 -0.51506877 0.5516378 -0.39584425 0.6774087 0.031926848 -0.64987016 0.30038851 1.0876098 -1.3236794 0.61933255 -0.22294278 -0.9833352 -0.639825 0.30992886 -0.19339474 0.42985174 -0.47843018 0.8072199 -0.6203196 0.28323045 0.16717988 -0.62782633 -0.06089623 0.14488767 -0.5376238 -0.23101252 0.05730333 -0.011703096 0.23747428 -0.522544 -0.0036137372 0.70077425 0.108309515 -0.90752983 -0.30055133 -1.3397455 -0.87354195 0.063579924 -0.31324574 -0.43166193 0.45442435 0.20252101 0.16339304 0.41304874 0.28958806 -0.056275845 -0.37039176 -0.3729833 0.27163374 0.6110867 0.47569478 -0.42420676 -0.8319181 1.2227697 -0.245419 0.55115145 0.86613303 0.007525765 -0.75228596 -0.61929595 -0.01794809 0.46502733
51 -1.0647937 -0.36997423 -0.015229694 0.100170575 -0.238958 0.55505115 0.042648256 -0.1632743 -0.15278043 0.92199004 -0.8313112 0.72434956 -0.1775147 -0.94757736 -0.4835117 -0.37982517 -0.3002263 0.4429819 0.21348873 0.6368481 -0.9813545 -0.23195545 -0.17508294 -0.48394898 0.33208537 -0.5148508 -0.67990565 0.23391268 -0.40603116 -0.22089928 0.23004138 -0.1523626 -0.0069267326 -0.055487253 0.5596356 -0.8660283 -0.11257154 -1.0441711 -0.7931626 -0.07931123 -0.3152222 -0.6445219 0.044685733 0.32375428 0.106369086 0.5162297 0.5546045 -0.02661426 -0.21028134 -0.41426265 -0.7075726 0.45708132 0.43205503 -0.8288922 -0.27102757 0.6012646 -0.0632717 0.36551568 0.5804194 0.21536203 -0.6439548 0.09616794 0.3470559 0.20571865
106 -0.4315057 -0.36193717 -0.45025945 0.5074875 -0.37982503 0.66611403 0.02163283 -0.5877668 0.25346962 1.0286568 -1.2262596 0.60217 -0.20391303 -0.92754096 -0.6013859 0.25927043 -0.16697481 0.4070518 -0.42733097 0.78448576 -0.6005837 0.24033788 0.14688091 -0.5867769 -0.03826169 0.100359924 -0.506048 -0.18047601 0.019253336 -0.0050275493 0.22843659 -0.4452408 -0.0078486195 0.6596503 0.13287278 -0.8636902 -0.251462 -1.247971 -0.82899696 0.046969295 -0.31136507 -0.4236579 0.41581464 0.21495701 0.15048562 0.3929933 0.27938655 -0.040906407 -0.35286814 -0.35422298 0.2078282 0.5268269 0.45290777 -0.41255078 -0.7726629 1.0922309 -0.19576433 0.48217878 0.8013282 0.008360214 -0.7060382 -0.5570909 -0.01709266 0.4162431
90 -1.1279088 -0.40024015 0.41737545 -0.18635233 0.19680345 0.398622 -0.07349907 0.39725617 -0.7050462 0.24118856 -0.089260206 0.48629162 -0.37048447 -0.69054717 -0.3342287 -0.6508646 -0.3694061 0.20591936 0.7609023 0.530113 -1.1898094 -0.60339355 0.07838608 -0.55610615 0.59623986 -0.8663618 -0.694798 0.28309473 -0.76193744 -0.45310992 0.056663036 -0.09514941 -0.044340827 -0.8653782 0.47593838 -0.78707105 -0.085773975 -0.95205677 -0.5779208 0.18406406 -0.27325475 -0.8574481 -0.30565476 -0.0023287951 0.38404146 0.55527484 0.5557633 -0.26936245 0.08671535 -0.16300966 -1.6405007 0.41001046 0.5448317 -1.1264423 0.29099572 0.097888805 0.15863167 0.15534647 0.434951 0.5937243 -0.4610799 0.54138666 0.3950544 -0.13313946
54 -1.1557039 -0.39519143 -0.10399103 0.13743842 -0.31541795 0.66589624 0.05991956 -0.21255824 -0.051555626 1.0344843 -0.9930833 0.87358004 -0.1639145 -1.0380256 -0.5660534 -0.3796154 -0.34412044 0.50106245 0.15621194 0.6761147 -1.0758792 -0.23469296 -0.24114984 -0.4879155 0.34618002 -0.52827096 -0.6920015 0.24335502 -0.36781362 -0.2020366 0.26206186 -0.18472165 0.015414969 0.02745234 0.6340302 -0.90418184 -0.120071284 -1.1431521 -0.8725205 -0.08800906 -0.32403964 -0.6892037 0.10687704 0.38510206 0.10135512 0.61517036 0.55674225 -0.020439029 -0.20472936 -0.50808686 -0.65565926 0.5434394 0.43995228 -0.87634754 -0.38476452 0.69343305 -0.042415727 0.41725466 0.6700395 0.15625505 -0.7027743 0.050785087 0.36504304 0.24739915
30 -0.13812873 -0.3566886 -0.65652657 0.9543458 -0.42537025 0.76107025 0.052464213 -0.70028985 0.02690946 0.7205567 -1.2387781 -0.03810819 -0.3200434 -0.45187026 -0.28241187 1.0652328 -0.08446016 0.44753903 -0.52715236 0.90647894 0.25811878 0.55067426 0.4469439 -0.56429434 -0.16056561 0.5871781 -0.31169158 -0.37022325 0.41869223 0.13886516 0.40489155 -0.5201142 0.10454663 1.2346487 -0.34372836 -0.64411247 0.114342034 -1.2118958 -0.7312251 -0.1713189 -0.21737342 -0.29714698 0.829574 0.025148844 0.12962048 -0.0010512844 -0.2749519 -0.14492267 -0.36379367 -0.13172163 0.8625352 0.15739195 0.6645951 0.3190321 -1.0130264 0.7485945 -0.085225694 0.36362723 0.61298716 0.2689744 -0.8019649 -0.7809945 -0.2044458 0.5474001
104 0.32186803 -0.48166102 0.6804239 0.09631852 0.16521728 -0.8977785 -0.061904386 -0.22954755 -0.63877016 -0.22667485 0.5464459 -1.3265845 -0.666252 -0.4197297 0.43850335 0.09795685 0.34394938 -0.054114085 0.6942445 0.71922284 0.41729665 0.96404743 0.34201854 -0.38657686 -0.030573001 0.13271868 -0.5793956 -0.2802193 -0.0191815 -0.017603738 -0.38491425 0.26968628 -0.5407279 -0.6573982 -0.16068842 -0.4524528 -0.03230891 0.16553842 0.56934434 0.022961402 -0.0415276 0.036939904 -0.278733 -0.19580442 0.020757444 -0.8956356 0.5685899 -0.18015201 -0.09627481 0.5211268 -0.15200153 -0.5151134 0.21956423 0.6011462 0.5234798 0.055775847 -0.39563367 -0.28928494 -0.65859747 0.88864285 0.14946847 -0.29381058 0.27272147 -0.18715096
82 0.021022178 -0.13899809 0.4202913 -0.2573649 0.5932198 0.022745654 -0.3610832 0.54568374 -0.62613404 -0.88017917 0.5407676 0.08842706 -0.6364383 0.010872702 -0.28725514 -0.07964463 -0.19671701 -0.15204123 0.2934232 0.5214415 -0.6961861 -0.42690152 0.8711796 -0.8553227 0.1335864 -0.32176322 -0.502424 -0.16025966 -0.5364654 -0.25672054 -0.25339368 -0.3710729 -0.14024825 -0.9590642 -0.3344607 -0.7240329 -0.38105944 -0.6530136 -0.060830217 0.78179723 0.112265304 -0.546413 -0.40758926 -0.67990005 1.033059 0.52909595 0.21173692 -0.58085227 0.40711382 0.29236606 -1.3925945 0.44769448 0.33930597 -0.6455101 0.5688145 0.49768385 0.37638977 -0.03804582 0.4840765 0.67005754 -0.11726388 -0.09923952 -0.17504057 0.00807075
50 -1.2174758 -0.40658605 0.24471809 -0.07684236 -0.034828935 0.49447322 0.012099428 0.14730234 -0.45974538 0.60123223 -0.46770668 0.6491097 -0.29473013 -0.87511444 -0.43763667 -0.57164156 -0.3782554 0.3349042 0.5474857 0.643406 -1.1599318 -0.44833 -0.08979378 -0.5549558 0.5232382 -0.747198 -0.73123807 0.28620213 -0.6009373 -0.362184 0.14752622 -0.120752 -0.03890802 -0.49446413 0.5571301 -0.88412076 -0.11724815 -1.0657727 -0.73091704 0.031954985 -0.31595287 -0.8089636 -0.14632988 0.18570706 0.2793948 0.571951 0.61233747 -0.15787318 -0.042190246 -0.29745328 -1.2921907 0.4429403 0.5191318 -1.0485821 0.037504736 0.3718658 0.07509183 0.2627149 0.53621435 0.44974706 -0.57329106 0.34746882 0.39993656 0.021052897
117 -1.2650013 -0.41148376 0.36971498 -0.11866922 0.09059115 0.48972705 -0.030500263 0.32948554 -0.64505655 0.47503915 -0.26210225 0.5373307 -0.30694118 -0.7901247 -0.38079542 -0.64038175 -0.3952982 0.24481423 0.7395425 0.56417054 -1.1773461 -0.56538486 -0.045576666 -0.5045275 0.6204526 -0.83400244 -0.6960935 0.314978 -0.7064802 -0.42318085 0.121090464 -0.10194502 -0.028517116 -0.703708 0.5202752 -0.7736152 -0.048496157 -1.0145198 -0.6763592 0.075022936 -0.3149005 -0.86343855 -0.23568045 0.1394253 0.28776148 0.53631324 0.5932402 -0.2080993 0.012857037 -0.22272846 -1.5434006 0.3990814 0.5640134 -1.133886 0.17678805 0.1250476 0.086472094 0.22303884 0.44817868 0.5327244 -0.5096026 0.53602463 0.4342621 -0.09338819
27 -0.027190385 -0.22654158 0.49250624 -0.28133327 0.6493 0.01629232 -0.3632482 0.61513734 -0.74788505 -0.8586158 0.5918431 0.014550715 -0.6784783 -0.057153083 -0.28174102 -0.10555638 -0.22489744 -0.14499189 0.39496383 0.5480211 -0.7700227 -0.4548955 0.89935595 -0.877536 0.19982821 -0.4077348 -0.55054414 -0.14568014 -0.64212465 -0.28770387 -0.25983214 -0.3411585 -0.15095434 -1.0695922 -0.32097015 -0.7193445 -0.37536502 -0.7358303 -0.095435314 0.7972024 0.055104498 -0.6234086 -0.452898 -0.7069082 1.0197313 0.52723783 0.26410902 -0.6258658 0.38774592 0.30450746 -1.5280799 0.4172086 0.39972663 -0.7219383 0.6158831 0.42178306 0.38707954 -0.056808233 0.46110523 0.74618423 -0.121040545 -0.055220153 -0.118729986 -0.028662844
18 -1.154262 -0.38498852 0.3380941 -0.13699289 0.11769003 0.44832078 -0.030707955 0.2992128 -0.5991132 0.38906303 -0.21065484 0.4872413 -0.32847968 -0.7364971 -0.35871437 -0.59344524 -0.3755581 0.2363479 0.69004345 0.5579683 -1.130602 -0.514927 -0.017013514 -0.51977265 0.580312 -0.7929953 -0.6989651 0.2940804 -0.68932295 -0.39740446 0.107122205 -0.08508033 -0.031533826 -0.69823426 0.5010477 -0.787952 -0.0577823 -0.98056805 -0.6373317 0.091108285 -0.3076284 -0.8332408 -0.23006648 0.10134956 0.29142085 0.50817484 0.5517202 -0.21970458 0.021281956 -0.21336217 -1.449911 0.38640302 0.55740577 -1.0486007 0.1966583 0.15757176 0.09876137 0.1986247 0.41588628 0.54510087 -0.49315456 0.48494425 0.3948019 -0.06399716
92 -0.10937394 -0.30557895 -0.64662063 0.9092063 -0.389223 0.7816697 0.012916563 -0.54679453 -0.04023446 0.50134295 -1.0686545 -0.122327186 -0.30698124 -0.19044544 -0.17002866 1.1289028 -0.07731402 0.38319293 -0.46782565 0.809524 0.3820565 0.45389336 0.486439 -0.5435601 -0.17213471 0.5712018 -0.19078891 -0.32121563 0.4423126 0.17277 0.41422686 -0.49322686 0.13458566 1.1970922 -0.42548624 -0.5409736 0.19872506 -1.087045 -0.6383258 -0.17168984 -0.14363411 -0.29087356 0.81059754 -0.056003623 0.19336112 -0.0344094 -0.45171928 -0.16396149 -0.2711455 -0.09287588 0.85244966 0.06615519 0.6572707 0.4095932 -0.9439225 0.55905837 0.04966701 0.27987 0.54722464 0.30137774 -0.73217 -0.68167716 -0.23129599 0.52646095
57 -0.16678753 -0.35583618 -0.6914151 0.97601837 -0.4061437 0.842064 0.04221909 -0.5696943 -0.10591207 0.5670224 -1.1467321 -0.19609775 -0.32714754 -0.22486909 -0.1784155 1.2012361 -0.109137684 0.4309081 -0.4697765 0.9099921 0.46335337 0.49810535 0.5111979 -0.5489311 -0.16114527 0.5786814 -0.21974938 -0.34634542 0.47079653 0.16522118 0.4741067 -0.49115014 0.16664803 1.2726666 -0.4550934 -0.5619957 0.24800797 -1.1952949 -0.68613404 -0.2154335 -0.15899836 -0.3472051 0.8588776 -0.02435419 0.13683708 -0.06872816 -0.45279434 -0.16947332 -0.330271 -0.07871276 0.903453 0.0402563 0.75281894 0.4576858 -1.0237257 0.5114849 0.023770502 0.28849652 0.53037465 0.36187524 -0.80884326 -0.72319025 -0.20745659 0.54430324
72 -0.1197939 -0.354259 -0.6501478 0.9701741 -0.40761107 0.7795279 0.015722621 -0.6137457 -0.05666072 0.6078161 -1.1549791 -0.16555904 -0.31474552 -0.30874363 -0.22300136 1.1407251 -0.07486073 0.40779865 -0.47687638 0.90586275 0.3946275 0.521652 0.51524734 -0.5751688 -0.15803042 0.60007846 -0.24598257 -0.35599735 0.45458922 0.15869102 0.40658817 -0.49799573 0.115926206 1.2084156 -0.40562335 -0.6062761 0.16618645 -1.1822093 -0.70212424 -0.19338627 -0.18470322 -0.30289283 0.8394611 -0.02949918 0.14786759 -0.048161656 -0.40737104 -0.14846772 -0.34688157 -0.06616381 0.90473187 0.095467925 0.6821894 0.42593822 -0.99779904 0.6032869 -0.026172936 0.29534197 0.5442703 0.3316382 -0.78165656 -0.7652209 -0.20555346 0.5410304
69 -1.1452335 -0.42705935 0.39538118 -0.14662084 0.14029017 0.40262967 -0.04410256 0.32688388 -0.66909593 0.3293624 -0.13518271 0.4284912 -0.3611554 -0.74885565 -0.3183242 -0.622332 -0.37548855 0.22558586 0.7367174 0.5558341 -1.1198391 -0.5168696 0.030039912 -0.51759374 0.5730676 -0.81955767 -0.7222975 0.29696736 -0.70496887 -0.42076305 0.0846903 -0.06764002 -0.048194822 -0.7844196 0.46339905 -0.77150446 -0.083868355 -0.932672 -0.5693274 0.110747755 -0.28406474 -0.85239995 -0.2583571 0.058137864 0.31723908 0.49312723 0.58712554 -0.24371357 0.028532483 -0.1816049 -1.5429673 0.37072414 0.55964434 -1.0431626 0.2434895 0.09959829 0.11656085 0.15166368 0.39923877 0.5935087 -0.46076566 0.481861 0.39650258 -0.11360305
1 0.503482 0.014858005 0.6239488 0.08950553 0.22869316 -0.7219502 -0.24021487 -0.0068618846 -0.6325209 -1.0200287 0.5444196 -0.98538435 -0.9752357 0.16845907 0.61434656 0.13489635 0.4751773 -0.119922705 0.40068093 0.9362251 0.45887452 0.88183784 0.6218697 -0.87191534 -0.24966599 0.08345533 -0.5067258 -0.39690652 0.03467137 0.07499994 -0.40898532 -0.08403867 -0.5218284 -0.60344756 -0.5821006 -0.8520266 -0.3672598 0.028331261 0.65860116 0.46575585 0.41343912 0.10204362 -0.38046503 -0.5298843 0.98728114 -0.65501624 0.4505923 -0.13621126 0.1840517 0.5309884 -0.33901748 -0.24394765 0.14542049 0.6814139 0.519066 0.7452919 0.02546041 -0.34971604 -0.1576106 0.9100418 -0.035923745 -0.62244207 -0.05703663 0.19347048
66 0.49473187 -0.16512462 0.6285584 0.08021479 0.18555343 -0.84792984 -0.16701955 -0.1413067 -0.6093242 -0.714551 0.58103794 -1.2056705 -0.81141883 0.0052791145 0.6161718 0.12017471 0.45913136 -0.1131394 0.51951957 0.77849996 0.5419747 0.9819655 0.43059468 -0.5861198 -0.19120312 0.14757082 -0.44414157 -0.3548995 0.074345656 0.04507593 -0.42826742 0.10153124 -0.5042898 -0.572745 -0.43964797 -0.5870957 -0.20870212 0.21489689 0.6869539 0.25567564 0.25318953 0.13171731 -0.3364443 -0.36136964 0.5143397 -0.8649181 0.46722353 -0.11474835 0.066923864 0.53917456 -0.14162008 -0.4410176 0.11381773 0.7401457 0.5166837 0.38459066 -0.1779985 -0.38712808 -0.44629207 0.85348415 0.11053263 -0.46015528 0.08725066 0.018600574
91 -0.90358794 -0.37123558 0.54759353 -0.26218942 0.4152824 0.2956336 -0.16104826 0.5489226 -0.8276395 -0.08844153 0.22479291 0.3113334 -0.4594654 -0.5361109 -0.28936276 -0.57925427 -0.36537498 0.06721551 0.8220874 0.48545307 -1.1679325 -0.6690384 0.29260108 -0.64440197 0.5744882 -0.842802 -0.6609753 0.19691925 -0.8328228 -0.4806048 -0.06414085 -0.1615014 -0.08268066 -1.068236 0.27753133 -0.7237194 -0.1651411 -0.9130016 -0.4508429 0.36458442 -0.23363763 -0.8779195 -0.4225771 -0.20735271 0.5586406 0.5413736 0.5166892 -0.41366643 0.17993562 -0.0010816714 -1.8312666 0.40791818 0.55903697 -1.1554115 0.5057095 0.062082022 0.20665093 0.09731475 0.3735349 0.6779964 -0.3367084 0.5171418 0.2804597 -0.19003706
99 -0.12501805 -0.3775841 -0.59550023 0.92825425 -0.43058965 0.802029 0.02247593 -0.45185852 -0.30478993 0.38727674 -0.9891612 -0.5193823 -0.38849807 -0.07018382 0.032178402 1.3168448 -0.063864 0.4788793 -0.39659834 0.8477809 0.74627936 0.57373655 0.517419 -0.47695613 -0.10730986 0.613 -0.20228438 -0.2961108 0.5276532 0.20909116 0.48654258 -0.380854 0.15142448 1.2866099 -0.561182 -0.34745517 0.4198389 -1.0264248 -0.5353641 -0.335838 -0.13465057 -0.3314716 0.8303442 -0.026163444 0.019082405 -0.23211983 -0.55290437 -0.25382817 -0.30893195 -0.03386264 0.93172324 -0.18073206 0.7892754 0.6889383 -0.94573957 0.20353232 0.112136364 0.08195522 0.3989317 0.49816674 -0.71639955 -0.68469006 -0.16213717 0.51249814
25 -1.3177229 -0.45856208 0.36990476 -0.122281596 0.06573103 0.5011919 -0.028008686 0.2702996 -0.64390796 0.53828084 -0.3297725 0.5811631 -0.37647927 -0.8644497 -0.3820476 -0.65656644 -0.38205636 0.32395858 0.7206886 0.6803468 -1.2412529 -0.51929677 -0.03886703 -0.60084146 0.60276455 -0.87258136 -0.7861535 0.3365106 -0.7108689 -0.4047382 0.12068084 -0.09548052 -0.07434125 -0.70998347 0.58731526 -0.90366274 -0.09792267 -1.1041247 -0.69579977 0.07902443 -0.31605527 -0.91339505 -0.22841278 0.1502125 0.32436803 0.56355757 0.6415836 -0.20140608 -0.018380368 -0.24888398 -1.5454985 0.45553717 0.59376734 -1.1187843 0.13644816 0.24528055 0.08124729 0.23518401 0.5115492 0.57963926 -0.58820784 0.47952217 0.45270425 -0.054088008
89 -0.10346287 -0.34364995 -0.66030073 0.98390275 -0.37908956 0.8126461 0.02709853 -0.5363719 -0.13161817 0.47021237 -1.0563341 -0.27403352 -0.3585428 -0.15542476 -0.12713067 1.2478459 -0.08710923 0.43752617 -0.45378846 0.8885334 0.542795 0.5215446 0.52461934 -0.53946483 -0.16898586 0.61917603 -0.18356797 -0.34223688 0.5009375 0.19292666 0.43132284 -0.45466858 0.13104449 1.2346627 -0.4787048 -0.5241099 0.2635474 -1.1189411 -0.64954644 -0.24813469 -0.121229835 -0.2918965 0.8539851 -0.05753396 0.14978108 -0.10973612 -0.50975674 -0.1989479 -0.30201668 -0.029775172 0.9098567 0.0028146359 0.7346317 0.5289466 -0.9487816 0.46107095 0.06910926 0.2497648 0.46672535 0.39580134 -0.7744444 -0.7289673 -0.22874124 0.5431424
56 -0.0369562 -0.38876635 -0.63548356 1.019285 -0.3833701 0.75117964 0.014819371 -0.6471682 -0.09128539 0.5320246 -1.1157223 -0.2868282 -0.38011345 -0.27651525 -0.1471127 1.2678689 -0.033905342 0.40732715 -0.45883492 0.94802433 0.51418364 0.6116401 0.5760302 -0.5701566 -0.21131511 0.6770246 -0.24440336 -0.39345434 0.49849507 0.17688955 0.389548 -0.49298635 0.09212572 1.2317818 -0.4940431 -0.5679792 0.2117287 -1.1610478 -0.6410129 -0.19387025 -0.1539953 -0.29401293 0.8716687 -0.06313187 0.14411075 -0.12962078 -0.41295382 -0.18831609 -0.3249907 -0.034662727 0.93666846 0.010248531 0.73988944 0.5374771 -0.9661465 0.56620175 -0.01465773 0.27129555 0.48625827 0.38500106 -0.75023896 -0.8184771 -0.22057009 0.5529743
44 -0.5437398 -0.6022164 -0.1607695 0.37533998 -0.5359704 0.5546978 0.11502437 0.030235112 -1.0557072 0.16181539 -0.52056223 -1.3504767 -0.48068967 -0.005802427 0.5373653 0.92327285 -0.11121824 0.73338234 0.008968261 0.5854999 1.1036439 0.7621296 0.048677616 -0.07383596 0.3721393 0.15876757 -0.5669823 0.2497452 0.36398518 0.11859468 0.69055885 0.05977854 0.15441489 0.85612863 -0.4332326 0.25662673 0.8541302 -0.49450088 -0.06846571 -0.6800885 -0.33878997 -0.72582483 0.39465484 0.3336965 -0.65669054 -0.5071956 -0.295939 -0.47088262 -0.37960482 -0.116461165 0.365973 -0.89274603 1.03201 0.99176216 -0.48254457 -0.90384775 0.27670658 -0.7528783 0.026703376 0.994063 -0.49766213 -0.3871066 0.26506904 0.13135262
35 -0.5421217 -0.2590707 0.41470551 -0.27898738 0.48518652 0.23697649 -0.24682334 0.57142586 -0.65014523 -0.34361452 0.33532917 0.29662848 -0.36605605 -0.27171922 -0.31133008 -0.39838293 -0.36900598 -0.07878172 0.5670724 0.3124469 -0.9665 -0.6837955 0.45345888 -0.55514485 0.4473288 -0.62889826 -0.47444096 0.10164391 -0.7093583 -0.3656804 -0.1207188 -0.23501588 -0.033697344 -0.9625589 0.08265481 -0.5461303 -0.21445537 -0.7563225 -0.32223928 0.47348556 -0.13701132 -0.7000809 -0.37858373 -0.36563873 0.6013065 0.5766658 0.3304883 -0.46644726 0.2443738 0.07642246 -1.5794734 0.40479347 0.40377772 -1.0271217 0.49523473 0.035810407 0.25181505 0.06578123 0.3821513 0.5155065 -0.17368594 0.3604151 0.11039426 -0.18033285
43 -1.1640029 -0.38107163 0.39145023 -0.14681 0.14269647 0.38807812 -0.041293312 0.30955234 -0.6319293 0.37400293 -0.16794847 0.4586196 -0.31904212 -0.7175075 -0.3330254 -0.6200915 -0.3606255 0.2374298 0.7329114 0.544692 -1.1236299 -0.54699624 0.004619258 -0.5137302 0.5856767 -0.80380183 -0.69458294 0.29476514 -0.6901662 -0.41248932 0.098041914 -0.087462515 -0.068279475 -0.7363209 0.4860923 -0.7765281 -0.07098972 -0.91934913 -0.6023977 0.09242304 -0.29990375 -0.8117289 -0.26635864 0.101782426 0.31240574 0.49676576 0.5684483 -0.20526335 0.024499876 -0.20295401 -1.5120692 0.37595293 0.54043233 -1.0543089 0.22077793 0.1130694 0.07490763 0.19052817 0.37474504 0.54287827 -0.46115267 0.5016372 0.38398007 -0.08639118
76 -0.3052233 -0.27564198 0.45309258 -0.27094674 0.5825728 0.122708045 -0.31529868 0.6108907 -0.7374224 -0.6318229 0.47157523 0.14344625 -0.5445391 -0.16810651 -0.29690903 -0.26313394 -0.30674672 -0.10990805 0.5040124 0.44050813 -0.8993147 -0.58886737 0.6617512 -0.73492765 0.35151967 -0.5310838 -0.5458138 -0.036249522 -0.7079856 -0.3423786 -0.20262118 -0.28834116 -0.10342137 -1.0605221 -0.123487696 -0.64634264 -0.3204464 -0.7732501 -0.2418388 0.6504368 -0.052642565 -0.68638813 -0.41505873 -0.5459146 0.81747806 0.57061744 0.31530428 -0.5729682 0.3170494 0.20757025 -1.6051711 0.42320392 0.4408356 -0.9250686 0.5574321 0.22138892 0.32433572 0.00041177703 0.43400392 0.66967785 -0.14763701 0.15882692 -0.0113586765 -0.123842485
118 0.51866144 0.02080329 0.62489307 0.115996115 0.23065937 -0.7508622 -0.25010335 -0.04909417 -0.645132 -1.0086195 0.5487395 -1.0304288 -1.0011913 0.16770226 0.60701716 0.12413241 0.46219537 -0.09215293 0.4037937 0.9616963 0.460905 0.91916823 0.6408056 -0.89799786 -0.2585831 0.08144589 -0.5008603 -0.4205055 0.04739231 0.08276238 -0.41569284 -0.067864604 -0.50898564 -0.6048461 -0.59123373 -0.89063936 -0.39224836 0.020458011 0.6534383 0.47690737 0.40007854 0.091761746 -0.37161645 -0.5348868 0.97068304 -0.698278 0.458945 -0.15293816 0.18061888 0.55867976 -0.3326968 -0.24727625 0.16064957 0.683478 0.49644336 0.7943675 -0.007324131 -0.3668336 -0.14678958 0.93110186 -0.02939748 -0.6134307 -0.078075394 0.22303413
96 0.4756285 -0.12595426 0.63682336 0.059244577 0.19114748 -0.8506144 -0.1506312 -0.09761093 -0.566879 -0.7370765 0.61948436 -1.1617552 -0.7827708 0.036992304 0.6130543 0.049391147 0.45604682 -0.15280616 0.51265347 0.70953155 0.53112835 0.9364783 0.39441204 -0.5395356 -0.19522619 0.11109347 -0.42483327 -0.3306038 0.05772047 0.03681348 -0.43555236 0.10830861 -0.48613092 -0.6110424 -0.38579157 -0.5354196 -0.22283499 0.2633422 0.71467984 0.24565887 0.26392284 0.18604437 -0.3304992 -0.36210683 0.5059274 -0.8215548 0.4875168 -0.07314353 0.054783277 0.5190098 -0.1526115 -0.41948205 0.07947401 0.7186963 0.5543342 0.33915618 -0.17916067 -0.3781502 -0.45314997 0.7992781 0.13717616 -0.4088584 0.09735427 0.01090154
24 -0.41380534 -0.25797305 0.47047547 -0.2633455 0.5240265 0.16006458 -0.28838444 0.584437 -0.72620624 -0.4903368 0.40523717 0.18773665 -0.49823055 -0.22182338 -0.30825022 -0.3206775 -0.3236308 -0.098262034 0.56162167 0.41821617 -0.89507776 -0.6019967 0.570337 -0.6829852 0.38885698 -0.58954674 -0.52056986 0.013570856 -0.70646185 -0.35874236 -0.15831506 -0.25849417 -0.09226857 -1.0089594 -0.041160993 -0.64115894 -0.2532908 -0.74880874 -0.26063535 0.580879 -0.08831048 -0.70878196 -0.4050498 -0.4360214 0.73429537 0.5284006 0.33380806 -0.52021015 0.2954874 0.17319383 -1.6157987 0.39976823 0.44656405 -0.91635 0.53386164 0.18194331 0.27704513 0.007858074 0.3903066 0.63438356 -0.17802984 0.24995366 0.06879859 -0.12360559
71 -0.11169584 -0.28175208 -0.6651465 0.9450524 -0.38335088 0.8362725 0.023237584 -0.45991048 -0.20018318 0.34103847 -0.99855334 -0.32148945 -0.3385247 -0.0070821163 -0.046315607 1.2940888 -0.09577339 0.43080568 -0.48711064 0.8214964 0.64354074 0.48144376 0.53803635 -0.50419956 -0.14934617 0.6095293 -0.15712297 -0.28653973 0.51958555 0.19506344 0.49217555 -0.44052476 0.18446364 1.2892294 -0.5674349 -0.4054011 0.34529737 -1.031381 -0.5798469 -0.25904867 -0.0879483 -0.30997887 0.85798955 -0.067318685 0.14705685 -0.120320134 -0.59828085 -0.21559793 -0.26316112 -0.04839872 0.91619265 -0.0957976 0.7154833 0.62152654 -0.9414876 0.3124368 0.13722934 0.13467075 0.48650438 0.42154616 -0.7358807 -0.70501953 -0.24623843 0.5438622
40 -0.557828 -0.643559 -0.01570665 0.2835175 -0.48984885 0.38531667 0.13728309 0.052105937 -1.1090747 0.15882248 -0.35365993 -1.450096 -0.51829123 -0.13134983 0.58063644 0.7875146 -0.059223536 0.7029112 0.14577073 0.5705699 1.0368352 0.8018094 -0.021428615 -0.07092347 0.39883524 0.08571801 -0.66791266 0.30163297 0.27684325 0.042863596 0.6102453 0.14123978 0.07243834 0.6373178 -0.37558666 0.23684324 0.82809746 -0.38579375 0.02127435 -0.6562928 -0.3804299 -0.72508633 0.27609783 0.34398225 -0.7051072 -0.55410635 -0.12265536 -0.47710142 -0.378029 -0.06821063 0.20296457 -0.9462768 1.0021493 0.9462294 -0.30639127 -0.9395374 0.20073584 -0.78446126 -0.099505335 1.0652013 -0.40733096 -0.32721403 0.3578538 0.014482764
14 -0.870964 -0.3416695 0.5575554 -0.2917578 0.4504871 0.26401526 -0.20551132 0.6018209 -0.8212172 -0.19635093 0.2864299 0.30838582 -0.46634683 -0.4783125 -0.2750454 -0.59287935 -0.36899248 0.016571451 0.82096875 0.45756626 -1.1432571 -0.6819238 0.3270649 -0.63569057 0.5437016 -0.8155082 -0.65112036 0.16948682 -0.8290834 -0.47516635 -0.0779579 -0.1639431 -0.0916604 -1.122194 0.23935354 -0.7319594 -0.17358653 -0.85026133 -0.41802236 0.41211095 -0.20540631 -0.83708245 -0.43676868 -0.23829192 0.5957793 0.55851895 0.5275473 -0.43075582 0.215433 0.017560279 -1.8704295 0.40937278 0.52199584 -1.1363131 0.5502366 0.059146482 0.22806571 0.060668606 0.3697547 0.6923438 -0.2802915 0.50183034 0.27937156 -0.18065318
67 0.48615262 -0.090156734 0.6493618 0.06969313 0.1852155 -0.84929484 -0.15940344 -0.08634556 -0.6330655 -0.79966885 0.5878457 -1.2300938 -0.83846825 0.094202705 0.65440744 0.11568837 0.48553115 -0.0923983 0.49468854 0.77752423 0.5780352 0.971122 0.45727712 -0.59093004 -0.19310784 0.12980622 -0.4327906 -0.315006 0.07467344 0.08035892 -0.38814268 0.08167827 -0.50315124 -0.566085 -0.48446783 -0.5597557 -0.20291436 0.25583813 0.69481397 0.22814292 0.2859462 0.16472478 -0.316303 -0.3676725 0.55861056 -0.8568144 0.4495232 -0.12772526 0.066878 0.52424264 -0.11841235 -0.45587224 0.13182937 0.78818166 0.5153726 0.36808378 -0.13790905 -0.41966432 -0.42328167 0.85667056 0.09864435 -0.47794726 0.047346793 0.06193208
34 -0.519695 -0.63770074 -0.09119204 0.3631697 -0.4973002 0.44633442 0.11100863 -0.009075954 -1.0280857 0.21913235 -0.480939 -1.3376557 -0.4914964 -0.10635329 0.4845772 0.85382605 -0.08894086 0.70982754 0.04736087 0.6014427 0.99528164 0.7823345 0.025732039 -0.10239802 0.35897672 0.1283004 -0.5974428 0.23346864 0.30404422 0.06968771 0.6348578 0.09657858 0.10448743 0.7443608 -0.38557664 0.20669909 0.7830611 -0.47126755 -0.04842098 -0.62995714 -0.34534928 -0.7201121 0.34301034 0.3125419 -0.66857207 -0.50233436 -0.20122088 -0.44543758 -0.3897627 -0.10562849 0.300309 -0.8636871 1.0034423 0.9367183 -0.39166492 -0.82614315 0.19634448 -0.72018886 -0.02219481 1.0018688 -0.43384743 -0.3503798 0.31393838 0.092062406
83 -0.6179152 -0.6113095 -0.13381265 0.3683255 -0.54614127 0.6173028 0.125212 0.058466416 -1.0884231 0.17162801 -0.55281997 -1.336808 -0.5421796 -0.056790236 0.54116595 0.93542784 -0.13845111 0.77830154 -0.006854385 0.6446805 1.070893 0.7597567 0.051238243 -0.12365231 0.3998349 0.11846742 -0.6308087 0.29052103 0.35296756 0.102299504 0.7132516 0.048668582 0.13260521 0.87502116 -0.45421273 0.21179537 0.83360326 -0.5844633 -0.08215095 -0.6661166 -0.3490118 -0.7996357 0.41405472 0.33315802 -0.6590004 -0.44358966 -0.27531138 -0.49615926 -0.37871057 -0.15732749 0.29593787 -0.9026563 1.0961509 0.97308517 -0.50590706 -0.8681659 0.31678745 -0.7821321 0.084469326 1.0554876 -0.54163826 -0.41446483 0.30981845 0.14854106
59 0.51450354 -0.023588786 0.69141847 0.08613579 0.2509347 -0.78007174 -0.25226948 0.00045033568 -0.6845866 -1.0148922 0.6114072 -1.047714 -1.0098405 0.14590035 0.6318438 0.08505989 0.4675259 -0.1017359 0.48582503 0.9337059 0.43762583 0.92147344 0.6237596 -0.88919044 -0.23407723 0.04568531 -0.5222052 -0.3845948 0.0062187 0.045895997 -0.41814315 -0.03841996 -0.5279913 -0.67084926 -0.5525095 -0.8714132 -0.3597001 0.052452557 0.6595292 0.44163278 0.3864701 0.09786197 -0.3961295 -0.54943335 0.9391436 -0.7136513 0.48307687 -0.13931037 0.19114351 0.5705465 -0.38643596 -0.2755163 0.14884306 0.67568934 0.5726221 0.72264713 -0.008822715 -0.38442016 -0.1974671 0.93437517 0.0081801815 -0.5743845 -0.032360647 0.16350792
10 -0.10493116 -0.30777815 -0.5763823 0.90643394 -0.37362388 0.74970955 0.022533523 -0.43553612 -0.28856036 0.30842677 -0.9075959 -0.43961093 -0.34545285 -0.013541074 0.034487456 1.2321897 -0.06345301 0.4408217 -0.37046722 0.7840319 0.69895875 0.52617186 0.49975383 -0.42418584 -0.10845977 0.5885508 -0.15112944 -0.28009927 0.5146341 0.19482271 0.4650175 -0.37171602 0.17797501 1.1875424 -0.51994705 -0.35324183 0.3648136 -0.92745477 -0.5116845 -0.29204023 -0.09553905 -0.2896712 0.806966 -0.059968587 0.06589155 -0.20853668 -0.55512685 -0.1946139 -0.28242004 -0.007355427 0.85947734 -0.18864371 0.7409113 0.66972536 -0.8574513 0.1921933 0.13205884 0.08054286 0.35974854 0.4773331 -0.69615906 -0.63921565 -0.19405653 0.49106026
101 -0.5488583 -0.54490715 -0.114208706 0.28921604 -0.50626296 0.56626767 0.08497044 0.11654027 -1.0845805 0.038784806 -0.47234932 -1.2645601 -0.515441 0.039864518 0.5507974 0.8347614 -0.100211 0.7395184 0.014192593 0.5730152 1.0010594 0.687079 0.057446055 -0.15153581 0.38380215 0.045258902 -0.56707746 0.28548494 0.29447314 0.075303346 0.6810629 0.027562609 0.1298447 0.7649166 -0.45430097 0.19966023 0.797884 -0.489049 -0.033390317 -0.5717828 -0.2787226 -0.77978104 0.32724524 0.3008952 -0.5609409 -0.40755314 -0.25055194 -0.48140946 -0.30986992 -0.1210503 0.21139415 -0.8486486 1.0182588 0.90019244 -0.4154065 -0.8286394 0.3527234 -0.7873711 0.0925785 0.9996099 -0.48964489 -0.3692213 0.25403607 0.15126103
23 -0.2007704 -0.38097593 -0.579809 0.91257596 -0.42836428 0.82121766 0.030457487 -0.3584952 -0.48267683 0.24348818 -0.9279427 -0.67594206 -0.41910625 0.06553975 0.14332618 1.3779857 -0.06967799 0.5409067 -0.37594232 0.856077 0.8926224 0.6146454 0.4993301 -0.4601839 -0.024197854 0.56848705 -0.24332617 -0.22092925 0.5488198 0.22239435 0.5911108 -0.38415694 0.18816452 1.3167733 -0.6250674 -0.26936436 0.50518525 -0.98680395 -0.4969951 -0.38011703 -0.1380374 -0.43393892 0.8371102 -0.018567245 -0.02227708 -0.2481841 -0.6345729 -0.30391878 -0.2957868 -0.019843293 0.849858 -0.32707775 0.9027625 0.8460354 -0.89859116 -0.0048374427 0.22953746 -0.07497432 0.39879414 0.6448504 -0.7531526 -0.68170285 -0.14632784 0.5266848
107 -0.26893893 -0.29726735 0.45265204 -0.27952412 0.58142877 0.13285476 -0.31762946 0.5782757 -0.7165054 -0.63865095 0.4786513 0.11448653 -0.55379355 -0.16045052 -0.32097644 -0.2021065 -0.30802837 -0.13478674 0.50219375 0.42476174 -0.87237155 -0.5560167 0.7096433 -0.7274887 0.33739734 -0.4926681 -0.516681 -0.030650837 -0.68478066 -0.34715325 -0.18205626 -0.31783944 -0.07400372 -1.0183758 -0.1223107 -0.62970555 -0.29815045 -0.76681256 -0.23396936 0.67131764 -0.047792718 -0.67930627 -0.41362962 -0.5720556 0.82095146 0.56278884 0.27470836 -0.59904706 0.31494302 0.21837783 -1.5862647 0.425358 0.44368777 -0.894421 0.5578651 0.21021898 0.30773753 -0.0057357075 0.39866188 0.66073734 -0.16388436 0.12093473 -0.007875179 -0.10699525
4 -0.4105044 -0.38063166 -0.41908365 0.5134174 -0.5135544 0.8115895 0.09134657 -0.032358076 -0.7691681 0.09992045 -0.7561642 -0.92016643 -0.42258596 0.18700115 0.36712125 1.1045502 -0.140433 0.7014872 -0.29394174 0.55713737 1.038736 0.568143 0.15300466 -0.18446891 0.18884161 0.2736533 -0.3512263 0.12290646 0.4504048 0.1685811 0.73305374 -0.15071131 0.24258402 1.131535 -0.54150397 0.11429659 0.7421957 -0.6914985 -0.26426563 -0.5348093 -0.20106852 -0.6593521 0.5745016 0.19325154 -0.35004464 -0.26317644 -0.52675056 -0.38124624 -0.290669 -0.15248989 0.5606236 -0.6202889 0.92665595 0.8828008 -0.72083765 -0.55533016 0.35481906 -0.5391847 0.29334503 0.76024115 -0.59669214 -0.47986135 0.05254542 0.34053344
75 -0.22103274 -0.37850088 -0.5869362 0.87847316 -0.46068448 0.82778436 0.045776878 -0.36750835 -0.42948982 0.3233789 -0.96628207 -0.63145113 -0.37888634 0.010808216 0.11524603 1.3145986 -0.08917664 0.539687 -0.36008856 0.7902283 0.87079835 0.57167464 0.42107302 -0.38717937 0.004382081 0.55046153 -0.24049653 -0.17274652 0.51705235 0.21710816 0.60094446 -0.32258967 0.21539126 1.2736607 -0.5484902 -0.23485404 0.5139515 -0.9474239 -0.48725587 -0.43596745 -0.1769003 -0.423253 0.81134784 0.027500117 -0.09103605 -0.24736498 -0.6016991 -0.2709995 -0.33316177 -0.04379559 0.8699387 -0.32264215 0.86651117 0.776247 -0.92186666 -0.058305364 0.19803086 -0.07727115 0.34883887 0.5845254 -0.7363953 -0.6222821 -0.12679183 0.48283044
105 -0.46682817 -0.38415128 -0.46681514 0.5810535 -0.5501219 0.89041936 0.07645582 -0.036284395 -0.7616207 0.13689698 -0.8331581 -0.8978205 -0.43850005 0.19874246 0.34728894 1.149394 -0.14765406 0.7033347 -0.31810498 0.6309144 1.0448552 0.55801654 0.20764844 -0.21980716 0.22051749 0.2811345 -0.34551758 0.11632619 0.4622954 0.18364277 0.7616768 -0.2054338 0.2864081 1.2096351 -0.57954365 0.07203872 0.75116014 -0.7681775 -0.32729736 -0.52235454 -0.19729619 -0.688048 0.6113345 0.18464474 -0.3372527 -0.20451994 -0.55725116 -0.39048252 -0.30943188 -0.1863874 0.60535413 -0.60760075 0.9802856 0.88222665 -0.7878052 -0.53825015 0.4089548 -0.5095182 0.3796441 0.7444564 -0.67630345 -0.52108485 0.012325365 0.39178848
93 -0.56408167 -0.46188143 -0.3003485 0.46012208 -0.54796207 0.82157123 0.078955196 0.10144295 -0.976966 0.020804897 -0.673566 -1.1282488 -0.5025245 0.20358376 0.47688806 1.049192 -0.15485746 0.7813619 -0.16862409 0.59416777 1.109371 0.62709653 0.12731002 -0.19384988 0.31740323 0.14506154 -0.46617427 0.2501546 0.39502895 0.13252926 0.7710647 -0.10895578 0.25267836 1.0687267 -0.5581214 0.16649698 0.84350437 -0.6937559 -0.21043712 -0.60581046 -0.2177342 -0.7792807 0.4898594 0.23049645 -0.42185265 -0.30392987 -0.4836373 -0.45765856 -0.31950623 -0.15165012 0.41232133 -0.76527625 1.0524544 0.94937927 -0.65418464 -0.74522215 0.44709298 -0.6817938 0.25865275 0.927854 -0.6241528 -0.43578917 0.15490416 0.29185304
102 -0.56657857 -0.50754696 -0.1938921 0.36282453 -0.5298211 0.64336216 0.08565613 0.09999154 -1.0233415 0.06508472 -0.56343406 -1.1968465 -0.4904584 0.068172775 0.4929158 0.90099525 -0.14558505 0.7457817 -0.07668568 0.5637255 1.0433471 0.6795976 0.08168506 -0.15699472 0.34549996 0.12177807 -0.5529259 0.24737146 0.32449195 0.11504324 0.6906072 -0.008604753 0.19215252 0.88448554 -0.49637383 0.20542465 0.80651003 -0.5830439 -0.0965993 -0.5733504 -0.26311213 -0.77151 0.40894884 0.26949972 -0.53532094 -0.35652035 -0.33440587 -0.46677214 -0.3332046 -0.16396447 0.29554132 -0.8034486 1.0209044 0.9298433 -0.49934596 -0.8034753 0.34393877 -0.73557603 0.15533426 0.9444032 -0.51461333 -0.39137498 0.20370023 0.20681109
7 -0.68315506 -0.5057209 -0.32053298 0.41296357 -0.60778314 0.87670165 0.099492356 0.14916186 -1.0292698 0.09037371 -0.7560303 -1.0916492 -0.4873021 0.1458027 0.4843551 1.0018849 -0.20753014 0.85408884 -0.19456464 0.5839492 1.0625213 0.60266787 0.043163568 -0.14961262 0.4012018 0.0623515 -0.5048423 0.34115568 0.37691075 0.124693505 0.86934865 -0.07214068 0.28162706 1.0868499 -0.50341773 0.23256893 0.8756332 -0.7099394 -0.24455437 -0.6402325 -0.30281925 -0.8770417 0.4744804 0.33441985 -0.5300582 -0.23645756 -0.42536813 -0.49915653 -0.3275416 -0.23024744 0.3433666 -0.7714454 1.1178546 0.9002973 -0.6774094 -0.84175855 0.48183706 -0.7517068 0.33341628 0.9349966 -0.6364052 -0.42416462 0.2032876 0.27195212
