105 64
36 0.70457304 -0.20381333 1.0253164 0.5565023 -0.56896776 -0.53294677 -0.33396497 0.55196685 0.22779101 -0.63065946 0.3859198 0.12397364 -0.13046652 -0.047489148 0.18319461 -0.16042496 -0.14424162 -0.011841793 0.18844287 0.14282395 -0.06533518 -0.14649494 1.3613546 -0.21133676 -0.23017417 0.78762954 -0.053007007 -0.16139552 0.8259553 0.11092881 -0.37743172 0.99886996 -1.4047498 -0.074035265 0.35201743 0.095471725 0.26011476 0.391074 1.0091853 -0.26506752 0.092359126 0.5426859 0.2825573 0.1067053 0.5112952 -0.3238469 -0.6046599 -0.08869528 0.082781225 0.044461757 -0.23260875 0.5360837 0.3960132 0.85604984 0.5092709 0.30340958 0.4160809 0.67038566 -0.31109056 -0.5695229 0.32708985 -0.58961606 0.02446043 0.9762969
50 0.62556356 -0.37916312 0.7607665 0.14297816 -0.65971845 -0.6705513 -0.4850567 0.9536617 0.14594854 -0.37849998 0.5448867 0.08874659 0.134096 -0.13797487 0.35655272 -0.106007926 -0.38494882 -0.18781024 0.61472756 0.24266078 -0.066680975 -0.115371704 1.382761 -0.4200224 -0.054309323 0.8122542 0.21450767 0.061243977 0.9463642 0.479641 -0.51274914 0.7382997 -1.3820412 0.112667136 0.16222438 0.3841718 0.24445349 0.30098355 1.0610895 -0.3290082 0.19462399 0.3858345 -0.071356796 0.34701908 0.66955554 -0.3872944 -0.64860564 -0.30071384 0.030266887 0.16855995 -0.0068177185 0.87660664 0.0015880892 0.9032913 0.23397388 0.33644316 0.58341455 0.56519276 -0.26161864 -0.5926167 0.03871328 -0.49831513 0.19024678 0.92086583
75 0.6147328 -0.26540473 0.93585443 0.03429 -0.46799952 -0.730578 -0.39602965 0.887864 0.18570882 -0.53045195 0.6776245 0.23532666 0.020510083 0.17044981 0.21589898 0.021882989 -0.26087838 -0.19677243 0.5105239 -0.037155714 0.018837579 0.18252131 1.0758953 -0.37318924 -0.02391822 0.9369872 0.074335165 0.05081868 0.8971275 0.498675 -0.5866961 0.76389086 -1.2761996 0.11964571 0.42023093 0.23632762 0.4054922 0.582529 0.922446 -0.30018008 -0.013731565 0.6359688 0.012989354 0.15885359 0.47013026 -0.2830913 -0.61323214 -0.43336502 0.18423498 0.23239882 0.3104444 0.6870671 -0.089558154 0.7574133 0.47369498 0.4611376 0.5831722 0.45034668 -0.35242546 -0.7471441 0.33710873 -0.6195717 0.14614473 0.66716677
16 -0.2196429 0.12502418 -0.31845382 -0.4480814 0.6015092 0.8564897 -1.0986946 0.9390061 -0.18495522 0.30255577 -0.4084076 0.34602794 0.44228986 1.6242483 0.47001007 -0.112677425 -0.45308056 0.83230615 -0.20597775 -0.7703232 -0.22101466 -0.06741409 -0.2871695 0.03986105 -0.626791 0.33680832 0.16549073 0.35210228 -0.1357869 0.20404975 -0.67391086 -0.1580194 -0.5486169 -0.9073891 0.2564063 0.49013275 -0.5327607 -0.10754285 -0.1899764 0.71766764 -0.49033126 -0.40855083 0.31765717 -0.6340801 -0.021054596 0.8272076 -0.2458239 -0.079720035 0.54369724 0.7170625 0.17147073 1.2545702 -0.54733896 0.33733675 0.10467702 0.19555967 -0.012836716 0.24683681 0.48064747 0.37890342 -0.3509192 -0.6028551 -0.61903733 -0.20765927
47 0.057101075 -1.421867 0.18628214 -0.41098136 0.5781024 0.3206944 -0.3559693 -0.19169536 -1.110339 0.37710136 0.82543856 -1.3243641 -0.7461238 0.12220016 0.67697513 1.109013 0.48542565 0.91749084 0.12596785 1.2823443 1.398343 1.25413 0.42783573 -0.48866525 -0.39236373 -0.0902514 -0.5472915 0.20811914 -0.47583026 0.995118 -1.3390732 -0.63141805 -0.16419423 -0.24703562 -1.1105752 0.33853963 -0.32761183 -0.8736292 0.26895216 0.091850534 0.6923923 -0.106862105 -0.19958721 -0.77920705 0.667065 0.001947121 0.18227135 -0.10341918 0.19198601 0.6191652 -0.18068855 0.65913373 0.960616 0.34047705 -0.07254953 -0.10089066 0.1970926 -0.5483102 0.7278703 1.0237708 0.0176109 -1.3363063 -0.30510923 -0.3351219
62 0.7233222 -0.14415054 1.1657398 1.0535986 -0.4834564 -0.26183403 -0.31786644 0.1899635 0.30629745 -0.76164794 0.1148345 0.10566033 -0.31670558 -0.005281433 0.18278883 -0.28150198 -0.07591925 0.25369367 -0.12778667 0.19448344 -0.09532087 -0.3059033 1.4793379 -0.06444831 -0.49112907 0.8044278 -0.2546282 -0.25979325 0.8461327 -0.20617856 -0.2278241 1.2090062 -1.5486207 -0.33064094 0.40295526 -0.04089558 0.07969528 0.3825974 0.9904063 -0.18382168 0.092519015 0.48103413 0.7086769 -0.099206604 0.52050316 -0.26723155 -0.57500285 0.10664666 0.07405075 -0.08924626 -0.672124 0.34220377 0.818762 0.9625484 0.6022035 0.23621689 0.20133586 0.85074735 -0.29161936 -0.47470894 0.43491513 -0.63263077 -0.2743437 1.1373581
46 0.6183471 -0.37859818 0.85008484 -0.08990288 -0.5198668 -0.83000934 -0.46998525 1.0606127 0.17947422 -0.4681898 0.77810055 0.1954634 0.122741394 0.18167108 0.28120348 0.013344522 -0.47327596 -0.3134042 0.6773441 -0.046813242 0.048227217 0.21241115 1.0785286 -0.42265654 0.03608425 0.9851719 0.19425318 0.1832036 0.93941814 0.6452639 -0.6839847 0.6530034 -1.2040113 0.205911 0.3916702 0.3415403 0.4050299 0.53414917 0.916794 -0.31995842 -0.04796105 0.5782338 -0.14660078 0.25716683 0.5159635 -0.29592562 -0.6459354 -0.54231524 0.2422288 0.33826292 0.3624793 0.8504324 -0.30424118 0.79180515 0.32659298 0.53913337 0.6915362 0.356959 -0.35489678 -0.7680056 0.2510356 -0.56448454 0.2526599 0.65039355
11 -0.20811129 0.18381353 -0.30315477 -0.4258691 0.5790589 0.83171165 -1.1190804 0.95027626 -0.15955588 0.2764477 -0.4350324 0.4005757 0.49456728 1.6137731 0.46702778 -0.1475576 -0.4596226 0.8197715 -0.18486822 -0.8144938 -0.30135718 -0.08816179 -0.2882907 0.05681126 -0.65343904 0.34463373 0.17730527 0.36068615 -0.12778425 0.1928812 -0.651595 -0.1544433 -0.6234296 -0.9419187 0.26068 0.4791077 -0.54152185 -0.07441118 -0.1376274 0.77838874 -0.5229247 -0.4280109 0.3912465 -0.65554714 -0.018343834 0.83324724 -0.2551027 -0.07945806 0.5844344 0.7341126 0.19721201 1.280965 -0.62028646 0.33846167 0.12212641 0.21604806 -0.027675802 0.2866642 0.48943517 0.36560953 -0.32143173 -0.5969459 -0.64553386 -0.20561138
26 0.513621 -0.46997097 0.5461509 -0.11671396 -0.64117616 -0.73218185 -0.4967859 1.082678 0.08933076 -0.28048417 0.6165004 0.050700996 0.18527596 -0.085741684 0.36663812 -0.05220405 -0.5317516 -0.28529462 0.75868535 0.2016651 -0.032159057 -0.056924626 1.2378573 -0.47775027 0.07159448 0.76697725 0.32514572 0.1550052 0.94765294 0.58202267 -0.5981658 0.5356765 -1.1674204 0.21308301 0.10642281 0.44230723 0.28640053 0.23972356 0.9476676 -0.38764822 0.17813857 0.32721564 -0.30948466 0.41569346 0.6690103 -0.3706161 -0.6422277 -0.4421658 0.11007 0.2846179 0.1601919 0.9520318 -0.27112272 0.8768587 0.093787834 0.3577745 0.6402876 0.41607234 -0.26052797 -0.5193399 -0.07308844 -0.40932432 0.32073724 0.7682012
74 -0.28913963 -0.26934966 0.49635103 0.8220607 0.697687 0.033635125 -0.116647124 -0.1384951 -0.15331836 -1.155444 -0.40735283 -0.06858349 -1.0109066 1.6696079 0.16467135 0.4321135 -0.1416532 0.96147686 -0.5088666 -0.3283289 0.36835775 0.53328526 0.13555343 -0.11755168 -0.3288054 1.1877471 -1.0447804 -0.112023965 1.1751338 -0.44498274 -0.44127235 0.5525847 -0.6066386 -0.8923106 0.90946037 -0.51203614 0.10117868 0.73975587 -0.34637737 -0.048898272 -0.3686937 0.25568625 0.9819862 -0.7785694 -0.22032997 0.0641514 0.05700544 -0.80410975 1.0059698 0.73625493 -0.2971719 -0.4845588 0.7487358 0.8359262 1.2525102 0.5108351 -0.48076645 0.61139536 -0.7335632 0.31876487 0.83120716 -0.94341034 -1.2574862 -0.43575343
78 0.7156783 -0.19010626 1.0490867 1.1114632 -0.5257132 -0.20894113 -0.37441272 0.15656345 0.288854 -0.69330615 0.012625292 0.0244164 -0.28290245 -0.13406081 0.20991634 -0.40142646 -0.18798453 0.2942731 -0.10526207 0.29161325 -0.16150582 -0.4876243 1.612968 -0.08221117 -0.5412975 0.7378722 -0.22168018 -0.23377259 0.8829625 -0.26783842 -0.17662017 1.2176024 -1.55446 -0.32841423 0.30197567 -0.024845736 -0.0044306214 0.22429611 1.0063493 -0.17556134 0.16603561 0.30869594 0.66554576 -0.033047646 0.596432 -0.2794216 -0.55923903 0.14460088 0.00090302766 -0.10284011 -0.8982673 0.39812616 0.8497489 1.0360339 0.48913774 0.16757745 0.20221172 0.8627959 -0.2501128 -0.34279516 0.29315397 -0.5685661 -0.29077843 1.2552962
18 -0.13959134 0.21150017 -0.24326251 -0.4821937 0.47045675 0.68796897 -1.1413536 1.0394061 -0.17269395 0.3134489 -0.39260462 0.3677988 0.533403 1.5293254 0.49318197 -0.17080848 -0.46899217 0.7868057 -0.1563991 -0.8229787 -0.35007352 -0.04710262 -0.22273846 0.023024263 -0.6513206 0.3702429 0.12361922 0.34442714 -0.14050625 0.18590167 -0.73341656 -0.13295265 -0.75459856 -0.97948503 0.14999346 0.48599136 -0.51000595 -0.037445217 0.014535927 0.84970486 -0.52650005 -0.45414904 0.3834258 -0.6805559 0.038231604 0.8404555 -0.2591385 -0.09006123 0.62170076 0.76145756 0.23188429 1.365001 -0.67597616 0.38132635 0.13606034 0.3200129 0.049744777 0.27178493 0.48321438 0.44044527 -0.29796955 -0.60931623 -0.64370245 -0.16937102
63 0.5654455 -0.1563091 1.0534121 0.47145376 -0.31595653 -0.6310252 -0.2215305 0.45428059 0.29804555 -0.84106386 0.4245991 0.24863538 -0.2726488 0.33640012 0.06209954 -0.008279966 -0.14802054 -0.059386425 0.18283433 -0.15278448 0.049328234 0.15691595 0.93696696 -0.1936689 -0.13846917 0.9980663 -0.24032149 -0.11983712 0.9378832 0.10421734 -0.39174277 0.9030984 -1.1719007 -0.045825876 0.6615622 -0.03224374 0.39115766 0.76014453 0.7576842 -0.2577689 -0.15777549 0.6967411 0.41013855 -0.044797394 0.2819283 -0.28081438 -0.4781011 -0.38928336 0.3000362 0.16992065 0.050878927 0.22397791 0.26111072 0.72343993 0.7371222 0.49324343 0.3225285 0.5496114 -0.5078348 -0.7264313 0.6482604 -0.6123134 -0.12559454 0.5765491
64 0.73606163 -0.119397186 1.1701792 0.7399048 -0.43160266 -0.36029562 -0.32277665 0.3253689 0.2232991 -0.72947997 0.27134117 0.13681959 -0.27673563 0.07466541 0.18419899 -0.13837938 0.007934281 0.14876969 -0.025615564 0.11362173 -0.029284522 -0.15091845 1.3126564 -0.0879015 -0.37292227 0.82390136 -0.20983033 -0.2948375 0.7723849 -0.031956144 -0.3282838 1.1233387 -1.5099896 -0.22720411 0.45324895 0.0113485865 0.18154344 0.45044297 0.9526168 -0.18266718 0.09614284 0.6218882 0.521274 -0.07157349 0.43569633 -0.2921033 -0.5728621 -0.0057460945 0.10657722 -0.033244163 -0.3199308 0.38713652 0.6842108 0.8253623 0.6694646 0.28973135 0.27314192 0.7934372 -0.31819677 -0.5566022 0.48767957 -0.7163391 -0.11150725 1.0090503
9 -0.1980531 0.17612559 -0.29365647 -0.45635867 0.54883385 0.78815246 -1.1045882 0.9676407 -0.18520074 0.26389462 -0.40040424 0.35072705 0.4403121 1.5821102 0.47319794 -0.122904286 -0.44738752 0.8099639 -0.19986379 -0.7556512 -0.25291336 -0.07195401 -0.25015765 0.010739084 -0.6362118 0.33605814 0.14089893 0.33064345 -0.109392755 0.18233976 -0.69899005 -0.11847557 -0.61615753 -0.93378097 0.23782933 0.46964377 -0.5077321 -0.07144873 -0.13650195 0.76624155 -0.49105766 -0.40783688 0.35385922 -0.6436237 -0.005123161 0.8280287 -0.25329122 -0.09947107 0.57451504 0.7465486 0.19746915 1.2733996 -0.5762545 0.37174 0.12774841 0.24821086 0.0048083654 0.27278882 0.47832635 0.3949201 -0.32758304 -0.6046318 -0.6021066 -0.2052132
83 0.6709567 -0.13113455 1.1693845 0.50440025 -0.38072932 -0.51385295 -0.30206844 0.4310967 0.21658148 -0.77835125 0.42308745 0.20689256 -0.25993297 0.18761429 0.13350867 -0.04324759 0.015711684 0.014123288 0.09963957 -0.023973333 0.046090376 0.06236661 1.1042907 -0.13142726 -0.22915927 0.8816014 -0.22849964 -0.23775221 0.8050402 0.12607163 -0.44210255 1.0306505 -1.3676403 -0.107872605 0.5739203 -0.0042093014 0.3051241 0.6071656 0.92405635 -0.20106179 -0.0009013243 0.71086735 0.4336921 -0.059771642 0.3499101 -0.28951782 -0.5596577 -0.16629538 0.17931773 0.058049574 -0.002288309 0.36036947 0.46647468 0.7287713 0.71420765 0.40408438 0.33968708 0.6518851 -0.3765408 -0.67054653 0.57043564 -0.73244613 -0.042083696 0.77228683
6 -0.2246066 0.17802314 -0.32015562 -0.4827608 0.5761406 0.8775837 -1.1820625 1.0287012 -0.16736552 0.34296817 -0.40608168 0.40043992 0.5063246 1.6345037 0.4900043 -0.13614109 -0.44843242 0.8508657 -0.20059808 -0.784031 -0.30187574 -0.10650462 -0.24652512 0.017672738 -0.6830454 0.33901832 0.19148946 0.35727945 -0.15487897 0.22993281 -0.70893645 -0.15078352 -0.67829806 -0.9479043 0.22897853 0.5364421 -0.5587593 -0.12153599 -0.10905954 0.7914581 -0.49726015 -0.4301989 0.3451761 -0.6555976 0.015445007 0.8445098 -0.2753577 -0.040118832 0.5556053 0.75706357 0.21363708 1.3843043 -0.6051811 0.3549267 0.105008 0.22282912 0.0217852 0.3120021 0.53768975 0.41581997 -0.3875833 -0.62414277 -0.64335626 -0.17345911
40 0.4636574 -1.5051794 0.5899698 0.064915344 0.5230381 -0.0024142677 -0.49889323 -0.17441234 -0.7228093 0.056791607 0.8174685 -1.5526179 -0.87146044 0.4784211 0.70704323 0.7149681 -0.041782834 0.70226663 0.23210868 0.71240693 1.4269648 0.9990848 0.31805632 0.027671115 -0.3526446 0.49604437 -0.20054474 0.34114328 -0.28692654 1.0580213 -1.1501491 -0.25294563 -0.12127236 -0.6317471 -0.7500363 0.26752612 -0.5368831 -0.98583806 -0.03946972 -0.28184244 0.6469083 0.02825272 -0.6417606 -0.4946568 0.7789785 -0.0662734 -0.045273118 -0.27449444 0.33521113 0.71334213 -0.253306 0.46690106 0.742121 0.13700502 -0.26998714 -0.0010354228 0.14328273 -0.26596797 0.3989552 0.63304925 0.2579734 -0.9556783 0.16254969 -0.3010576
3 -0.12961534 0.24246265 -0.28731424 -0.5302509 0.5166307 0.68320215 -1.1559196 1.0511694 -0.231481 0.33579442 -0.41147107 0.32403213 0.5204637 1.5840662 0.5281889 -0.10837104 -0.49162367 0.80282986 -0.18876648 -0.82087827 -0.34711584 0.019602207 -0.29450688 0.013951328 -0.65745664 0.35567418 0.0631192 0.32795358 -0.20038857 0.19599505 -0.7877543 -0.18354319 -0.7272002 -1.0652957 0.11595133 0.4374718 -0.5222608 -0.00824448 0.03029894 0.9224002 -0.62447906 -0.49593863 0.4293868 -0.76946676 -0.022302339 0.89333946 -0.20557806 -0.13339259 0.681636 0.8483039 0.32027674 1.3410655 -0.7140398 0.37482247 0.14697486 0.37210587 0.0434031 0.2263224 0.49942896 0.513978 -0.3016931 -0.6612242 -0.66548777 -0.31324175
13 -0.13403295 0.21236087 -0.23560911 -0.47204036 0.47376072 0.67946666 -1.1057814 1.0138166 -0.19091105 0.31878093 -0.40152147 0.356078 0.49078593 1.5162349 0.4788904 -0.13264328 -0.44140252 0.7706219 -0.17812659 -0.8013521 -0.33740908 -0.048456345 -0.22674108 0.017005553 -0.6257886 0.3624474 0.102255136 0.31932327 -0.15851125 0.17099169 -0.7005972 -0.14472169 -0.72864264 -0.96399075 0.16410202 0.4461839 -0.5092129 -0.038719628 0.010543416 0.82390994 -0.54065347 -0.43282932 0.4055359 -0.66478443 -0.005042969 0.8134509 -0.20635027 -0.091211416 0.5954176 0.7638314 0.25957894 1.2902727 -0.65106606 0.36126104 0.15850398 0.3156585 0.029537696 0.25617766 0.47670236 0.44297138 -0.2801777 -0.6240837 -0.6449459 -0.20545472
89 0.6182176 -0.06534805 1.1537479 0.99567026 -0.3261758 -0.28268108 -0.23868941 0.091194674 0.2538694 -0.8920853 0.06515565 0.14937961 -0.42447415 0.21599285 0.13278857 -0.15025005 0.061693557 0.3283661 -0.19994327 0.046130963 -0.046670757 -0.17379367 1.219975 -0.0068151574 -0.44630256 0.8585101 -0.4247035 -0.37281436 0.8673342 -0.27123722 -0.23626684 1.1867739 -1.4582504 -0.38698554 0.59295785 -0.14665186 0.15514264 0.54323566 0.8212308 -0.16565257 0.04866704 0.5861279 0.7839115 -0.17528106 0.34657416 -0.24339375 -0.48202202 -0.013717168 0.19212659 -0.029366331 -0.48446828 0.1265724 0.902865 0.82474756 0.83271915 0.29204583 0.061682615 0.89130056 -0.42883697 -0.47108737 0.6272978 -0.71319306 -0.3670633 0.93604755
69 0.7321565 -0.11752884 1.2065878 0.98953426 -0.40442112 -0.2456476 -0.33754468 0.20625478 0.27220398 -0.8051979 0.14096111 0.14524412 -0.31809503 0.102704085 0.16726992 -0.24482244 -0.028088978 0.28086329 -0.15333764 0.1269856 -0.055568628 -0.25920403 1.4092969 -0.019258274 -0.5074704 0.8177536 -0.29481634 -0.307348 0.7990311 -0.18238802 -0.26588517 1.2611493 -1.5648909 -0.34684598 0.50585586 -0.06571185 0.09920492 0.39895442 0.9904854 -0.13125132 0.05328482 0.5535325 0.7395425 -0.15112968 0.47081175 -0.23410153 -0.5723797 0.10076519 0.12132032 -0.055101197 -0.6008967 0.35134676 0.8440665 0.9095184 0.66545725 0.29657304 0.22361743 0.8685646 -0.29301366 -0.52467316 0.516603 -0.72698814 -0.24017231 1.1020728
103 0.4733196 -0.44694844 0.4884352 -0.28404987 -0.5940315 -0.72756886 -0.48829922 1.1082529 0.040583 -0.19722608 0.62889767 0.025779326 0.23101734 -0.087764405 0.35965776 0.047982857 -0.42642862 -0.31216863 0.7706109 0.21331151 0.013304111 0.027259158 1.0840542 -0.50765973 0.13443959 0.6730695 0.32297945 0.123150066 0.83142793 0.67634356 -0.59666127 0.4255075 -1.0592843 0.26297292 0.061151303 0.4580545 0.33272266 0.23424505 0.88703305 -0.35771194 0.20858747 0.32151574 -0.37092578 0.4444229 0.6088533 -0.38116348 -0.5684215 -0.44089198 0.082773834 0.26874086 0.31452125 0.94007856 -0.34111404 0.7401788 0.099240996 0.3308005 0.638244 0.39920008 -0.23968087 -0.48902273 -0.11564487 -0.42050874 0.35635298 0.6128913
88 0.4976426 -0.49013448 0.5613832 -0.38474405 -0.49260098 -0.7372276 -0.5666792 1.2485391 -0.016019672 -0.21380304 0.74931145 0.040851813 0.22160491 0.11386738 0.42386776 0.12471037 -0.44783482 -0.3003053 0.8241645 0.14009397 0.069968686 0.20638445 1.0750831 -0.56354266 0.110803634 0.84569687 0.32285556 0.23621815 0.8500939 0.81604576 -0.75164515 0.43760696 -1.1663902 0.22874305 0.11722573 0.5112922 0.35208505 0.30240372 0.8996956 -0.3532663 0.11014159 0.40042165 -0.40821978 0.3581486 0.6038346 -0.30680364 -0.61633116 -0.53415585 0.14843611 0.39504692 0.43935677 1.0501406 -0.42763752 0.7979156 0.15579155 0.42203912 0.71224844 0.33407375 -0.23601466 -0.5481665 -0.06189408 -0.5397054 0.32105184 0.57758707
42 0.47602984 -0.32800195 0.535543 1.3152117 -0.4761098 0.03594821 -0.37017933 -0.0002188192 0.2378882 -0.3416729 -0.25410855 -0.20416734 -0.18304086 -0.4163119 0.31817898 -0.5991684 -0.4850901 0.47837263 -0.062448207 0.59900826 -0.24223877 -0.69138074 1.6377063 -0.15181749 -0.64128363 0.44396225 -0.12916632 0.060415532 0.8765767 -0.3922001 -0.0009777261 0.95899147 -1.2116177 -0.38485909 -0.13753155 0.051083796 -0.3022243 -0.23642552 0.8371151 -0.14672987 0.20268269 -0.2649683 0.629091 -0.027255768 0.7579815 -0.18884286 -0.47612494 0.23609579 -0.1147256 -0.1022093 -1.4612002 0.42831486 0.8287777 1.1627926 0.025236929 -0.026456019 0.11247999 0.6606961 -0.04026647 0.10986214 -0.18433568 -0.23041096 -0.5070783 1.204659
81 0.72903115 -1.7624003 0.89949095 0.40724668 0.6096411 -0.18001468 -0.553342 -0.2543647 -0.5480898 -0.16240716 0.8960824 -1.7457701 -1.1265761 0.83539116 0.74035835 0.5904634 -0.47239932 0.7065606 0.2921458 0.3718395 1.7130874 1.0224838 0.2684096 0.36115116 -0.41749382 0.9186692 -0.12366876 0.49328762 -0.13505986 1.1398594 -1.1891037 -0.050533652 -0.007661382 -0.89343137 -0.52999026 0.24630575 -0.67411226 -0.9838568 -0.2687201 -0.49417347 0.58445054 0.13589634 -0.7676908 -0.5059189 0.88370997 -0.0263481 -0.17670429 -0.46341097 0.58067846 0.91013294 -0.45471585 0.40194464 0.79461175 0.06812082 -0.34557334 0.16991408 0.11769731 -0.24349514 0.20186254 0.35894826 0.62123597 -0.881817 0.32180002 -0.23608002
101 -0.13526902 0.22668308 -0.27513564 -0.45321667 0.46679214 0.65148693 -1.0378687 0.96529156 -0.18475755 0.3083946 -0.3807401 0.3097558 0.5088995 1.4050022 0.47110686 -0.14128433 -0.4230133 0.705863 -0.18203723 -0.7711957 -0.34375644 -0.029603364 -0.2610037 0.004078282 -0.59688073 0.2937244 0.10980554 0.31228954 -0.16472663 0.17545125 -0.6893622 -0.14533328 -0.6782394 -0.93557954 0.105657764 0.43467146 -0.48942238 -0.020015901 0.015108883 0.814169 -0.51570153 -0.45623454 0.3900402 -0.65007144 -0.0113263475 0.79407585 -0.20246911 -0.09222102 0.60148275 0.72908694 0.26249513 1.2177235 -0.63737935 0.3250806 0.13252765 0.2752491 0.031687867 0.22152038 0.45845821 0.43806666 -0.285132 -0.5727806 -0.5942172 -0.24212557
39 -0.1711357 0.21685345 -0.29356864 -0.48269212 0.5123076 0.72396183 -1.1325023 1.0264043 -0.21113083 0.3069938 -0.40185386 0.33933178 0.50675255 1.5782473 0.5108117 -0.12888886 -0.45662844 0.7995772 -0.20080832 -0.8252663 -0.31172475 -0.022402199 -0.26012206 0.035937656 -0.63253564 0.33434796 0.12545192 0.32574993 -0.15350266 0.18441142 -0.74450773 -0.15236029 -0.70005715 -1.0146239 0.1645032 0.47026265 -0.53216064 -0.03992936 -0.018944861 0.86973125 -0.54124165 -0.45668322 0.40646157 -0.7186219 -0.0016154954 0.8787957 -0.19909257 -0.08500186 0.6385796 0.8044788 0.26395202 1.3350173 -0.6658808 0.37519336 0.16385794 0.29949763 0.010798821 0.26112717 0.51528776 0.47803548 -0.28187525 -0.617724 -0.6394918 -0.21977013
100 0.6463218 -0.42913467 0.8341941 -0.17529082 -0.5262544 -0.80254096 -0.5296771 1.1287718 0.15742488 -0.4128024 0.8032233 0.1735199 0.16660468 0.1809377 0.33119866 0.07318853 -0.45236185 -0.30220065 0.7201933 -0.008344799 0.06609089 0.24354923 1.131042 -0.466788 0.040564746 0.9761892 0.26954868 0.20905225 0.90871644 0.7242962 -0.76023406 0.5967671 -1.2330353 0.19989753 0.29137447 0.4362368 0.39402002 0.47575578 0.9620451 -0.32381195 0.003422525 0.5612761 -0.21401274 0.2495854 0.5824979 -0.28226528 -0.6617115 -0.54346824 0.21744543 0.36989507 0.40907347 0.9859897 -0.3398553 0.8020661 0.28789276 0.5063115 0.74547666 0.35007605 -0.27846277 -0.7713405 0.18408468 -0.6131475 0.28177357 0.67532665
14 -0.26047927 0.081413016 -0.31505853 -0.4346926 0.62370133 0.9869455 -1.1052305 0.9442178 -0.1977996 0.3333 -0.3739324 0.3732199 0.4094043 1.6490825 0.5094103 -0.09993291 -0.39183074 0.87877303 -0.17785381 -0.7194517 -0.19032402 -0.09753599 -0.25790215 0.024322785 -0.6742574 0.3168573 0.23596068 0.39140627 -0.09332947 0.26346326 -0.6642238 -0.13494083 -0.55722934 -0.86631703 0.26324227 0.5338376 -0.5250154 -0.17018962 -0.24235658 0.66953766 -0.37847686 -0.3868158 0.30110198 -0.5824607 0.020406235 0.8068621 -0.29428914 -0.020555615 0.47039357 0.6784788 0.15195775 1.2764126 -0.47870427 0.3322214 0.07907209 0.12251981 0.014637803 0.29158533 0.5102564 0.34023863 -0.3717401 -0.63293594 -0.60569936 -0.14971833
52 0.4678287 -0.43083754 0.5124701 -0.3158034 -0.5557587 -0.6722742 -0.56047887 1.17077 0.017840268 -0.19112113 0.6520259 0.0564347 0.2367188 0.04109154 0.3877934 0.080011345 -0.43817693 -0.28820804 0.76878047 0.14103888 0.025356654 0.09633321 1.0948609 -0.4862304 0.09345087 0.75611955 0.33021846 0.1508606 0.83523446 0.72708267 -0.6962074 0.43811506 -1.178015 0.20284261 0.11858859 0.5125166 0.32190666 0.25936297 0.92513406 -0.32193476 0.15810214 0.34114975 -0.35380128 0.3795412 0.61209905 -0.30482697 -0.6285887 -0.45216846 0.098983355 0.30390555 0.36656675 1.0379149 -0.3498356 0.7739601 0.12813778 0.3583331 0.67465496 0.41079146 -0.2300296 -0.5209996 -0.10305008 -0.50917107 0.34406334 0.6235524
38 0.44816157 -0.5103504 0.35057807 -0.21216053 -0.6864288 -0.64021474 -0.6013091 1.2000957 -0.063965134 -0.06901425 0.4972594 -0.10490989 0.2503667 -0.2517566 0.47601852 0.0039635836 -0.452498 -0.24145448 0.803899 0.4547725 -0.06450318 -0.1708134 1.3755311 -0.58349454 0.08035474 0.6035822 0.42985648 0.11171369 0.8590187 0.6520057 -0.5722318 0.42340323 -1.2529305 0.23290089 -0.15750569 0.5494427 0.24008559 -0.017964367 1.0299536 -0.36829588 0.3927248 0.12893814 -0.45325544 0.562228 0.75682944 -0.43983242 -0.62430066 -0.3301126 -0.054405868 0.20273504 0.13678306 1.1244584 -0.24465333 0.9439557 -0.021425268 0.17790623 0.6469829 0.5412306 -0.18576232 -0.27910164 -0.38260078 -0.43004203 0.39069167 0.7975701
5 -0.04862073 0.30261326 -0.19006328 -0.4274263 0.32329753 0.4350894 -1.0391486 0.97401315 -0.14818625 0.22646315 -0.3610996 0.2500549 0.467529 1.3053732 0.50512534 -0.24427636 -0.48978302 0.64319867 -0.1356576 -0.7547407 -0.34150907 -0.003985078 -0.17060693 0.028153546 -0.56860685 0.29607815 0.09834101 0.27199635 -0.13559031 0.14013067 -0.7241951 -0.12164409 -0.73749906 -0.9712596 0.08214938 0.38759008 -0.537533 0.062107068 0.2373216 0.883232 -0.5657827 -0.36888143 0.3893821 -0.6279358 0.06184994 0.7911938 -0.100776024 -0.08127059 0.5644304 0.71512777 0.20890397 1.2039398 -0.65491337 0.34105515 0.20831342 0.40823084 -0.03980356 0.21373269 0.43907028 0.4797878 -0.21481758 -0.46577337 -0.5813636 -0.07263901
19 -0.13042685 0.26234564 -0.29440483 -0.50406295 0.47831655 0.64243925 -1.1331191 1.0232178 -0.19040266 0.2916836 -0.4134426 0.34633735 0.53670216 1.515273 0.47751898 -0.1555548 -0.4483422 0.7652456 -0.16571864 -0.8313131 -0.34546715 -0.038345985 -0.24808958 -0.004594997 -0.6258905 0.3026597 0.09603292 0.29430956 -0.19269478 0.1620932 -0.72880507 -0.17054136 -0.7297666 -1.0170068 0.1358659 0.44408357 -0.55496824 -0.016031763 0.067979276 0.9101761 -0.58837944 -0.45596737 0.40145957 -0.7208052 0.0016855936 0.8520282 -0.20405199 -0.101302624 0.6192415 0.80180043 0.26577187 1.336122 -0.70554346 0.35228625 0.16809416 0.34214115 -0.0036511282 0.24874106 0.5091041 0.49766755 -0.2838453 -0.5975233 -0.63870156 -0.23283637
90 -0.08931527 0.28451192 -0.21456449 -0.42132172 0.36860207 0.52666926 -1.0628299 1.0021002 -0.16863497 0.24246244 -0.36657777 0.29325375 0.47459772 1.4226118 0.515476 -0.2298095 -0.4810648 0.6891246 -0.17092168 -0.7919304 -0.35934603 0.015333023 -0.21076378 0.031285945 -0.60589695 0.32930258 0.09643784 0.30280572 -0.13454919 0.12316619 -0.73841184 -0.11891202 -0.74742186 -1.0109334 0.11737168 0.40788004 -0.5252636 0.030458529 0.18230537 0.9062388 -0.58045954 -0.39544186 0.4326376 -0.67026937 0.049108136 0.8349161 -0.17091759 -0.062104683 0.6089317 0.7711818 0.22360826 1.2855612 -0.66354084 0.3636867 0.17447056 0.38470185 -0.022117438 0.21553935 0.477943 0.49811792 -0.21961527 -0.5398961 -0.63004506 -0.101883605
29 -0.2554989 0.0048113596 -0.3339726 -0.43207005 0.60538787 0.96565276 -1.054476 0.8507864 -0.18852052 0.31728914 -0.33955193 0.35190016 0.37165728 1.5554914 0.455141 -0.006790784 -0.35075125 0.8205296 -0.16161707 -0.6515457 -0.16124463 -0.116618596 -0.22892006 0.03636387 -0.5869857 0.30229068 0.21374522 0.36236298 -0.11610146 0.29325467 -0.6219124 -0.14401142 -0.48883152 -0.760735 0.22526132 0.54693663 -0.48548642 -0.20127177 -0.29519403 0.588903 -0.3287879 -0.36271635 0.2749749 -0.54042137 -0.012368292 0.7409222 -0.2905673 -0.023159148 0.45728236 0.609274 0.14105311 1.1876937 -0.444425 0.30963454 0.050704498 0.04000452 0.019130023 0.28430954 0.4708671 0.2921911 -0.3812978 -0.62768126 -0.5191775 -0.19942775
34 -0.41368097 -0.7933167 -0.30871606 -0.9644602 0.5184929 0.7422948 -0.5411601 0.3723977 -1.322866 0.6564576 0.38449603 -0.782564 -0.18278895 0.04529079 0.6462593 1.0550482 1.0635707 1.1346911 -0.2091431 1.4008442 0.44469178 1.0078999 0.50329363 -1.0344987 -0.3668099 -0.41953784 -0.44869435 -0.08056655 -0.59930885 0.6640899 -1.0727236 -0.61208916 -0.67152053 -0.16007149 -1.1304911 0.44640186 -0.021185327 -0.9547801 0.56589144 0.29562506 0.5924513 -0.44798827 -0.084503375 -0.63685745 0.41292742 0.107895195 0.13414761 0.13762037 -0.037008263 0.43176812 0.25503308 0.8881176 0.61827254 0.7447203 0.16540068 -0.5434911 0.16472267 -0.23285617 0.8427113 1.6295232 -0.8886304 -1.438607 -0.6785659 -0.39970425
1 0.5400447 -0.33757952 0.5250874 0.6340407 -0.68251866 -0.35306954 -0.36778674 0.49420518 0.19352984 -0.25371593 0.1436153 -0.09215027 0.053712156 -0.47407606 0.32205436 -0.35383898 -0.4656991 0.004223492 0.3310689 0.52886176 -0.19538341 -0.48206526 1.5215197 -0.31592065 -0.2758694 0.46661487 0.14753681 0.051627804 0.83336455 0.06724696 -0.20565295 0.76852685 -1.2068053 -0.023387743 -0.09731121 0.23819044 -0.029264223 -0.1023023 0.97964114 -0.2725902 0.2741578 -0.0052929684 0.12359341 0.29838133 0.7431643 -0.31675377 -0.55492526 0.038844895 -0.11906687 -0.011259747 -0.7384059 0.6883426 0.29464233 0.97921264 -0.031898584 0.08978079 0.37307155 0.5794109 -0.106325895 -0.23093438 -0.21256694 -0.26980376 0.048321955 1.1057358
65 0.4957407 -0.46830222 0.52693194 -0.30323902 -0.5600904 -0.7113446 -0.56977475 1.201263 0.0070894943 -0.18412857 0.6876434 0.02609906 0.25885108 -0.024845473 0.42458448 0.056957062 -0.43765926 -0.2691625 0.8073551 0.22359076 0.017100478 0.05999896 1.1849933 -0.52311206 0.0957652 0.7682305 0.37697604 0.19881059 0.85586566 0.74416584 -0.69509625 0.44578913 -1.1819732 0.23033969 0.037092116 0.50795186 0.30299315 0.22323011 0.94045717 -0.35301426 0.21500841 0.32438207 -0.37930226 0.4204199 0.663262 -0.33240458 -0.6225852 -0.44919455 0.11031852 0.321247 0.312184 1.081238 -0.34537104 0.8240668 0.096384466 0.3427395 0.70051205 0.41564393 -0.19034684 -0.51477766 -0.13126287 -0.49963707 0.3452128 0.64968693
57 -0.2932867 -1.0365852 -0.13590695 -0.782257 0.4288413 0.5527992 -0.4227234 0.206847 -1.181019 0.43589628 0.50770247 -0.85809183 -0.28888002 0.034301817 0.64218616 1.0970097 0.76836497 0.9032565 -0.0037551448 1.3407019 0.8267905 1.0465525 0.48610502 -0.9098797 -0.26842144 -0.29047766 -0.5805902 -0.027595567 -0.36780772 0.780876 -1.203033 -0.6046936 -0.5765179 -0.099932306 -0.9855447 0.42390463 -0.14190571 -0.80037296 0.55659276 0.24885191 0.5628343 -0.28017396 0.0037535552 -0.69606227 0.53258866 0.03757239 0.07370765 0.04372937 0.036112692 0.47227538 0.100749575 0.80969346 0.666712 0.6715657 0.05992077 -0.3356201 0.1462385 -0.3207612 0.65260416 1.323085 -0.573726 -1.4317201 -0.5563503 -0.3731628
35 0.30530143 -1.5468669 0.44469318 -0.050103374 0.608889 0.16410133 -0.4240273 -0.22467963 -0.88886106 0.122208305 0.84177905 -1.4932067 -0.92878646 0.4103625 0.7042771 0.87367785 0.0069548697 0.8197331 0.24229781 0.92549545 1.5783012 1.1645948 0.37224802 -0.12692466 -0.4521087 0.2945504 -0.3902185 0.38442618 -0.27992946 1.0777059 -1.3410616 -0.40052864 -0.09196277 -0.4840915 -0.84598583 0.26440817 -0.5162843 -0.8239375 0.027013894 -0.08683845 0.58518815 0.016868688 -0.3828478 -0.67970544 0.7837644 0.006749677 0.05607164 -0.26618126 0.3294151 0.7709494 -0.32527453 0.6466518 0.9073589 0.27028257 -0.21303189 0.08090549 0.22782393 -0.45287704 0.5461246 0.68394846 0.31672505 -1.1799475 -0.0110509815 -0.2817458
55 -0.136944 -0.20170052 0.5509624 0.7816159 0.43572852 -0.14189306 0.016950663 -0.10745074 -0.008277882 -1.1261986 -0.22853161 0.017479602 -0.8964151 1.2894061 0.02613615 0.29756162 -0.108365044 0.6611006 -0.41344014 -0.2950229 0.23628667 0.45075393 0.24777538 -0.13228847 -0.24653096 1.0760877 -0.90150917 -0.16165814 1.1264505 -0.4562699 -0.32910234 0.65469193 -0.59766996 -0.65537953 0.8643592 -0.5432926 0.22407515 0.7737192 -0.13848618 -0.12463731 -0.3837146 0.33705583 0.88934594 -0.59017813 -0.196896 -0.020292968 -0.0561481 -0.7457488 0.8622688 0.5636897 -0.22125664 -0.48875687 0.6566946 0.7992471 1.1068162 0.5117877 -0.30966544 0.5522688 -0.7466769 0.121621706 0.82856375 -0.7530013 -0.9929003 -0.21521948
54 -0.18362676 0.2205268 -0.28486338 -0.48804998 0.54246116 0.72832626 -1.1196442 0.96465427 -0.19093457 0.29378277 -0.4120869 0.34544858 0.48425308 1.6018354 0.47746608 -0.12155147 -0.43404546 0.8136983 -0.2012412 -0.8269971 -0.29765958 -0.008667093 -0.2901189 0.0061019375 -0.64640284 0.3340282 0.08805447 0.3165393 -0.15565954 0.1484688 -0.7318947 -0.14905015 -0.66675854 -0.9862331 0.18249406 0.44610283 -0.53847444 -0.05257065 -0.079609945 0.8575332 -0.5651136 -0.45951253 0.41832733 -0.7326013 -0.03914703 0.8600651 -0.21912988 -0.1170352 0.6370642 0.8099709 0.26115245 1.2784154 -0.6639618 0.34728363 0.13392131 0.28988683 -0.018250454 0.25018534 0.48006693 0.47584665 -0.27992916 -0.6067567 -0.6517361 -0.27735293
41 -0.27506346 -0.32724762 0.31372225 0.5248626 0.56721634 -0.108110204 0.18900642 -0.000333531 -0.18000427 -1.1290058 -0.039329518 -0.24487795 -0.9003512 1.3682145 -0.07458412 0.38608342 -0.34912625 0.47247052 -0.3950958 -0.16297267 0.40339625 0.7329792 -0.028027626 -0.24364063 -0.21010809 0.8949444 -0.8613922 -0.07230547 0.9631256 -0.40860295 -0.47150028 0.47288054 -0.17978966 -0.57367074 0.8048176 -0.5991298 0.32235715 0.5566948 -0.29586515 -0.16190134 -0.4784755 0.20577621 0.5774691 -0.6384683 -0.22050852 0.10427513 -0.10926053 -0.94490767 1.0821447 0.8834153 -0.08100071 -0.29585525 0.26707202 0.8953717 0.80955815 0.5081598 -0.107565634 0.18104436 -0.6237564 0.31752932 0.6582321 -0.7063642 -0.6380031 -0.5657004
31 0.7673857 -0.1171341 1.2221926 1.016074 -0.4037563 -0.2171544 -0.31695727 0.13965262 0.2789474 -0.77357787 0.13055782 0.10298739 -0.33252668 0.019855227 0.18952554 -0.2534859 0.040028036 0.28480154 -0.19175036 0.17386323 -0.053817604 -0.2819092 1.4074113 -0.012437224 -0.5523491 0.7862546 -0.28774035 -0.32269746 0.754036 -0.19618966 -0.25656518 1.2189933 -1.5531495 -0.34081027 0.40596884 -0.053359684 0.051388554 0.35548344 0.99107105 -0.14404798 0.09794389 0.52916366 0.7172754 -0.15197611 0.49926746 -0.25159457 -0.5604241 0.15961875 0.04726653 -0.120718725 -0.659909 0.31399065 0.9205864 0.8927428 0.65315104 0.21341212 0.20053288 0.85466105 -0.25462678 -0.49156752 0.48969936 -0.70574206 -0.28218502 1.1249546
33 0.4583523 -0.40146422 0.39891106 0.49308744 -0.6679801 -0.34769297 -0.4381879 0.59934026 0.12158059 -0.18808334 0.13603814 -0.09409546 0.092120945 -0.4534437 0.35151005 -0.3019194 -0.46814665 -0.0014875416 0.42705753 0.53662574 -0.18248196 -0.48621324 1.4810076 -0.38454807 -0.18885775 0.47401348 0.1890824 0.05731906 0.803258 0.16447565 -0.2536817 0.6297667 -1.1654469 0.021035817 -0.1585143 0.3004586 0.005703344 -0.14438316 0.93149006 -0.30486825 0.32419732 -0.0422127 0.017239723 0.3565187 0.7679623 -0.32254758 -0.52300495 0.0029047048 -0.13254847 -0.011843813 -0.6264801 0.76722586 0.20312062 0.962685 -0.020501021 0.054926768 0.38850263 0.5778715 -0.09247876 -0.14499147 -0.31822878 -0.2748153 0.048178222 1.0231957
49 0.23887992 -0.5519034 0.11755647 -0.49600804 -0.61861056 -0.5934479 -0.58310056 1.3407313 -0.2476704 0.008401319 0.49606702 -0.18167569 0.2952632 -0.21600458 0.53297704 0.16539225 -0.34773004 -0.32017434 0.8734369 0.50395316 0.018963112 -0.047249127 1.1571962 -0.6811185 0.21057607 0.5018365 0.4147119 0.06973941 0.7617916 0.75213075 -0.66791457 0.21397635 -1.1543906 0.27416646 -0.20989466 0.59881216 0.29358476 -0.116250314 1.0004897 -0.3752254 0.43227223 0.10016691 -0.6452238 0.63031274 0.7315329 -0.42584944 -0.5962452 -0.34732616 -0.060635705 0.25288117 0.44384694 1.1830664 -0.3841356 0.87639457 -0.07803691 0.121720865 0.626834 0.5048295 -0.18204117 -0.07554001 -0.5389976 -0.4715675 0.54321367 0.5584416
86 0.6073866 -0.08079946 1.1037706 1.005105 -0.28993684 -0.23560527 -0.23433727 0.0006686033 0.24818844 -0.8735293 0.039433442 0.10191912 -0.42673406 0.17011365 0.10314818 -0.15886615 0.05274366 0.35397777 -0.25980124 0.07418852 -0.03608317 -0.2073606 1.2183024 -0.003422216 -0.451556 0.78993815 -0.42412734 -0.36676556 0.8224771 -0.29659265 -0.21058485 1.1507671 -1.3795984 -0.4105429 0.5221213 -0.17209564 0.09256471 0.44243118 0.8050831 -0.13804084 0.042584483 0.5168833 0.78022105 -0.21067047 0.34283686 -0.21698427 -0.4490918 0.036641527 0.18506247 -0.06378472 -0.5878268 0.10153026 0.9270974 0.81459266 0.7850712 0.25963935 0.045981664 0.8306824 -0.39004445 -0.375704 0.5938257 -0.6969237 -0.40206537 0.89313793
12 0.623394 -0.035699174 1.1665103 1.0214502 -0.26906076 -0.19380917 -0.19791943 -0.011867957 0.25214106 -0.91311276 0.013232444 0.1527945 -0.4860345 0.24535498 0.08511125 -0.14418678 0.121933505 0.3411736 -0.31362063 0.018050559 -0.007591079 -0.17434226 1.1626724 0.05423468 -0.47996446 0.81095964 -0.46742216 -0.40972927 0.777671 -0.352671 -0.17417641 1.1771505 -1.374024 -0.42086992 0.5849914 -0.22702856 0.14404763 0.5112393 0.7630968 -0.13498871 0.036697734 0.59334415 0.8216753 -0.25193626 0.2769357 -0.22259247 -0.42312837 0.054082185 0.19549234 -0.05169695 -0.51446235 0.029747073 0.957659 0.78109956 0.8263578 0.283817 0.02901996 0.86809516 -0.4107175 -0.42668042 0.67127496 -0.71274894 -0.38908887 0.9003098
85 -0.36244592 -0.36428058 0.12424318 0.5261613 0.73593736 0.114880405 0.27059057 -0.15342014 -0.2732854 -1.1256844 -0.10236399 -0.45191452 -0.9994287 1.5343302 -0.068853475 0.4007268 -0.41158786 0.67880386 -0.6340738 -0.08130118 0.40190342 0.82658136 -0.12942916 -0.20273907 -0.3763396 0.7387898 -0.9432554 -0.055382438 0.83829063 -0.5959083 -0.49460942 0.46062183 -0.051203102 -0.72288513 0.75695574 -0.72682405 0.17239776 0.32806244 -0.461911 -0.096666895 -0.5477815 0.05224591 0.59119934 -0.85858303 -0.28631207 0.2728807 -0.09190158 -0.9216507 1.1924759 1.0225698 -0.19934407 -0.27853683 0.38737935 1.0226117 0.6739915 0.41503045 -0.10344106 0.010390149 -0.5217563 0.6416085 0.54139996 -0.7647079 -0.6665514 -0.67671293
45 0.28223982 -0.5378559 0.17956768 -0.4670404 -0.56218314 -0.5462624 -0.60422015 1.277028 -0.19453765 -0.015344197 0.52803326 -0.13683501 0.26351678 -0.17984122 0.4977646 0.16213506 -0.32257953 -0.26821163 0.81421673 0.4221185 0.015808053 -0.024551675 1.1322254 -0.63212895 0.17822292 0.5053835 0.4100642 0.08048458 0.70262104 0.75774056 -0.6542295 0.22320147 -1.1099932 0.21762082 -0.18193446 0.5740771 0.26559216 -0.111571 0.9695656 -0.35139313 0.419003 0.09710973 -0.6015286 0.55081093 0.7144221 -0.408258 -0.5694958 -0.33831427 -0.043447457 0.25916663 0.41187584 1.1264908 -0.35765737 0.8379465 -0.028378228 0.11300539 0.6160444 0.48636281 -0.14327578 -0.121040225 -0.47230834 -0.47909755 0.4969757 0.5442082
61 -0.44575515 -0.34827748 0.3771765 0.7551179 0.7283025 0.092760324 0.025290858 -0.058604617 -0.26817775 -1.0455594 -0.35436782 -0.2599685 -1.015647 1.5711178 0.085336596 0.47732386 -0.18325002 0.74830997 -0.5149687 -0.15986335 0.5581529 0.7719284 -0.049448837 -0.16769624 -0.2087279 1.0879396 -1.0255969 -0.037397746 1.0395819 -0.36175808 -0.581848 0.35341638 -0.22020699 -0.79063535 0.7788679 -0.52660155 0.21108152 0.5197649 -0.42977718 -0.07847415 -0.4171757 0.12665471 0.77178603 -0.7174987 -0.2175887 0.06766533 0.07138557 -0.9129276 1.0787584 0.9716972 -0.2687721 -0.40282416 0.43465894 0.81221366 1.0595635 0.51744026 -0.47016346 0.38076854 -0.53865147 0.4437857 0.6845631 -0.9040482 -0.9477188 -0.77010614
56 0.22767562 -0.019950218 0.8174619 0.8674213 0.08338991 -0.26197127 -0.095844835 -0.16502872 0.18339787 -1.0336735 -0.17235209 0.18493849 -0.6834166 0.77385354 0.045590572 0.09584517 0.10097898 0.5833378 -0.35220036 -0.26165006 0.0070049167 0.042106226 0.62566113 0.013065065 -0.33276546 0.94953626 -0.71508753 -0.31308854 1.0038753 -0.47015032 -0.10436187 0.87342745 -1.0200757 -0.530152 0.7869925 -0.38214847 0.14537801 0.80833244 0.24345069 -0.11981874 -0.1440741 0.48452044 0.9485011 -0.37831172 -0.05988839 -0.16432449 -0.14231467 -0.3227434 0.444108 0.08551763 -0.28559554 -0.42491832 0.93201834 0.6501503 1.1034104 0.33481255 -0.22847398 0.77318233 -0.727409 -0.22884636 0.86924154 -0.62058485 -0.8913292 0.34273404
80 -0.48878166 -0.35759395 0.2506306 0.6570141 0.8365969 0.24275692 -0.073277295 -0.049629 -0.35869408 -0.8923908 -0.43026873 -0.27715918 -0.97250783 1.6497934 0.14320211 0.51632047 -0.13385777 0.877003 -0.5418479 -0.20454127 0.56390715 0.76531744 -0.15280122 -0.14447175 -0.269628 1.007057 -0.9847272 0.0011571377 0.8960165 -0.2995056 -0.62435305 0.23682356 -0.20066233 -0.88614 0.68458927 -0.45832512 0.093164496 0.40280402 -0.52007854 0.012449303 -0.38442206 0.033061 0.7427808 -0.78143215 -0.22389193 0.15590195 0.123039335 -0.8468747 1.0781611 0.96617943 -0.25531846 -0.34197548 0.4395658 0.74993443 1.0050173 0.43987355 -0.51460415 0.36400595 -0.4264996 0.5453363 0.58521813 -0.93084115 -1.0118241 -0.81969863
91 1.0979095 -0.27880985 0.79581326 -1.5074202 0.37201944 -0.13383438 -0.64141005 1.6213247 -1.0534912 1.135185 0.6485804 -0.5806198 -0.15042895 0.76337415 1.6466799 -0.3766848 -0.687252 0.33061558 0.39713076 0.2917607 -0.13854808 0.36169052 -0.39203152 0.39183465 -0.4848488 0.70749855 0.5944672 0.9804992 0.5328717 1.2444737 -0.7843397 0.8488118 -1.1871748 -0.80921036 0.010831853 0.50387496 -0.3322004 -0.5851265 -0.28612864 0.34861717 -0.9537886 0.07864126 -0.89230275 -0.34408754 0.6188866 0.703657 -0.12983917 -0.5584044 -0.09191385 0.66294175 -0.14827937 1.3535727 -0.259461 0.19960922 -0.31308562 0.96829575 0.8040777 -0.2940559 0.30480757 0.4216297 -1.1337128 -0.51385987 0.15349421 0.9808148
73 1.1689557 -0.32527977 0.84017164 -1.597298 0.3794888 -0.1179465 -0.74997836 1.779647 -1.1158725 1.2121291 0.7043468 -0.6084548 -0.1152779 0.8030157 1.7810177 -0.40096042 -0.7495242 0.37676606 0.41172156 0.29116136 -0.15474102 0.3762961 -0.3441614 0.36893386 -0.523947 0.7690047 0.65495646 1.0309774 0.56098044 1.3630468 -0.87636554 0.8878246 -1.3481675 -0.90433097 0.00078938244 0.607005 -0.39455715 -0.6241407 -0.25755528 0.35650298 -0.9759178 0.08917951 -0.93112934 -0.39535448 0.66916245 0.7744462 -0.1803229 -0.5788532 -0.09308417 0.7101951 -0.17302425 1.5214657 -0.26006514 0.25446588 -0.35015023 0.99571115 0.8715369 -0.30639112 0.34430566 0.4639547 -1.2304504 -0.5919528 0.10703491 1.0684651
2 -0.49551135 -0.2416257 -0.43218595 -0.24948956 0.86840814 1.5001837 -0.9882927 0.6636901 -0.102666825 0.20928746 -0.35141426 0.40425262 0.14590736 1.8378646 0.40048254 -0.009049344 -0.2922809 1.0204177 -0.2497619 -0.50126886 0.13340962 -0.27125883 -0.16793993 0.068797454 -0.6546642 0.30755475 0.47032654 0.43193325 0.11767842 0.34770265 -0.45284027 -0.018196674 -0.165349 -0.44865254 0.5462432 0.6290946 -0.46814755 -0.4595463 -0.8374631 0.16340564 -0.05339964 -0.17353597 0.101810254 -0.3220393 -0.020375332 0.60685706 -0.5086177 0.046836562 0.23198642 0.38528812 -0.18342163 1.0890392 -0.03887098 0.36475894 -0.06080653 -0.26954156 -0.046613637 0.3700707 0.44106627 0.0017279949 -0.50803334 -0.5934133 -0.47309554 0.036903474
32 -0.05839277 -0.23545937 -0.22096603 -1.048316 0.6489619 0.7427066 -0.83009696 0.88718927 -1.3545508 0.92806965 0.20466666 -0.8579332 -0.32800207 0.29497805 0.5561226 0.64165366 1.140188 1.4113019 -0.51229495 1.3085089 -0.348866 0.6942346 0.70741564 -0.9207686 -0.8047045 -0.15834552 0.21036668 -0.035372116 -0.7387758 0.5404105 -0.6878335 -0.09270662 -0.99237704 -0.4544055 -1.1798604 0.28188136 0.22366367 -1.2845443 0.33651662 0.20094459 0.6911367 -0.5027322 -0.76167536 -0.14540529 0.2557624 0.059723765 0.21207583 -0.007818642 -0.12303107 0.32490334 0.5886129 0.9863014 0.39552194 0.7122383 0.35772046 -0.68184483 0.45746657 0.19138658 1.1498467 1.6728107 -1.269236 -1.1253972 -0.4605155 -0.0074563688
79 -0.31446913 -0.52087986 -0.1647943 0.18800952 0.7675536 0.290143 0.44684052 -0.045178045 -0.484261 -1.1699433 0.3476205 -0.92659503 -0.97129524 1.6051543 -0.18978438 0.31382725 -0.85231173 0.6032745 -0.72099763 0.22419475 0.4249637 1.0093572 -0.115889885 -0.3768886 -0.6593724 0.32490405 -0.80697477 0.0028740973 0.51735246 -0.67306066 -0.6653158 0.5919718 0.09626844 -0.7043265 0.64949894 -0.89041966 0.1627578 -0.16600548 -0.44742537 -0.1655818 -0.66145444 -0.09648669 0.15369184 -1.1205326 -0.25549275 0.56965935 -0.38118678 -0.98396647 1.4293108 1.3412886 -0.1070222 0.28338933 0.13281624 1.4499038 0.027743293 0.29471585 0.5004581 -0.47106308 -0.31852195 1.0954406 0.20683125 -0.84092516 -0.0912487 -0.6053875
87 0.15883413 -1.300542 0.30374426 -0.1398824 0.5823773 0.24191089 -0.3803996 -0.18985291 -0.8746195 0.16893718 0.7658529 -1.2653825 -0.8330641 0.31739998 0.5976509 0.8769142 0.14991723 0.81452096 0.15366106 0.95388085 1.3571769 1.1080734 0.35558882 -0.25118184 -0.4753726 0.115743555 -0.45715597 0.29888824 -0.28118825 0.9199571 -1.2409029 -0.41598982 -0.12859076 -0.35473144 -0.8118676 0.2131621 -0.40069622 -0.6808742 0.060677096 0.01618038 0.48922852 0.0128067145 -0.1765323 -0.7116403 0.6553585 0.012070231 0.123223566 -0.21740034 0.3118058 0.66225874 -0.26024717 0.5782454 0.882883 0.3394733 -0.08400963 0.09408385 0.22847213 -0.45939526 0.596461 0.7350705 0.2206615 -1.1330574 -0.17198761 -0.2465292
77 -0.22316223 -1.0662636 -0.085622646 -0.685642 0.5147251 0.5784114 -0.44731337 0.05679519 -1.1012365 0.46129948 0.55193883 -0.9335795 -0.34739506 0.15673308 0.63264936 1.0441691 0.6684261 0.9766085 -0.03151661 1.2074785 0.915484 1.0489618 0.36650142 -0.72879994 -0.34975982 -0.26860207 -0.50369936 0.09462764 -0.49758133 0.83845747 -1.1735477 -0.6447713 -0.37923336 -0.18793209 -1.0076339 0.41570202 -0.2442641 -0.8313076 0.36754748 0.2504424 0.5438608 -0.28055426 -0.026375491 -0.76140654 0.5041229 0.09162905 0.13204613 0.030212503 0.104684725 0.53938586 0.0070144725 0.74408937 0.6769589 0.5070376 -0.025989337 -0.29140806 0.11299297 -0.40816718 0.7115941 1.2558953 -0.4309556 -1.329997 -0.5409527 -0.42443117
25 -0.6606151 -0.99256426 -0.4267712 -0.929464 0.12827745 0.52265155 -0.36756948 0.44510102 -1.2021669 0.3401481 0.34158996 -0.6938034 0.026039992 -0.22580683 0.70644486 1.1168253 0.8157884 0.5549239 0.22999504 1.33372 0.74921846 0.87429714 0.4565937 -1.0818833 0.16554587 -0.40441772 -0.64949775 -0.20276463 -0.12185909 0.763818 -1.1318687 -0.6841764 -0.7846108 0.025843715 -0.8489562 0.56985664 -0.06942932 -0.7469182 0.8545341 0.17666814 0.5290706 -0.346969 0.024467802 -0.43463743 0.6304013 0.0027677435 -0.19248018 0.18778756 -0.10326401 0.36876526 0.3537835 0.9255969 0.4021371 0.8310186 -0.037655566 -0.49699673 0.08838189 -0.15845063 0.3556555 1.4380113 -0.8530367 -1.4636803 -0.36606535 -0.5178964
59 -0.09957609 -0.0878553 -0.26065424 -1.0936204 0.50244385 0.63110125 -0.9452667 1.3462813 -1.3328621 0.8853604 0.0493418 -0.79998636 -0.2616929 0.26406908 0.599117 0.44809783 1.0357301 1.2401559 -0.38612852 1.1943077 -0.5666517 0.46543977 0.83404416 -0.93841726 -0.7108614 -0.054659363 0.40728685 -0.118793964 -0.5325242 0.5509506 -0.5957589 0.084110744 -1.2912202 -0.48313317 -1.0609542 0.33033466 0.36069635 -1.2777647 0.4983056 0.019510776 0.74780244 -0.5096799 -1.0239705 0.25748554 0.3077161 -0.0499478 -0.00405517 -0.07436131 -0.25968736 0.18846233 0.8498211 1.210346 0.16393392 0.89352965 0.35705242 -0.6897862 0.59214354 0.5333867 1.0039418 1.6208131 -1.4812716 -1.0158061 -0.118898906 0.13282676
10 0.11590519 -1.3653573 0.25712466 -0.23977607 0.5797219 0.29337323 -0.34461108 -0.22581382 -0.9557891 0.2744353 0.7898216 -1.3144978 -0.82482725 0.20965537 0.60358626 0.9662384 0.2249371 0.82886404 0.18742764 1.0711567 1.4441731 1.1747819 0.38302234 -0.28117654 -0.45875695 0.011243448 -0.5040618 0.28634188 -0.3765916 0.9694398 -1.3140329 -0.54008615 -0.07652661 -0.27820972 -0.9511726 0.25621212 -0.39045522 -0.6988671 0.10097239 0.101439774 0.5755106 -0.017195966 -0.16856913 -0.77642465 0.657406 0.019828392 0.18207327 -0.18128006 0.23196173 0.6603667 -0.2911366 0.6438977 0.93241125 0.27950862 -0.103359096 0.09144887 0.22087818 -0.5714166 0.6883977 0.7772064 0.23481229 -1.2151583 -0.19416079 -0.24990007
58 -0.017123457 -0.14388004 0.53901625 0.64467627 0.38470477 -0.095384195 -0.28915817 -0.06143396 0.0399261 -0.99454933 -0.3215461 0.16289261 -0.7267165 1.3148772 0.20715812 0.27572745 0.041898157 0.9193387 -0.33381855 -0.44201058 0.1037014 0.2200559 0.35044605 -0.08803867 -0.3342008 1.1325338 -0.82417315 -0.18808968 1.1600357 -0.35846448 -0.25754339 0.6321944 -0.93538344 -0.7409538 0.83847505 -0.32965118 0.03564721 0.8228318 -0.082083024 -0.013841213 -0.24226668 0.34551415 0.9443254 -0.5412969 -0.14219902 -0.03236973 -0.029928308 -0.56692713 0.6450989 0.31601444 -0.14915074 -0.403459 0.8411262 0.68702173 1.233873 0.40830028 -0.39493418 0.7605512 -0.79467624 0.03598309 0.8412113 -0.78461325 -1.266744 0.04907843
7 0.6384718 -1.6958535 0.80132014 0.3072372 0.613078 -0.08729845 -0.60004103 -0.216641 -0.64423084 -0.13302523 0.8837878 -1.6742599 -1.0439001 0.875372 0.78066814 0.6217268 -0.3397965 0.8129408 0.20994748 0.4772583 1.613098 1.0563751 0.29698282 0.18805996 -0.46066955 0.8348298 -0.22957277 0.48474708 -0.14208509 1.1027167 -1.2335665 -0.062493682 -0.12371162 -0.88519293 -0.58696085 0.2522363 -0.65211546 -1.0081552 -0.14000405 -0.39724967 0.57559305 0.07415632 -0.66047543 -0.6263773 0.85035634 -0.005637578 -0.15406422 -0.42886266 0.60182697 0.9508198 -0.38289836 0.5228977 0.7715259 0.18775944 -0.29552653 0.10749923 0.14091109 -0.18999265 0.26218495 0.5440051 0.4677389 -1.0361903 0.17109193 -0.31529638
17 0.6571762 -1.5750947 0.798107 0.33982646 0.5748041 -0.1481765 -0.50040495 -0.26366305 -0.49269077 -0.14345238 0.830376 -1.5814579 -0.97887 0.8018636 0.71058774 0.50447744 -0.38242742 0.66629624 0.23599046 0.31169325 1.4986912 0.9196992 0.1623128 0.33367464 -0.38592064 0.82812655 -0.114456125 0.47429833 -0.16123343 1.0489025 -1.09027 -0.03598054 0.02240085 -0.8368347 -0.47694427 0.22802685 -0.64152884 -0.9434818 -0.24447437 -0.41634458 0.5240958 0.12139435 -0.7118186 -0.5039786 0.7423813 -0.007750499 -0.16197424 -0.3929765 0.5340022 0.84603584 -0.36338118 0.35231847 0.6761584 0.03034356 -0.34594095 0.093017586 0.07447906 -0.17922737 0.18818383 0.39377993 0.49951527 -0.8087632 0.26203078 -0.31062797
60 0.27389756 -0.51904714 0.19852214 1.2045548 -0.33245158 0.33711782 -0.52068704 0.027437484 0.011706463 -0.041419808 -0.31696257 -0.4452215 -0.1277549 -0.35235065 0.513377 -0.6318248 -0.692325 0.6972249 -0.02846916 0.81542474 -0.21205395 -0.6913103 1.6086359 -0.27802694 -0.80513 0.3106454 -0.027070781 0.34309003 0.745899 -0.27774236 -0.09212318 0.6872659 -1.0970813 -0.5530571 -0.4610524 0.2005894 -0.56323856 -0.6582041 0.68775594 -0.08243238 0.26465634 -0.68218434 0.5091734 -0.10279786 0.955079 -0.044857807 -0.4473313 0.22318982 -0.09435688 0.029383376 -1.7000576 0.73284787 0.74032253 1.2813768 -0.31108877 -0.16123824 0.14857689 0.5040881 0.23554377 0.53418183 -0.605403 -0.23460464 -0.6573491 1.0857388
43 0.5018037 -0.20530906 0.88521975 -0.07558768 -0.25845644 -0.74914396 -0.2955892 0.8328068 0.16932352 -0.60135263 0.69802815 0.3043068 -0.07554058 0.44376054 0.13651098 0.106720634 -0.23913461 -0.25718117 0.4809923 -0.27079457 0.09529011 0.43424672 0.67203766 -0.34616578 0.06729114 0.9654723 -0.03240607 0.09833609 0.8366832 0.5198374 -0.59128445 0.6280243 -0.9739259 0.15054432 0.59271777 0.15720674 0.486203 0.7606571 0.6789127 -0.23658124 -0.2440007 0.7010829 0.046905633 0.07795963 0.24729146 -0.21275224 -0.52287555 -0.58291703 0.32441372 0.35465693 0.5343764 0.5267646 -0.25547302 0.5945902 0.5563872 0.5751144 0.52833915 0.25299156 -0.3970533 -0.7560289 0.49198446 -0.6006042 0.06038888 0.34012908
68 0.39872512 -0.39885333 0.39850205 1.0672762 -0.5155784 0.038206477 -0.3953109 0.12459889 0.15201183 -0.219897 -0.18969716 -0.261492 -0.11170218 -0.4559886 0.34969714 -0.5017844 -0.54204553 0.3957341 0.052141145 0.67079616 -0.22671252 -0.6492393 1.5728805 -0.2652748 -0.5402609 0.36173475 -0.0309086 0.08724882 0.79964435 -0.25209954 -0.056299865 0.75264144 -1.1168231 -0.3141243 -0.26170388 0.13287416 -0.30801812 -0.35393167 0.80164766 -0.19079849 0.25521374 -0.34479946 0.42200556 0.06602569 0.80886114 -0.19076036 -0.4458451 0.17783804 -0.13655835 -0.052300323 -1.3179607 0.5809936 0.6584181 1.1204852 -0.08313535 -0.047284834 0.18882683 0.60331064 0.03588199 0.18370964 -0.36277285 -0.23665845 -0.37527868 1.1012915
76 0.031518504 -0.13753061 0.572224 0.6457521 0.2860591 -0.24880324 -0.1524016 -0.032369092 0.074787 -1.002074 -0.2013475 0.18988882 -0.6778361 1.1474862 0.1277415 0.24538134 -0.035276346 0.6674783 -0.28024897 -0.4018261 0.10732818 0.26111218 0.33616897 -0.107621506 -0.21866691 1.0543652 -0.74874216 -0.15145206 1.118127 -0.32680684 -0.2401971 0.65142184 -0.7854554 -0.5582743 0.84806234 -0.37270558 0.15828991 0.84345305 0.006271134 -0.06883738 -0.26190537 0.39199528 0.8547337 -0.42046994 -0.13357656 -0.09618373 -0.0790635 -0.56598926 0.62523293 0.32326245 -0.09243268 -0.4169874 0.6924403 0.65346515 1.1210021 0.45708913 -0.28525594 0.6538084 -0.78707284 -0.055839248 0.7932429 -0.64481986 -1.0077348 0.020236986
70 0.25874883 -0.50616074 0.14252599 1.1776791 -0.37703156 0.31522396 -0.5177258 0.040511057 0.005910065 0.042724356 -0.28681388 -0.45129907 -0.0591917 -0.45752737 0.538498 -0.65532154 -0.71712697 0.6447121 0.049502384 0.8712857 -0.24230069 -0.71257824 1.6153126 -0.2868814 -0.7746676 0.24535422 0.05487992 0.37032235 0.7152117 -0.2486791 -0.06482942 0.6314715 -1.0193928 -0.48531508 -0.5507169 0.26881963 -0.59039605 -0.71573913 0.68251115 -0.09554144 0.30339542 -0.723749 0.43465742 -0.03814295 0.9848637 -0.06900787 -0.42675948 0.2560215 -0.17352033 -0.0031589626 -1.7217544 0.7420154 0.6866688 1.2427169 -0.4030326 -0.22025472 0.15538396 0.48355478 0.25798863 0.53838307 -0.6744654 -0.14445944 -0.6217319 1.0978081
28 -0.33191738 -0.52899706 -0.27345514 0.08469039 0.8340212 0.38198683 0.43805483 -0.047183573 -0.52106595 -1.1290022 0.37274608 -1.0066468 -0.96933466 1.6478323 -0.16680704 0.31280124 -0.8925281 0.63371307 -0.76672596 0.23215207 0.41082254 1.039527 -0.15895408 -0.3729959 -0.7333696 0.22457547 -0.7496086 0.030656029 0.39033502 -0.6807029 -0.6896135 0.51354456 0.13676736 -0.7294 0.5612263 -0.86605304 0.08840572 -0.28916362 -0.49752337 -0.11041665 -0.67130053 -0.17163888 0.110930555 -1.1929519 -0.24031107 0.6688864 -0.3760021 -0.9447563 1.4446619 1.4073659 -0.12060146 0.377242 0.10031547 1.4517561 -0.0982519 0.26238388 0.5810878 -0.57302684 -0.23215882 1.1902785 0.12795419 -0.84612256 -0.043724593 -0.64606947
93 -0.03238569 -0.17543828 0.5483813 0.6666898 0.4612908 -0.093835756 -0.24119689 -0.13023795 -0.030357944 -1.0191689 -0.33876178 0.08491006 -0.8330238 1.3750949 0.21506503 0.34869197 0.09254268 0.9910175 -0.3713768 -0.40532988 0.14688426 0.3075981 0.32221073 -0.073652506 -0.34243026 1.1509691 -0.87878436 -0.212167 1.1371752 -0.37202626 -0.2738596 0.6004548 -0.9039941 -0.76764345 0.8344838 -0.3884818 0.02490969 0.8387685 -0.14008062 -0.0472102 -0.22475077 0.33163214 0.96864367 -0.6000199 -0.17020145 -0.045861863 0.018185943 -0.5677049 0.6880139 0.34278914 -0.14918278 -0.497164 0.94349736 0.67311424 1.2777643 0.3818719 -0.4348752 0.73944634 -0.8171526 0.13673688 0.88020253 -0.8322832 -1.3292533 -0.0011037096
23 -0.6472399 -0.4317153 -0.59346914 -0.99727535 -0.25581244 0.16727903 -0.66992235 1.5841128 -1.0229226 0.23646617 -0.094083704 -0.46444523 0.22529362 -0.18285869 0.6940747 0.46679154 0.4293367 0.059433937 0.47440425 0.8988621 -0.05653037 0.11449647 0.7642627 -1.0503424 0.3548307 -0.021919984 0.1093844 -0.3836188 0.44174972 0.61163217 -0.6693134 -0.12610124 -1.4265922 -0.07317209 -0.48235318 0.6286475 0.36085838 -0.7465952 1.0979775 -0.24600598 0.6164515 -0.41580394 -0.77684027 0.684433 0.665144 -0.2619541 -0.6483957 -0.043543402 -0.3429494 0.0779765 1.016812 1.371989 -0.36110592 1.1536596 -0.038333826 -0.49022263 0.358321 0.7266049 0.03472425 1.1989576 -1.4017164 -0.9296319 0.4796102 -0.10345062
8 -0.53122324 -0.27653325 -0.44670188 -0.27847835 0.95296526 1.6026396 -1.0511552 0.67937803 -0.14777857 0.21598999 -0.34578392 0.40723377 0.12267973 1.9897262 0.45265287 0.042286623 -0.30865788 1.0863206 -0.26012933 -0.5157527 0.21457805 -0.29179236 -0.20196815 0.065958485 -0.71023434 0.32356843 0.4885824 0.4948777 0.12499771 0.3876041 -0.4727479 -0.017220456 -0.12807348 -0.4631669 0.5975144 0.6632434 -0.47911948 -0.48477685 -0.94327164 0.11578096 -0.022564853 -0.14584732 0.056765527 -0.3320658 -0.023825457 0.644013 -0.52277374 0.043809503 0.2008154 0.42984506 -0.19471398 1.118423 -0.031565987 0.35812002 -0.033452995 -0.3109654 -0.04578039 0.3749294 0.44083032 -0.022562483 -0.5572043 -0.63442594 -0.49392608 0.041890096
104 0.5877256 -0.26124167 0.9101453 -0.0421945 -0.34195355 -0.7324995 -0.38808507 0.87392557 0.2079111 -0.56433856 0.70001996 0.29651222 -0.015308193 0.37788865 0.17768532 0.052227367 -0.2961324 -0.2479203 0.50252795 -0.21175739 0.05305746 0.3263666 0.82971567 -0.33130333 0.012429763 0.98891306 0.053663805 0.09734507 0.8659534 0.54773736 -0.6313881 0.691962 -1.1122563 0.12692057 0.5438256 0.1988554 0.4192013 0.70293033 0.75548685 -0.25074753 -0.18817544 0.6688095 0.024685342 0.10228724 0.3565533 -0.2241004 -0.5834721 -0.5372426 0.2985343 0.34346277 0.44273117 0.6208236 -0.21839833 0.6325307 0.48424107 0.5902308 0.5706081 0.33378986 -0.36450678 -0.81778115 0.45579484 -0.5916017 0.0867752 0.4702667
21 -0.30202493 -0.5863133 -0.31190193 0.025676548 0.81933475 0.40435073 0.3864939 0.03321919 -0.5873632 -1.0717977 0.3814114 -1.032356 -0.935948 1.6612452 -0.121011786 0.31575498 -0.8969443 0.6694056 -0.73164046 0.2735845 0.4338695 1.0808884 -0.13979107 -0.40142685 -0.7449757 0.20848176 -0.70836633 0.05073829 0.36280382 -0.6336002 -0.7519075 0.5105698 0.13594706 -0.7474645 0.546932 -0.8393367 0.092654854 -0.37067363 -0.47694492 -0.095835745 -0.66180235 -0.19737533 0.04379729 -1.2039058 -0.21405113 0.6796635 -0.44488207 -0.9385199 1.4527289 1.4310906 -0.06379774 0.48742598 0.05676762 1.4908439 -0.15566458 0.22696441 0.6382769 -0.6139817 -0.14420374 1.2479864 0.030907027 -0.84867316 0.005552545 -0.6514676
96 -0.107313685 0.14611648 -0.19965139 -0.4045412 0.36662677 0.54429716 -0.91243756 0.80368817 -0.15276259 0.28280976 -0.32295313 0.29448783 0.41526765 1.1461662 0.41509938 -0.07209938 -0.3709212 0.6003081 -0.084005274 -0.62510747 -0.28468505 -0.030763041 -0.22442004 0.013989129 -0.47038278 0.23914713 0.080780365 0.27901733 -0.13606666 0.17448965 -0.57179034 -0.12303352 -0.56010586 -0.7822048 0.10350553 0.38429427 -0.3964881 -0.019878408 0.01992711 0.6935526 -0.41549414 -0.38955048 0.30003715 -0.5290038 0.0024593016 0.6895623 -0.15881367 -0.08085127 0.48412228 0.5969328 0.22458008 1.0509243 -0.5589531 0.24501888 0.086687736 0.24831623 0.050752666 0.19316673 0.37612307 0.31849808 -0.23328087 -0.5045496 -0.44585022 -0.19245446
51 -0.48491856 -0.352158 0.24164581 0.59678566 0.81921524 0.20090416 0.0101742735 -0.015350981 -0.37866038 -0.9171707 -0.29984042 -0.32595867 -0.958517 1.5985218 0.09727557 0.46371618 -0.2607133 0.764779 -0.5098408 -0.13331385 0.54240364 0.7961445 -0.16045272 -0.16426025 -0.24064519 0.9367497 -0.93472975 0.005831676 0.8271734 -0.3210293 -0.6275724 0.24683338 -0.11757661 -0.7872526 0.6685383 -0.47716224 0.16179684 0.35387528 -0.48992276 -0.040723108 -0.43431884 0.052780367 0.64485914 -0.7910352 -0.19001813 0.19855012 0.06235711 -0.8994813 1.1161995 1.033203 -0.24739203 -0.22568938 0.29352054 0.7976141 0.8605464 0.47406492 -0.37110433 0.25370014 -0.37458366 0.5827232 0.50403523 -0.8799049 -0.8459268 -0.82732147
72 0.41081655 -0.5013837 0.31832358 0.9489957 -0.5359753 0.0225273 -0.5292854 0.30012253 0.0991452 -0.06975153 -0.1493603 -0.33411917 0.0007262361 -0.483729 0.49586055 -0.5203775 -0.6556293 0.42550713 0.21026264 0.73550606 -0.22123224 -0.66985106 1.6732595 -0.30852026 -0.5577407 0.35082346 0.10870304 0.21221429 0.81208014 -0.088990696 -0.16175967 0.7153858 -1.1967973 -0.2908376 -0.38501728 0.286728 -0.33953163 -0.45890138 0.87930197 -0.19243957 0.32089078 -0.41752326 0.2858035 0.13537247 0.9023314 -0.16933197 -0.5050967 0.1719313 -0.14299814 0.020697305 -1.327795 0.78601605 0.5352462 1.2001728 -0.23121907 -0.09684017 0.25290626 0.58667433 0.12567607 0.24940705 -0.52415884 -0.22859466 -0.36758307 1.1656952
84 0.13685864 -0.11795731 0.6453757 0.4383428 0.011400748 -0.56302464 0.10263258 0.10374763 0.1488173 -0.9907926 0.19150202 0.1557523 -0.55141664 0.61050916 -0.087929375 0.20381066 -0.09422564 0.06232703 -0.028233133 -0.20520936 0.11564446 0.40645266 0.39714906 -0.20396642 0.017330699 0.9196426 -0.56512976 -0.17105408 1.01545 -0.17892691 -0.26364046 0.6247876 -0.5873574 -0.12295006 0.7446561 -0.36829704 0.46227142 0.8549918 0.24092773 -0.27101377 -0.25971583 0.54175663 0.4722953 -0.16081971 -0.062727824 -0.2326457 -0.20261498 -0.66786414 0.56540644 0.30418107 0.15532587 -0.31673875 0.26772615 0.5899496 0.8461237 0.48674318 0.016828923 0.3706051 -0.7090764 -0.32907194 0.7352184 -0.47125086 -0.4030966 -0.005547733
30 -0.3300285 -0.5468643 -0.3031932 -0.021114698 0.7825501 0.36419046 0.44607043 0.03083599 -0.54106855 -1.0730575 0.4126399 -1.0144762 -0.9005442 1.5869757 -0.17881627 0.29965156 -0.94595104 0.58597386 -0.7217929 0.28648072 0.3913237 1.0611598 -0.18593813 -0.4125539 -0.7019129 0.17712529 -0.6944648 0.051738948 0.36116716 -0.65378636 -0.71961606 0.5097938 0.16521291 -0.67569387 0.53202105 -0.8523673 0.09169612 -0.37460133 -0.48530716 -0.12570547 -0.6926817 -0.19926012 0.018695114 -1.1634929 -0.22538923 0.6848826 -0.41270733 -0.94960976 1.4400352 1.423194 -0.06337393 0.459793 0.0061589926 1.4490063 -0.16048975 0.256225 0.65923876 -0.6409294 -0.16380747 1.220348 0.045359563 -0.82423484 0.04631098 -0.6444628
22 -0.5007395 -0.38917226 0.34739068 0.6662133 0.8132697 0.26190722 -0.18362208 0.05101067 -0.41747862 -0.7899316 -0.45060983 -0.29557538 -0.94086397 1.6108944 0.21919571 0.5286872 -0.118929215 0.8723983 -0.47818708 -0.123675816 0.6104186 0.7638307 -0.089424424 -0.1435595 -0.23012969 1.0512897 -0.94189787 0.010602161 0.894123 -0.19323131 -0.6775367 0.19377714 -0.27831873 -0.87680405 0.5831214 -0.33442104 0.08800725 0.36332053 -0.44812316 0.019867186 -0.32046637 0.04989393 0.71733415 -0.7412028 -0.14154235 0.11416675 0.15692466 -0.81408155 1.0252162 0.9855693 -0.31276235 -0.27233374 0.4253919 0.7285599 1.0243623 0.44945708 -0.54895896 0.42630646 -0.35227028 0.5491404 0.53885514 -0.9898841 -1.0124246 -0.8074592
37 -0.06443211 -0.025666218 -0.23917988 -1.0036106 0.5460728 0.66948396 -0.84396213 1.1315036 -1.2532344 0.8646941 0.035723347 -0.6927095 -0.2533159 0.2646179 0.5006918 0.4443902 1.0568091 1.2883421 -0.5061021 1.1480192 -0.62831616 0.4805216 0.7655425 -0.88687706 -0.7570978 -0.11131756 0.33339 -0.11333516 -0.5962778 0.40610042 -0.5115774 0.09112389 -1.1076204 -0.43885335 -1.0263025 0.27957478 0.34877363 -1.1764259 0.38834321 0.112173535 0.6287154 -0.49763736 -0.8446259 0.10691834 0.21753696 0.0020203232 0.09026617 -0.02716686 -0.20223358 0.18112417 0.7280178 0.9705876 0.20602536 0.79407394 0.3755286 -0.6568872 0.5165073 0.40340877 1.0131359 1.5483189 -1.3568974 -0.95124686 -0.3010401 0.12409842
102 -0.2642402 -0.552612 -0.2243304 0.05491194 0.8313036 0.3857931 0.34411508 0.06427499 -0.5020373 -1.1250385 0.40882432 -0.9806842 -0.9365862 1.7305869 -0.12808995 0.31223994 -0.93377143 0.6612181 -0.70488596 0.2078479 0.41285047 1.0445259 -0.12514615 -0.37534875 -0.733408 0.315994 -0.72548974 0.07353371 0.43578315 -0.6016309 -0.74933076 0.5793771 0.054064512 -0.772643 0.6205422 -0.81396735 0.09046533 -0.29901513 -0.47336498 -0.11069037 -0.69383234 -0.15445319 0.10557338 -1.177111 -0.2190983 0.6552701 -0.45853767 -0.9572788 1.4595604 1.4156522 -0.07658544 0.47455785 0.10768909 1.4928049 -0.042364907 0.28520328 0.59879553 -0.51424146 -0.23180588 1.1602474 0.112021066 -0.8736121 -0.06632861 -0.57698095
71 0.37615147 -0.17019801 0.8348517 0.27548513 -0.19249669 -0.6855689 -0.09435158 0.46619946 0.27523696 -0.8185324 0.47012565 0.27138206 -0.26074472 0.5555771 0.013570791 0.08837938 -0.28195387 -0.16081814 0.24456218 -0.3282767 0.06539631 0.39634594 0.5564046 -0.24819914 0.010116978 1.0075597 -0.25138816 0.03910291 0.9529954 0.16111353 -0.41426823 0.6733265 -0.79334795 0.02131324 0.73555756 -0.116858244 0.46665788 0.86311847 0.47366947 -0.25643086 -0.34734848 0.6293378 0.31119713 -0.08325109 0.12636817 -0.20411122 -0.42175215 -0.64057356 0.48744258 0.3361611 0.27633542 0.10653093 -0.037558135 0.6166921 0.6641623 0.6178691 0.3364091 0.2991224 -0.5504978 -0.67452574 0.6674873 -0.46811628 -0.14664957 0.21462366
15 -0.2530489 -0.49307436 -0.39489624 -0.79403406 -0.4643911 -0.20634225 -0.59916687 1.4564588 -0.6199528 0.20435144 0.17253396 -0.35138857 0.33364484 -0.30072057 0.5817787 0.30564883 0.0071417172 -0.2365644 0.731608 0.7501936 -0.013876882 -0.0666536 0.94000196 -0.82977027 0.3145791 0.09871604 0.36192685 -0.20258614 0.50102556 0.65896773 -0.5897411 -0.062566884 -1.1381826 0.1767911 -0.44848865 0.6328922 0.33563435 -0.5210496 1.0412412 -0.30050823 0.63709855 -0.23741171 -0.84066755 0.76105314 0.7002571 -0.40386656 -0.5570753 -0.13499239 -0.25903183 0.10881482 0.74334544 1.2583152 -0.41595638 0.940345 -0.16734901 -0.26487035 0.46638027 0.63777864 -0.09765876 0.5665158 -1.0505227 -0.5687457 0.64019537 0.19402836
4 -0.88299644 -0.8620376 -0.58705664 -0.81672716 -0.045551825 0.4342797 -0.37329865 0.68926615 -1.0809579 0.13261999 0.059978776 -0.5596482 0.18405764 -0.20745082 0.64430845 0.87966585 0.5875818 0.17561889 0.37124717 1.0683883 0.6604954 0.56764024 0.38748556 -1.0424329 0.46186346 -0.3203257 -0.58954215 -0.31250232 0.1769186 0.59495443 -0.9660126 -0.6334081 -0.87611306 -0.031872712 -0.5241152 0.5517275 -0.023988035 -0.6659469 0.8932378 0.040730342 0.431448 -0.41678572 -0.054083515 -0.11720016 0.6585828 -0.0064870045 -0.45066318 0.1800511 -0.18092242 0.28561074 0.53902406 0.9967057 0.07160814 0.9469464 -0.13937387 -0.49570048 -0.009691814 0.07319716 0.05111452 1.3673116 -0.971914 -1.3088682 -0.061320186 -0.61173826
98 0.033395067 -0.55551696 -0.027373467 1.3020463 -0.058816116 0.7069732 -0.51603967 -0.18158749 -0.16528708 0.10564756 -0.4660571 -0.61718434 -0.2263214 -0.18229838 0.638889 -0.6480227 -0.7375982 1.0260757 -0.19153725 0.8551691 -0.17371218 -0.6107103 1.359123 -0.18961981 -0.9987673 0.12320886 -0.14639364 0.47192526 0.5841282 -0.4120697 -0.07114322 0.566977 -0.8352535 -0.8102923 -0.6232631 0.18098192 -0.80022186 -0.8669775 0.43682283 0.027263952 0.25042823 -0.9856259 0.6230432 -0.35499117 0.93223155 0.1074626 -0.32482752 0.3015663 -0.039072167 0.09884564 -1.912365 0.70118964 0.87650913 1.2721379 -0.4157496 -0.31350437 0.03214403 0.38360187 0.40667397 0.95186114 -0.765474 -0.22863786 -0.93802214 0.8129013
94 -0.8900915 -0.72302884 -0.6835405 -0.9339043 -0.20617785 0.36099342 -0.5036937 1.1792672 -1.0528455 0.11446012 -0.050002065 -0.44720712 0.28971714 -0.23073202 0.7512428 0.7562593 0.5261027 0.021474756 0.48168364 1.0021899 0.3964123 0.3427551 0.5253911 -1.0404575 0.5199327 -0.17919573 -0.33830598 -0.3879421 0.3768256 0.63558745 -0.88979363 -0.4220387 -1.2322613 -0.051291715 -0.42324293 0.68165314 0.15733328 -0.7077778 1.1048461 -0.08657559 0.5118209 -0.39453942 -0.3909943 0.29855224 0.771185 -0.10042182 -0.61953104 0.13133718 -0.26003614 0.16486177 0.7778784 1.2287374 -0.1828917 1.1195203 -0.08994934 -0.5632496 0.16234109 0.43579233 -0.0879144 1.3411044 -1.2612444 -1.2324331 0.24282761 -0.44561657
67 -0.35286918 -0.1482895 -0.4557721 -0.9489702 0.060291044 0.36040673 -0.79044783 1.4666119 -1.0511533 0.4878568 -0.12770174 -0.51922417 0.046190176 0.0382095 0.5927951 0.33155143 0.6560533 0.52695143 0.059974696 0.9178442 -0.4478242 0.13149112 0.75828654 -0.8746671 -0.13659228 0.02338948 0.3729029 -0.28868732 0.03273615 0.42712608 -0.5015445 0.0958168 -1.3247209 -0.25854114 -0.648785 0.45707864 0.4246289 -0.9343439 0.75127804 -0.12682362 0.6394004 -0.4520253 -0.9648392 0.621905 0.463267 -0.18229146 -0.3635345 -0.036018558 -0.29389557 0.056183234 0.93350846 1.1660426 -0.2156064 0.98019356 0.17273931 -0.61419624 0.46664894 0.6885395 0.4014745 1.2779305 -1.4215266 -0.7994103 0.2764862 0.074404806
95 0.23878284 -0.45415568 0.1959165 1.2036406 -0.25294486 0.37809467 -0.44508466 -0.04911785 -0.008445194 0.005363749 -0.29595318 -0.44629422 -0.13065797 -0.34378698 0.51646733 -0.59733105 -0.6466894 0.7100503 -0.034969673 0.75287 -0.21863948 -0.6359253 1.4446774 -0.23836724 -0.79159695 0.21987423 -0.021893706 0.3308436 0.64245987 -0.31977472 -0.066804685 0.6264704 -0.9530889 -0.5291049 -0.46842653 0.20210034 -0.57133037 -0.64260006 0.6012295 -0.069526985 0.2243529 -0.6943438 0.50319725 -0.14319625 0.8969416 -0.044120487 -0.4133437 0.24865846 -0.098726965 0.030099738 -1.6364366 0.65402967 0.7463099 1.1527257 -0.30304676 -0.17514537 0.11094544 0.46133557 0.24158686 0.5342602 -0.5861487 -0.17007625 -0.68709123 0.96009254
27 0.07157612 -0.6023597 -0.08240467 -0.6029367 -0.5507879 -0.36574826 -0.67796093 1.4175212 -0.40571553 0.109727 0.35269025 -0.3216988 0.2606473 -0.188541 0.6107853 0.22009245 -0.3216056 -0.1903038 0.824033 0.60653317 0.04210476 -0.12522659 1.136701 -0.727105 0.18277481 0.3630881 0.44465333 -0.019777426 0.6794362 0.75461584 -0.6935586 0.1345999 -1.1522801 0.18820533 -0.3518412 0.6481842 0.2562893 -0.3677708 0.9740951 -0.37468797 0.5687402 -0.067752816 -0.74314266 0.6492419 0.7443353 -0.41425774 -0.5873194 -0.31956443 -0.07303303 0.23709798 0.45819932 1.306961 -0.38766122 0.9329608 -0.18421753 -0.002742779 0.5731504 0.59769213 -0.09991812 0.19213125 -0.7495441 -0.48214447 0.5938172 0.47942203
44 -0.6714669 -0.5964956 -0.4388639 -0.17051062 1.1163607 1.9231517 -0.95939827 0.54302156 -0.19133565 0.1440052 -0.24036907 0.3406487 -0.16166696 2.096131 0.45309046 0.16887116 -0.20374177 1.2309393 -0.27796298 -0.24225993 0.47017917 -0.30474454 -0.09909583 0.0388376 -0.71745145 0.3540843 0.595427 0.54136145 0.33410448 0.5222151 -0.42242023 0.08768228 0.01856901 -0.26147416 0.7750516 0.73262334 -0.42239764 -0.7154773 -1.2400377 -0.2524061 0.2508497 -0.027472436 -0.098466694 -0.17012346 0.027970918 0.4979734 -0.6760566 0.04914364 0.05269333 0.29984263 -0.39703757 1.0242615 0.33943766 0.45578852 -0.10745729 -0.58357984 -0.01991563 0.42340794 0.41018462 -0.13769768 -0.67004883 -0.7057783 -0.43737596 0.12478802
0 -0.61572134 -0.57334757 -0.44911954 -0.15565903 1.1180884 1.8695724 -0.9582555 0.57109034 -0.1854936 0.10372352 -0.21700463 0.2889786 -0.17576386 2.1055799 0.4384797 0.18669729 -0.24542561 1.2354735 -0.29307738 -0.251796 0.48854578 -0.24789129 -0.10309057 0.03196904 -0.74706185 0.38970017 0.5725 0.5034603 0.32102978 0.5157593 -0.47690326 0.08530748 -0.022972768 -0.30833533 0.73850375 0.6819792 -0.42963916 -0.7038946 -1.2117695 -0.22578524 0.22392268 -0.0019694802 -0.08533323 -0.2143661 0.04475771 0.51508504 -0.66030204 0.0026387929 0.104372345 0.34674466 -0.35859266 1.0509968 0.33072507 0.4655583 -0.055388898 -0.49741325 0.0031069617 0.429747 0.37425154 -0.08885246 -0.64866835 -0.7531775 -0.45747614 0.14000273
20 -0.5943649 -0.5762043 -0.40036896 -0.12068225 1.0458437 1.7888383 -0.905891 0.5094193 -0.16468892 0.090775244 -0.22575514 0.2909907 -0.16554911 1.9509397 0.4261491 0.16834278 -0.21235824 1.1438442 -0.23787178 -0.21336026 0.4685565 -0.2714526 -0.05145133 0.045308754 -0.70336515 0.37573677 0.5543489 0.50031924 0.32803065 0.47910225 -0.42728114 0.09586063 -0.0066003683 -0.25773156 0.7159199 0.68354285 -0.37819105 -0.6795958 -1.1616248 -0.25078097 0.22726153 -0.021297198 -0.08201389 -0.15872356 0.039647542 0.47857508 -0.6231506 0.021493247 0.08027907 0.27054903 -0.39530754 0.9667786 0.3460439 0.46692297 -0.07204639 -0.5260577 0.007809216 0.40305218 0.36034593 -0.13273115 -0.60640347 -0.7104963 -0.38992518 0.1692669
92 -0.6584156 -0.59307665 -0.46340567 -0.17687768 1.0949272 1.8951613 -0.9519917 0.52693313 -0.20872566 0.12066842 -0.2428775 0.29427764 -0.1519054 2.0853722 0.4491747 0.1782683 -0.2135751 1.2105998 -0.27224717 -0.23685452 0.5023966 -0.2800213 -0.0834936 0.053305123 -0.7088083 0.37126216 0.5666967 0.50954616 0.3243254 0.5220477 -0.42280534 0.060984198 0.041369885 -0.25520432 0.7416756 0.7256534 -0.4053836 -0.69971824 -1.2259545 -0.2624257 0.23320596 -0.009262841 -0.10943377 -0.16526888 0.04436022 0.48017052 -0.6599722 0.03213355 0.060650423 0.2899255 -0.38777325 1.0033977 0.34870926 0.4707449 -0.09874225 -0.57376117 -0.01262594 0.3973346 0.4090544 -0.1119952 -0.66318566 -0.73849374 -0.4487426 0.14434348
99 -0.40346786 -0.24727102 0.2912088 0.6313284 0.65856 0.12745377 -0.12446107 -0.10647063 -0.24231806 -0.72701144 -0.46454582 -0.14255501 -0.78310657 1.2844987 0.18432218 0.43621656 -0.019261768 0.73730135 -0.42780352 -0.20427117 0.4701339 0.5695191 -0.07006427 -0.07820426 -0.114546165 0.9086581 -0.86139685 -0.023329262 0.8059173 -0.21474206 -0.45907137 0.13126065 -0.22200575 -0.71704024 0.54828084 -0.343101 0.06792681 0.43202847 -0.37810126 -0.0043782718 -0.26124147 0.07695312 0.7045417 -0.61119586 -0.19138017 0.024502272 0.22677784 -0.68024105 0.7796401 0.67111796 -0.22337843 -0.4668592 0.44637993 0.47328508 1.0003582 0.3520747 -0.57623297 0.43006676 -0.41745913 0.34313318 0.60311306 -0.75195855 -0.97867185 -0.68984425
66 -0.036024097 -0.1333186 0.4593846 0.5330394 0.43148398 -0.014084638 -0.4119276 -0.058903743 -0.020068647 -0.7540985 -0.36121 0.14594044 -0.62518543 1.2740921 0.28440154 0.2857187 0.112284094 1.0224551 -0.28956208 -0.42401713 0.07491516 0.11114519 0.32519183 -0.049343914 -0.3395803 1.0146493 -0.7255071 -0.1351989 0.97743684 -0.2513002 -0.2156988 0.48105347 -0.9427561 -0.735952 0.674647 -0.21836008 -0.090915896 0.71111745 -0.11400195 0.041807655 -0.15688893 0.25565705 0.8728806 -0.4811355 -0.109832525 0.00324628 0.018954823 -0.3777296 0.48865882 0.194876 -0.15457228 -0.33279186 0.89489406 0.5414957 1.1301018 0.27506924 -0.45021796 0.75597554 -0.68772084 0.110713184 0.71774113 -0.7434816 -1.3215284 0.09966847
97 0.5518316 -1.3840077 0.66337687 0.320017 0.5164848 -0.12647372 -0.43204656 -0.21688047 -0.47486314 -0.15809661 0.7102439 -1.3937328 -0.8751142 0.7150353 0.61861926 0.46662402 -0.34065613 0.61465245 0.17353503 0.32315522 1.3185352 0.8333378 0.1482567 0.253211 -0.34394866 0.70447946 -0.15710643 0.40010956 -0.13612151 0.89234257 -0.97694963 -0.030953638 -0.009516323 -0.7421649 -0.43719658 0.17432284 -0.5707686 -0.7996996 -0.22205058 -0.3508954 0.42337093 0.09741562 -0.55514663 -0.4775158 0.6451592 0.01042539 -0.105525635 -0.37315512 0.4788872 0.7689473 -0.3249544 0.31356296 0.63035256 0.053884108 -0.28345317 0.101261124 0.09179404 -0.18823531 0.18659885 0.37277776 0.4663023 -0.74205667 0.1827139 -0.27420044
53 -0.003656147 0.416211 -0.2086735 -0.30047226 0.16530642 0.16845657 -0.911522 0.8213108 -0.09702036 0.034608383 -0.27317938 0.120802976 0.35691214 1.0550278 0.44785273 -0.3786995 -0.5223628 0.45672426 -0.085526355 -0.6690916 -0.31587982 0.027079487 -0.0954025 0.044339642 -0.41903445 0.17309143 0.13146749 0.10048446 -0.098680966 0.07743032 -0.6705233 -0.055567477 -0.6183735 -0.9077469 0.0770031 0.29190156 -0.5669646 0.11839085 0.4583743 0.89306194 -0.56209683 -0.24360682 0.3338014 -0.50315547 0.11593016 0.6204007 0.022338284 -0.09259897 0.44094297 0.61035943 0.119646944 1.0293466 -0.6102164 0.26233658 0.2450963 0.46468168 -0.16180101 0.10700359 0.37880927 0.49615726 -0.14272837 -0.20642103 -0.52124554 0.16739573
82 0.02012086 0.33762744 -0.14336535 -0.22552656 0.035192028 0.07521973 -0.67626226 0.6650346 -0.018234072 0.0040735393 -0.2165883 0.103462026 0.27716738 0.76365864 0.3638519 -0.33920506 -0.42920077 0.2653279 -0.06935826 -0.53598607 -0.2519349 0.03999765 -0.089193605 0.07043205 -0.32687822 0.123467475 0.076672725 0.08038049 -0.064085715 -0.001782182 -0.5330995 -0.05810867 -0.4824607 -0.69027805 0.061820995 0.24632226 -0.43878382 0.1289664 0.4553351 0.726555 -0.446064 -0.13052022 0.3168634 -0.39226964 0.10067942 0.53250235 0.067782916 0.0003091416 0.3104825 0.44039157 0.11792972 0.7907801 -0.50647277 0.22113487 0.22616753 0.37990487 -0.12512651 0.047518015 0.3046927 0.3752442 -0.090162836 -0.12053882 -0.35574666 0.1894974
48 -0.03272762 0.035425548 -0.08791532 -0.19681652 0.21750282 0.3152773 -0.4708474 0.420332 -0.11774575 0.17307656 -0.1429624 0.122216 0.18733601 0.5962433 0.20102105 -0.017223211 -0.18392852 0.30317432 -0.042805765 -0.27454153 -0.09483281 -0.038479697 -0.08080309 8.635597e-05 -0.23890513 0.13023031 0.07822992 0.13564844 -0.064542405 0.12868021 -0.29233527 -0.048418235 -0.29508364 -0.35185447 0.03816365 0.2157441 -0.18065773 -0.056395225 -0.046450514 0.3006216 -0.20259796 -0.19219838 0.119514704 -0.22826119 0.0024239474 0.30095837 -0.11387967 -0.05965034 0.21930622 0.3046818 0.07323636 0.51971686 -0.2071621 0.14570245 0.023567883 0.08518336 0.030106839 0.09977431 0.18266433 0.15284382 -0.16161112 -0.2622212 -0.20945081 -0.07795557
24 -0.05435461 -0.33013472 -0.09700829 0.8068078 0.04231605 0.48715392 -0.30333513 -0.15461832 -0.1318984 0.091818005 -0.29539564 -0.38441148 -0.13209698 -0.03450472 0.37559268 -0.35342008 -0.47350043 0.65612274 -0.15233746 0.53536445 -0.102005705 -0.374224 0.77616364 -0.14838463 -0.62800854 0.06037474 -0.08522024 0.32870594 0.31354508 -0.2736958 -0.03451706 0.2808955 -0.43834487 -0.49600747 -0.4065469 0.11143292 -0.5022533 -0.57535195 0.18103261 0.03331428 0.14370595 -0.64752716 0.3932557 -0.2415319 0.57404655 0.081915945 -0.2042906 0.16394733 0.014345866 0.09504203 -1.1682802 0.40590087 0.49617514 0.76426065 -0.27686247 -0.20949678 -0.032093152 0.20240834 0.26536408 0.6441045 -0.48571542 -0.124203004 -0.6162774 0.4309327
