150 64
102 0.33052298 -0.631346 0.3259783 0.042233434 -0.21772584 -0.5436059 0.03352621 -0.48181957 -0.5373381 -0.04349154 0.6760987 -0.7605539 -0.9404066 -0.5835717 0.24385348 0.2654633 0.45952335 -0.058160644 0.29407755 0.82010573 0.1426762 0.70609194 0.5096115 -0.12145568 0.08119096 -0.053297065 -0.32546368 -0.10254183 0.2074915 0.19083247 -0.3849267 0.009149608 -0.29027998 0.06386528 -0.5778947 -0.3081917 0.08154774 -0.17107598 0.4224932 -0.21685894 0.23187377 -0.025803346 -0.23571773 -0.07457886 0.30110195 -0.6845392 0.30216926 -0.29823077 0.20704743 0.29435363 -0.12119527 -0.3594998 0.43030003 0.5160086 0.08154784 0.34188214 0.09363883 -0.21659766 -0.08541912 1.326686 -0.4903072 -0.42326948 0.10578253 -0.3083353
115 0.3092032 -0.6104324 0.33370894 0.021860965 -0.19033043 -0.5245505 0.05088839 -0.5169676 -0.5067961 0.001413217 0.68696386 -0.7825124 -0.9241092 -0.6170415 0.20607148 0.2040303 0.5026618 -0.085457206 0.3002056 0.82970655 0.075851135 0.69869626 0.5062066 -0.11726121 0.036440033 -0.01243135 -0.28610632 -0.14536168 0.23042968 0.17574435 -0.39957315 0.023841374 -0.35491857 0.052544136 -0.5251546 -0.31199127 0.031719316 -0.18492614 0.44757456 -0.18266392 0.22579288 -0.04897762 -0.22665562 -0.067030616 0.28186193 -0.76154923 0.28927287 -0.29164556 0.17597306 0.29245892 -0.09918061 -0.3363579 0.4464765 0.51229453 0.005346541 0.37759537 0.050569296 -0.18588571 -0.057046168 1.3008212 -0.48505017 -0.43243894 0.142335 -0.33404088
118 0.34214434 -0.5533234 0.24559426 0.04798187 -0.20284766 -0.45562607 -0.065617025 -0.30999866 -0.4847495 -0.16924556 0.48712793 -0.527132 -0.7277853 -0.4095147 0.31830528 0.38164693 0.20821285 0.06284219 0.30697793 0.72587675 0.23803659 0.56359756 0.4107458 -0.16225465 0.14551352 -0.115978725 -0.35533133 0.021054238 0.15781164 0.23671758 -0.16111682 -0.008494703 -0.16966622 0.109356485 -0.6261805 -0.1868789 0.10529206 -0.028968865 0.3045976 -0.21995752 0.30440226 -0.00067555613 -0.19033699 -0.026095357 0.31764796 -0.35769323 0.31480166 -0.38053814 0.19036187 0.18371333 -0.1042798 -0.36443168 0.3368108 0.47246227 0.22040439 0.18805023 0.16055788 -0.24749699 -0.08817481 1.036904 -0.38546902 -0.29572278 -0.013477536 -0.09194986
103 0.3603669 -0.5914794 0.22139104 0.06962415 -0.20328856 -0.46192783 -0.086035535 -0.29751593 -0.50225586 -0.21626928 0.46177945 -0.5420257 -0.7291103 -0.35644487 0.34008953 0.40773562 0.15387712 0.080278814 0.27805722 0.744692 0.27923745 0.5715864 0.42125604 -0.16750753 0.16937694 -0.11383814 -0.39731994 0.016329467 0.13465881 0.2389676 -0.14692825 -0.012722298 -0.12949313 0.07884125 -0.6047719 -0.15771744 0.07734704 -0.006118376 0.30176225 -0.21881825 0.30260694 -0.0040748823 -0.19881704 -0.029387336 0.3048507 -0.33210027 0.3335079 -0.38154995 0.18272044 0.20375347 -0.1148034 -0.358416 0.34045443 0.4963744 0.25087622 0.19121799 0.15884891 -0.26630595 -0.092783794 1.046542 -0.39450374 -0.2996251 -0.04018779 -0.070138596
76 0.34850565 -0.58916 0.23161638 0.04398369 -0.20086338 -0.4822116 -0.03024876 -0.32601428 -0.49074507 -0.18265986 0.5110033 -0.5780513 -0.7649047 -0.36722997 0.31271648 0.3718392 0.19453265 0.054180384 0.24326336 0.776922 0.2663135 0.59595 0.43115434 -0.14785112 0.14215319 -0.11298548 -0.39976227 -0.004211177 0.17212172 0.23360941 -0.20026064 0.018366942 -0.1593638 0.055916015 -0.57124966 -0.16962266 0.08015413 -0.026074126 0.34375572 -0.17025289 0.2996219 -0.004682132 -0.17146584 -0.07663578 0.2635969 -0.3788254 0.3285592 -0.36730668 0.1694606 0.2175467 -0.09796493 -0.34825394 0.32805365 0.49775463 0.23522183 0.24084333 0.14215969 -0.27186242 -0.075952955 1.0495018 -0.36286065 -0.33763105 -0.0024771981 -0.09137904
54 0.35419106 -0.56413347 0.22101311 0.085445665 -0.22844863 -0.42864466 -0.0788728 -0.277116 -0.50040144 -0.2252353 0.44492155 -0.50564307 -0.7350102 -0.3670127 0.3639296 0.4292551 0.16926874 0.06711667 0.28928322 0.74045044 0.26582512 0.55266005 0.39938837 -0.1592644 0.1824978 -0.13362844 -0.36734584 0.031473387 0.13194355 0.24117362 -0.10133834 -0.017871574 -0.14023453 0.09965272 -0.6486678 -0.15503924 0.10667343 -0.0047226534 0.26895678 -0.22350761 0.32190964 -0.00029735413 -0.16628377 -0.001665241 0.32421765 -0.3036639 0.32607672 -0.3763257 0.2012862 0.16550206 -0.11124625 -0.37347305 0.34205347 0.47621176 0.2527135 0.16354592 0.17635791 -0.25028992 -0.1015948 1.0215185 -0.3843846 -0.24918877 -0.036439624 -0.028954618
128 0.3571931 -0.579916 0.22210582 0.07507527 -0.21655735 -0.46266627 -0.10748531 -0.26201808 -0.4961762 -0.25801268 0.44820613 -0.49888664 -0.69165075 -0.33711672 0.3674195 0.423742 0.10044207 0.10568941 0.26977193 0.73545694 0.3043199 0.55196166 0.38992065 -0.16318828 0.16943267 -0.1351589 -0.41663495 0.063917965 0.12179775 0.2549319 -0.10373641 -0.007546016 -0.112740844 0.101802416 -0.61853784 -0.13896395 0.10057407 0.013073379 0.2888762 -0.19314271 0.31266123 0.015974723 -0.17984806 -0.0131751355 0.29544094 -0.27074614 0.34775707 -0.39403665 0.18911636 0.17154783 -0.098752625 -0.38074222 0.30423912 0.49761188 0.28234193 0.16862485 0.1777146 -0.28921977 -0.10387531 1.009504 -0.3463359 -0.28378755 -0.048702598 -0.01660092
116 0.38076577 -0.6812652 0.3289523 0.0455943 -0.20372742 -0.57313496 -0.0017328067 -0.48910058 -0.56004274 -0.11749767 0.6556422 -0.773305 -0.92965 -0.5678607 0.3009393 0.32549888 0.3823789 -0.018742548 0.31768018 0.90020233 0.18561724 0.7302478 0.50924677 -0.12943777 0.094465956 -0.062409665 -0.38109735 -0.06676102 0.2157577 0.24397066 -0.33217865 0.014600495 -0.29078963 0.051809587 -0.60316896 -0.28045574 0.055584498 -0.11777413 0.45393592 -0.2065065 0.25900427 -0.022057503 -0.22539935 -0.08545848 0.3251866 -0.647173 0.35216668 -0.36782086 0.19918218 0.28890568 -0.11462599 -0.3891532 0.40435985 0.57249326 0.13452184 0.3245729 0.08722995 -0.24797393 -0.078006096 1.3309203 -0.49264646 -0.4442081 0.08032812 -0.24879988
140 0.3230142 -0.610894 0.27452904 0.02738263 -0.20909369 -0.50563943 -0.0031534624 -0.42722866 -0.50476056 -0.11342756 0.5910096 -0.66967326 -0.84913844 -0.48464245 0.25904694 0.2693058 0.31918597 -0.0047189076 0.27183807 0.7762494 0.16400899 0.62996405 0.46975204 -0.11064851 0.10893357 -0.05332798 -0.33659965 -0.07891613 0.21377227 0.20950657 -0.30771622 0.033462904 -0.24113551 0.041473333 -0.5345862 -0.23569201 0.040392105 -0.106948756 0.38461557 -0.1931793 0.27321443 -0.014063719 -0.2170043 -0.074596606 0.28812334 -0.56682456 0.30086252 -0.33385625 0.17853615 0.2571186 -0.08120149 -0.36489928 0.37000912 0.5124736 0.13286652 0.30060703 0.083383374 -0.24932417 -0.07887632 1.1846082 -0.41744542 -0.36775488 0.07528018 -0.19172727
107 0.3182361 -0.6214408 0.3111238 0.036674786 -0.18853666 -0.53799856 0.019745393 -0.48919094 -0.51243615 -0.078065 0.6293994 -0.7242675 -0.90414804 -0.5425255 0.26519704 0.2891295 0.38910452 -0.047367234 0.30042943 0.83516276 0.14805864 0.66609627 0.49903738 -0.1320326 0.093243234 -0.053114206 -0.34064302 -0.098486535 0.21038021 0.21017793 -0.34338352 0.025716506 -0.29182738 0.058146067 -0.5450623 -0.2740666 0.05258462 -0.1178198 0.40890113 -0.19390105 0.26179504 -0.012291787 -0.21469219 -0.093458965 0.29306942 -0.6503915 0.33228505 -0.31416294 0.18464097 0.27284503 -0.10945907 -0.3708816 0.40876198 0.5207619 0.10497126 0.35347465 0.078760386 -0.21336608 -0.08937899 1.2698201 -0.4784833 -0.42820087 0.09355029 -0.2786315
105 0.3361081 -0.62593234 0.3271114 0.014934014 -0.18830182 -0.5072331 0.008967539 -0.50618523 -0.5228146 -0.043362092 0.6500174 -0.75694764 -0.9246583 -0.57666194 0.23493594 0.2517952 0.4436964 -0.06851024 0.2890794 0.8049295 0.121960424 0.6777848 0.49920088 -0.12442031 0.061637253 -0.035729486 -0.3292416 -0.118615046 0.20551544 0.18230695 -0.36234066 0.018315934 -0.30501512 0.08260314 -0.55265373 -0.31032276 0.06999827 -0.14719039 0.40840936 -0.19335584 0.24829109 -0.04145611 -0.22916576 -0.05888987 0.29827634 -0.6865823 0.31546727 -0.3164413 0.18411723 0.2698687 -0.11341201 -0.35857233 0.4242805 0.5093399 0.062971815 0.34513238 0.089458846 -0.208651 -0.08161507 1.295997 -0.46774223 -0.41908225 0.1207868 -0.27704537
17 0.1896 -0.5820884 0.23081288 0.09455004 -0.17712772 -0.23100953 -0.32150552 -0.4632026 -1.0657395 0.34596446 0.5236251 -0.14985207 -1.1265754 -1.3071717 0.8718923 0.75673854 1.337357 -0.09789493 1.2914943 0.47101456 -0.052658916 0.5504608 -0.05008099 -0.25808236 0.048393372 -0.30134585 0.05927194 0.009321965 -0.08111463 -0.2072615 0.028696436 -0.97662145 -0.20689574 1.1253767 -1.731489 -0.40844047 0.891156 -0.6517424 -0.14030755 -0.8481119 0.3213791 -0.052274484 -0.27046388 0.81517607 1.01283 -0.598361 0.14502461 -0.42841923 1.011901 -0.2869043 -0.29400793 -0.5481856 1.3984874 -0.12703243 -0.11787236 0.0445992 0.51838094 0.1291836 -0.11010847 1.7639155 -0.89451396 0.12928654 -0.3713975 -0.27432168
130 0.36529675 -0.6657404 0.31881413 0.038003307 -0.20868613 -0.55433196 -0.023161054 -0.44607142 -0.5344499 -0.112854175 0.6356454 -0.73210585 -0.9240635 -0.55143154 0.3035001 0.35190555 0.38324952 -0.009527143 0.32683095 0.8771887 0.21306048 0.68787074 0.49072197 -0.15178427 0.09027743 -0.07603471 -0.3801507 -0.06231126 0.19559471 0.21768574 -0.3044123 -0.0034747275 -0.27910265 0.10359108 -0.6296951 -0.24337147 0.09855113 -0.09294479 0.43384716 -0.23179762 0.26386538 -0.0019194796 -0.2190315 -0.06533587 0.345067 -0.6042291 0.3569907 -0.35999057 0.20183192 0.25423244 -0.13008551 -0.40003005 0.42392078 0.5578092 0.16299242 0.30431956 0.11988665 -0.2356446 -0.08824503 1.2777405 -0.47411296 -0.41902807 0.069336 -0.23580357
74 0.36350363 -0.5757629 0.25052187 0.0594767 -0.20876455 -0.46374887 -0.03816317 -0.3685403 -0.5062713 -0.16905816 0.5179729 -0.60598814 -0.7939685 -0.42483807 0.31211963 0.36886263 0.22706077 0.02868095 0.28129724 0.77214015 0.22572917 0.59255826 0.44744635 -0.14846334 0.13906543 -0.10194214 -0.35679668 -0.031148743 0.15907489 0.23241813 -0.18984285 0.0081930375 -0.20010394 0.07656664 -0.6100992 -0.19081856 0.055597626 -0.051094297 0.31746918 -0.19833499 0.30669695 -0.0057808477 -0.2071415 -0.053621262 0.29022962 -0.44133598 0.3093653 -0.37060776 0.18606007 0.21139765 -0.104016565 -0.36206895 0.36335272 0.50302774 0.19993795 0.22592518 0.13693576 -0.24697982 -0.097540066 1.1135087 -0.40285146 -0.33024547 0.031201677 -0.10501012
132 0.34198916 -0.51956284 0.19542404 0.06403301 -0.21262196 -0.41320014 -0.1012747 -0.23118065 -0.48025888 -0.24888015 0.39357132 -0.4457709 -0.67149204 -0.32894608 0.35800806 0.41283378 0.11573114 0.08908002 0.28098968 0.6966578 0.27780044 0.49242005 0.36944228 -0.17017394 0.17081979 -0.13394609 -0.37579787 0.0429874 0.13681726 0.2300303 -0.09521416 -0.0051448885 -0.10276919 0.10272114 -0.6001591 -0.1253398 0.11272129 0.01570285 0.22108747 -0.19928306 0.3127771 0.006619603 -0.15588166 0.007169974 0.30794117 -0.23243102 0.30750784 -0.37949175 0.19495635 0.16653362 -0.11359641 -0.34258553 0.32168558 0.4526467 0.2747548 0.15882806 0.18671905 -0.24429747 -0.08392566 0.92440933 -0.3547598 -0.2424559 -0.054111484 -0.016973125
77 0.29478166 -0.5629228 0.313191 0.020266095 -0.1892473 -0.49951556 0.014681097 -0.4811813 -0.47897908 -0.025852539 0.61453545 -0.6856479 -0.86337155 -0.5705831 0.23396151 0.22761345 0.44137394 -0.0654209 0.29741302 0.76268107 0.11523883 0.6370967 0.44898552 -0.09693764 0.06196525 -0.047795344 -0.3016153 -0.103404485 0.2099895 0.18052426 -0.36238968 0.013585539 -0.27656722 0.08456222 -0.5086758 -0.29225233 0.047708526 -0.14356627 0.40721267 -0.18664822 0.22073457 -0.02986643 -0.19486272 -0.07363682 0.26506537 -0.6570106 0.27427098 -0.2712023 0.17457299 0.23594095 -0.08527598 -0.33893105 0.42475364 0.4604578 0.05432017 0.33214125 0.069985084 -0.18596822 -0.06605203 1.1939381 -0.45834658 -0.39255717 0.116501115 -0.2870006
149 0.32052657 -0.5232445 0.19242176 0.061432034 -0.18925393 -0.4049089 -0.08760052 -0.25584468 -0.45554084 -0.2110976 0.42118987 -0.45847008 -0.6679946 -0.33126807 0.33636472 0.39591715 0.12950362 0.07521574 0.27086607 0.6935081 0.24674064 0.5007098 0.3580662 -0.15320903 0.15065815 -0.13108768 -0.36854836 0.038445294 0.11659683 0.23328337 -0.09154197 -0.016357249 -0.1128022 0.10332421 -0.58753854 -0.1325413 0.08382574 -0.010154922 0.25043097 -0.19824561 0.28433737 0.01076218 -0.17814554 -0.017742356 0.30235377 -0.2712798 0.31482998 -0.34894845 0.18431267 0.18298134 -0.10300452 -0.32807934 0.32275924 0.4288293 0.25089583 0.16732433 0.18367575 -0.23916756 -0.075835966 0.96098757 -0.36502853 -0.24175636 -0.055369016 -0.021821115
141 0.29921994 -0.5749062 0.33007148 0.014166085 -0.17210849 -0.4832267 0.02957149 -0.5127617 -0.4760678 0.019296532 0.6573575 -0.7514662 -0.88461185 -0.5934619 0.20444527 0.21766572 0.51007277 -0.10296403 0.29206938 0.7778846 0.061598163 0.65512437 0.47842315 -0.10607145 0.030798353 -0.024426557 -0.2548734 -0.15415514 0.20581247 0.14614211 -0.40124503 -0.017631546 -0.3341147 0.064709954 -0.51585644 -0.33253145 0.036258522 -0.21406166 0.39503735 -0.18160392 0.20937477 -0.03880461 -0.2238837 -0.07178648 0.28367996 -0.7276668 0.2703643 -0.26062867 0.18967584 0.26016825 -0.11860355 -0.3422641 0.42826298 0.46239254 0.0007302474 0.374873 0.04237875 -0.16350745 -0.0567208 1.268391 -0.48357838 -0.3918157 0.14296915 -0.34007123
147 0.3581762 -0.61295605 0.27450213 0.041030925 -0.20512442 -0.4968655 -0.020882685 -0.4337323 -0.5240065 -0.10863311 0.59395826 -0.68516916 -0.8749344 -0.50473213 0.3057241 0.34360576 0.33405328 -0.003467985 0.2973254 0.8250406 0.18795213 0.6621535 0.47359663 -0.12824239 0.097240135 -0.0654376 -0.35553297 -0.074268214 0.18942484 0.2331983 -0.29441664 -0.0010222977 -0.23338918 0.09024126 -0.61740917 -0.26022694 0.09293772 -0.101243965 0.3863546 -0.2127092 0.26014373 -0.01742244 -0.19490696 -0.0627579 0.29937136 -0.56443393 0.31408453 -0.3506096 0.19827214 0.23469405 -0.09603927 -0.38996604 0.41404504 0.51753706 0.13408192 0.30723056 0.13287967 -0.24073637 -0.093537025 1.2130905 -0.46788707 -0.38020515 0.047490302 -0.22119156
120 0.30044907 -0.5944985 0.33714557 0.008445736 -0.19125746 -0.513697 0.05701248 -0.523677 -0.4869743 0.036992755 0.66319776 -0.7713935 -0.93188435 -0.6026626 0.17343017 0.19459297 0.5124886 -0.1012525 0.26975197 0.78754383 0.051751174 0.67852217 0.5039803 -0.10108635 0.031322714 0.0017397221 -0.2818809 -0.1616117 0.21923706 0.15470283 -0.41354355 0.018871212 -0.35591736 0.059037674 -0.48691812 -0.34415588 0.03572633 -0.21427 0.43559915 -0.1888802 0.20511541 -0.04249708 -0.20738092 -0.07187519 0.25357863 -0.7723298 0.29165578 -0.25815755 0.16880031 0.28909776 -0.08725403 -0.33979446 0.41881007 0.4936881 0.008103217 0.39681312 0.042259555 -0.1817677 -0.070720196 1.3036308 -0.48181614 -0.45006782 0.14754838 -0.35011256
145 0.3234305 -0.61361 0.3121468 0.044738717 -0.2094204 -0.5288976 0.028554404 -0.48172045 -0.5172564 -0.06420211 0.64414644 -0.7471626 -0.89564246 -0.56374645 0.2536679 0.27305755 0.42187116 -0.03613865 0.29377356 0.84150386 0.1294689 0.6979705 0.48507628 -0.12768573 0.07221168 -0.058260515 -0.34771276 -0.112952635 0.20557953 0.21088293 -0.35945216 0.03548527 -0.30496848 0.04792403 -0.5380588 -0.271784 0.06377926 -0.12854649 0.42012796 -0.20723054 0.25851163 -0.022471206 -0.20619461 -0.06817834 0.30268005 -0.6342227 0.29692414 -0.329344 0.18358353 0.2837524 -0.09277464 -0.35312393 0.41896862 0.5134184 0.105088234 0.3296868 0.06722123 -0.20045608 -0.07779306 1.2626495 -0.47287184 -0.42214027 0.111918986 -0.26206353
100 0.31994188 -0.61418825 0.29146758 0.02928842 -0.18418561 -0.51362336 0.0064881854 -0.45003766 -0.5044381 -0.06593583 0.60643864 -0.7004742 -0.8546061 -0.52175146 0.24546589 0.28830448 0.38683802 -0.020327967 0.28122914 0.8102566 0.16388945 0.64826965 0.48710912 -0.11777086 0.08670249 -0.052495647 -0.33898717 -0.09257566 0.18746486 0.20178172 -0.31443334 0.03687097 -0.2782469 0.069208965 -0.53069025 -0.27006948 0.05435201 -0.12534122 0.40989774 -0.18118052 0.24673454 -0.009187459 -0.20050266 -0.0586272 0.2872049 -0.6234038 0.31856212 -0.2957796 0.17263117 0.25824732 -0.11772406 -0.35967618 0.4008172 0.504856 0.08700639 0.33987606 0.08742582 -0.19531688 -0.07309226 1.2034456 -0.43535617 -0.40234214 0.104473904 -0.23518166
138 0.39292276 -0.62030894 0.24367985 0.054528374 -0.23411933 -0.4901535 -0.08838273 -0.3005511 -0.5128623 -0.23750153 0.4931896 -0.56151557 -0.7589517 -0.3815094 0.37068585 0.42397404 0.1609017 0.08291195 0.30624974 0.7776732 0.28664553 0.5891052 0.40842998 -0.16779545 0.17330916 -0.14828908 -0.4141502 0.014365249 0.16878337 0.2667812 -0.14470439 0.0056955307 -0.12774113 0.09996848 -0.64402914 -0.16637307 0.10742293 -0.006566309 0.29591113 -0.21922135 0.32839116 0.0027245786 -0.18395893 -0.015638033 0.33190715 -0.35759425 0.34091103 -0.41339144 0.22041467 0.2121504 -0.113787994 -0.38387963 0.3407865 0.4989502 0.26875815 0.20605461 0.18729901 -0.27227306 -0.09681412 1.0884397 -0.4010117 -0.30744207 -0.040973824 -0.07143576
63 0.4059618 -0.5759165 0.15248714 0.08790214 -0.22473943 -0.42334402 -0.14673816 -0.15917593 -0.51831865 -0.37389442 0.34444332 -0.41146237 -0.6266787 -0.21128839 0.4604638 0.5402538 -0.055467073 0.1650349 0.29257426 0.7274283 0.39980614 0.5096443 0.36157602 -0.19946282 0.24424717 -0.18662931 -0.47076228 0.15180537 0.093825325 0.30300426 0.028817948 0.0051250937 -0.020651026 0.10128486 -0.6941768 -0.058580976 0.10673799 0.11551262 0.19926603 -0.23036554 0.37098196 0.033691727 -0.17337507 -0.0015000164 0.30955955 -0.06766972 0.37638852 -0.44739485 0.18862352 0.1642775 -0.13032971 -0.39967373 0.25778368 0.49598944 0.40162033 0.09948779 0.2407734 -0.3447048 -0.11352525 0.88609976 -0.31198794 -0.19071737 -0.1416423 0.13302305
112 0.33657873 -0.6369406 0.31525695 0.034525815 -0.1805773 -0.54795766 0.026496261 -0.4988484 -0.5019416 -0.0070755323 0.65852654 -0.7892987 -0.92617005 -0.6059065 0.223065 0.23625441 0.48267546 -0.052985925 0.27932626 0.84558505 0.13182417 0.69361275 0.5161686 -0.10450879 0.056179572 -0.035798594 -0.32715848 -0.12883468 0.23686579 0.18006328 -0.3998886 0.042004023 -0.31463668 0.06634469 -0.55136067 -0.30539367 0.0583798 -0.16352613 0.4551535 -0.17759185 0.22654776 -0.028531754 -0.22744215 -0.092556834 0.27331293 -0.71921206 0.3031436 -0.29066128 0.16839238 0.28830078 -0.115049705 -0.36908406 0.438024 0.5363383 0.047006298 0.3745399 0.045871414 -0.21042025 -0.08180832 1.3134425 -0.46963182 -0.4227166 0.14291626 -0.3026735
127 0.33174467 -0.5878794 0.27432433 0.037999213 -0.18332325 -0.47407734 -0.021750761 -0.36724362 -0.4689658 -0.12327653 0.5293636 -0.64127487 -0.8006854 -0.42951658 0.25693402 0.32422626 0.26603425 0.009534629 0.25192565 0.7409051 0.2023849 0.6127199 0.4416285 -0.12762578 0.10531976 -0.058356803 -0.3312214 -0.059042234 0.17486306 0.21040145 -0.2503186 0.01919601 -0.21889603 0.045183737 -0.5336009 -0.21272138 0.06437458 -0.072955236 0.33846208 -0.19942096 0.25350845 -0.026070733 -0.20508327 -0.04719203 0.2873838 -0.4909115 0.29161188 -0.33135226 0.17788629 0.24137518 -0.11047929 -0.35845998 0.34677747 0.4947942 0.1477509 0.27739674 0.094853096 -0.23922497 -0.09250341 1.1038107 -0.39728075 -0.34022665 0.056469966 -0.16385268
129 0.30236533 -0.5936862 0.32358828 0.016682731 -0.17011423 -0.5146995 0.06958301 -0.5172196 -0.4840521 0.028620077 0.6844997 -0.8032318 -0.91710496 -0.63189614 0.201656 0.19264163 0.5203976 -0.1139532 0.259793 0.79303443 0.05803402 0.69522244 0.4878375 -0.11472757 0.020906983 -0.013309503 -0.26920158 -0.15018669 0.24607053 0.17749532 -0.44455564 0.0353729 -0.3668664 0.046290718 -0.5101332 -0.3247032 0.043261144 -0.18342234 0.44438338 -0.19669466 0.21339716 -0.047427393 -0.21154211 -0.08099103 0.2660535 -0.7774756 0.27262443 -0.27093834 0.18861175 0.28011152 -0.08959631 -0.35315204 0.43608555 0.49472737 0.0068978635 0.37883487 0.04621112 -0.17129467 -0.08070566 1.2909056 -0.49188876 -0.4484479 0.15662727 -0.3683593
70 0.34188646 -0.62830746 0.30633032 0.037713617 -0.21462324 -0.53262174 0.015860163 -0.45728567 -0.5389254 -0.054695565 0.64503914 -0.74018884 -0.89587384 -0.5718606 0.27877396 0.3010658 0.41664046 -0.04299646 0.29055467 0.82274914 0.15715921 0.68649185 0.5038462 -0.1165532 0.09715766 -0.06638376 -0.32682657 -0.093026996 0.21638928 0.2070523 -0.34207803 0.016220618 -0.29070148 0.06769203 -0.592017 -0.2802342 0.081917055 -0.13029796 0.41231316 -0.20045708 0.26911017 -0.036925532 -0.2151385 -0.07815053 0.30598536 -0.626298 0.3295561 -0.315246 0.20453149 0.27543783 -0.09766784 -0.3580928 0.41442665 0.535368 0.10701678 0.3283479 0.103169404 -0.2087078 -0.06816483 1.281635 -0.4575498 -0.4045107 0.10554699 -0.2561883
104 0.34599736 -0.62678933 0.32739192 0.038346373 -0.20042017 -0.53322685 0.02798116 -0.4880988 -0.48978558 -0.06616632 0.628645 -0.73511475 -0.88356555 -0.5679023 0.2564727 0.28824648 0.41042453 -0.058477093 0.26811734 0.8123259 0.14784397 0.6989234 0.49846375 -0.12349333 0.072518244 -0.027547002 -0.31930357 -0.09249069 0.22289409 0.18286288 -0.36765745 0.008645016 -0.28540114 0.050705735 -0.5639368 -0.26989752 0.06724147 -0.13949348 0.44135898 -0.19586322 0.23176178 -0.0253776 -0.21502486 -0.08094317 0.29694474 -0.6494916 0.32370064 -0.32217756 0.17704025 0.26130134 -0.09238855 -0.3454131 0.4032948 0.5258757 0.07350955 0.3443754 0.09260011 -0.20760418 -0.084015794 1.254604 -0.4723505 -0.41867056 0.11316754 -0.2625859
126 0.35300767 -0.50696075 0.14397371 0.10305771 -0.21442403 -0.3529963 -0.122266844 -0.13152494 -0.4636904 -0.33843812 0.31056103 -0.33696902 -0.56577444 -0.17295358 0.39962152 0.46009701 -0.062582865 0.16215613 0.26542735 0.64364773 0.34210634 0.45059392 0.3204281 -0.17489754 0.217377 -0.18068422 -0.4156301 0.13058887 0.10710512 0.28110516 0.037913967 0.011014744 -0.004612271 0.07593243 -0.5971531 -0.062337715 0.095090345 0.09912259 0.18377265 -0.18340936 0.3609739 0.010861515 -0.13605756 0.005205531 0.29649225 -0.036444932 0.33316043 -0.40188515 0.15586506 0.15571304 -0.098671906 -0.3525091 0.2375553 0.4373092 0.3801351 0.069568016 0.23892646 -0.3090755 -0.08974205 0.7975513 -0.265609 -0.18842806 -0.12857236 0.12204567
137 0.32592833 -0.59600323 0.28515685 0.02583024 -0.20902763 -0.50570935 0.0077248784 -0.4645206 -0.48921737 -0.059274487 0.6076317 -0.71928096 -0.8613807 -0.5214443 0.2340315 0.28519532 0.3662131 -0.04263865 0.26886636 0.79164094 0.15679155 0.6714242 0.4854442 -0.10860211 0.079815686 -0.049416296 -0.33625263 -0.10342375 0.21042597 0.20761408 -0.34540394 0.017615063 -0.28844947 0.044771783 -0.53083664 -0.2509053 0.057871025 -0.11792 0.41457334 -0.1882666 0.24522305 -0.035835266 -0.21364594 -0.077827856 0.28154886 -0.6017366 0.2968016 -0.3175973 0.16375317 0.25720766 -0.10658362 -0.34690052 0.3938803 0.5041421 0.09276208 0.32483917 0.08814375 -0.2051361 -0.08259112 1.2107728 -0.45715123 -0.3975327 0.09751209 -0.24100867
91 0.3906949 -0.6023446 0.21382608 0.06720433 -0.23011097 -0.48102918 -0.09448817 -0.27592558 -0.5312938 -0.2561747 0.4376713 -0.541405 -0.75196 -0.32592276 0.38819277 0.45865464 0.11159845 0.10465769 0.28729117 0.78797805 0.30993992 0.5787705 0.41131306 -0.16450325 0.20067611 -0.14944795 -0.41665095 0.052342337 0.15384825 0.27619615 -0.10410843 -0.002656774 -0.11921727 0.09477752 -0.6560902 -0.143167 0.091900416 0.02556999 0.27269205 -0.19375588 0.33240157 -0.0059949053 -0.17625952 -0.029604878 0.30244663 -0.28784668 0.3545569 -0.42800462 0.19057935 0.2070358 -0.1188916 -0.38342863 0.32681346 0.52787715 0.30110976 0.18076351 0.19459052 -0.3009699 -0.11025497 1.0504264 -0.3776938 -0.3015179 -0.06299909 -0.021309597
61 0.35554087 -0.52207017 0.17995411 0.07104625 -0.20730141 -0.3980806 -0.12589778 -0.19150035 -0.46965295 -0.28964907 0.3431029 -0.4117447 -0.6276925 -0.2600905 0.39969948 0.44488794 0.04115543 0.13305578 0.2771894 0.6625391 0.31988293 0.47396696 0.3476736 -0.17034793 0.17664038 -0.16012718 -0.38032797 0.10214865 0.113120675 0.25161296 -0.032420006 -0.028277231 -0.06583118 0.12195924 -0.6426373 -0.10568749 0.10509806 0.056850053 0.2175414 -0.21181089 0.31625032 0.02272753 -0.16284141 0.018766444 0.3096662 -0.14932701 0.33419597 -0.40112606 0.20094366 0.14338788 -0.13205576 -0.36405644 0.29979587 0.45446286 0.33189255 0.12780945 0.19223881 -0.26427394 -0.10389057 0.8884926 -0.31918052 -0.19764738 -0.087757856 0.04985038
133 0.38621742 -0.5460417 0.14274721 0.08240517 -0.21322922 -0.4070085 -0.14612155 -0.17185408 -0.5087591 -0.34548756 0.34110686 -0.38807437 -0.6251875 -0.23348984 0.41588056 0.506494 0.0077938964 0.15683405 0.30910873 0.6832684 0.35553235 0.47162482 0.35455018 -0.19510922 0.21950549 -0.20328318 -0.42047817 0.10506609 0.09502604 0.2788583 0.025345642 -0.024630925 -0.044868406 0.11607417 -0.680209 -0.08758369 0.107107736 0.0635728 0.20254043 -0.20773369 0.34902966 0.016668165 -0.16804364 0.0065467283 0.32375297 -0.104609825 0.33066875 -0.44733456 0.20310242 0.16066173 -0.1378572 -0.36769453 0.2912251 0.4632199 0.37848037 0.09530117 0.23029669 -0.3026416 -0.0950684 0.9024447 -0.31742948 -0.20150937 -0.12422354 0.08638451
7 0.19102845 -0.5619883 0.22901052 0.11374428 -0.17634755 -0.22010803 -0.30920753 -0.45618743 -1.0714267 0.36217532 0.5211415 -0.1509411 -1.1295877 -1.2969939 0.8883823 0.7471595 1.3375702 -0.11728419 1.2740821 0.46815822 -0.056265805 0.54190266 -0.06367478 -0.25278676 0.051626887 -0.30714232 0.08421338 0.019196017 -0.08406394 -0.21029568 0.030398339 -0.97612846 -0.20290606 1.1112193 -1.7181747 -0.41797334 0.8835777 -0.6430675 -0.1283007 -0.84200984 0.29442805 -0.036768932 -0.24635181 0.825749 0.9974336 -0.5898404 0.14156796 -0.4020143 1.0067912 -0.26539364 -0.29793745 -0.5451968 1.4197451 -0.14612503 -0.13692668 0.041194458 0.48527306 0.13372017 -0.096498586 1.74809 -0.8793914 0.11632628 -0.36628947 -0.2752643
58 0.33896795 -0.5869446 0.25835642 0.034161005 -0.2007179 -0.48237598 -0.014956381 -0.40065235 -0.4894823 -0.12113736 0.5685959 -0.65012765 -0.81931055 -0.45842463 0.2729585 0.31615296 0.30126676 -0.018452635 0.27465236 0.7673341 0.16120309 0.6120569 0.44805825 -0.11565828 0.11332015 -0.06488843 -0.34391683 -0.061206557 0.17763904 0.2236368 -0.2816615 0.01820743 -0.22789448 0.058697086 -0.5604791 -0.2254495 0.046635002 -0.093337476 0.36510104 -0.17481084 0.24021661 -0.015202361 -0.17476724 -0.07098613 0.27815786 -0.5125908 0.314228 -0.31738228 0.18814303 0.23718919 -0.09662305 -0.3522975 0.35548347 0.48918998 0.13831493 0.25956193 0.10580839 -0.22216189 -0.07984705 1.1511077 -0.42878404 -0.36684588 0.06926243 -0.20708305
20 0.19441903 -0.6123798 0.22268641 0.10577435 -0.17261064 -0.23840801 -0.34101442 -0.48395365 -1.1163576 0.36230135 0.5613707 -0.16023524 -1.1673762 -1.3680989 0.9267804 0.79699856 1.3943515 -0.10856469 1.3378621 0.49767235 -0.052402105 0.58043367 -0.0440846 -0.27255452 0.070954345 -0.32698968 0.08112413 0.002683002 -0.09510961 -0.21061775 0.028634228 -1.0200721 -0.1934212 1.1683741 -1.7961655 -0.4137849 0.9179136 -0.66038954 -0.1270672 -0.8977122 0.32462257 -0.05959032 -0.27685797 0.8442973 1.0339335 -0.6223479 0.17439301 -0.44208124 1.040393 -0.26737475 -0.3070007 -0.5726812 1.4721663 -0.11560688 -0.11202369 0.032656796 0.51472276 0.13107865 -0.11153221 1.8374944 -0.92928547 0.1228245 -0.36015466 -0.31473455
148 0.28721818 -0.53812784 0.30982152 0.012857201 -0.1711989 -0.4821472 0.06695573 -0.51341015 -0.4512425 0.039696254 0.6344472 -0.7279687 -0.8784103 -0.59542423 0.16955905 0.18294197 0.49999467 -0.10312229 0.25614023 0.7538068 0.029932367 0.6574085 0.47523555 -0.11385263 0.008528543 -0.014394261 -0.25041893 -0.15153871 0.23320001 0.15206082 -0.39939603 0.02523621 -0.33820534 0.05759239 -0.46649492 -0.33243638 0.01576943 -0.22377956 0.41414553 -0.16398077 0.17912766 -0.06514206 -0.20292866 -0.062377784 0.2595013 -0.725156 0.24019128 -0.23297799 0.17360198 0.28081712 -0.11589647 -0.32006803 0.40862912 0.4463419 -0.03252139 0.36903012 0.024497734 -0.15791854 -0.058168385 1.2060356 -0.4591263 -0.41348073 0.16773951 -0.32747483
27 0.20023641 -0.5780114 0.2338712 0.09342814 -0.15435737 -0.23666447 -0.31372815 -0.46403912 -1.0943019 0.3533165 0.5437244 -0.16179965 -1.1343629 -1.3365046 0.90755296 0.78073627 1.3719176 -0.115482055 1.3180581 0.50181735 -0.037863214 0.54689884 -0.041024137 -0.25787547 0.07051278 -0.30756736 0.0847351 0.016077697 -0.0704779 -0.20276943 0.03332845 -0.9902622 -0.19964893 1.1465007 -1.7590256 -0.43275106 0.88861054 -0.6458689 -0.1491996 -0.87937015 0.3195184 -0.040453613 -0.26084536 0.83950406 1.0181552 -0.59852594 0.16160703 -0.42973858 1.0289696 -0.27601373 -0.2955902 -0.55870986 1.4434675 -0.13530432 -0.12904881 0.037236635 0.521791 0.14989801 -0.10354203 1.7600214 -0.91009074 0.124376506 -0.35423696 -0.309607
139 0.35138077 -0.6630159 0.35809076 0.0006018024 -0.18376237 -0.54977494 0.04658742 -0.55323744 -0.53129727 -0.007925064 0.7008075 -0.8102302 -0.97518927 -0.6262783 0.21723872 0.25733447 0.50775063 -0.08489823 0.2839394 0.8715771 0.11823041 0.7470448 0.5207101 -0.13686498 0.03914268 -0.026548734 -0.33725256 -0.15822029 0.23549463 0.19325803 -0.439526 0.0148292035 -0.3465737 0.071554154 -0.55560887 -0.33267722 0.033357095 -0.19285978 0.4632329 -0.18591657 0.24319412 -0.042161066 -0.23361953 -0.101404786 0.2992903 -0.7788602 0.3220012 -0.30525976 0.18168041 0.283526 -0.11356669 -0.3810246 0.4516723 0.53720623 0.031011315 0.3914081 0.043069214 -0.19831426 -0.07562078 1.3681433 -0.5255746 -0.46569166 0.13227846 -0.34855315
122 0.32548082 -0.58425 0.28216344 0.044534978 -0.17720261 -0.47062403 0.014728081 -0.44843265 -0.51451325 -0.07701554 0.5691574 -0.67343616 -0.85126597 -0.524516 0.26405442 0.28015235 0.36746377 -0.02025516 0.29900536 0.76911503 0.15698087 0.6402977 0.44632667 -0.11848483 0.07657159 -0.058745265 -0.30545443 -0.065701894 0.1825498 0.19464308 -0.3056334 -0.006111961 -0.23727787 0.07819107 -0.5599858 -0.27452987 0.06113863 -0.11709017 0.35332355 -0.1890219 0.2349435 -0.031202944 -0.2157044 -0.030937366 0.30095783 -0.56753707 0.30342653 -0.31058216 0.17812882 0.25138614 -0.112053744 -0.3344366 0.4136624 0.46933824 0.08347755 0.29389358 0.1084379 -0.21335427 -0.07657846 1.1719947 -0.427557 -0.3675731 0.08650283 -0.23324847
31 0.1802257 -0.5931897 0.21572442 0.11170968 -0.16887358 -0.20392047 -0.31822693 -0.45508555 -1.0682445 0.3621496 0.51474005 -0.13958904 -1.1448627 -1.3001205 0.8818673 0.77343816 1.3446181 -0.11053492 1.2852461 0.48283637 -0.03856142 0.53280747 -0.03656007 -0.2779525 0.07049585 -0.3158871 0.07349169 0.009735333 -0.08154967 -0.19525838 0.031852398 -0.96997887 -0.19498277 1.122595 -1.7356497 -0.42736703 0.87931925 -0.65534025 -0.14299327 -0.8606483 0.29490167 -0.040356345 -0.2494683 0.8187245 0.98772484 -0.59111565 0.15771818 -0.43524098 0.99714655 -0.2763256 -0.2897982 -0.5781943 1.4248297 -0.12875995 -0.122602135 0.04295266 0.50485367 0.14661881 -0.10562209 1.7579103 -0.8958767 0.11532099 -0.36583877 -0.27183032
39 0.19182815 -0.5615941 0.23114464 0.08860366 -0.16476123 -0.22815938 -0.31848207 -0.46197468 -1.0322864 0.34106442 0.5155853 -0.14856471 -1.0927451 -1.253215 0.8483674 0.74934167 1.3047231 -0.102605715 1.2536602 0.46081614 -0.0276876 0.5312687 -0.032425415 -0.2744681 0.055194683 -0.29960534 0.055351123 -0.007884708 -0.06771336 -0.2007582 0.023368131 -0.9282554 -0.20181459 1.100242 -1.6591196 -0.39233297 0.84310627 -0.6330718 -0.14604782 -0.82560265 0.29054147 -0.045717377 -0.23897047 0.77845794 0.9535678 -0.58961976 0.1443579 -0.4262218 0.9613018 -0.2492017 -0.26134393 -0.54941136 1.351224 -0.12980063 -0.12963098 0.024996128 0.47665855 0.13282432 -0.11287164 1.6940433 -0.8631825 0.12225166 -0.3462431 -0.29607332
111 0.38134703 -0.54318863 0.15308997 0.09870288 -0.21022956 -0.3878139 -0.14685062 -0.14546263 -0.49406236 -0.3674852 0.3252697 -0.37498045 -0.6029398 -0.21687712 0.4064051 0.49898577 -0.045593943 0.15725043 0.28648853 0.6861161 0.36865398 0.45406845 0.3288869 -0.1895801 0.21748547 -0.19750883 -0.42607743 0.11296335 0.08727684 0.27896878 0.040702898 -0.010568644 0.0025055208 0.09603066 -0.66717374 -0.06546761 0.12590031 0.0878975 0.1910233 -0.20756657 0.3654894 -0.001964051 -0.14456661 0.018161591 0.31725234 -0.05999768 0.3327482 -0.44037288 0.20482665 0.14233202 -0.12806644 -0.36244345 0.24840565 0.4649672 0.38777095 0.059380524 0.2444246 -0.30389506 -0.10317505 0.84235746 -0.28693905 -0.17402045 -0.14345638 0.124932066
97 0.38337067 -0.5505688 0.16957152 0.0854196 -0.20713425 -0.40640268 -0.11960402 -0.17993316 -0.487466 -0.33119684 0.35399562 -0.41184056 -0.6405387 -0.2528945 0.4195154 0.48843384 0.03411767 0.12565973 0.28298023 0.7011444 0.33903024 0.49423036 0.34448642 -0.18191344 0.20129633 -0.16247328 -0.40551886 0.0859748 0.11455115 0.27877766 -0.01727826 -0.027516298 -0.042269025 0.13149059 -0.678622 -0.09255302 0.09682713 0.05027895 0.20948726 -0.22179113 0.34664398 0.009658181 -0.16748822 0.018950121 0.32539064 -0.15194038 0.3365034 -0.4183755 0.1827406 0.14337306 -0.13158777 -0.3814577 0.30787385 0.47197855 0.35121253 0.089670785 0.22986662 -0.29092637 -0.09771877 0.88865775 -0.33043072 -0.20959716 -0.11917804 0.07296353
4 0.18931705 -0.5723586 0.20249894 0.108555995 -0.17473473 -0.22020306 -0.3025567 -0.44546542 -1.0442581 0.32635993 0.5028043 -0.14062622 -1.1012549 -1.2674104 0.84529686 0.73990154 1.2745258 -0.117720574 1.258074 0.48112705 -0.04229614 0.50511956 -0.045944896 -0.26726317 0.0702367 -0.30041537 0.056155957 -0.00033847458 -0.09393617 -0.18706053 0.028752409 -0.9467151 -0.18076771 1.100902 -1.6561608 -0.4086622 0.8589236 -0.64175683 -0.14814122 -0.83734035 0.29550207 -0.04101307 -0.25663674 0.79486555 0.9801527 -0.5655426 0.15106338 -0.39961404 0.9670053 -0.26967576 -0.28440684 -0.5306596 1.3505218 -0.1317335 -0.10257359 0.026414845 0.4931715 0.118151724 -0.09369957 1.6984426 -0.8794048 0.11357035 -0.33174425 -0.27268782
40 0.18596292 -0.56164616 0.20253235 0.111837655 -0.16472474 -0.21866046 -0.3124134 -0.4537261 -1.0650117 0.37349275 0.5072637 -0.14937836 -1.1021222 -1.2919362 0.8823562 0.7557983 1.3406742 -0.12378294 1.288857 0.47692496 -0.05379254 0.5186254 -0.06454377 -0.25925756 0.039065555 -0.3041015 0.08649406 0.0149309775 -0.09971989 -0.21363011 0.024201201 -0.9892956 -0.19060554 1.1333134 -1.6974963 -0.40105382 0.85953754 -0.6513416 -0.1581317 -0.8484571 0.2948338 -0.025872506 -0.26455167 0.83360046 0.99448174 -0.5923453 0.1508448 -0.39825696 0.99673784 -0.26972544 -0.27341798 -0.5376996 1.409567 -0.16354176 -0.13869019 0.029952528 0.4970355 0.14929019 -0.09800942 1.7340139 -0.8962564 0.12680177 -0.34102002 -0.28902963
23 0.18529472 -0.53468263 0.20590271 0.08412043 -0.15020846 -0.21201539 -0.31157148 -0.4488261 -1.0190594 0.33101597 0.49903792 -0.13847192 -1.0523938 -1.2597455 0.83328927 0.7335735 1.2749327 -0.101603575 1.226863 0.44362617 -0.054109305 0.48557532 -0.047098145 -0.25118017 0.06121456 -0.3124495 0.083623216 -0.011056092 -0.07294214 -0.18714213 0.029152619 -0.9270103 -0.19186607 1.0696088 -1.6355336 -0.38508818 0.83001566 -0.6350948 -0.12995628 -0.81588703 0.29041898 -0.035213087 -0.25216305 0.7947935 0.95496494 -0.54780525 0.13494523 -0.39562643 0.964886 -0.2830597 -0.28470355 -0.5143072 1.3585242 -0.15003473 -0.11181314 0.025189033 0.4731538 0.13512011 -0.10452463 1.661799 -0.84991294 0.111842155 -0.3433987 -0.27722168
0 0.19586098 -0.5560169 0.22418883 0.10081563 -0.16367875 -0.19224405 -0.30873537 -0.44813854 -1.0458198 0.3348778 0.488898 -0.13109009 -1.1000868 -1.2713257 0.8591346 0.7474651 1.3036115 -0.10834795 1.2492738 0.46077633 -0.032553695 0.51584625 -0.03634396 -0.25386423 0.042225454 -0.308769 0.05989706 -0.0021992428 -0.08627789 -0.21139726 0.05503943 -0.94849044 -0.18785036 1.0872098 -1.6765015 -0.4112926 0.8674682 -0.6315675 -0.13708255 -0.8346698 0.31209275 -0.03626128 -0.24654116 0.7937128 0.96831906 -0.5749163 0.16092585 -0.4039127 0.9690644 -0.26725563 -0.26827586 -0.55051833 1.3825336 -0.1372461 -0.12635905 0.03744069 0.48828492 0.14664343 -0.101934336 1.6891881 -0.86053777 0.11843466 -0.3552089 -0.2630531
26 0.19351116 -0.5790071 0.22095162 0.097213596 -0.16273452 -0.22615425 -0.3065184 -0.45446315 -1.0451446 0.36256823 0.5073384 -0.14319032 -1.1196615 -1.3112863 0.88298994 0.77281266 1.3434736 -0.11534355 1.2632887 0.48065186 -0.057318777 0.5410551 -0.045673408 -0.2507155 0.063935556 -0.31226495 0.07489847 0.0035540736 -0.06875294 -0.20885476 0.029589258 -0.97453827 -0.18927708 1.1287484 -1.7077267 -0.40096882 0.862251 -0.6373971 -0.12693109 -0.84220046 0.29655612 -0.04453986 -0.24607411 0.8321821 0.9954676 -0.5995638 0.15198386 -0.42598373 0.9826491 -0.27034125 -0.2921659 -0.56421894 1.4119817 -0.12597176 -0.11096253 0.034788985 0.48221356 0.12684272 -0.09733714 1.7126844 -0.90063363 0.12504861 -0.35662135 -0.3027276
24 0.19259156 -0.56956506 0.20124553 0.09605625 -0.15692623 -0.20300451 -0.3275645 -0.4369314 -1.0390072 0.34953213 0.51593083 -0.11658306 -1.1143273 -1.2963997 0.8762726 0.766199 1.3267393 -0.12011067 1.2866293 0.4390985 -0.059801362 0.5121201 -0.056557402 -0.26870126 0.05974453 -0.31316 0.09073491 0.013800793 -0.08759227 -0.19579725 0.04154424 -0.9928657 -0.17538261 1.1191255 -1.6915469 -0.4105156 0.863854 -0.6582055 -0.14773619 -0.8516512 0.29961723 -0.053228855 -0.2630004 0.8159241 1.0010949 -0.5965402 0.1547874 -0.4126227 0.99265516 -0.27228412 -0.28425527 -0.55707043 1.4009597 -0.14526497 -0.11355703 0.017064508 0.50339794 0.1549139 -0.10778872 1.7171341 -0.89426816 0.13846493 -0.35040274 -0.2785467
124 0.27454627 -0.5676192 0.32468918 0.030368956 -0.1868028 -0.4794833 0.061059777 -0.52186805 -0.47445711 0.032243337 0.65350914 -0.7584564 -0.90896666 -0.6150968 0.184603 0.18086298 0.5349163 -0.11348656 0.27959424 0.77739793 0.07167686 0.6715633 0.47604504 -0.0993514 0.025599044 0.005386612 -0.26569092 -0.15243347 0.22746326 0.14939393 -0.40236756 0.009184921 -0.31845683 0.077875376 -0.486738 -0.33777383 0.06387223 -0.2153325 0.403115 -0.18656981 0.19126466 -0.054778673 -0.20666546 -0.044269312 0.26663056 -0.7537952 0.2598565 -0.237313 0.16925739 0.28054658 -0.10027749 -0.32089597 0.44387105 0.4488245 -0.0074030524 0.37354767 0.035336137 -0.15234727 -0.06614319 1.2723141 -0.467412 -0.41279674 0.16020945 -0.35326675
28 0.18526463 -0.54835683 0.22521809 0.08464192 -0.16477208 -0.2243556 -0.3164165 -0.44225776 -1.0546541 0.35614237 0.5177229 -0.15270814 -1.1162564 -1.2816106 0.85265493 0.75338966 1.3224291 -0.10503061 1.253578 0.47116458 -0.05409453 0.51931924 -0.050804358 -0.24240209 0.044654913 -0.31955844 0.07695636 0.005994316 -0.09292903 -0.20409422 0.02957642 -0.9606452 -0.20688793 1.0943278 -1.6796277 -0.39038238 0.8577762 -0.63081306 -0.13548547 -0.83947635 0.30391854 -0.03979892 -0.2454088 0.8027437 0.95867354 -0.5854201 0.16923685 -0.41970786 0.9667829 -0.27454495 -0.26381394 -0.5467494 1.3923697 -0.14931503 -0.106755674 0.016192397 0.5025967 0.13756883 -0.09564495 1.6937252 -0.8616419 0.12791032 -0.35411757 -0.29961514
135 0.29213017 -0.54710835 0.264074 0.026352486 -0.17789075 -0.46183798 0.049449902 -0.45329475 -0.4564686 -0.028490633 0.57610875 -0.68331903 -0.82618773 -0.52504456 0.17456889 0.22032267 0.4136772 -0.07470883 0.25469816 0.70720047 0.10177 0.6251773 0.4489617 -0.11333391 0.047443725 -0.015785491 -0.2756931 -0.113686495 0.2132076 0.1791141 -0.35125846 0.030149331 -0.283363 0.03854468 -0.45565283 -0.29806125 0.0345063 -0.16910265 0.35205534 -0.16520506 0.2191189 -0.052533347 -0.19984207 -0.058976244 0.24264678 -0.63394797 0.2624384 -0.25594956 0.17122379 0.2509081 -0.076637805 -0.32619753 0.3880088 0.45357004 0.039570898 0.31597543 0.06365301 -0.17551139 -0.084745295 1.130174 -0.4276853 -0.36985108 0.13354841 -0.27370974
43 0.19352067 -0.54410934 0.22192006 0.08240066 -0.15195651 -0.20740227 -0.30189815 -0.43684015 -1.028038 0.34733668 0.48583373 -0.13619973 -1.0793027 -1.2328591 0.8525522 0.7311257 1.2808204 -0.10111184 1.2363936 0.46787295 -0.039914455 0.50497454 -0.059714925 -0.24050963 0.048850015 -0.29641473 0.06591415 0.015579488 -0.065981574 -0.18868835 0.04161023 -0.91930014 -0.18148945 1.0828334 -1.6297297 -0.39531073 0.8451531 -0.6208452 -0.14093874 -0.7961904 0.2750659 -0.04673929 -0.24888301 0.7906426 0.9590451 -0.57435167 0.15579441 -0.40375584 0.9325305 -0.26863 -0.2705415 -0.5377959 1.3411413 -0.13979444 -0.10598552 0.041216463 0.47670844 0.13584559 -0.09989112 1.6505177 -0.86035204 0.12240407 -0.3355918 -0.26218095
22 0.21169801 -0.5774594 0.23207274 0.088755846 -0.16976042 -0.23729491 -0.30107147 -0.44905427 -1.0639929 0.33249882 0.5338862 -0.16770123 -1.1222696 -1.2900403 0.8783089 0.7468246 1.2933872 -0.11163352 1.2465569 0.49081638 -0.046402864 0.5449855 -0.03255649 -0.26954234 0.06855187 -0.3028634 0.05690245 -0.0002102476 -0.05653196 -0.18295792 0.032556903 -0.92993563 -0.21277575 1.0783958 -1.668713 -0.40249377 0.84917235 -0.62289053 -0.12996891 -0.8429057 0.2958785 -0.031171683 -0.26176396 0.77973723 0.9673318 -0.58544385 0.16039884 -0.43500033 0.9699466 -0.26068962 -0.28431818 -0.5581444 1.3866031 -0.10968374 -0.11500944 0.04462823 0.5008021 0.1067672 -0.116208956 1.7419959 -0.89654034 0.10462259 -0.35767668 -0.27229884
144 0.28903177 -0.620563 0.34209162 0.0003018218 -0.16494521 -0.5122966 0.061936732 -0.5583405 -0.4902312 0.05790556 0.6980357 -0.80594254 -0.9515934 -0.64490783 0.18114306 0.16792351 0.579419 -0.10066868 0.28480327 0.80917346 0.037084285 0.71506655 0.5170461 -0.10266646 0.022183005 0.0057912483 -0.25903088 -0.18839847 0.23764083 0.15123045 -0.46087173 0.016350772 -0.3687131 0.08772288 -0.51125795 -0.34991163 0.04657924 -0.23663774 0.43306965 -0.18377958 0.17754936 -0.038897015 -0.22433461 -0.09057662 0.2773614 -0.82564914 0.2628666 -0.25389168 0.20425665 0.27672225 -0.113043666 -0.32783547 0.4731622 0.5041967 -0.049480334 0.41194248 0.018123724 -0.14149378 -0.058643226 1.3390003 -0.49731103 -0.46408913 0.17834972 -0.3888875
75 0.29305163 -0.5694584 0.3253172 0.009044769 -0.17924005 -0.51227164 0.061395206 -0.5382416 -0.4740255 0.04743757 0.6769924 -0.7636833 -0.9016516 -0.62828773 0.18159284 0.19049287 0.53834766 -0.111878365 0.27762726 0.7818488 0.052986145 0.66363263 0.48126113 -0.101853125 0.016008811 0.009987661 -0.24723877 -0.14804816 0.22684005 0.14165054 -0.40689275 0.011229168 -0.35419488 0.058329817 -0.4928075 -0.33551514 0.0574421 -0.2159839 0.42560393 -0.18321319 0.19247341 -0.03263773 -0.23048657 -0.06367688 0.281661 -0.7530204 0.27723476 -0.24438548 0.19127132 0.28017175 -0.09803871 -0.32906595 0.43940935 0.45364162 -0.00883313 0.36929235 0.027835561 -0.14996046 -0.054478344 1.2729212 -0.48070565 -0.42484757 0.14994194 -0.35958213
36 0.21101822 -0.6329123 0.24533607 0.113899305 -0.17918728 -0.24401547 -0.32544765 -0.50069845 -1.1344919 0.3605562 0.5764669 -0.20719083 -1.1964272 -1.3454835 0.90142775 0.79628587 1.366831 -0.10726156 1.3245429 0.5416928 -0.01623778 0.5732463 -0.0323799 -0.27718833 0.051042534 -0.34030974 0.034840956 -0.00080878474 -0.075829506 -0.18758638 0.016179029 -0.9802433 -0.19934389 1.1414615 -1.7690508 -0.44817644 0.8959584 -0.66279936 -0.12034368 -0.8873719 0.32997844 -0.0432541 -0.29232523 0.8238018 1.0211854 -0.6388319 0.18060423 -0.46380472 1.0354273 -0.26505265 -0.29059088 -0.5830586 1.453737 -0.09449657 -0.12707262 0.044507198 0.5062777 0.12503411 -0.12154005 1.8653942 -0.9305968 0.09064263 -0.34619758 -0.29708397
37 0.1581777 -0.51844424 0.18996917 0.1098026 -0.14250824 -0.18575074 -0.32149407 -0.42986557 -1.0094275 0.35716432 0.488665 -0.117986515 -1.0643619 -1.2580258 0.83153534 0.72332287 1.2875655 -0.1124956 1.2462088 0.42223933 -0.045138463 0.49142787 -0.083726406 -0.25039282 0.0335449 -0.3105106 0.08836141 0.012787247 -0.09342362 -0.19341566 0.03850491 -0.9582278 -0.17459288 1.0918077 -1.630206 -0.38976258 0.83607435 -0.62025046 -0.16668278 -0.83086854 0.26641238 -0.026374795 -0.23641145 0.8103328 0.96438545 -0.5718572 0.14264195 -0.38307425 0.96569246 -0.28514344 -0.25367236 -0.5298189 1.3586962 -0.15283409 -0.13087156 0.026588088 0.48742378 0.1499899 -0.082150936 1.6323906 -0.8490457 0.14712702 -0.3352124 -0.2823888
114 0.3982066 -0.5682584 0.15322271 0.09191483 -0.24119364 -0.42070052 -0.14922845 -0.15409377 -0.48285717 -0.4078402 0.33257967 -0.37965333 -0.59520924 -0.1936112 0.4423825 0.54650277 -0.093556225 0.20349441 0.26327953 0.72314286 0.39959583 0.48600584 0.3583432 -0.19557284 0.2446644 -0.22193052 -0.47124118 0.16125837 0.08892308 0.3195695 0.057919435 -0.0038430216 0.00010923372 0.108117394 -0.6927186 -0.045193516 0.12460801 0.13536379 0.211002 -0.20244482 0.3778421 0.016121373 -0.1426951 -0.014998185 0.31664747 -0.048230372 0.3829678 -0.47735435 0.19113925 0.15461412 -0.12358128 -0.40486994 0.2286242 0.507196 0.41006246 0.07554174 0.24148037 -0.35714006 -0.11389647 0.87493795 -0.2966942 -0.19282235 -0.15653567 0.12936291
143 0.3101412 -0.61686885 0.3207338 0.0026331998 -0.20652589 -0.5336388 0.059002645 -0.53947526 -0.513795 -0.0010992211 0.6844271 -0.80122745 -0.9231003 -0.62026685 0.21685745 0.23843929 0.49746907 -0.07366736 0.29240662 0.83405495 0.08281913 0.71202856 0.49579293 -0.12412834 0.05630776 -0.032339443 -0.3152809 -0.14624076 0.23797011 0.19164431 -0.4141953 0.037813954 -0.3420757 0.056503132 -0.52983826 -0.3269848 0.02877704 -0.18173252 0.4495691 -0.17909235 0.21178633 -0.036746345 -0.21163222 -0.0963739 0.27174586 -0.7446178 0.28890407 -0.26967394 0.18997069 0.30330056 -0.085425414 -0.36723828 0.4279863 0.50094473 0.016825037 0.36393824 0.05683729 -0.18983515 -0.08707314 1.327127 -0.48977232 -0.44379932 0.14195922 -0.34068686
49 0.16934446 -0.52961725 0.21016179 0.08945008 -0.14741908 -0.18750198 -0.32439488 -0.42708516 -1.0492893 0.37714192 0.4816831 -0.12259387 -1.0896333 -1.2916361 0.8643626 0.74553466 1.3366829 -0.103400365 1.2720344 0.43927935 -0.060234994 0.4994742 -0.08015916 -0.25830176 0.041944947 -0.31837776 0.09772052 0.009181816 -0.11055824 -0.20552142 0.046103712 -0.9889821 -0.19206221 1.1205217 -1.6974189 -0.41272882 0.8756179 -0.65732145 -0.16934898 -0.8588635 0.30751368 -0.041349035 -0.2616947 0.83963275 0.9696721 -0.5728178 0.14320426 -0.41328868 0.9792096 -0.30371806 -0.2680533 -0.5244702 1.4013218 -0.1676713 -0.1272018 0.008470035 0.5106065 0.1628483 -0.09094539 1.6957929 -0.8873991 0.14419006 -0.34555086 -0.2829931
110 0.2861091 -0.57888085 0.3013921 0.01223354 -0.18174478 -0.47979143 0.03421853 -0.4767334 -0.4778296 0.004386635 0.6176118 -0.7342915 -0.8757646 -0.5745564 0.1954434 0.21736032 0.453876 -0.071225636 0.27739465 0.7625994 0.09314659 0.6494035 0.48160473 -0.09786646 0.043309383 -0.021446291 -0.29067013 -0.13550463 0.20159891 0.17309365 -0.37901604 0.013580601 -0.30323544 0.065095924 -0.5180969 -0.29395816 0.04866431 -0.16459161 0.39520678 -0.16841179 0.22747962 -0.036075093 -0.2077372 -0.08538731 0.26080838 -0.68108004 0.2815949 -0.26899993 0.15905528 0.27203238 -0.1151762 -0.32115152 0.4136139 0.46178788 0.03632318 0.35880512 0.04137246 -0.18784985 -0.056705788 1.2206985 -0.43999594 -0.41648477 0.12500796 -0.2928939
29 0.18687242 -0.56946295 0.20877932 0.08903362 -0.17448923 -0.2009705 -0.31703448 -0.47025746 -1.0365067 0.3517054 0.5140235 -0.15211275 -1.110259 -1.2979957 0.8594455 0.7428276 1.3371626 -0.1019526 1.2685528 0.4623277 -0.04225465 0.5291878 -0.059062805 -0.2641632 0.048366383 -0.3060539 0.06404831 -0.007176306 -0.0703517 -0.2022613 0.038743027 -0.9624514 -0.20631604 1.1014158 -1.6887943 -0.3967457 0.8517087 -0.6495046 -0.14413624 -0.831088 0.29706392 -0.034742583 -0.26090905 0.7986258 0.977208 -0.5966675 0.16070177 -0.42502627 0.9721941 -0.2818554 -0.27572715 -0.5553373 1.3900248 -0.13119023 -0.11760526 0.03907686 0.4851709 0.1374367 -0.10763871 1.7128229 -0.8723471 0.10973048 -0.35890195 -0.28646892
48 0.19213071 -0.5332864 0.20830305 0.088652626 -0.160293 -0.20964582 -0.3106041 -0.43577808 -0.9969703 0.33160764 0.48946238 -0.13777375 -1.0329977 -1.1843553 0.8137069 0.70429873 1.2276317 -0.09744289 1.1790754 0.43233147 -0.018892001 0.50237054 -0.058866072 -0.25569516 0.05496848 -0.2897177 0.05315741 0.021502595 -0.082157806 -0.17749351 0.05030418 -0.8984029 -0.17093596 1.0341134 -1.5952771 -0.37572986 0.80706793 -0.6098034 -0.12322 -0.7942227 0.2902541 -0.04786346 -0.24976936 0.7408445 0.9253107 -0.55188435 0.15310904 -0.39383307 0.9347474 -0.2425425 -0.24848694 -0.50730866 1.2878213 -0.14181869 -0.119022086 0.023267185 0.47291902 0.12606144 -0.09770538 1.6058774 -0.82497996 0.10311519 -0.31933206 -0.27822194
136 0.28677407 -0.597263 0.34617415 0.0006713347 -0.16335094 -0.51092184 0.06862006 -0.55337065 -0.49602473 0.06818651 0.6917053 -0.77878433 -0.9422807 -0.6678578 0.20621103 0.18897739 0.58179593 -0.11849295 0.32294583 0.7654127 0.04176886 0.6809797 0.4639333 -0.09284357 0.010352087 0.005257383 -0.24686092 -0.16069186 0.22420421 0.15429188 -0.4416896 -0.003096073 -0.34559146 0.09163683 -0.5188173 -0.33869067 0.07139931 -0.23472509 0.42511404 -0.20369883 0.20039141 -0.035059355 -0.23479563 -0.048796844 0.2792029 -0.7907578 0.24704793 -0.24512686 0.20201093 0.2628197 -0.095441036 -0.348317 0.47574735 0.4560506 -0.041880313 0.37336004 0.024665166 -0.12524849 -0.08516665 1.3226424 -0.5108525 -0.42055997 0.16137218 -0.38846484
6 0.1740233 -0.5612415 0.19620247 0.08782544 -0.16330491 -0.20350215 -0.31285056 -0.45527753 -1.0367631 0.34335715 0.48735616 -0.14403604 -1.0881821 -1.2762346 0.8372409 0.7272077 1.3054678 -0.11844488 1.2442062 0.4612903 -0.034931667 0.5001206 -0.045904133 -0.26652783 0.052156176 -0.2954192 0.07427801 0.01887714 -0.08603857 -0.19147153 0.04866923 -0.9667263 -0.19590005 1.0854921 -1.6625893 -0.4064131 0.852205 -0.642612 -0.14196536 -0.8304405 0.3048992 -0.05474988 -0.25522304 0.8105106 0.97908854 -0.5766533 0.14875746 -0.41401076 0.97090805 -0.28729418 -0.2843929 -0.53314114 1.3656814 -0.13702124 -0.13710214 0.027944611 0.4902095 0.13037583 -0.097650446 1.6869222 -0.87544286 0.12574445 -0.3402027 -0.2787913
2 0.1978875 -0.5599522 0.2292307 0.10607681 -0.15231378 -0.22877292 -0.30557686 -0.4506035 -1.0699679 0.34063008 0.5248004 -0.14158995 -1.1346728 -1.2910308 0.8717886 0.76342076 1.3349813 -0.11647195 1.2916439 0.46259385 -0.032132957 0.5466703 -0.051147286 -0.27852234 0.06678849 -0.3249471 0.058151398 0.0024835076 -0.09234788 -0.18177156 0.047218457 -0.9669868 -0.1815548 1.131294 -1.6921635 -0.4002323 0.87623924 -0.6315625 -0.13245651 -0.83661586 0.29388264 -0.02896172 -0.24535398 0.82896936 0.9752702 -0.59690243 0.15537968 -0.41288975 0.9750649 -0.2745679 -0.27191484 -0.5375693 1.3933454 -0.13185795 -0.108232304 0.028161924 0.50226283 0.119950406 -0.10181504 1.735703 -0.8820291 0.105747335 -0.36103213 -0.2804532
125 0.3073377 -0.63277894 0.37846044 0.005443131 -0.18997663 -0.53520983 0.07359929 -0.6044991 -0.4836656 0.07939783 0.7375613 -0.8599159 -1.00234 -0.6995435 0.14972843 0.16208234 0.58874243 -0.13157348 0.27071434 0.84762615 0.021079184 0.7338971 0.5456675 -0.10976426 0.003214128 0.015672728 -0.27464172 -0.21640268 0.26925078 0.15049797 -0.4989012 0.015067574 -0.39761627 0.043053124 -0.49832425 -0.38118958 0.00811987 -0.24987328 0.48144257 -0.1871789 0.17447704 -0.06686056 -0.22675368 -0.10131124 0.28202173 -0.8776333 0.29018304 -0.2515719 0.16178311 0.31723934 -0.119026445 -0.33306196 0.4807938 0.51411706 -0.042430904 0.45584726 0.0139756 -0.14575824 -0.0536135 1.3981137 -0.5366011 -0.49981382 0.20152955 -0.43244597
78 0.38683936 -0.5261683 0.09068291 0.13340832 -0.2333836 -0.3562574 -0.1868642 -0.0874248 -0.5027234 -0.43271935 0.23787597 -0.25037014 -0.5222525 -0.12386659 0.48737106 0.57906324 -0.14703408 0.22174558 0.28430346 0.6250055 0.41858077 0.4206282 0.28284264 -0.21055986 0.28328758 -0.2352819 -0.44485942 0.19207172 0.0691185 0.29501244 0.14317203 -0.03178345 0.07507758 0.16003741 -0.6952272 -0.023147276 0.14320934 0.1147038 0.121234216 -0.21067363 0.40732872 0.03080449 -0.121808186 0.060959406 0.33492792 0.07098712 0.34532857 -0.44590434 0.20474531 0.10233248 -0.1157181 -0.38766494 0.26453328 0.42571008 0.45366064 0.009381309 0.29174817 -0.3302764 -0.11973908 0.7689604 -0.28689182 -0.10538119 -0.19236527 0.2137853
86 0.28594923 -0.6133525 0.36250028 0.0106423395 -0.18840533 -0.55876285 0.08318343 -0.61433005 -0.52317387 0.06607661 0.7587888 -0.86237794 -1.012488 -0.69307 0.1674171 0.1491593 0.6201881 -0.15071672 0.2977809 0.85543513 0.024091005 0.7560312 0.53756434 -0.1017566 0.0017734115 0.026516326 -0.2558241 -0.1984646 0.25563765 0.1480011 -0.4957623 0.013274698 -0.39498827 0.04765309 -0.504129 -0.37374875 0.022529686 -0.25531924 0.46258193 -0.19489098 0.19508162 -0.05069039 -0.2415889 -0.08553131 0.2848988 -0.8872585 0.29160103 -0.25131205 0.17805907 0.3031913 -0.11799873 -0.35902286 0.48308253 0.5137389 -0.068546705 0.42147818 0.005169055 -0.14395432 -0.0847011 1.4225948 -0.5262056 -0.466339 0.19225493 -0.4237854
52 0.223606 -0.49798802 0.3027367 -0.010471372 -0.13448445 -0.446916 0.08683539 -0.5345423 -0.42437473 0.08885846 0.65029347 -0.7342228 -0.8680417 -0.61729187 0.11880062 0.10440077 0.5579495 -0.15635806 0.25050882 0.68105793 -0.029740082 0.6153875 0.46399927 -0.08268035 -0.022525532 0.012989579 -0.17804238 -0.1986269 0.21727028 0.11025698 -0.42545164 -0.0068800305 -0.3688138 0.072791524 -0.42931473 -0.33956513 0.028929505 -0.23537882 0.4010033 -0.15821984 0.15499441 -0.05861979 -0.19968785 -0.06940059 0.23963809 -0.7702126 0.23021191 -0.1959572 0.16389689 0.27362493 -0.100312576 -0.27947438 0.41549414 0.4081654 -0.104328394 0.38261592 0.020469103 -0.113447815 -0.072218776 1.1838341 -0.4565837 -0.4064019 0.19251218 -0.39321986
11 0.19023581 -0.54177445 0.19807954 0.08522766 -0.1520756 -0.20721166 -0.29378554 -0.4441537 -1.0229375 0.34592032 0.48376825 -0.14764756 -1.0766301 -1.2492473 0.83348227 0.73063225 1.293343 -0.09678334 1.2370063 0.44473612 -0.057096343 0.5165595 -0.05498198 -0.24479307 0.045528203 -0.29009536 0.08565324 -0.010908544 -0.086976446 -0.19621174 0.037060887 -0.95194757 -0.17836691 1.0820179 -1.6288183 -0.39685234 0.82478464 -0.61153793 -0.152194 -0.8252291 0.29326662 -0.05465124 -0.2512332 0.78343374 0.9459616 -0.58212817 0.1510399 -0.395442 0.9555105 -0.27183968 -0.25703916 -0.54071826 1.3552324 -0.15063871 -0.12056329 0.0171067 0.47274953 0.12849037 -0.10269996 1.6665716 -0.84789586 0.123164 -0.3477159 -0.27173483
109 0.24915092 -0.61546546 0.39663213 -0.032187514 -0.1510189 -0.56165135 0.13975872 -0.6725038 -0.49744245 0.18883583 0.81288445 -0.9510075 -1.0655504 -0.78297114 0.10077627 0.066261336 0.7413446 -0.20663667 0.28462383 0.8149505 -0.051153008 0.7838619 0.53756905 -0.07717392 -0.044340223 0.06299732 -0.20059048 -0.2781254 0.28668407 0.12371497 -0.6031873 0.014120689 -0.4836482 0.029287215 -0.44826803 -0.42535937 0.010011788 -0.32268885 0.5358818 -0.19516198 0.14100283 -0.0802293 -0.2569723 -0.100590475 0.25301653 -1.0465447 0.23370425 -0.1890335 0.16805783 0.32809848 -0.07957118 -0.3001962 0.50916415 0.48747277 -0.17928575 0.5168664 -0.05069652 -0.08647244 -0.047767185 1.477012 -0.56653434 -0.5144237 0.28338966 -0.55181444
108 0.37352294 -0.5022594 0.10312716 0.115361966 -0.22628614 -0.35440284 -0.21095541 -0.081448086 -0.5026385 -0.41879666 0.2304305 -0.25998417 -0.514698 -0.12316237 0.49337474 0.5788227 -0.14048402 0.22101101 0.3029058 0.61829716 0.4173428 0.3958529 0.29025 -0.1996878 0.2636604 -0.23791277 -0.44676504 0.2048388 0.048986457 0.27665418 0.15638693 -0.04255464 0.07033454 0.1622953 -0.7256547 -0.0191361 0.15268642 0.13836396 0.09668393 -0.23223728 0.39849535 0.035637006 -0.14423934 0.052389976 0.33076042 0.089132234 0.35908687 -0.45814937 0.2043009 0.10709081 -0.12895674 -0.38439226 0.24091242 0.41556293 0.46485057 -0.0029031541 0.27790093 -0.32563984 -0.11817637 0.7407736 -0.26468042 -0.1096655 -0.19968766 0.22956374
21 0.17666249 -0.5192171 0.2024154 0.093792364 -0.14219323 -0.16993797 -0.3079836 -0.41798726 -0.9723071 0.3489372 0.46129638 -0.10228069 -1.0237911 -1.211829 0.7929572 0.691283 1.2523792 -0.111527406 1.1777829 0.42611453 -0.060934585 0.475348 -0.056093283 -0.25079104 0.04588041 -0.2938525 0.093873546 -0.0036581266 -0.09588023 -0.17981678 0.031791218 -0.89775485 -0.19006343 1.0571564 -1.5771368 -0.3843144 0.811389 -0.6036883 -0.14656818 -0.788052 0.2630039 -0.042848825 -0.2391813 0.77976346 0.92208505 -0.5409573 0.12519604 -0.3700467 0.9068176 -0.26447114 -0.25274417 -0.50796926 1.2899777 -0.16351692 -0.13639256 0.032050136 0.4659007 0.13714537 -0.07587277 1.5622056 -0.81575334 0.12482098 -0.34274906 -0.27968922
9 0.1792411 -0.51502347 0.18556313 0.10136857 -0.15636618 -0.19740751 -0.28347006 -0.41682917 -0.9685969 0.3243042 0.4488675 -0.12404729 -1.0181078 -1.1790478 0.7920653 0.67866665 1.2267715 -0.08880341 1.1595154 0.41894948 -0.04784827 0.48446468 -0.037504625 -0.23604707 0.045780737 -0.28771427 0.07789075 -0.009641771 -0.08388084 -0.19954015 0.030772232 -0.8821745 -0.17095436 1.015826 -1.53297 -0.37973878 0.80881506 -0.5852653 -0.12728485 -0.76532555 0.27154619 -0.03191882 -0.23079437 0.73186296 0.88881725 -0.5421991 0.121751845 -0.36732414 0.90578884 -0.25736594 -0.2430476 -0.49750206 1.2684579 -0.12673035 -0.12876557 0.016031653 0.46129468 0.12113775 -0.07539316 1.5701045 -0.81857824 0.12896621 -0.3120579 -0.27387416
123 0.33052677 -0.49059144 0.10335806 0.11137854 -0.2125911 -0.32615536 -0.18054275 -0.09039206 -0.4417464 -0.39328548 0.21812586 -0.2547573 -0.50415033 -0.1488941 0.4409111 0.5318541 -0.12443124 0.20512873 0.28078294 0.59771955 0.36471236 0.39807323 0.25900868 -0.18307668 0.24236566 -0.21856977 -0.4265266 0.16945267 0.0749135 0.25362515 0.10668646 -0.02816292 0.050034367 0.11966846 -0.6352056 -0.02096468 0.13740666 0.1231044 0.13743962 -0.18935625 0.36876416 0.016815687 -0.12029903 0.03804448 0.30513635 0.06804624 0.33120656 -0.43252116 0.20693934 0.0926053 -0.11117091 -0.34245193 0.21663435 0.40006512 0.41052312 0.019819025 0.2593785 -0.30561602 -0.10730765 0.69884586 -0.23513584 -0.13864712 -0.15963621 0.18317305
47 0.20036864 -0.56271666 0.23705503 0.112742566 -0.15244116 -0.24555375 -0.29331052 -0.47150913 -1.058326 0.31228566 0.5248804 -0.16400626 -1.1237615 -1.2688954 0.8495071 0.7420755 1.2836716 -0.092536986 1.2454829 0.49144408 -0.03681148 0.5367814 -0.026231907 -0.25593048 0.07439499 -0.29183698 0.03777702 -0.010552536 -0.083813354 -0.18781565 0.028165963 -0.93782544 -0.19389662 1.088745 -1.6558355 -0.4018193 0.8534617 -0.61182636 -0.12081639 -0.83096373 0.30337843 -0.031181986 -0.24517845 0.7723014 0.98045796 -0.58918196 0.17279108 -0.4301432 0.96279216 -0.25177374 -0.28855348 -0.5401693 1.347977 -0.11538884 -0.100971945 0.055841643 0.4828121 0.13030593 -0.09697168 1.7218719 -0.884429 0.10999247 -0.3510173 -0.28912723
35 0.1949217 -0.5640698 0.22476861 0.0876057 -0.158528 -0.22452797 -0.3106631 -0.4499107 -1.0011227 0.35003468 0.488508 -0.164943 -1.0761887 -1.2606484 0.8417359 0.7320675 1.2643231 -0.09435184 1.2324172 0.45931527 -0.042115964 0.5061748 -0.029886812 -0.23596442 0.05733011 -0.31181538 0.077276275 -0.005317073 -0.07979389 -0.17774476 0.025210498 -0.9175015 -0.20327942 1.074052 -1.6325476 -0.39301515 0.8382098 -0.60934997 -0.11152062 -0.81636846 0.2964757 -0.028757423 -0.25544366 0.7861592 0.9289344 -0.56900626 0.15804571 -0.3922409 0.9521372 -0.2507297 -0.2743456 -0.54181445 1.336507 -0.12263703 -0.12411773 0.024393884 0.46110657 0.14242446 -0.082495235 1.6776369 -0.86241513 0.10927627 -0.3445427 -0.27280843
34 0.17900601 -0.5308195 0.20014772 0.090479836 -0.15024623 -0.19505675 -0.31646696 -0.45037383 -1.0137552 0.3347215 0.5008878 -0.12457917 -1.0786185 -1.2623968 0.8253741 0.72456247 1.2991236 -0.10744101 1.2224617 0.45804006 -0.06397567 0.51053005 -0.04571985 -0.24926887 0.035426028 -0.2926788 0.06848092 -0.0068271677 -0.06996391 -0.21112405 0.022759646 -0.9503216 -0.18261552 1.0867329 -1.6475261 -0.3984936 0.85638374 -0.61048794 -0.12448074 -0.81815386 0.29338503 -0.03909528 -0.24557632 0.8006102 0.95784736 -0.57218426 0.1389914 -0.40840217 0.96872616 -0.28188324 -0.26573172 -0.53001934 1.346598 -0.15244998 -0.119131856 0.01827402 0.467792 0.13715933 -0.090086065 1.6681272 -0.8598435 0.13676848 -0.3546734 -0.28824675
10 0.1663152 -0.54425573 0.21724212 0.08004227 -0.16703314 -0.21023875 -0.28844324 -0.42956293 -0.9968405 0.3178218 0.47431993 -0.13324848 -1.046427 -1.224528 0.8094079 0.72317106 1.228221 -0.100254 1.197661 0.45351443 -0.036631763 0.50210446 -0.06176499 -0.2623537 0.060435362 -0.29245073 0.06270143 0.0008197488 -0.06504911 -0.20366475 0.031641502 -0.913841 -0.17961967 1.0694753 -1.6046969 -0.39097545 0.8074468 -0.6219596 -0.15145154 -0.80506 0.27725738 -0.042568628 -0.241052 0.76099604 0.93329406 -0.54379576 0.15848538 -0.4018034 0.94071114 -0.24915627 -0.27158716 -0.53206915 1.311573 -0.14699177 -0.1047282 0.039068907 0.48234844 0.11465168 -0.08859117 1.6215391 -0.82100767 0.10474455 -0.33185798 -0.278366
19 0.1975131 -0.6096532 0.2547206 0.11429188 -0.18968816 -0.23774862 -0.33506945 -0.47357637 -1.1255599 0.37827653 0.5453856 -0.19277874 -1.1859988 -1.3591315 0.89519703 0.79333436 1.3856398 -0.12441889 1.3378314 0.5253804 -0.025068248 0.58521664 -0.043957215 -0.26554313 0.06882957 -0.31613484 0.07457139 -0.0077970284 -0.07129236 -0.19346048 0.020346973 -1.011588 -0.20983998 1.1658691 -1.7938191 -0.41566902 0.9042983 -0.66870266 -0.13400128 -0.88194036 0.33414948 -0.03491102 -0.2849744 0.85294485 1.0285004 -0.6506369 0.18701161 -0.4351805 1.0346748 -0.25964683 -0.30692202 -0.5953138 1.456841 -0.12983921 -0.12466443 0.044960838 0.5020884 0.13479231 -0.10306976 1.831273 -0.9274904 0.11059558 -0.34829074 -0.31108782
30 0.19402418 -0.54348356 0.21351533 0.089554794 -0.14493991 -0.19653785 -0.3032636 -0.4210827 -1.0275851 0.35358354 0.48961172 -0.13979904 -1.072581 -1.255204 0.83108366 0.73073095 1.2843442 -0.088647604 1.2105446 0.46247882 -0.058267154 0.50868964 -0.038636126 -0.25516558 0.038450003 -0.311776 0.0749154 0.001682397 -0.097464256 -0.18879132 0.038622685 -0.9245256 -0.17765039 1.0776095 -1.6438197 -0.3807971 0.8429526 -0.62982047 -0.14296477 -0.8121194 0.28837642 -0.04099609 -0.25488275 0.784958 0.95413107 -0.5654919 0.14698789 -0.39603955 0.942112 -0.28008738 -0.2532906 -0.53943294 1.3367493 -0.14052747 -0.13035358 0.029480798 0.4898608 0.13219318 -0.085180365 1.6485386 -0.8575875 0.11836747 -0.34103808 -0.26415426
65 0.2920692 -0.5778502 0.33232227 -0.008454863 -0.15944636 -0.50495493 0.08308307 -0.5674571 -0.48363253 0.06662544 0.72126794 -0.8194243 -0.95718646 -0.6593887 0.15215026 0.16747402 0.57980955 -0.14625625 0.3001361 0.79398394 0.015188999 0.7147055 0.48774442 -0.09623726 0.022406403 0.01109253 -0.24874288 -0.18721648 0.22798172 0.1509654 -0.4596913 0.0188836 -0.36575794 0.055712014 -0.4784252 -0.37435928 0.051235918 -0.26175955 0.42541245 -0.19082579 0.17313254 -0.06316076 -0.22752036 -0.07226921 0.25752896 -0.84054184 0.24434674 -0.23928757 0.19689134 0.2878285 -0.08341213 -0.33471507 0.48253274 0.4748518 -0.0475244 0.40531132 0.023373514 -0.13795011 -0.08568121 1.3521938 -0.5155149 -0.42711017 0.18379645 -0.39597166
25 0.179681 -0.554013 0.20992927 0.09871515 -0.17190996 -0.21209824 -0.29881337 -0.4375177 -0.98342854 0.32626632 0.4929313 -0.15864475 -1.0595323 -1.2015822 0.82178545 0.7179809 1.2419897 -0.111500494 1.2020543 0.4404282 -0.048648912 0.51521534 -0.041583 -0.26034942 0.04720952 -0.28094932 0.05749037 0.007903894 -0.073513396 -0.17357057 0.029225618 -0.9135791 -0.19090165 1.0514007 -1.582597 -0.38955083 0.8186379 -0.58545506 -0.1117635 -0.7872088 0.27138987 -0.043874737 -0.23375711 0.7450425 0.93568975 -0.57512236 0.13655277 -0.4004302 0.92833775 -0.26366612 -0.24867798 -0.5335758 1.3079151 -0.11381724 -0.11023222 0.048802685 0.47085664 0.12414259 -0.087857686 1.6302925 -0.8246474 0.12183313 -0.32777977 -0.28283507
42 0.1759603 -0.5459415 0.19880472 0.090655714 -0.14546534 -0.21620256 -0.29126453 -0.42673647 -1.0024092 0.33089834 0.49975404 -0.15787242 -1.0545118 -1.2097889 0.8154599 0.70673317 1.2359434 -0.1161534 1.2114226 0.46284762 -0.028127313 0.50072014 -0.039339848 -0.2439638 0.039370354 -0.31060046 0.07305123 -0.011221381 -0.0814421 -0.19010547 0.038490802 -0.91895753 -0.17177294 1.0554677 -1.6155988 -0.39032763 0.81980747 -0.61531025 -0.11649401 -0.78527045 0.29571196 -0.051481597 -0.2540562 0.768746 0.93125945 -0.57212955 0.16224132 -0.38813964 0.9266129 -0.25277373 -0.25833523 -0.52017945 1.3332211 -0.1269271 -0.1221718 0.031583466 0.45644963 0.1406124 -0.11026552 1.6348413 -0.8447718 0.11530445 -0.3236375 -0.2858023
51 0.23417233 -0.55524516 0.35905182 -0.0040190895 -0.14971496 -0.4890488 0.082044475 -0.59096545 -0.48814616 0.16596764 0.715553 -0.8248265 -0.9444935 -0.7190254 0.10704368 0.086214535 0.6812805 -0.1882583 0.30940625 0.7547889 -0.040652994 0.68304855 0.49154958 -0.09485817 -0.017594904 0.031466495 -0.1826048 -0.22382125 0.23479858 0.09612228 -0.5128317 -0.022844546 -0.41425404 0.068283275 -0.44565096 -0.40972212 0.038733933 -0.3172246 0.4210993 -0.18946083 0.1280387 -0.0773623 -0.21932024 -0.06260024 0.2703901 -0.8924943 0.20574413 -0.18129405 0.18029553 0.291346 -0.0807224 -0.2883341 0.4812753 0.4241879 -0.15108967 0.42379665 -0.012719203 -0.10528922 -0.050321635 1.34546 -0.5285153 -0.45564643 0.22041878 -0.4727869
12 0.17064512 -0.5539237 0.20806807 0.108674765 -0.16795757 -0.19788854 -0.2890527 -0.44580084 -1.0089194 0.32679614 0.49927577 -0.1522154 -1.0727868 -1.2451669 0.83498114 0.7053761 1.2445388 -0.09963197 1.2131203 0.45902818 -0.04076135 0.51429707 -0.034782965 -0.23792568 0.046917304 -0.30574295 0.052918486 0.011911269 -0.07175616 -0.19389254 0.036176693 -0.90184695 -0.17589965 1.044017 -1.6209744 -0.39115614 0.81054074 -0.6022572 -0.116490886 -0.81107754 0.30148417 -0.052450757 -0.23671958 0.7612001 0.93982285 -0.57533574 0.15588436 -0.38681796 0.9333778 -0.26366645 -0.28010783 -0.5206081 1.3323767 -0.11242487 -0.119923234 0.01963095 0.4802859 0.12000216 -0.09029994 1.6612738 -0.8508503 0.11265611 -0.33812147 -0.28551602
13 0.15346374 -0.4976756 0.1769165 0.08469238 -0.14582004 -0.1707862 -0.28253138 -0.39432034 -0.93373233 0.31787288 0.4417817 -0.10075757 -0.97681916 -1.1725771 0.7837717 0.6862001 1.2076093 -0.11016205 1.1431012 0.4056316 -0.043496832 0.4572302 -0.06413184 -0.22197403 0.056097645 -0.28070053 0.068392925 -0.0058283336 -0.09024659 -0.17986389 0.037548505 -0.88078785 -0.18381236 1.0039399 -1.5058991 -0.3511508 0.78940827 -0.583033 -0.12028595 -0.7586295 0.26727477 -0.027830372 -0.23980975 0.74878645 0.8980318 -0.51948184 0.1375659 -0.35919213 0.8836694 -0.26917806 -0.24716394 -0.48496705 1.240355 -0.13659379 -0.106025144 0.009713528 0.4470528 0.1450101 -0.10392456 1.5348905 -0.8043519 0.10673292 -0.3089233 -0.26728603
46 0.17407835 -0.53673655 0.18980202 0.07914204 -0.14985214 -0.1945105 -0.30343923 -0.43273184 -0.97570324 0.31899187 0.46408793 -0.1442822 -1.0181793 -1.1815488 0.8077463 0.7020402 1.2151961 -0.09652991 1.1826369 0.43786442 -0.037091434 0.4886722 -0.059115693 -0.23127654 0.058201548 -0.28560972 0.08291176 -0.005756879 -0.069660604 -0.19380467 0.015362388 -0.88540107 -0.17176484 1.033307 -1.5720259 -0.36601415 0.79892015 -0.58249116 -0.12705636 -0.7652619 0.28983462 -0.053068426 -0.25161266 0.7565664 0.9025181 -0.5599136 0.13568327 -0.38072106 0.9196237 -0.2526412 -0.2604078 -0.5203694 1.2696717 -0.12341191 -0.11296679 0.017631177 0.45657507 0.109082386 -0.0967471 1.590904 -0.81243193 0.120630026 -0.31062564 -0.26758224
45 0.16548552 -0.4846868 0.20261407 0.102176696 -0.13422988 -0.16679585 -0.2761272 -0.4040563 -0.95177233 0.34775457 0.44937035 -0.11668075 -0.9893766 -1.1757225 0.7951899 0.67987424 1.2148511 -0.089673124 1.168332 0.38939235 -0.062922165 0.4511989 -0.070941955 -0.24767676 0.040929314 -0.29250368 0.10182553 -0.0034427037 -0.09542433 -0.20519939 0.03257013 -0.90292853 -0.17135236 1.0266412 -1.532083 -0.35146075 0.7892494 -0.5997655 -0.14728281 -0.7720209 0.25302905 -0.05174997 -0.23492478 0.74521583 0.89842135 -0.5386586 0.11848163 -0.3618331 0.8926539 -0.25872976 -0.2523739 -0.47868642 1.2752018 -0.16279927 -0.11667685 0.030079348 0.44795412 0.15190852 -0.096939564 1.5225989 -0.8073831 0.14097363 -0.33723617 -0.26486114
3 0.18105179 -0.542862 0.22193311 0.08314507 -0.16725802 -0.19258147 -0.3039201 -0.41287917 -0.990795 0.32998353 0.48335883 -0.15657938 -1.0557921 -1.2105266 0.8166376 0.71288437 1.22637 -0.08880088 1.1847878 0.4566535 -0.032425087 0.4843893 -0.021077812 -0.25728807 0.04676832 -0.2852447 0.06888014 -0.0144508025 -0.07087037 -0.16871013 0.012362895 -0.8753588 -0.19129461 1.0424765 -1.5839937 -0.36918062 0.81669295 -0.6078548 -0.12117672 -0.79479355 0.2974379 -0.02435248 -0.25038055 0.74906313 0.91052777 -0.5689362 0.15011331 -0.40623078 0.91521764 -0.26063046 -0.2513184 -0.5004388 1.2884951 -0.1231264 -0.1241425 0.04211456 0.4633441 0.1367617 -0.09005903 1.6057098 -0.81894445 0.11993105 -0.30815184 -0.2565916
56 0.23820437 -0.57899714 0.36912158 -0.020485952 -0.1460566 -0.49398065 0.099166825 -0.6055375 -0.48487592 0.15897161 0.75054437 -0.8400857 -0.99036103 -0.6966955 0.11559597 0.08234004 0.67423993 -0.17461206 0.2806979 0.78277797 -0.05009256 0.7052731 0.50917774 -0.08496556 -0.026759598 0.030842885 -0.18501712 -0.22638589 0.2591041 0.13172273 -0.53820604 0.02499449 -0.43564492 0.04172634 -0.41633806 -0.3956141 0.0084038265 -0.310494 0.46520337 -0.17179343 0.15952232 -0.08149727 -0.2344406 -0.08566225 0.2522667 -0.9212404 0.2201005 -0.18506737 0.17112492 0.3179338 -0.09788593 -0.2899794 0.48117265 0.45278755 -0.14255817 0.43488687 -0.016039431 -0.10683195 -0.04894069 1.3678604 -0.53463423 -0.4455736 0.23621207 -0.4863824
1 0.1665323 -0.49732235 0.17363752 0.10327562 -0.1284698 -0.15908094 -0.29074782 -0.3907809 -0.9455297 0.32443014 0.46196842 -0.10841572 -1.0063479 -1.1634781 0.7824023 0.69772136 1.2048984 -0.086396255 1.1598637 0.40143666 -0.038465086 0.46276778 -0.074859805 -0.24259341 0.028145446 -0.27787226 0.10039662 -0.003915063 -0.079556204 -0.18621103 0.031302374 -0.89901394 -0.18039654 1.0263693 -1.5427907 -0.37493667 0.79551446 -0.60487276 -0.15994893 -0.7859061 0.28098768 -0.024184264 -0.22915153 0.7562464 0.9110485 -0.5218477 0.11122506 -0.37746778 0.9077211 -0.25861982 -0.24890718 -0.4740615 1.2876914 -0.15742458 -0.10916659 0.02822423 0.4659542 0.15694661 -0.105420776 1.543645 -0.8134187 0.12048266 -0.34352332 -0.2542142
44 0.16837883 -0.52020967 0.20642251 0.102857865 -0.13959508 -0.17156054 -0.29779717 -0.4204577 -0.9523938 0.31715956 0.44947422 -0.118219905 -1.0081768 -1.1792308 0.791581 0.6989918 1.2140614 -0.100525156 1.1717229 0.42043036 -0.031811375 0.4698314 -0.05096206 -0.22801717 0.031084022 -0.27446544 0.07617089 0.013502972 -0.0796771 -0.19046323 0.02602426 -0.890637 -0.17831664 1.0095917 -1.53784 -0.35411432 0.80063474 -0.5967183 -0.14643395 -0.770895 0.27741647 -0.052973144 -0.220962 0.7478679 0.8895053 -0.5176999 0.14747924 -0.3745855 0.90785456 -0.26903734 -0.26999256 -0.50582594 1.2854073 -0.13096486 -0.10635792 0.012015288 0.45652038 0.12651968 -0.09363099 1.5489304 -0.7921234 0.10105172 -0.31218824 -0.2508191
142 0.36151826 -0.46068648 -0.004553272 0.13716237 -0.23749131 -0.24776426 -0.27161545 0.06377096 -0.4979684 -0.53294826 0.0872947 -0.09386811 -0.37566605 0.015710846 0.54922265 0.65985805 -0.3181357 0.29151428 0.32308725 0.54092336 0.49306092 0.29572368 0.21447799 -0.19476123 0.33857036 -0.28209236 -0.45769536 0.26598135 0.011643498 0.32184914 0.3270983 -0.08815881 0.20172918 0.20171505 -0.7646228 0.09243655 0.19700703 0.19947721 -0.009786607 -0.24933416 0.43157178 0.04136414 -0.100521766 0.11963046 0.36237454 0.32660103 0.3331922 -0.51757205 0.23362087 0.020354953 -0.13007851 -0.3690422 0.21094123 0.3808769 0.54948825 -0.15440741 0.36915925 -0.36846012 -0.09644255 0.5576227 -0.20695132 -0.017692566 -0.32178164 0.3802384
83 0.37231764 -0.43692282 -0.017200693 0.16194548 -0.23044898 -0.22819854 -0.30319744 0.09606333 -0.49273896 -0.5493029 0.046045605 -0.03107747 -0.35208428 0.008822012 0.5873078 0.67551106 -0.34928957 0.29511395 0.34066486 0.5116473 0.49792653 0.27416682 0.19430237 -0.20930576 0.36443418 -0.31982478 -0.44365057 0.30002916 -0.015824877 0.3273683 0.3594014 -0.123259895 0.22270189 0.22525983 -0.80787235 0.08888827 0.20402667 0.1752974 -0.04294474 -0.26342633 0.45877635 0.029624976 -0.08952307 0.13304278 0.3658295 0.40810847 0.3539601 -0.5352855 0.2505161 -0.0018783136 -0.12613241 -0.37863526 0.21222821 0.3175426 0.5970591 -0.1928351 0.39619818 -0.36353365 -0.10856946 0.51421255 -0.18514858 0.037385676 -0.34467965 0.40452066
38 0.15161371 -0.49357837 0.20024757 0.090042055 -0.13481265 -0.19944318 -0.2788761 -0.4087071 -0.9314002 0.3280824 0.4582235 -0.14170365 -0.9828077 -1.140898 0.75478464 0.66703683 1.1765248 -0.086394355 1.134874 0.41568404 -0.049907893 0.44976428 -0.033614773 -0.23025665 0.055803064 -0.26683378 0.061220746 -0.0026568011 -0.07172986 -0.1833178 0.03853914 -0.8679343 -0.18862978 0.9950879 -1.5019866 -0.37146497 0.77230316 -0.5652713 -0.13177085 -0.757589 0.2528313 -0.03244967 -0.23702623 0.7357617 0.8723597 -0.52769405 0.12770502 -0.3511876 0.8727788 -0.25921112 -0.2591702 -0.48136425 1.2480869 -0.12349393 -0.122592665 0.019969337 0.42090642 0.13406287 -0.102900445 1.5309534 -0.7844909 0.10551181 -0.32337597 -0.2519156
73 0.3306503 -0.38473094 -0.082074754 0.18315761 -0.21196048 -0.14707783 -0.32319337 0.17608504 -0.49943003 -0.5531937 -0.05037787 0.089955576 -0.26762414 0.06753873 0.5918179 0.699896 -0.36859748 0.325477 0.36579132 0.4084291 0.47412178 0.17572732 0.082384385 -0.2071199 0.37424132 -0.3302416 -0.3977783 0.30766279 -0.074692875 0.29528216 0.44729415 -0.15575665 0.2693921 0.26810578 -0.82887685 0.12742332 0.22982258 0.1643235 -0.16571712 -0.2743187 0.44863188 0.022939833 -0.044382602 0.1988686 0.36209738 0.52017945 0.30961755 -0.5106473 0.27712685 -0.053048134 -0.11804016 -0.3614337 0.23943338 0.21574548 0.5660108 -0.25544104 0.4329295 -0.3377097 -0.10430351 0.40436375 -0.15633638 0.12973776 -0.40433335 0.45834672
117 0.2397598 -0.55548716 0.36146113 -0.010172414 -0.1383855 -0.5184709 0.10936403 -0.65503436 -0.485445 0.17538185 0.77787703 -0.8857546 -1.0066597 -0.74089134 0.089029506 0.045308933 0.7137887 -0.20131733 0.2938237 0.7728755 -0.07077586 0.72618556 0.5209645 -0.07466825 -0.034911927 0.042735804 -0.16111198 -0.2815091 0.2551829 0.112975515 -0.56915927 0.018267045 -0.4411381 0.03875933 -0.4252445 -0.43349174 0.0056875325 -0.33107856 0.4869451 -0.16136183 0.12446787 -0.08109895 -0.24841005 -0.085428804 0.25658828 -0.9961825 0.2258807 -0.19306615 0.17923751 0.31917414 -0.10251099 -0.29390386 0.49719 0.4282651 -0.17342457 0.47446036 -0.04288392 -0.09669523 -0.059973806 1.4124587 -0.53808707 -0.45864698 0.24270985 -0.49663675
146 0.38383022 -0.51808304 0.02798243 0.14932106 -0.25146684 -0.2935785 -0.25959378 0.026538957 -0.5017354 -0.53348327 0.14476258 -0.1586774 -0.46964663 -0.042492438 0.5633566 0.66010594 -0.2731406 0.27201897 0.3248069 0.61115795 0.49747175 0.36199486 0.23447536 -0.20437889 0.33579555 -0.30227864 -0.48214212 0.25496563 0.02380442 0.30834454 0.26393148 -0.08124895 0.17234579 0.19365902 -0.7796364 0.064777516 0.18092953 0.17646849 0.048021898 -0.24615952 0.45701256 0.05767387 -0.104059935 0.093069516 0.37057176 0.2804661 0.38978297 -0.5036446 0.2287734 0.042597532 -0.121840045 -0.39169207 0.22722594 0.41711804 0.5650569 -0.11184499 0.35339433 -0.3832737 -0.09843907 0.67066294 -0.23981015 -0.042149376 -0.27213112 0.35805684
5 0.17844746 -0.50603694 0.2009224 0.103548355 -0.14396638 -0.18299654 -0.30748188 -0.40560246 -0.978493 0.33395535 0.45070374 -0.12257332 -1.0047659 -1.1810191 0.7803025 0.6999678 1.2007219 -0.114431635 1.172457 0.4155483 -0.032128353 0.46121082 -0.056492943 -0.23988819 0.056516245 -0.29996854 0.08491444 -0.008315596 -0.09130597 -0.18787529 0.034141928 -0.8985742 -0.18106417 1.0339178 -1.565822 -0.3660379 0.8056017 -0.58925784 -0.13976301 -0.76135474 0.25790355 -0.05260838 -0.224045 0.7635222 0.89035857 -0.5443277 0.1339775 -0.39217722 0.91015464 -0.24351516 -0.26734582 -0.5134062 1.2921112 -0.1418662 -0.1211675 0.018073454 0.44232905 0.12149088 -0.097836584 1.5586905 -0.80339986 0.13181725 -0.31392366 -0.26216042
72 0.31679142 -0.3412349 -0.12829019 0.21018693 -0.21814233 -0.08006084 -0.35561475 0.2264158 -0.52906317 -0.6018727 -0.107706495 0.21211241 -0.22979495 0.117684096 0.62815946 0.783197 -0.45060214 0.3482343 0.41541055 0.3739475 0.5014709 0.122269735 0.069221795 -0.2375404 0.4047591 -0.36997873 -0.3871024 0.36789605 -0.09946722 0.29588413 0.5792935 -0.19529659 0.34931698 0.3486024 -0.91434896 0.15170257 0.29689944 0.19284965 -0.2374337 -0.30147088 0.51414126 0.016606959 -0.024136126 0.26072663 0.42157894 0.6502862 0.28613743 -0.54144675 0.3355474 -0.10968372 -0.12482935 -0.36917856 0.23661311 0.19555247 0.64989996 -0.33250242 0.49229136 -0.36227015 -0.12342648 0.34507385 -0.15635803 0.2134629 -0.47350866 0.5610359
66 0.35337195 -0.44548056 -0.000908376 0.14675336 -0.24577884 -0.24341385 -0.23855129 0.043584783 -0.47359794 -0.51988685 0.11855997 -0.10976646 -0.39423415 -0.01789475 0.53956723 0.64615506 -0.28853145 0.27563205 0.30523288 0.53173745 0.47531566 0.2960207 0.21076673 -0.1873653 0.32439518 -0.26986185 -0.45263165 0.26647514 0.011899168 0.3004272 0.30334294 -0.07307801 0.1844155 0.1950852 -0.75348085 0.0758047 0.18145671 0.1855527 -0.01363555 -0.24346457 0.42777666 0.039183963 -0.10116278 0.108062975 0.34758708 0.32818884 0.34700698 -0.49529254 0.2263607 0.048528384 -0.13949242 -0.37129107 0.20007999 0.37375242 0.54587644 -0.13458768 0.3574685 -0.35007256 -0.09537224 0.5787626 -0.21465422 -0.025951948 -0.29253522 0.34896633
67 -0.3467868 0.29351935 -0.17385182 0.067636766 0.17169455 0.5572745 -0.34588286 0.13880304 -0.44260114 0.543698 -0.3311452 0.86709666 0.08707199 -0.7023713 0.5756676 0.41951203 0.9966515 -0.09764388 1.0135771 -0.71855503 -0.29004753 -0.37704664 -0.7685836 -0.14550816 -0.14992878 -0.19083066 0.5883013 0.07751453 -0.35635856 -0.61784554 0.49938887 -1.1386305 0.14630641 1.1520144 -1.0131265 -0.109285414 0.91426855 -0.571704 -0.75837064 -0.6136078 -0.1358509 -0.029270366 0.07053663 0.99828285 0.6741791 0.1605314 -0.3425642 0.035491616 0.81185937 -0.70278966 -0.15221746 -0.059259612 1.0184307 -0.9246697 -0.37531406 -0.4207896 0.3974764 0.52065086 -0.0010821254 0.07942425 -0.29104558 0.7280111 -0.49657533 -0.025097754
134 0.33211452 -0.3681048 -0.066013284 0.1691874 -0.21898349 -0.14845088 -0.35020834 0.19604999 -0.53001064 -0.58339226 -0.072280474 0.11497136 -0.29519692 0.07683059 0.6329119 0.7398814 -0.37332502 0.35322884 0.42970434 0.42714182 0.4841948 0.17326409 0.0909162 -0.21966434 0.4029329 -0.37825942 -0.38763005 0.359311 -0.092895836 0.30802074 0.51448923 -0.19912364 0.3007331 0.30506292 -0.90468895 0.14520255 0.26839945 0.20089304 -0.19286638 -0.31115443 0.50246614 0.03520025 -0.060636114 0.24975829 0.42346478 0.55751574 0.32649708 -0.548087 0.30950463 -0.085930206 -0.12766637 -0.37522772 0.25787717 0.22559534 0.6145337 -0.2853934 0.45737734 -0.3575266 -0.11533498 0.41297153 -0.18241248 0.16611618 -0.4391334 0.53641665
101 0.37093145 -0.48160812 0.016753746 0.16039132 -0.23931429 -0.2773837 -0.27328506 0.035310876 -0.50141704 -0.5000587 0.10182803 -0.10598346 -0.41945735 -0.022375293 0.5341684 0.6653364 -0.2862843 0.28815672 0.31796175 0.5689036 0.4561117 0.31184074 0.21550187 -0.20915286 0.33435848 -0.2946351 -0.44035164 0.26096007 -0.0001895825 0.3039511 0.3139164 -0.076880485 0.18799852 0.21247804 -0.7865132 0.077158935 0.17874458 0.1788865 -0.004722998 -0.25026596 0.4515974 0.032346494 -0.11310516 0.108626306 0.35973877 0.31494194 0.34345207 -0.5011681 0.23613954 0.02218563 -0.1354445 -0.37577665 0.23785685 0.38307977 0.564763 -0.11309258 0.35919622 -0.36561203 -0.09350333 0.61320317 -0.2104553 -0.00739946 -0.2957761 0.36104748
16 0.15088111 -0.48365363 0.20385131 0.078429505 -0.13944432 -0.16366944 -0.27887344 -0.3832242 -0.92245257 0.30680838 0.45826167 -0.10578803 -0.97475874 -1.1363791 0.7868215 0.68353206 1.1559225 -0.100430734 1.1245241 0.40784615 -0.036718793 0.44336188 -0.051683918 -0.21892118 0.051399533 -0.27093276 0.075016774 0.020202868 -0.061765224 -0.17472765 0.037281834 -0.8581937 -0.17660254 1.0067601 -1.509458 -0.34046498 0.7570253 -0.57222736 -0.12213331 -0.7538111 0.261453 -0.030023955 -0.2074607 0.72542477 0.86324584 -0.49501023 0.11524557 -0.36499092 0.8859514 -0.26204625 -0.25737008 -0.5019356 1.2380533 -0.12609477 -0.12223197 0.014267632 0.45647982 0.11658603 -0.08460708 1.5118468 -0.7833068 0.110706314 -0.3040383 -0.2529186
121 0.3575469 -0.42273495 -0.0020186114 0.15617442 -0.218708 -0.2132755 -0.28005618 0.104611106 -0.47049215 -0.5074943 0.058804385 -0.007074455 -0.35296032 0.006366784 0.551964 0.6479042 -0.29425243 0.30408213 0.3409127 0.4717771 0.45630297 0.27192545 0.15745986 -0.21769015 0.3275148 -0.30873254 -0.4122355 0.27883518 -0.027822647 0.27475554 0.36163437 -0.10515596 0.20569359 0.23067506 -0.7509246 0.08069572 0.21910672 0.18284124 -0.061032414 -0.2663138 0.42045707 0.051833246 -0.079338774 0.12655239 0.35255438 0.36470398 0.31535685 -0.47074762 0.254581 -0.002869869 -0.11840042 -0.3567176 0.19615217 0.31572598 0.5552098 -0.15307084 0.37279648 -0.3393868 -0.0982258 0.48458636 -0.1802973 0.036324613 -0.32600904 0.37800646
50 0.23403919 -0.54574335 0.35658157 0.0016066027 -0.13637711 -0.48254266 0.102249615 -0.6342172 -0.49419817 0.18971029 0.7430805 -0.8084498 -0.97129655 -0.755943 0.115691416 0.07002466 0.7235263 -0.18390454 0.3266535 0.7406383 -0.08065173 0.7006312 0.49111736 -0.05979258 -0.046377663 0.05543909 -0.14354025 -0.26145744 0.2539642 0.08597528 -0.5416296 -0.018277729 -0.41154298 0.07378122 -0.43480504 -0.4251247 0.033783246 -0.32169306 0.43053246 -0.18548577 0.13988915 -0.057337865 -0.21895978 -0.06534452 0.2744259 -0.9572521 0.21121594 -0.15460935 0.18783318 0.28628185 -0.10249256 -0.30831206 0.5291937 0.40439412 -0.15752551 0.4441292 -0.009640065 -0.067268535 -0.06936597 1.3710074 -0.54542905 -0.43700016 0.22062582 -0.49172464
32 0.16308458 -0.48639026 0.17397925 0.07828216 -0.15424246 -0.1520462 -0.2920782 -0.38584882 -0.9363185 0.30367026 0.42310762 -0.097372256 -0.94259 -1.1175411 0.77818954 0.6702755 1.1711909 -0.0829927 1.1259898 0.3901445 -0.05143938 0.43884087 -0.0565912 -0.2418216 0.05078326 -0.28693292 0.094831854 0.008551775 -0.07793697 -0.19047894 0.055368245 -0.8738555 -0.17239498 1.0023482 -1.4946351 -0.3477135 0.777828 -0.5567365 -0.13436805 -0.73056906 0.2699593 -0.05009229 -0.21045758 0.74145293 0.8584148 -0.49485934 0.118702695 -0.3646891 0.8860623 -0.2544189 -0.24354115 -0.48790202 1.2349168 -0.15004878 -0.118637905 0.015931312 0.45368147 0.114735395 -0.08242502 1.4764878 -0.77630776 0.11614883 -0.329437 -0.23408957
69 -0.36683908 0.29852384 -0.160023 0.05175955 0.19891128 0.5332387 -0.32351166 0.086847685 -0.45028776 0.6302657 -0.2766656 0.8667508 0.07858977 -0.7803074 0.5636363 0.40809807 1.142941 -0.1339886 1.0511357 -0.7266625 -0.35898584 -0.36301857 -0.8059028 -0.14786103 -0.16068392 -0.19804017 0.6442573 0.060826987 -0.3563555 -0.66147846 0.4634556 -1.2025844 0.10363498 1.220376 -1.0223666 -0.13743936 0.941627 -0.6267028 -0.7616887 -0.6407615 -0.16956273 -0.017602744 0.0602908 1.0360755 0.703529 0.070580326 -0.39130542 0.06933713 0.85170597 -0.70836705 -0.15671816 -0.05181495 1.0902598 -0.9521675 -0.44314262 -0.413105 0.38958293 0.6073969 0.016060885 0.122567505 -0.32999527 0.73281056 -0.48758495 -0.08089268
18 0.15397967 -0.50290567 0.1970119 0.07781624 -0.14046621 -0.17240514 -0.2839131 -0.39605778 -0.92285204 0.2914323 0.43964145 -0.11932797 -0.96926284 -1.1186271 0.7639172 0.6729368 1.1568892 -0.10953131 1.1342999 0.3907588 -0.04085615 0.46234265 -0.05687181 -0.22656828 0.050121818 -0.268589 0.081939004 0.021576673 -0.07583557 -0.18569002 0.048488166 -0.87050843 -0.14940335 0.9877125 -1.4762639 -0.34660327 0.76290095 -0.56171143 -0.14387017 -0.72506064 0.26942527 -0.032178905 -0.22804737 0.7052132 0.8770234 -0.5005413 0.12323573 -0.37627545 0.8617802 -0.24555495 -0.2616322 -0.48160914 1.2296343 -0.14997391 -0.107931 0.008212566 0.43087658 0.12034625 -0.105323225 1.4833994 -0.77844405 0.105687544 -0.310479 -0.2421329
90 -0.16134748 0.20531663 -0.2709279 0.1215236 0.077530764 0.5456251 -0.42615518 0.23410021 -0.5747155 0.19723435 -0.42714396 0.92112756 0.042543367 -0.4564359 0.67034525 0.6246076 0.58666867 0.048854794 0.99552256 -0.5722266 -0.08020981 -0.37715334 -0.6672996 -0.16912316 0.038698163 -0.30182496 0.43616033 0.16619186 -0.37490463 -0.35906437 0.7148023 -1.0352154 0.30011424 1.1060061 -1.1774206 -0.012179357 0.85141623 -0.46749058 -0.81535697 -0.62531483 0.13769282 -0.071385145 0.08959488 0.9524015 0.71233636 0.5116103 -0.23128927 -0.14306892 0.8555661 -0.6594063 -0.16335726 -0.14742927 0.9258162 -0.81219095 -0.049996663 -0.5300835 0.5591408 0.2819192 -0.06573639 0.08205285 -0.2914903 0.80009246 -0.65031356 0.24865149
99 -0.0046119303 0.067625225 -0.28660926 0.19182238 -0.03730013 0.42225313 -0.46921927 0.31791177 -0.54648423 -0.1412704 -0.43660393 0.80145764 0.03164404 -0.178706 0.67542297 0.70487565 0.12603927 0.16862252 0.81914914 -0.32266346 0.14939289 -0.2935131 -0.44453636 -0.19848752 0.2385481 -0.35650262 0.16745777 0.26057267 -0.33640808 -0.09139646 0.7844319 -0.77290964 0.41681275 0.86309594 -1.1221906 0.09281195 0.6327442 -0.24891368 -0.7119775 -0.5225499 0.30415195 -0.050885934 0.07896127 0.7501779 0.60514593 0.75237876 -0.071389616 -0.30256066 0.67676824 -0.50708973 -0.15181945 -0.1935865 0.69879615 -0.5410459 0.24436854 -0.55993295 0.6250195 0.037313495 -0.08674338 0.03595466 -0.22989708 0.69181716 -0.67327154 0.4760378
113 0.29820654 -0.2958931 -0.1432373 0.19519442 -0.21601532 -0.039028663 -0.37301916 0.26870796 -0.50646067 -0.57765764 -0.17112061 0.24638869 -0.19586796 0.1418299 0.63024586 0.75080955 -0.43992552 0.33868426 0.4329378 0.31621993 0.5060937 0.0779383 0.022400616 -0.20925461 0.42355308 -0.38523567 -0.34365153 0.35130873 -0.12700053 0.28938368 0.6022011 -0.23733577 0.3743709 0.34660032 -0.90024215 0.16054553 0.3058283 0.18283798 -0.2804474 -0.2868765 0.4999156 -0.003093202 -0.039359868 0.2782452 0.39139304 0.71844363 0.2812507 -0.52200437 0.3362215 -0.14472573 -0.12211473 -0.3431494 0.24480854 0.1281603 0.62764764 -0.3688973 0.5123301 -0.35076013 -0.10635891 0.25472894 -0.14950623 0.25250995 -0.4975483 0.591158
64 -0.44281524 0.32485777 -0.08126403 0.0010616259 0.22218747 0.5280547 -0.26659596 0.004518102 -0.3904303 0.8151147 -0.19902927 0.7883077 0.026067987 -0.9291297 0.51152307 0.29030085 1.4066883 -0.19371857 1.0788935 -0.7817612 -0.45419225 -0.33114323 -0.8593579 -0.13153255 -0.27185947 -0.14894426 0.705662 0.042020097 -0.3367294 -0.8155094 0.29780138 -1.2543819 0.006998587 1.2495239 -0.95832175 -0.22214195 1.0175853 -0.7094968 -0.68680704 -0.6706923 -0.28275388 -0.0018021928 0.011231371 1.0339923 0.7399117 -0.19250216 -0.4453489 0.17654833 0.8348393 -0.7158861 -0.12660354 -0.03909111 1.1349502 -1.012148 -0.6654936 -0.31043816 0.2929922 0.7341329 0.026397616 0.1914592 -0.36169305 0.6789802 -0.38427326 -0.27238223
92 -0.16494435 0.1911565 -0.27639207 0.15452112 0.03614375 0.5386665 -0.45211807 0.2828666 -0.57965136 0.1356578 -0.44128364 0.91732645 0.0698931 -0.40700987 0.67083895 0.6054717 0.4783244 0.05732651 0.9777356 -0.5607576 -0.041446816 -0.35756248 -0.61350125 -0.17979026 0.08959035 -0.30842322 0.39431754 0.17195024 -0.39352357 -0.30445194 0.71509117 -0.9954715 0.3531635 1.0824795 -1.2052754 0.04147425 0.808822 -0.44695997 -0.805143 -0.5878396 0.18757312 -0.07319724 0.1015372 0.9321089 0.655444 0.60209566 -0.2060354 -0.17585933 0.8183241 -0.6620546 -0.15809114 -0.15542163 0.90240514 -0.7721593 0.025101976 -0.5649634 0.57674927 0.24109292 -0.06920329 0.023581969 -0.26378858 0.79828745 -0.68314064 0.30367592
71 0.318041 -0.3390119 -0.12351717 0.20078446 -0.22711247 -0.06671337 -0.37844336 0.25372073 -0.51219314 -0.597165 -0.15030015 0.22766128 -0.21490377 0.10986855 0.64285696 0.7624059 -0.42720032 0.35131165 0.43613526 0.33374864 0.4951333 0.121474825 0.027337212 -0.2131248 0.40803552 -0.3883326 -0.3378537 0.36117244 -0.104552716 0.28821677 0.59215134 -0.22625712 0.34898257 0.36473405 -0.9007509 0.1753855 0.2979572 0.17012502 -0.26680374 -0.31494957 0.48665383 0.0069529023 -0.04109874 0.28717032 0.40925208 0.67568547 0.29530352 -0.5412236 0.35609728 -0.11440975 -0.12393976 -0.34603274 0.26239777 0.15581183 0.61897653 -0.34275252 0.5051488 -0.34189034 -0.11662228 0.30740115 -0.1487394 0.23204921 -0.46549225 0.5603699
81 -0.47163832 0.36050737 -0.1075602 -0.011159978 0.23478644 0.56261337 -0.29613212 0.016537579 -0.41452184 0.8848525 -0.215954 0.8676326 0.0479336 -0.981597 0.53018534 0.3081443 1.4738312 -0.2264047 1.1223663 -0.82261306 -0.47571608 -0.3796487 -0.8977752 -0.15227032 -0.2877756 -0.12737168 0.75288796 0.024850238 -0.35708547 -0.86805147 0.329697 -1.2941734 0.0045665577 1.3122699 -1.0032277 -0.20943415 1.0671035 -0.71788824 -0.7205073 -0.69578195 -0.33199808 0.008101422 0.0060637672 1.1154845 0.7651362 -0.18690637 -0.45391187 0.17873627 0.88365334 -0.77234614 -0.13027182 -0.021653606 1.1819316 -1.0812693 -0.69527006 -0.33442616 0.30277508 0.77820635 0.054436352 0.1533059 -0.33798814 0.6980272 -0.4243398 -0.27729878
94 -0.027467884 0.08094248 -0.3026432 0.18281361 -0.027434306 0.49056086 -0.505221 0.35906872 -0.608752 -0.09160236 -0.48351216 0.8742843 0.035019804 -0.2088168 0.71959424 0.7255538 0.16638842 0.17183875 0.9103527 -0.4047534 0.104717866 -0.31222233 -0.50712943 -0.20986639 0.22879134 -0.39490515 0.24728416 0.2746042 -0.36990675 -0.13666676 0.8431594 -0.88192177 0.43379185 0.9801903 -1.2391914 0.09819243 0.7226829 -0.29251337 -0.78100765 -0.56848204 0.3343692 -0.0797545 0.1037884 0.83469754 0.6433696 0.8156932 -0.09284344 -0.29010883 0.7510953 -0.5838301 -0.15357889 -0.21693365 0.78710145 -0.6389315 0.24368773 -0.5891751 0.67222244 0.07413808 -0.0743053 -0.0010937266 -0.24662912 0.7673012 -0.72335947 0.47872928
8 0.18292025 -0.50887454 0.19134626 0.10224013 -0.15729459 -0.20991127 -0.2737672 -0.41303217 -0.92007565 0.30535597 0.44121912 -0.14284015 -0.9869196 -1.1291716 0.7594084 0.66497177 1.1440209 -0.07767956 1.1061366 0.4339867 -0.030872736 0.4755595 -0.01668803 -0.23460276 0.050887093 -0.27701983 0.063880794 -0.0107519375 -0.07200653 -0.15508457 0.018889703 -0.82786775 -0.17278913 0.9660589 -1.4760963 -0.36943284 0.7654493 -0.54357433 -0.12809551 -0.7447444 0.26979098 -0.034991346 -0.2308706 0.71428895 0.8410153 -0.5258337 0.15021354 -0.36774287 0.8454917 -0.21841195 -0.23368488 -0.48842 1.1991091 -0.11018468 -0.08859129 0.028593102 0.43704954 0.11163614 -0.081769496 1.5095462 -0.76383096 0.11573883 -0.317481 -0.24061953
80 -0.40629736 0.3013451 -0.12639606 0.023750173 0.20572871 0.5172624 -0.27534765 0.029895477 -0.42875233 0.7110642 -0.2607916 0.8337411 0.038527053 -0.8406134 0.5309357 0.32602686 1.2399948 -0.17635043 1.031219 -0.7391465 -0.39026424 -0.36505634 -0.8227493 -0.13105956 -0.20092234 -0.14243181 0.65871406 0.043863893 -0.32770586 -0.724465 0.37814647 -1.180711 0.05331743 1.1859642 -0.96509784 -0.17799953 0.93685627 -0.6471163 -0.68931526 -0.6213985 -0.2287953 -0.018380828 0.058820296 1.0176435 0.6864847 -0.05382128 -0.41199985 0.13162105 0.83879197 -0.7207874 -0.12240727 -0.04506175 1.0833437 -0.98755157 -0.5263314 -0.35747775 0.3385847 0.62838936 0.015360454 0.13693401 -0.33804172 0.69241834 -0.43354583 -0.17327687
53 -0.24025562 0.26131573 -0.25765622 0.11559758 0.118962154 0.60538363 -0.4325436 0.22282106 -0.56510615 0.33991894 -0.43551284 0.95026976 0.061630588 -0.56052536 0.65921324 0.5448716 0.7588695 -0.020503884 1.0710074 -0.6596841 -0.18960397 -0.42046994 -0.71778005 -0.16703123 -0.012395725 -0.26809362 0.5530818 0.122026496 -0.4064795 -0.4595109 0.66841555 -1.1298157 0.27058536 1.2029276 -1.183954 -0.045918904 0.9042007 -0.5678767 -0.8490392 -0.63806564 0.046809983 -0.049344145 0.0861609 1.0119636 0.6938079 0.44062787 -0.27851686 -0.062378492 0.8978805 -0.7124282 -0.15191272 -0.1303852 1.0392743 -0.9301917 -0.14334705 -0.52316386 0.54637057 0.38519856 -0.032900907 0.049977824 -0.3159182 0.8254397 -0.64757895 0.1342678
89 -0.29340547 0.25351024 -0.24788004 0.10356053 0.11229809 0.60542566 -0.40113494 0.17557405 -0.5474543 0.39563516 -0.4165465 0.95252967 0.065718524 -0.6027822 0.65528005 0.5190724 0.86978877 -0.059432417 1.0524949 -0.68661463 -0.22762112 -0.40871006 -0.752925 -0.17463063 -0.05220789 -0.2576586 0.5640722 0.11707436 -0.4018645 -0.49289656 0.6337492 -1.1587694 0.23421347 1.1913848 -1.1710786 -0.06541205 0.8965622 -0.5735805 -0.84114593 -0.6630923 0.008213138 -0.053535152 0.0976377 1.0465432 0.73679 0.37501216 -0.30076534 -0.039584745 0.8978261 -0.7296232 -0.13685724 -0.120365076 1.0473377 -0.9332158 -0.20682314 -0.5118721 0.5354359 0.44094026 -0.0409176 0.09131546 -0.33127868 0.8243296 -0.6412272 0.09245616
84 0.28489566 -0.2491025 -0.18119816 0.19276926 -0.20601417 0.027344096 -0.38564453 0.30392575 -0.47970104 -0.5693269 -0.21925806 0.35988024 -0.12555532 0.14384457 0.6395022 0.7759526 -0.44682834 0.37085143 0.45775178 0.2215511 0.48473698 0.03103515 -0.049022812 -0.21464705 0.40004125 -0.3928499 -0.29852247 0.3819251 -0.13858905 0.25938928 0.6550745 -0.28065634 0.3922007 0.41039214 -0.916634 0.18581831 0.3227864 0.17642605 -0.3553646 -0.30368385 0.46706405 0.015886728 -0.022133894 0.35029384 0.42191145 0.77128494 0.23624991 -0.51324993 0.35601032 -0.17132388 -0.14844218 -0.30946338 0.27380177 0.077000305 0.62346876 -0.3940141 0.52481765 -0.29319024 -0.13090777 0.16659507 -0.11916277 0.32060066 -0.5158253 0.5978038
59 -0.28469718 0.27577463 -0.21767052 0.10867639 0.14869761 0.5767485 -0.3879248 0.15977468 -0.500005 0.41585615 -0.3801397 0.9363708 0.09968472 -0.61189324 0.64641637 0.50820893 0.85646725 -0.05926547 1.0242189 -0.688783 -0.21073535 -0.3845836 -0.7629356 -0.1554925 -0.08093285 -0.24132882 0.56337273 0.12486922 -0.3671546 -0.5408233 0.58361745 -1.1275158 0.23402761 1.1640294 -1.1063256 -0.06994794 0.90820867 -0.549252 -0.82836527 -0.62841594 -0.027306184 -0.049446076 0.092898116 1.0348555 0.72235984 0.33562323 -0.31142512 -0.042073682 0.868131 -0.71763533 -0.14733294 -0.082955785 1.0290656 -0.9240439 -0.2557297 -0.4743175 0.50576985 0.4405086 -0.024063066 0.077467345 -0.31025776 0.79307336 -0.6080912 0.06592232
106 -0.09541332 0.12699713 -0.31788632 0.18630706 -0.0067565255 0.52119565 -0.47290275 0.32710636 -0.584881 -0.026656175 -0.46963358 0.92926943 0.068903774 -0.252583 0.6950029 0.69841707 0.27302733 0.11631589 0.924015 -0.46635768 0.06884319 -0.36723912 -0.5574524 -0.18031748 0.19341719 -0.3623929 0.29822096 0.22981139 -0.36522245 -0.2145725 0.81700766 -0.8972153 0.41417748 1.0159998 -1.2009225 0.096489124 0.7270647 -0.31863436 -0.8132935 -0.5700904 0.26026663 -0.06363559 0.11265634 0.88233465 0.6267758 0.7519512 -0.12824494 -0.2578289 0.7870654 -0.61072755 -0.14514114 -0.18790221 0.8125393 -0.6789833 0.15731366 -0.60528857 0.6304577 0.14131236 -0.09316568 -0.02634796 -0.24051537 0.78336483 -0.7080526 0.40786952
62 -0.279726 0.30123425 -0.23736873 0.067195125 0.14218043 0.5692146 -0.37527204 0.15028764 -0.504889 0.4423312 -0.36545658 0.9277396 0.07137823 -0.64640135 0.5954871 0.4772298 0.8802497 -0.06433271 1.0412174 -0.71507204 -0.25791687 -0.38123655 -0.7433934 -0.15285745 -0.09549608 -0.2462115 0.56489146 0.10467664 -0.36212596 -0.5468576 0.58569044 -1.1462237 0.21841264 1.1780272 -1.0943437 -0.063857466 0.88977206 -0.5631032 -0.8125565 -0.6255671 -0.046388026 -0.030067593 0.08549092 0.9952409 0.6916344 0.27956516 -0.3388351 -0.0054386007 0.8655633 -0.7219048 -0.13264768 -0.07848783 1.0060145 -0.93185776 -0.2678891 -0.45890102 0.46711436 0.48678064 -0.02860412 0.04534325 -0.31609347 0.7848888 -0.58838725 0.030706126
82 -0.22552224 0.23664376 -0.24811178 0.121976346 0.0915009 0.57510716 -0.41054788 0.23819241 -0.5639017 0.2581328 -0.43274814 0.9493854 0.078276075 -0.49534106 0.65857667 0.5741171 0.6735551 -0.001214712 1.026922 -0.6232907 -0.14156702 -0.40590262 -0.7022738 -0.17458662 0.004896076 -0.2726463 0.4777046 0.12955242 -0.3851423 -0.39279464 0.6905817 -1.0827255 0.3037044 1.1394496 -1.178905 -0.02228402 0.84822136 -0.5257069 -0.82983917 -0.6096632 0.0897467 -0.058363754 0.1006712 1.0020632 0.67556566 0.49314865 -0.2588781 -0.09858935 0.8575418 -0.70265555 -0.1513453 -0.1423829 0.9840922 -0.88449705 -0.100268915 -0.5166017 0.5458117 0.32163152 -0.058751617 0.029416796 -0.28611857 0.79358083 -0.65639204 0.1821688
68 0.26447573 -0.2109036 -0.221899 0.22364412 -0.17897427 0.1271689 -0.43612438 0.3014413 -0.56875384 -0.54861546 -0.25640154 0.4715207 -0.11452894 0.06997647 0.6776415 0.79941005 -0.3798177 0.33957368 0.57808197 0.12199973 0.412662 -0.018744161 -0.1054814 -0.22530912 0.39983267 -0.41556403 -0.22117178 0.36438018 -0.1926463 0.22548059 0.7307114 -0.3989142 0.4136479 0.50524193 -1.0036178 0.16238734 0.40411192 0.06473596 -0.4685039 -0.36823064 0.51925135 -0.03430989 0.015173542 0.44664887 0.48115823 0.81961983 0.19093959 -0.5177292 0.46420148 -0.24560143 -0.15652497 -0.31500834 0.3939508 -0.04999067 0.6063798 -0.44262075 0.60159415 -0.27570674 -0.13120072 0.19980706 -0.17829043 0.42992884 -0.5870318 0.6296052
87 0.19018938 -0.13033523 -0.27241763 0.23089637 -0.16504252 0.2625726 -0.50283945 0.3519872 -0.6203807 -0.44632486 -0.39214376 0.6622355 -0.07427168 0.0024757923 0.78264755 0.86488944 -0.23014486 0.28915414 0.7446552 -0.029277386 0.3732825 -0.13700484 -0.2575752 -0.22295216 0.3775064 -0.46001533 -0.07099727 0.35327873 -0.27416447 0.14355129 0.8449228 -0.6192303 0.4697013 0.72515213 -1.2184504 0.1761621 0.55076915 -0.06871512 -0.64322025 -0.4857734 0.5118612 -0.037475158 0.055831637 0.6375839 0.5670963 0.93701196 0.13982685 -0.5017484 0.63684803 -0.38903612 -0.17850694 -0.31377944 0.5638373 -0.25564897 0.57261366 -0.5690748 0.689551 -0.1947553 -0.1442607 0.13911955 -0.2205327 0.58417064 -0.69361854 0.6403931
95 0.17544934 -0.10946447 -0.2734298 0.23835069 -0.12519918 0.27604437 -0.48237616 0.36263812 -0.57964724 -0.44466844 -0.35384816 0.63064414 -0.046296105 0.0123163955 0.7200403 0.81739485 -0.27476028 0.29238838 0.69717485 -0.067379884 0.33155474 -0.15353474 -0.22860676 -0.20712772 0.3843476 -0.4243272 -0.055067305 0.31873512 -0.26213878 0.13393891 0.813342 -0.5475971 0.47777984 0.6913844 -1.1139336 0.15770693 0.50504273 -0.06714073 -0.61249 -0.44400737 0.49122646 -0.058969237 0.0623068 0.6049569 0.5369065 0.9047388 0.10837298 -0.47592953 0.57480884 -0.3641419 -0.17766735 -0.28375447 0.5111263 -0.26038986 0.5427961 -0.53187853 0.65786433 -0.1809116 -0.1248233 0.10208187 -0.18544783 0.5655755 -0.6444513 0.6198428
33 0.17769714 -0.4996332 0.19152431 0.09499147 -0.12936942 -0.1830204 -0.25692877 -0.37496397 -0.8926634 0.2741027 0.43739066 -0.15285496 -0.9453214 -1.0890713 0.7395524 0.6475284 1.1093752 -0.09910272 1.0539544 0.42330208 -0.021247115 0.451942 -0.022861589 -0.22740352 0.060279187 -0.26450437 0.050273832 0.00067125214 -0.053091083 -0.14667694 0.017506959 -0.8153479 -0.16976419 0.9400747 -1.4362136 -0.3548597 0.7317472 -0.5443742 -0.11928519 -0.7126493 0.25512877 -0.025531031 -0.22476724 0.6845375 0.8421246 -0.5092083 0.14682916 -0.3598603 0.83077437 -0.21440244 -0.22892791 -0.4828222 1.1781341 -0.09140058 -0.081376806 0.028886132 0.40940338 0.09043089 -0.091659166 1.4513792 -0.7495637 0.09425205 -0.2895801 -0.2527824
88 0.065197125 0.03821114 -0.3058136 0.21212848 -0.057023454 0.38633147 -0.4522714 0.32824183 -0.5424588 -0.25939277 -0.4208811 0.75258976 0.059023213 -0.07882002 0.6678566 0.69875026 -0.06083668 0.2024412 0.73910093 -0.2655898 0.2136553 -0.24483718 -0.36107314 -0.18898107 0.2526638 -0.3651604 0.10479234 0.27978516 -0.32452074 -0.0037556759 0.78240216 -0.67224604 0.4267083 0.77315235 -1.0646695 0.13606487 0.5515689 -0.17690627 -0.67846066 -0.45022717 0.3866035 -0.05738961 0.08189686 0.68589467 0.55123 0.8441157 -0.015141744 -0.34937638 0.64319927 -0.44452706 -0.16451357 -0.19831456 0.57814896 -0.4340587 0.3784929 -0.5623776 0.6395038 -0.06058735 -0.11666747 0.011559332 -0.17752738 0.6551633 -0.6751437 0.5414606
