100 64
79 0.5582859 -0.3721723 0.61409533 -0.108375885 0.068286605 -0.80535865 0.20947155 -0.0067001935 -0.65258723 -0.13039188 0.33253503 -0.95003074 -0.59001935 -0.3556268 0.23371987 0.39473823 0.17183827 -0.07658088 0.085325226 0.53082067 0.6519514 0.63156664 0.43702742 -0.4758797 -0.11288223 0.42148098 -0.6156779 -0.13311183 0.24219249 0.058233816 -0.22587593 0.16351391 -0.4923855 -0.1052126 -0.43294936 -0.47221223 0.2853439 -0.08254036 0.2975865 -0.13623609 0.10687838 0.016452763 -0.27695224 -0.18689464 0.27596864 -0.37246478 0.1555247 -0.2843347 0.20847705 0.47267038 0.09006435 -0.15372883 0.26355463 0.5289249 0.27674738 0.39970005 0.347647 0.07436581 -0.33692873 0.7871044 -0.09950575 -0.635012 -0.18732777 -0.23002398
51 0.53703856 0.44877878 0.8508302 -0.5081033 -0.15203078 -1.179545 -0.14940429 0.6345464 -0.29944697 -0.3267182 0.60342395 0.22464861 0.3483474 -0.27609038 0.01209363 -0.4467371 0.10340027 0.035328172 -0.15182528 -0.39520997 0.1543512 -0.3788123 0.0037324624 0.124174684 0.6027346 0.39487264 0.79793906 0.10261142 0.06431551 0.5663934 0.13951291 0.64240164 -0.7229678 -0.1550253 -0.39605033 0.5698905 -0.4400243 -0.13634387 -0.8339974 0.13038741 0.047939077 0.78770447 -0.14583933 0.32157338 0.09468606 0.6080939 0.18644148 -0.49527127 0.50176954 0.58109635 -0.3303682 0.13177124 -0.37032747 -0.097331524 0.25679725 0.0758966 0.10760097 0.43311766 -0.21510096 -0.034705628 0.5570383 -0.53624284 -0.36474377 -0.17216642
82 0.5307764 -0.3274867 0.6028627 -0.13272324 0.07330238 -0.780353 0.19188258 -0.0028185295 -0.60126984 -0.11432757 0.33149195 -0.8706538 -0.52905315 -0.3627679 0.21261731 0.3648271 0.15462612 -0.06220385 0.101794824 0.50068176 0.60580516 0.58063495 0.4118849 -0.46141264 -0.10257908 0.41473904 -0.55887836 -0.1161761 0.25422138 0.08315527 -0.19786608 0.1797054 -0.50773716 -0.08840986 -0.42192334 -0.4356041 0.2526288 -0.063039966 0.27257532 -0.12884305 0.12664235 0.034486677 -0.25382948 -0.17503631 0.27052772 -0.32288364 0.16046044 -0.30319962 0.19073202 0.4400531 0.09718522 -0.15202095 0.23044792 0.49911052 0.2603873 0.37634414 0.3247289 0.08596201 -0.3168465 0.7072466 -0.072527505 -0.61615115 -0.17760664 -0.21124707
14 0.5701054 -0.38934016 0.60997343 -0.11860252 0.09232344 -0.80474114 0.18502402 -0.01453178 -0.6511607 -0.11983564 0.31461525 -0.96320504 -0.5832361 -0.35968933 0.23517849 0.40992787 0.15645023 -0.068162404 0.09180186 0.5479427 0.66510266 0.6322895 0.44700885 -0.49681908 -0.12093195 0.44590336 -0.6364478 -0.15255399 0.24660154 0.055124145 -0.22299007 0.15321177 -0.5013101 -0.10288217 -0.42583632 -0.47000003 0.26819035 -0.069789834 0.31320843 -0.14136176 0.11296162 0.0018492963 -0.2798022 -0.18500848 0.27802545 -0.37153053 0.17229284 -0.30494487 0.19509207 0.46636975 0.10235832 -0.15121499 0.27792445 0.54345864 0.26890266 0.4109454 0.33861074 0.08461106 -0.33228964 0.7778822 -0.10756556 -0.6560647 -0.19709122 -0.22854532
88 0.5547824 -0.3814536 0.5938211 -0.12561242 0.08774283 -0.7975275 0.214567 -0.02223676 -0.65575117 -0.10959464 0.33306175 -0.94344026 -0.59754515 -0.35907945 0.24670514 0.40892038 0.17276962 -0.07616343 0.09599919 0.55878776 0.6559611 0.6312736 0.42370322 -0.47975203 -0.12250384 0.41528738 -0.6317503 -0.14189875 0.25791362 0.05228147 -0.22225286 0.152164 -0.4931001 -0.09473491 -0.43774197 -0.4643645 0.2919132 -0.07859823 0.312596 -0.12286559 0.12891506 0.00621718 -0.2519364 -0.1910363 0.2639319 -0.35749868 0.1672663 -0.3017943 0.2085938 0.45259473 0.107087255 -0.14920029 0.2810407 0.5182368 0.27839085 0.41745895 0.3486006 0.07308843 -0.31890047 0.7710269 -0.08234659 -0.6455161 -0.19320983 -0.20464142
3 0.58348995 -0.38155183 0.649748 -0.116385125 0.06631124 -0.8262715 0.21300131 -0.009181148 -0.66431326 -0.1321275 0.33951432 -0.97812444 -0.6079509 -0.385273 0.25174424 0.41983223 0.18622954 -0.09032139 0.085094355 0.57033235 0.665801 0.6453857 0.4498022 -0.49756587 -0.10781381 0.4500787 -0.61575174 -0.1485844 0.25744304 0.07090571 -0.21142085 0.17545019 -0.5494055 -0.11636148 -0.4582412 -0.47450322 0.2795784 -0.06273316 0.30355418 -0.14093097 0.12613046 0.02396456 -0.26059002 -0.1811924 0.2981335 -0.3813942 0.17360426 -0.30528647 0.21075973 0.46132186 0.10895557 -0.16736004 0.26980752 0.5588685 0.27105108 0.41175345 0.34548515 0.10579118 -0.3524445 0.7964895 -0.10180236 -0.653798 -0.18486996 -0.221432
80 0.53196853 0.459445 0.8591471 -0.51432943 -0.15265828 -1.1935296 -0.17876886 0.6216705 -0.28185976 -0.32014373 0.6098065 0.2601945 0.3679969 -0.2834836 0.009241277 -0.45639205 0.095135964 0.034108862 -0.17762494 -0.4300704 0.15302387 -0.402191 -0.01334305 0.15072364 0.6161771 0.38642558 0.8149189 0.113879174 0.037152227 0.5770407 0.12713589 0.63230276 -0.7113758 -0.13081168 -0.37997475 0.57277256 -0.44155633 -0.1566718 -0.8485487 0.14418109 0.023753917 0.8150083 -0.13916738 0.32920396 0.077483594 0.64193594 0.20321922 -0.47613454 0.50800866 0.54608244 -0.33573917 0.11601353 -0.3967236 -0.12144086 0.2608599 0.06737338 0.09776264 0.4367032 -0.23897114 -0.028340334 0.5654332 -0.5456632 -0.35407776 -0.17452699
98 0.55256146 -0.38159353 0.5951194 -0.10787037 0.09913749 -0.7767552 0.19622135 -0.04242481 -0.6490049 -0.13622902 0.3119897 -0.94891614 -0.5697426 -0.3713654 0.24117765 0.3960277 0.15594919 -0.079279296 0.11618543 0.55658406 0.6225143 0.6327406 0.41139477 -0.4647303 -0.1335201 0.42259562 -0.6074962 -0.12813058 0.24759048 0.075860396 -0.19762841 0.14456005 -0.50724745 -0.10628392 -0.41710857 -0.47397262 0.26073086 -0.08227511 0.31281662 -0.12621766 0.10641185 -0.0071593313 -0.25311086 -0.18520549 0.28086376 -0.37947643 0.16855103 -0.30451375 0.20443691 0.45409602 0.106278785 -0.15488541 0.25805146 0.5241794 0.25254133 0.3861172 0.31837782 0.078112684 -0.31917658 0.76776934 -0.11095111 -0.63328475 -0.18548757 -0.2147523
43 0.49969158 0.44659007 0.8122631 -0.52271175 -0.15824431 -1.1504205 -0.17015558 0.616592 -0.27661574 -0.30896893 0.59264266 0.2862067 0.3505774 -0.26145017 0.011302645 -0.46318907 0.101961985 0.043244705 -0.15778142 -0.44476402 0.12374346 -0.42270243 -0.026921548 0.16710272 0.6237745 0.37161058 0.8287372 0.10125003 0.062397126 0.5494404 0.12404879 0.61756915 -0.6810393 -0.14035574 -0.3735896 0.59036803 -0.43947536 -0.14136998 -0.84587353 0.114556685 0.03834438 0.80995786 -0.14748034 0.32434785 0.10225866 0.61951727 0.16922681 -0.47812226 0.50916183 0.5409617 -0.33013085 0.11341282 -0.38351133 -0.12935081 0.2526482 0.06296875 0.075010344 0.41924742 -0.211484 -0.046361618 0.56001437 -0.5009059 -0.35254586 -0.15251926
35 0.5357617 -0.36510026 0.59738106 -0.112356834 0.094869025 -0.7890673 0.2061209 -0.041730173 -0.63581824 -0.13654839 0.30905625 -0.9256398 -0.5810395 -0.35770783 0.2507982 0.4113228 0.14805686 -0.08363475 0.1133992 0.550568 0.6312131 0.6056113 0.42762992 -0.48584017 -0.11326902 0.41214746 -0.6130962 -0.13913634 0.2507469 0.06387033 -0.20025596 0.1605181 -0.50521445 -0.09798518 -0.41622755 -0.4657367 0.27093092 -0.05863905 0.2908851 -0.1293069 0.1332651 0.013404755 -0.25712684 -0.19382876 0.27630377 -0.3709303 0.18187708 -0.2949523 0.20008083 0.45398355 0.098170154 -0.16623703 0.26766455 0.5193412 0.2692724 0.4199618 0.3347646 0.0871706 -0.33476335 0.7645342 -0.10860502 -0.64228714 -0.18782207 -0.22813468
77 0.56793815 -0.3801751 0.61363935 -0.13108349 0.0879461 -0.7728116 0.18718636 -0.037921913 -0.64922994 -0.12749496 0.31767282 -0.95815307 -0.5941575 -0.361548 0.2281648 0.38368756 0.16130519 -0.091424756 0.085518524 0.53117305 0.6369755 0.61160225 0.43604636 -0.4735436 -0.13020778 0.43209642 -0.62169003 -0.14836584 0.24095698 0.056002777 -0.2157222 0.1751458 -0.5097389 -0.08751794 -0.41620055 -0.48099357 0.27892542 -0.06387844 0.2930288 -0.11829734 0.13274889 -0.0015969301 -0.27416 -0.1733201 0.27417907 -0.37834802 0.18294664 -0.304176 0.1909174 0.45570856 0.09517664 -0.15912361 0.2638159 0.5244861 0.2593787 0.4065128 0.35135052 0.07664034 -0.33485794 0.7765688 -0.084438786 -0.6376535 -0.16374494 -0.19997561
30 0.5354518 0.462462 0.8642325 -0.53315467 -0.15923773 -1.2060878 -0.1667307 0.6342683 -0.28299132 -0.32251716 0.60381967 0.25147873 0.35837257 -0.27624944 0.008467358 -0.4626298 0.11023416 0.041823614 -0.16354582 -0.43956536 0.14365521 -0.39369035 -0.018333819 0.15497495 0.6166731 0.40427637 0.81671846 0.11097675 0.058046926 0.5665008 0.12339936 0.64391553 -0.7284956 -0.14814056 -0.4121536 0.58329064 -0.42646974 -0.14725776 -0.8664268 0.13049904 0.045505717 0.8108189 -0.1562149 0.31825197 0.11311367 0.6427688 0.17571814 -0.4907927 0.53321403 0.56001467 -0.35917398 0.13991266 -0.40158808 -0.11189447 0.26962015 0.0833282 0.11192438 0.45013106 -0.23524825 -0.021368604 0.56441635 -0.5331122 -0.38016027 -0.16142662
69 0.5207695 -0.3537201 0.575862 -0.1175769 0.08399373 -0.7513511 0.18023717 -0.0108470395 -0.5890532 -0.12367128 0.30775455 -0.89354885 -0.5522023 -0.34836644 0.2095992 0.37322333 0.15926704 -0.075191006 0.09875152 0.5204845 0.6110237 0.5765015 0.4021322 -0.4515724 -0.122417115 0.40936652 -0.5698268 -0.13275324 0.2348958 0.056313973 -0.1913834 0.15223482 -0.4958522 -0.076041766 -0.39867216 -0.41746366 0.26371723 -0.06427278 0.287924 -0.12596917 0.10367488 0.01807324 -0.2392817 -0.17370577 0.2736159 -0.3448412 0.17384832 -0.28341085 0.17973311 0.42963898 0.08017363 -0.15243553 0.2509782 0.5069822 0.261463 0.37062502 0.32478166 0.085545324 -0.31577483 0.70420516 -0.0838645 -0.6121609 -0.16290063 -0.21318781
37 0.5430215 0.4852823 0.84819365 -0.51594114 -0.15390268 -1.1726955 -0.1613976 0.61889416 -0.2868567 -0.3088962 0.5985568 0.2606641 0.36028942 -0.2731532 0.012493249 -0.44825128 0.09875995 0.027205054 -0.17005788 -0.43253273 0.14348929 -0.4201403 -0.01090539 0.14658622 0.62943554 0.37789103 0.8433819 0.09693145 0.04093304 0.56812775 0.14808843 0.64109254 -0.72555095 -0.1427405 -0.39889568 0.5951409 -0.45856982 -0.1380495 -0.8813705 0.13131341 0.040571302 0.8281272 -0.1504498 0.3140149 0.08055759 0.63244903 0.17119351 -0.4854119 0.5123456 0.551716 -0.33662617 0.13109574 -0.3864913 -0.12652114 0.26253745 0.05370319 0.09252442 0.4562166 -0.23069006 -0.04216805 0.5645162 -0.5347724 -0.34541193 -0.16095519
48 0.5244055 0.48702607 0.8409989 -0.53136605 -0.16164964 -1.1734837 -0.1857372 0.6475678 -0.26730958 -0.32219526 0.58436507 0.29678586 0.3696968 -0.26455146 0.008199025 -0.46678242 0.096596606 0.03778219 -0.17673111 -0.43516198 0.13597262 -0.4437147 -0.020340329 0.15125617 0.63128066 0.37167004 0.83970684 0.108728155 0.056215428 0.5677932 0.12881586 0.6508266 -0.6962805 -0.14594154 -0.3650186 0.60392404 -0.44472075 -0.12717511 -0.8871147 0.13848507 0.029053798 0.82412934 -0.13282305 0.3347938 0.09345905 0.66264033 0.17942238 -0.48079532 0.5061456 0.5573131 -0.35479638 0.14180689 -0.39627442 -0.13013671 0.2605063 0.06832859 0.08458694 0.4599863 -0.20900206 -0.075839914 0.5554487 -0.5207036 -0.3470255 -0.16982532
34 0.5450824 -0.35682294 0.60841674 -0.122603066 0.07434326 -0.7860739 0.19238108 -0.040071193 -0.6334988 -0.13012867 0.3189258 -0.92677224 -0.58180976 -0.37674528 0.24020858 0.3821111 0.16831388 -0.08600534 0.11058328 0.53943133 0.6387736 0.6104625 0.41592315 -0.45899928 -0.12131087 0.4120985 -0.6195703 -0.13682413 0.26128393 0.071414955 -0.22592388 0.17509894 -0.49121556 -0.08110339 -0.40767622 -0.4763129 0.25770587 -0.06288923 0.3095948 -0.12127774 0.13174364 0.004374275 -0.2480856 -0.190862 0.2593028 -0.3773873 0.16082963 -0.28744754 0.19131407 0.43737918 0.11543102 -0.16320406 0.27985206 0.5119231 0.26354098 0.40958065 0.33948615 0.07827442 -0.32234567 0.7474727 -0.09950807 -0.6305172 -0.16419023 -0.21752971
96 0.56989527 -0.3692619 0.63676316 -0.13781397 0.0913435 -0.82728815 0.19584902 -0.013069315 -0.6530028 -0.12022491 0.34990895 -0.9657854 -0.591176 -0.38654047 0.23755832 0.40199482 0.17050685 -0.080185466 0.09049178 0.56788945 0.6535643 0.62281007 0.43514794 -0.49362364 -0.1313303 0.44429722 -0.6292576 -0.14490888 0.25158376 0.0777106 -0.21322443 0.18145731 -0.54097074 -0.102308534 -0.43744686 -0.47029632 0.2615974 -0.08125168 0.2976159 -0.12771106 0.11327473 0.025823534 -0.28706893 -0.18974958 0.29247624 -0.37835604 0.18257947 -0.30123174 0.20860207 0.49748766 0.101706 -0.14644592 0.28074852 0.5281689 0.2681378 0.4303338 0.36154386 0.10864621 -0.3336651 0.80412257 -0.10579906 -0.65476096 -0.19676459 -0.22366169
58 0.5496727 -0.349152 0.60458666 -0.11898256 0.07650331 -0.7645889 0.18503001 -0.021803098 -0.60859483 -0.13395739 0.3220126 -0.9243064 -0.54387736 -0.34807166 0.23725864 0.3892061 0.16426112 -0.08683325 0.09438046 0.53383493 0.6106678 0.5940467 0.41645285 -0.4543223 -0.11785326 0.40869707 -0.5765 -0.14318906 0.2429491 0.057450056 -0.21067257 0.15291516 -0.50497115 -0.10684077 -0.41523677 -0.46104068 0.24542645 -0.083859146 0.27350503 -0.11292146 0.12542884 0.012874161 -0.25756133 -0.18184704 0.26881924 -0.3520149 0.16530432 -0.29269558 0.20023783 0.4455117 0.08586878 -0.1630884 0.24453549 0.5050108 0.25664258 0.40422451 0.32486272 0.08376169 -0.30925384 0.7435621 -0.09280531 -0.60388595 -0.17133869 -0.22014709
39 0.5763117 -0.36711794 0.603552 -0.12652044 0.083667755 -0.7960962 0.19798489 -0.024704495 -0.64966166 -0.1261646 0.3275831 -0.95687747 -0.5967841 -0.3595758 0.25684968 0.41225988 0.15572657 -0.07515937 0.09595536 0.56265455 0.6524972 0.63166916 0.43385544 -0.47281185 -0.1312539 0.44618762 -0.6189813 -0.14609747 0.2543976 0.08423948 -0.22753285 0.16754626 -0.50315064 -0.0972529 -0.44434604 -0.48277706 0.28926963 -0.06651845 0.30404612 -0.13604969 0.10849733 0.018773727 -0.25614342 -0.18742709 0.2678917 -0.3752436 0.16105472 -0.3094405 0.2039789 0.45650518 0.11839973 -0.17430948 0.27639854 0.53914887 0.26402736 0.4274135 0.35980827 0.079791136 -0.34246022 0.7651546 -0.10742335 -0.6483763 -0.19220074 -0.23147342
94 0.5626434 -0.37947425 0.61961573 -0.12184502 0.07848053 -0.7950791 0.20808196 -0.0181987 -0.6542343 -0.112506546 0.30638292 -0.95445716 -0.6019588 -0.3582571 0.23250578 0.4107581 0.16883841 -0.08031245 0.09607758 0.5429667 0.6421132 0.62601477 0.4363459 -0.48906887 -0.13372092 0.44101933 -0.6397923 -0.1455291 0.24389875 0.04404845 -0.20274441 0.15471414 -0.5174867 -0.08578329 -0.42265868 -0.49598533 0.2848886 -0.084856585 0.31416854 -0.1390818 0.117870845 0.003989539 -0.2529206 -0.17540658 0.2646501 -0.39321622 0.18161616 -0.2942002 0.19298907 0.46117005 0.12381667 -0.16489822 0.26187024 0.5392154 0.27244365 0.42692208 0.34907788 0.07398588 -0.33720776 0.78545475 -0.09572204 -0.65630066 -0.19121838 -0.2161123
61 0.51777625 -0.34605193 0.57703334 -0.09989246 0.07097152 -0.7572899 0.20686801 -0.029161513 -0.6218554 -0.11608863 0.31257367 -0.90723854 -0.54505 -0.36482418 0.23698004 0.3822615 0.17236789 -0.06589311 0.107794926 0.5327032 0.59450805 0.61208814 0.39252746 -0.46181813 -0.1245691 0.3990602 -0.5970875 -0.1444762 0.23591915 0.060875554 -0.2096215 0.16715547 -0.5004284 -0.098722205 -0.39651036 -0.43699104 0.27228463 -0.063001275 0.28448626 -0.13439767 0.12478922 0.011026783 -0.23799694 -0.1613205 0.27726817 -0.3397713 0.14592694 -0.29548287 0.19425155 0.44722444 0.11012532 -0.14425598 0.27169725 0.49423215 0.2612875 0.38253275 0.31286585 0.09583023 -0.3164604 0.73082525 -0.096460715 -0.6132681 -0.16707024 -0.19961943
11 0.5450018 0.46752355 0.861182 -0.5373694 -0.14255518 -1.2161376 -0.17176643 0.64336187 -0.30129874 -0.32104412 0.6103692 0.27124748 0.37757015 -0.27919072 0.010445046 -0.44952932 0.11691094 0.043958057 -0.16523889 -0.42866623 0.16339 -0.42334145 -0.002390727 0.15724982 0.64954036 0.38563713 0.8480955 0.1026377 0.041150767 0.5940672 0.152258 0.672097 -0.7308702 -0.13681702 -0.39536318 0.59004915 -0.45341548 -0.15360573 -0.87461954 0.14025694 0.034800876 0.84548473 -0.13225043 0.34133124 0.09307448 0.6472462 0.20510754 -0.48443183 0.5259998 0.57378775 -0.36777356 0.121780224 -0.38875958 -0.13375458 0.25904214 0.08346488 0.107204705 0.47394428 -0.23394467 -0.05549063 0.58525985 -0.553864 -0.36157802 -0.17036313
8 0.52646196 0.45370287 0.8346561 -0.5291901 -0.16374849 -1.1593647 -0.17889364 0.6310992 -0.24826446 -0.3107925 0.5862279 0.27401206 0.38305378 -0.24837163 0.004283076 -0.45954484 0.08770932 0.04125117 -0.16607827 -0.44299057 0.1397679 -0.42493266 -0.044411913 0.15519568 0.6205285 0.34947008 0.8233379 0.09364011 0.059310183 0.57576615 0.13756 0.6372387 -0.67189884 -0.13574871 -0.36448145 0.5953619 -0.43647322 -0.12806176 -0.8665798 0.12579226 0.026439305 0.80901676 -0.1259004 0.33072352 0.089536965 0.6256413 0.17619729 -0.47833756 0.5149199 0.5507535 -0.34295723 0.13208655 -0.40828633 -0.15041316 0.25289023 0.06198107 0.089206845 0.4443375 -0.2164895 -0.066234834 0.55365735 -0.5140387 -0.35888413 -0.18010373
9 0.5590034 -0.38706538 0.59118086 -0.12367484 0.10104057 -0.77071637 0.20711729 -0.028723778 -0.6565996 -0.113578916 0.31613535 -0.9727869 -0.58646864 -0.36067936 0.25313222 0.41379386 0.16145171 -0.090207726 0.11472916 0.56056464 0.6501353 0.6424063 0.43101087 -0.4903835 -0.13641413 0.4345931 -0.6439563 -0.12731048 0.24097714 0.059313737 -0.21289513 0.16650988 -0.50374144 -0.09916688 -0.43478063 -0.4789814 0.2785388 -0.05835322 0.30730823 -0.14608976 0.11541932 0.003321174 -0.27333495 -0.194664 0.26407725 -0.37514132 0.17382677 -0.28537732 0.18850265 0.4601159 0.10035737 -0.16314891 0.27029982 0.5293185 0.2569552 0.4232261 0.34243664 0.062398884 -0.33597642 0.7655678 -0.09835156 -0.6157877 -0.18233605 -0.1979161
33 0.55499375 -0.3749831 0.5747722 -0.10194893 0.09384708 -0.7761708 0.18495394 -0.010307514 -0.6211812 -0.10655773 0.30042654 -0.94042826 -0.5672621 -0.37305334 0.22824855 0.38271034 0.1774648 -0.06387158 0.094535515 0.5438632 0.6366089 0.6041373 0.429559 -0.45536342 -0.120937616 0.40872976 -0.60929286 -0.14217606 0.26081362 0.050320514 -0.21525235 0.17325032 -0.48710054 -0.08259784 -0.4315526 -0.45966277 0.27592647 -0.07843613 0.30362037 -0.11145865 0.11834471 0.0013354669 -0.2570367 -0.18480611 0.2558358 -0.36315766 0.15983821 -0.28515476 0.18466906 0.45416743 0.0890209 -0.16618425 0.27744135 0.52895486 0.24956061 0.4036223 0.32257226 0.06720313 -0.32853317 0.7598363 -0.08431003 -0.6033597 -0.16348803 -0.19984251
71 0.5381743 0.4680623 0.863846 -0.53606486 -0.14848788 -1.1946118 -0.1788971 0.6649438 -0.2747884 -0.3200273 0.5998288 0.26902068 0.36276993 -0.25457317 -0.0059501035 -0.4572408 0.09027503 0.034014195 -0.17630267 -0.4660716 0.15289783 -0.41738737 -0.023818143 0.1688602 0.64345694 0.39859992 0.8728232 0.09781827 0.04577596 0.5855594 0.14603148 0.6431819 -0.71292454 -0.15546095 -0.39013427 0.6131441 -0.45032373 -0.14894469 -0.902926 0.11692958 0.02948338 0.82406366 -0.15407406 0.34423453 0.103571884 0.664287 0.17847894 -0.49930292 0.5343922 0.5787518 -0.36593693 0.121362925 -0.4063487 -0.13229373 0.27017254 0.06594375 0.08310085 0.4409836 -0.23213476 -0.056691024 0.58114725 -0.5247885 -0.3643229 -0.16543871
83 0.5324453 0.4566948 0.83002716 -0.5052534 -0.13766438 -1.169173 -0.14783826 0.63376296 -0.2879885 -0.3124192 0.5954093 0.22156912 0.35355005 -0.28276807 0.031212034 -0.4417758 0.108294904 0.0159847 -0.17909886 -0.42669448 0.14385277 -0.38804185 -0.022965254 0.13080086 0.60469896 0.37322277 0.81371564 0.10993138 0.071266785 0.5771776 0.115930825 0.6407175 -0.71893895 -0.14224254 -0.4080039 0.57197213 -0.4241198 -0.13049072 -0.83666945 0.1101202 0.045762926 0.7915016 -0.12950557 0.31817394 0.091074176 0.6140918 0.18060248 -0.48891148 0.52328396 0.55661976 -0.3268987 0.104947634 -0.37860566 -0.11624711 0.27552313 0.05878152 0.1123336 0.43503943 -0.23796605 -0.03283005 0.5394005 -0.5402643 -0.36363718 -0.18872157
5 0.51201695 0.4720436 0.81470877 -0.51012063 -0.16396014 -1.1487877 -0.1653936 0.6366714 -0.2740124 -0.29368418 0.5886039 0.28078753 0.38741663 -0.27165172 0.017569052 -0.4510563 0.10224367 0.026862906 -0.17756374 -0.44747606 0.12655075 -0.42415103 -0.020620786 0.1775391 0.6351806 0.3526537 0.8545842 0.110353544 0.051406898 0.5703076 0.13849436 0.6337362 -0.694029 -0.14533037 -0.3841166 0.5957539 -0.43702266 -0.13786015 -0.8636069 0.13548164 0.038846847 0.7953851 -0.12858136 0.31274283 0.08688043 0.66098857 0.19404793 -0.4583305 0.5105924 0.55027884 -0.33310995 0.14225796 -0.40574223 -0.12917319 0.2585904 0.04764572 0.09808027 0.4490962 -0.19780244 -0.06301978 0.56940526 -0.50515544 -0.3364932 -0.16224292
70 0.5604948 -0.3768062 0.6066589 -0.106855 0.07799289 -0.77982885 0.20145987 -0.040437337 -0.62097824 -0.13997671 0.30374175 -0.9328668 -0.5703703 -0.3729293 0.24423985 0.414096 0.15337369 -0.08652315 0.09228879 0.5365098 0.6377486 0.6329419 0.43299404 -0.4746642 -0.12268928 0.43430108 -0.59637666 -0.13149449 0.261365 0.050046302 -0.2170907 0.15032962 -0.4912729 -0.098152965 -0.4382659 -0.45471174 0.28712168 -0.07724746 0.3154605 -0.13084014 0.116161615 0.004318563 -0.25936842 -0.18331553 0.27999547 -0.3617586 0.17905395 -0.31206128 0.19364274 0.4373512 0.11862401 -0.14777479 0.26180083 0.5259543 0.25086233 0.40592495 0.35296336 0.08149087 -0.33382684 0.75034386 -0.10340507 -0.6280286 -0.17065252 -0.19729416
16 0.56769854 -0.38559008 0.6325118 -0.12045215 0.08842174 -0.794402 0.222668 -0.016568996 -0.67497236 -0.10943935 0.33517668 -0.96878076 -0.60929424 -0.3735746 0.25951746 0.4089361 0.18207505 -0.07473972 0.1186239 0.56246233 0.65837383 0.6556 0.42678323 -0.5057452 -0.1450405 0.4382209 -0.6428863 -0.13379426 0.27701345 0.061909847 -0.21978766 0.16913116 -0.5230688 -0.110144146 -0.43259904 -0.4980024 0.29441068 -0.05956791 0.31885335 -0.13154003 0.13447706 -0.0019586855 -0.2684489 -0.18537016 0.2951559 -0.37901032 0.17533554 -0.29998696 0.19145888 0.48097932 0.12279832 -0.17132519 0.28531465 0.5360924 0.27146468 0.42534685 0.36569056 0.085314475 -0.33751824 0.7981252 -0.08967999 -0.6640349 -0.19437955 -0.22678307
73 0.52622503 -0.34498253 0.5639938 -0.11898727 0.06504875 -0.7465716 0.18704899 -0.034048986 -0.60542464 -0.102420986 0.30047265 -0.9109832 -0.54944074 -0.34845936 0.21388748 0.39164847 0.14569747 -0.08157042 0.092544 0.5067087 0.6105837 0.60669607 0.41210538 -0.44094646 -0.11500578 0.40839827 -0.5840253 -0.14782465 0.2481376 0.06409354 -0.21730188 0.14845309 -0.49840522 -0.098771155 -0.40333906 -0.43021247 0.26677305 -0.065705344 0.29020005 -0.12575103 0.111799404 -0.00564298 -0.25097892 -0.1729668 0.26408395 -0.339567 0.1485278 -0.2912251 0.1827901 0.4325361 0.08930557 -0.14795999 0.2628325 0.49265787 0.24477068 0.39096716 0.3304325 0.09094793 -0.3215552 0.7261697 -0.0995873 -0.6066904 -0.17007981 -0.20310394
76 0.5288121 0.43751347 0.8172199 -0.5129317 -0.14622928 -1.1530123 -0.15991385 0.60523856 -0.28812125 -0.29102507 0.5634178 0.22719787 0.32838345 -0.2517706 0.020097844 -0.41423118 0.10491077 0.032205936 -0.16416916 -0.3926566 0.14993 -0.38077623 -0.015529837 0.13944013 0.60973185 0.36392692 0.79601336 0.0987023 0.06062687 0.55904406 0.13131563 0.60712254 -0.69115204 -0.12784949 -0.38723984 0.55486333 -0.4282329 -0.13384953 -0.8391787 0.13695997 0.026272178 0.7741943 -0.13138257 0.30490777 0.07767066 0.60230905 0.18199673 -0.4803686 0.49222946 0.5487284 -0.33671185 0.121826515 -0.37298974 -0.102842316 0.2541649 0.06809222 0.09807889 0.4248847 -0.23327139 -0.021254636 0.53221864 -0.53256524 -0.35721448 -0.17794037
28 0.5162833 0.46237284 0.8209236 -0.51755923 -0.14609016 -1.139927 -0.17209238 0.6207673 -0.2594245 -0.3058035 0.56379396 0.25465867 0.34899643 -0.2452007 0.019294929 -0.45382702 0.08614752 0.041954435 -0.16600738 -0.43075526 0.14179997 -0.41279292 -0.013493809 0.15027875 0.5960893 0.3606974 0.81832045 0.120267466 0.05097277 0.5621196 0.124603726 0.61435103 -0.686208 -0.13535814 -0.37368298 0.5643893 -0.44121572 -0.1232096 -0.83275545 0.11893865 0.021013986 0.8007879 -0.14659819 0.31673747 0.08758981 0.6374265 0.19167185 -0.46773145 0.49636745 0.5367447 -0.35060632 0.119037665 -0.38049668 -0.118267976 0.26783302 0.07139921 0.075222574 0.44240135 -0.22223718 -0.04858303 0.5393654 -0.49500355 -0.33790657 -0.1591321
59 0.53188956 0.46002766 0.8117854 -0.52320457 -0.13848631 -1.1552993 -0.17331418 0.6208861 -0.2690562 -0.3169412 0.5757348 0.27221596 0.36049628 -0.25043252 -0.0011544783 -0.4411762 0.11136881 0.038785182 -0.1581977 -0.4353139 0.1459102 -0.42271957 -0.017266953 0.13685408 0.6066275 0.34772152 0.8189403 0.096848845 0.0403657 0.5640824 0.13687547 0.6214287 -0.6994282 -0.14454065 -0.37433496 0.57162476 -0.45449805 -0.14301255 -0.8396748 0.13836111 0.0100671835 0.80295277 -0.14468996 0.30370563 0.08446382 0.6317788 0.17285211 -0.480313 0.49181494 0.55367845 -0.35515445 0.13669235 -0.3875466 -0.13023342 0.26886618 0.06737918 0.0838106 0.44162947 -0.21005078 -0.041470587 0.54884845 -0.52067274 -0.34799173 -0.17726912
95 0.5315734 0.4735873 0.8485419 -0.5065083 -0.16226299 -1.185035 -0.15759486 0.6277401 -0.2902375 -0.3117348 0.59951335 0.25670367 0.35154173 -0.25950965 0.026756028 -0.4616167 0.10588403 0.026935777 -0.17843406 -0.43177423 0.1358421 -0.39704958 -0.02663326 0.1543755 0.6228516 0.38189265 0.82882917 0.12293884 0.05196813 0.56226695 0.13318868 0.6376202 -0.70851797 -0.15234965 -0.39889035 0.56858045 -0.43111688 -0.13545601 -0.8455893 0.13840275 0.019044723 0.81424755 -0.12513056 0.32357582 0.0957216 0.64782554 0.17662685 -0.4648815 0.5198855 0.572511 -0.36062914 0.1348327 -0.38200352 -0.13024941 0.2507097 0.07217627 0.0827999 0.43753555 -0.21728323 -0.030587398 0.5702823 -0.53617126 -0.37421456 -0.1596704
12 0.53962255 0.42962408 0.81872404 -0.51288456 -0.14823182 -1.1631542 -0.15328872 0.59858036 -0.29687715 -0.31411847 0.59675944 0.21281767 0.31322563 -0.2582327 0.022552788 -0.40856686 0.09919763 0.018260414 -0.15739101 -0.39599696 0.14466274 -0.377206 0.0016174043 0.13638957 0.603535 0.37816355 0.76593626 0.09706677 0.050452013 0.5604964 0.11002006 0.62219095 -0.69595176 -0.14737888 -0.39920548 0.5496787 -0.42923334 -0.13987197 -0.811464 0.13275139 0.018286632 0.78506505 -0.12761293 0.29067448 0.08959576 0.6119437 0.19385463 -0.4670542 0.50614303 0.55441624 -0.32871982 0.11548823 -0.37998703 -0.10183072 0.2617942 0.06523745 0.100226834 0.42900223 -0.22407815 -0.0012538936 0.52871454 -0.54100144 -0.33957654 -0.18569095
24 0.53151804 -0.36905217 0.57777995 -0.11572604 0.084191784 -0.77823937 0.18672188 -0.025898032 -0.6316142 -0.11610261 0.32639802 -0.9209816 -0.55813104 -0.37448812 0.25162703 0.38620636 0.17656137 -0.07241183 0.104786046 0.5222035 0.6126322 0.6253179 0.4131557 -0.46495253 -0.11344384 0.41630858 -0.5891664 -0.14007173 0.2364736 0.048184063 -0.21242549 0.14751649 -0.48281255 -0.08932748 -0.4347105 -0.44962108 0.2833105 -0.061765075 0.30541706 -0.14113048 0.12311226 -0.011840764 -0.2636526 -0.17655365 0.2702368 -0.36096093 0.1685337 -0.2917888 0.20649862 0.45903495 0.091862746 -0.14226194 0.27587178 0.5334822 0.26355594 0.3953957 0.32622135 0.08126329 -0.32772112 0.77055174 -0.09239551 -0.61554396 -0.16860788 -0.22340973
36 0.5741688 -0.36885163 0.6105905 -0.11783088 0.07516087 -0.80650187 0.21696052 -0.034093723 -0.6415473 -0.12205963 0.3186471 -0.9604003 -0.6020207 -0.37586755 0.24705073 0.41524535 0.16615677 -0.078037545 0.09049376 0.5700729 0.63641185 0.64708555 0.44090274 -0.49869427 -0.13904484 0.41772753 -0.6369085 -0.13629107 0.2725189 0.06330587 -0.21740901 0.17756604 -0.51955664 -0.09680413 -0.42870942 -0.49007657 0.26675496 -0.08961025 0.32430574 -0.12365966 0.11919898 -0.012699554 -0.26629537 -0.18135124 0.27769873 -0.38045236 0.16405915 -0.29697773 0.20157659 0.47497886 0.09156797 -0.1695213 0.26288065 0.5351359 0.25151253 0.42384052 0.3337779 0.076022 -0.32679948 0.7703776 -0.099843025 -0.65337455 -0.16355439 -0.20522006
46 0.53636897 0.45063382 0.8462491 -0.5217951 -0.12961899 -1.1871114 -0.14365582 0.6125164 -0.29816616 -0.3146101 0.604543 0.21463744 0.34458792 -0.28351542 0.03298724 -0.42790654 0.1213438 0.025268298 -0.15086266 -0.38811964 0.16501948 -0.3768258 0.00428105 0.14443775 0.6172552 0.39487603 0.7966959 0.1121467 0.072986655 0.556884 0.12377791 0.6278366 -0.7043641 -0.14041467 -0.4071639 0.53569305 -0.42347586 -0.1255972 -0.83410025 0.11003703 0.04020185 0.79473865 -0.14287461 0.3123014 0.10521061 0.6200506 0.1890644 -0.47671744 0.5183446 0.56464237 -0.34242404 0.12803888 -0.36561993 -0.10178151 0.25606915 0.082116924 0.10949047 0.44740605 -0.22776408 -0.02899262 0.5402522 -0.53512585 -0.35174468 -0.18912698
53 0.54324454 -0.3696711 0.5778943 -0.12504551 0.09385094 -0.73327136 0.19577943 -0.03502398 -0.61260366 -0.118153766 0.29098493 -0.89367735 -0.5540627 -0.3418975 0.22160603 0.39680687 0.15667598 -0.07629009 0.08215142 0.5288192 0.62114596 0.6070871 0.39506182 -0.47180632 -0.13038032 0.402052 -0.60623837 -0.1458885 0.2390663 0.061351556 -0.21964295 0.14743806 -0.47530517 -0.07832239 -0.40153247 -0.45516998 0.2540791 -0.08112702 0.29091847 -0.11512895 0.124763824 -7.273081e-05 -0.24703228 -0.18969984 0.26093957 -0.36591694 0.16716972 -0.2869737 0.18067305 0.41341066 0.10204636 -0.16431634 0.2550896 0.4979174 0.2431158 0.38340554 0.31291765 0.07452603 -0.31053254 0.72788775 -0.112025194 -0.6072226 -0.18216167 -0.20495866
85 0.5322827 0.45067972 0.8342653 -0.50529087 -0.13493401 -1.1503549 -0.14811552 0.59795344 -0.2890969 -0.31951645 0.57455033 0.24206631 0.3383483 -0.2697312 0.0153049175 -0.44430757 0.09033883 0.03929173 -0.16235128 -0.41398448 0.15588452 -0.38795465 -0.01878247 0.15022703 0.6039522 0.37264264 0.81566644 0.12041326 0.046400007 0.5665121 0.12325876 0.6217119 -0.6815581 -0.14495392 -0.3842547 0.5555611 -0.44823524 -0.12616956 -0.8513991 0.1324778 0.018315125 0.79332787 -0.14935316 0.3264624 0.09877102 0.63581693 0.19982664 -0.4743528 0.4870114 0.56502014 -0.3476557 0.13594657 -0.37513554 -0.1259008 0.24495505 0.061243016 0.10316262 0.4255485 -0.21966234 -0.050795875 0.5598087 -0.5289116 -0.3386409 -0.18101098
44 0.51843756 0.4618496 0.84568363 -0.52309793 -0.15506618 -1.1764284 -0.1659803 0.6448031 -0.27445793 -0.30400604 0.6011664 0.28421974 0.35643256 -0.26675397 0.010049477 -0.4608349 0.11681278 0.028600218 -0.17540105 -0.44315225 0.1401366 -0.42625496 -0.013625642 0.14800762 0.6488779 0.38175625 0.85061 0.114950284 0.051747113 0.5833148 0.13373004 0.6523254 -0.7116431 -0.14695407 -0.40586767 0.58203435 -0.44951904 -0.15266828 -0.88039297 0.12292005 0.018400755 0.8276496 -0.13274753 0.32568273 0.080729984 0.6563376 0.18855539 -0.49416474 0.51655465 0.563225 -0.35782495 0.11311007 -0.3888721 -0.12681149 0.25899836 0.072783254 0.09399614 0.46234775 -0.22936524 -0.037726402 0.56679535 -0.5421294 -0.37153336 -0.15810274
18 0.5259202 0.48880085 0.8526558 -0.53828853 -0.15859702 -1.1891122 -0.18638209 0.6284762 -0.26016194 -0.31118914 0.6072012 0.3026437 0.38667968 -0.25309727 0.0028967143 -0.46755558 0.114352 0.034691814 -0.1649757 -0.4705784 0.13525692 -0.43163705 -0.026154898 0.15169519 0.6411372 0.37185645 0.8550447 0.10327077 0.052721914 0.5742652 0.13542311 0.65758526 -0.71353465 -0.12695108 -0.38217542 0.61882544 -0.46425965 -0.15033126 -0.90027237 0.13447534 0.017713724 0.8247178 -0.12074119 0.3214714 0.07358126 0.6562064 0.17503645 -0.49349475 0.51195544 0.56922454 -0.34438094 0.12588434 -0.42280138 -0.1502288 0.24484695 0.04396898 0.07628367 0.45670414 -0.23086545 -0.0638327 0.57400894 -0.51257026 -0.3630855 -0.18455914
99 0.5598106 -0.36831197 0.6099643 -0.120441094 0.09399058 -0.7852216 0.19107354 -0.0040207393 -0.6468271 -0.13723502 0.32760412 -0.9305217 -0.5753679 -0.36327305 0.21931605 0.38641465 0.16225928 -0.08117973 0.10050426 0.53799427 0.63808525 0.593896 0.4096621 -0.48165828 -0.13074157 0.41555947 -0.5954506 -0.14977221 0.23980193 0.06471513 -0.19727866 0.17199187 -0.4924583 -0.10729634 -0.432959 -0.45518896 0.2787737 -0.07150604 0.28472444 -0.12465194 0.123187155 0.0017151224 -0.25467354 -0.16340154 0.2809883 -0.35086825 0.15288675 -0.30519077 0.21742661 0.4542624 0.08295072 -0.14698285 0.25024396 0.52732545 0.2672184 0.39331034 0.33824083 0.09684046 -0.3325011 0.7514247 -0.07362586 -0.6125924 -0.19515276 -0.20075417
91 0.5582287 0.45961574 0.85871345 -0.5311851 -0.13834582 -1.1942277 -0.15918954 0.64543587 -0.28279495 -0.32566726 0.60142165 0.25483266 0.35761034 -0.26882544 0.029500863 -0.4410283 0.12447666 0.017059624 -0.17714123 -0.42483047 0.15672626 -0.40782937 -0.022671742 0.13807246 0.61366975 0.3974791 0.83182883 0.09486408 0.05821855 0.5829648 0.12274314 0.6336053 -0.71570426 -0.12901321 -0.41288227 0.58000606 -0.45426366 -0.14779302 -0.8599343 0.11932956 0.02374924 0.81840277 -0.15201199 0.32901073 0.10093424 0.62710184 0.18751995 -0.48116603 0.5025578 0.5577174 -0.35965532 0.11535668 -0.37942612 -0.11151694 0.2689374 0.055235375 0.107462876 0.45811522 -0.22820452 -0.04667239 0.55588263 -0.54023474 -0.37480828 -0.17221758
97 0.5552587 -0.38826478 0.5812613 -0.107068636 0.06975842 -0.79218346 0.21287398 -0.03211874 -0.64879155 -0.12996772 0.3163237 -0.94684327 -0.5968617 -0.37312475 0.23399504 0.3967562 0.1521433 -0.09497939 0.11402794 0.5629882 0.6340491 0.61565065 0.4231948 -0.48778743 -0.11707375 0.4297592 -0.6318 -0.14641647 0.23851165 0.062186383 -0.22030577 0.15387297 -0.49336588 -0.08473493 -0.42252186 -0.4897241 0.28873622 -0.087277114 0.2930481 -0.14706439 0.11986284 0.00014294055 -0.26971433 -0.18091178 0.29336828 -0.365848 0.16410412 -0.2835584 0.20406635 0.45178074 0.096215345 -0.1519982 0.26018956 0.5267634 0.27213746 0.40611053 0.34534982 0.069117956 -0.3239325 0.785595 -0.117095046 -0.63685024 -0.1647163 -0.20892894
22 0.5292573 -0.36655062 0.5551599 -0.09544275 0.07694862 -0.7573704 0.20142579 -0.029708277 -0.6288172 -0.104987554 0.2971424 -0.92905176 -0.55734783 -0.34069586 0.24452049 0.3916853 0.1590855 -0.08872855 0.10375642 0.5465749 0.6172997 0.6027771 0.40573108 -0.46418858 -0.13724005 0.41552845 -0.6032368 -0.12340306 0.23450163 0.044387504 -0.21752404 0.1407222 -0.47491094 -0.08076771 -0.4083019 -0.45651704 0.25734195 -0.070696674 0.28502613 -0.120888755 0.1142757 0.011755982 -0.257993 -0.16634126 0.27133796 -0.3630207 0.16097991 -0.26771492 0.19286467 0.44759625 0.10729096 -0.14688747 0.27339005 0.49662226 0.24048531 0.39627972 0.32746032 0.077645145 -0.3172312 0.75878155 -0.10580267 -0.6061849 -0.15806599 -0.20058072
31 0.5334971 0.4631157 0.8319608 -0.5259528 -0.14271128 -1.1768544 -0.16766387 0.59954447 -0.2802456 -0.3226975 0.5999261 0.24547307 0.36573777 -0.28343412 0.010638932 -0.4379269 0.10154721 0.031849112 -0.17135379 -0.42151284 0.13733445 -0.41537046 -0.0042828857 0.14498563 0.6235566 0.36310908 0.8141484 0.092662826 0.062097546 0.57527757 0.11961708 0.64184827 -0.70757437 -0.15275064 -0.3845914 0.57335293 -0.44508228 -0.15283634 -0.82982004 0.12944527 0.028389275 0.8045647 -0.14211972 0.3184908 0.09393303 0.64647967 0.18104032 -0.46923018 0.51109356 0.54158026 -0.3569565 0.13587324 -0.3735942 -0.12768441 0.26704302 0.068234295 0.087595046 0.43856725 -0.23191233 -0.027800893 0.55094415 -0.54213107 -0.3553763 -0.17573309
68 0.5537309 -0.36002418 0.60330987 -0.1149412 0.07367912 -0.7614031 0.19636837 -0.02381618 -0.63470453 -0.12944204 0.3060844 -0.90678865 -0.5751866 -0.36593613 0.23834263 0.38249236 0.17120351 -0.078949675 0.09468072 0.52827716 0.62845266 0.6024166 0.42770925 -0.45825684 -0.12775446 0.41250256 -0.6013698 -0.14262602 0.24297048 0.048163027 -0.18951961 0.16613461 -0.4976123 -0.101908885 -0.43344983 -0.46630237 0.27615383 -0.07447587 0.2935088 -0.13136926 0.13593133 0.018517055 -0.25317225 -0.17701562 0.2716956 -0.35743535 0.17550199 -0.28668344 0.20147847 0.45156422 0.10277757 -0.16406348 0.27098125 0.51430315 0.2467989 0.40639737 0.32517803 0.09701068 -0.32658613 0.7560846 -0.08421996 -0.6258357 -0.18393908 -0.1947746
89 0.53411955 -0.3571896 0.5801763 -0.122108385 0.08038531 -0.7723807 0.1999518 -0.01687907 -0.5991189 -0.11425592 0.3034542 -0.88729954 -0.54861563 -0.36452886 0.24071166 0.38984966 0.17291892 -0.079500474 0.08019468 0.5214042 0.59631866 0.60031873 0.4076599 -0.44329488 -0.103167385 0.4067742 -0.57726514 -0.13103203 0.25808984 0.053755242 -0.20181325 0.15778694 -0.47926527 -0.08096447 -0.41646188 -0.43462807 0.24909356 -0.06548056 0.28816137 -0.115705304 0.109227754 0.009322439 -0.23677507 -0.15309219 0.27317333 -0.350245 0.15868287 -0.29783785 0.18882714 0.44256178 0.08388419 -0.16163915 0.2656729 0.5128604 0.26333192 0.3898194 0.30842778 0.07361546 -0.31620482 0.7147006 -0.098403536 -0.60330284 -0.17948055 -0.21984282
75 0.5237742 0.44516176 0.80642486 -0.5137155 -0.14602849 -1.1472567 -0.17362659 0.62528825 -0.25398886 -0.31808436 0.5944096 0.2761937 0.34685764 -0.2607458 0.01554073 -0.43351087 0.093086764 0.019406868 -0.15791322 -0.44138238 0.12562083 -0.40992597 -0.014856294 0.14076735 0.62092304 0.36112452 0.819119 0.11442808 0.04961508 0.57224476 0.1347923 0.60737586 -0.66743106 -0.14149134 -0.36750713 0.56874037 -0.44905055 -0.14859676 -0.8384398 0.12586837 0.027324416 0.782001 -0.14231947 0.30795908 0.099275395 0.6134586 0.19024608 -0.46686846 0.49515182 0.5572652 -0.34655842 0.11242772 -0.38742843 -0.118362606 0.26669073 0.051317353 0.09104172 0.44115674 -0.22446953 -0.039501812 0.53483045 -0.5094383 -0.3421906 -0.16124499
81 0.5492069 -0.36540434 0.61977583 -0.1096167 0.06920554 -0.78394103 0.2095486 -0.022990134 -0.6289637 -0.12954436 0.318625 -0.9542583 -0.5862419 -0.36736953 0.23695947 0.38601735 0.1765744 -0.08733248 0.09006431 0.5531382 0.6580036 0.6255174 0.42399642 -0.47378588 -0.12410228 0.4379531 -0.6204089 -0.13660258 0.260842 0.06283678 -0.21101348 0.17323612 -0.49239692 -0.09098399 -0.41472536 -0.47712925 0.27941996 -0.07766267 0.28833446 -0.12798554 0.114901826 0.0023948227 -0.2591529 -0.16512176 0.26359797 -0.381522 0.16553159 -0.2874176 0.18510474 0.47303784 0.101625174 -0.15515625 0.26560777 0.5156818 0.2677928 0.41804692 0.32877576 0.08432308 -0.32967234 0.77284294 -0.080675974 -0.6423552 -0.16900031 -0.22353414
86 0.48973548 0.44931763 0.7875938 -0.50037897 -0.14261624 -1.1028044 -0.16325004 0.5910812 -0.2656208 -0.2801646 0.5591151 0.24586006 0.32401365 -0.2537828 0.005463492 -0.41513523 0.11350366 0.034568 -0.16255723 -0.39990637 0.12035464 -0.39134437 -0.022251127 0.1587349 0.57227105 0.33359322 0.7823479 0.106157824 0.03251163 0.52487594 0.12714125 0.58580333 -0.66857743 -0.13689338 -0.36510375 0.5556931 -0.41336226 -0.13371544 -0.80554795 0.11386914 0.029666893 0.7574597 -0.12109505 0.29976994 0.067905724 0.601995 0.1938569 -0.4540312 0.4653209 0.510882 -0.3117438 0.11601659 -0.3517016 -0.13805753 0.25546288 0.0402007 0.10186359 0.41810206 -0.20092906 -0.056335814 0.5312416 -0.48231894 -0.34122527 -0.17623822
19 0.5516834 -0.38863978 0.56696755 -0.10637537 0.07725799 -0.77109057 0.2178593 -0.038577285 -0.63582915 -0.124006465 0.2976879 -0.9509353 -0.5950883 -0.36526763 0.22629595 0.41862896 0.17121951 -0.08471214 0.10800297 0.5335057 0.6431935 0.63782793 0.4240812 -0.4858167 -0.14007899 0.42335683 -0.62761706 -0.13424554 0.26485765 0.05871014 -0.22115326 0.15982917 -0.49108967 -0.101582214 -0.40679196 -0.49367502 0.2780471 -0.071557276 0.29846707 -0.13364656 0.12977421 -0.016895533 -0.26974016 -0.17185307 0.26645458 -0.39398718 0.16368186 -0.28593105 0.20186172 0.4409187 0.12195222 -0.1781576 0.2807166 0.53589904 0.25473127 0.39730993 0.33824673 0.07314364 -0.33921453 0.7548223 -0.10299055 -0.6208417 -0.15565488 -0.20904094
4 0.53127074 -0.33490285 0.58446044 -0.13430811 0.07932453 -0.75369203 0.18742672 -0.017332489 -0.61207044 -0.106854126 0.30125383 -0.87260735 -0.5453691 -0.3369562 0.24056523 0.35900456 0.16378906 -0.072389625 0.103979476 0.5122291 0.5974637 0.5673553 0.37752026 -0.4232073 -0.10953978 0.40347984 -0.5602745 -0.11381558 0.25180736 0.07164616 -0.1925898 0.17403801 -0.47409576 -0.08100443 -0.39968356 -0.43224403 0.2563719 -0.075863905 0.26087457 -0.10331257 0.098517194 0.012693426 -0.25220338 -0.15130888 0.26906648 -0.34508482 0.16578704 -0.28527766 0.18027428 0.42885992 0.088178985 -0.1523575 0.24205247 0.47660547 0.25453287 0.39380643 0.31231135 0.0902414 -0.31445786 0.7136565 -0.09260517 -0.59373885 -0.16363613 -0.19400717
47 0.5250035 0.46164033 0.8241439 -0.52186674 -0.15108356 -1.1518382 -0.15655756 0.6243289 -0.27797475 -0.3003229 0.58441347 0.26541442 0.35745862 -0.2698412 0.02613696 -0.45362315 0.09209831 0.021852449 -0.1747799 -0.43020117 0.121551625 -0.40472293 -0.025998084 0.14542297 0.6219461 0.36746034 0.8132981 0.10303504 0.06203596 0.5593231 0.14358866 0.63514465 -0.6996237 -0.15123262 -0.36071956 0.5777633 -0.43674752 -0.1313913 -0.8489604 0.11668239 0.0127916485 0.8048055 -0.13824432 0.30324408 0.07629191 0.6369018 0.1811388 -0.47471598 0.49228683 0.5395575 -0.3453131 0.12018398 -0.38035077 -0.12730104 0.245277 0.06384679 0.097086005 0.41796744 -0.22715583 -0.03826966 0.53080785 -0.5129223 -0.3612724 -0.15343651
41 0.5320451 -0.36975178 0.5821592 -0.11750435 0.09148177 -0.7471128 0.19253623 -0.01796208 -0.6132296 -0.1189413 0.30108947 -0.9152708 -0.56295854 -0.34034878 0.2247622 0.369454 0.16918856 -0.061457798 0.08466052 0.52460366 0.6090772 0.6111455 0.42824373 -0.46325034 -0.1144303 0.42147642 -0.5846628 -0.14792152 0.2489932 0.058074586 -0.20877136 0.16549483 -0.49042195 -0.07869813 -0.41567656 -0.4548425 0.26228964 -0.08424473 0.27383932 -0.11595925 0.10744072 0.008485233 -0.25062376 -0.18472701 0.26283002 -0.36784652 0.14960332 -0.2889683 0.20867081 0.4320611 0.0937223 -0.14074007 0.27399328 0.5237558 0.23653702 0.4012377 0.31709245 0.09269086 -0.30985585 0.73655295 -0.08030478 -0.62367076 -0.1670434 -0.19966367
50 0.5258362 0.44836077 0.81163347 -0.49308935 -0.1511218 -1.1465654 -0.15078351 0.5845981 -0.28037918 -0.3015482 0.58647704 0.2249391 0.32975763 -0.2698839 0.007066119 -0.4244155 0.112978876 0.021099938 -0.16163905 -0.3870586 0.14621995 -0.38593608 0.001069682 0.13658513 0.59054965 0.381977 0.7939336 0.107588984 0.056441486 0.5441462 0.13694452 0.61909485 -0.6929445 -0.14752921 -0.37966272 0.5359289 -0.41320762 -0.15247902 -0.8200772 0.12756647 0.033059392 0.7786337 -0.1504712 0.31021035 0.09950257 0.61176777 0.19649275 -0.4616921 0.49818477 0.5560395 -0.33270088 0.117586136 -0.36511093 -0.12515683 0.26096913 0.06051491 0.09258755 0.42238802 -0.20495968 -0.026430285 0.53233856 -0.5214177 -0.34958187 -0.17188251
87 0.5189448 -0.34961653 0.57210886 -0.111586526 0.07983549 -0.74024874 0.18567306 -0.020557957 -0.61739206 -0.11041502 0.31393117 -0.8889152 -0.530166 -0.3290808 0.21562082 0.36028844 0.14244202 -0.066484325 0.08483269 0.50398487 0.6156186 0.5603392 0.38089326 -0.43806314 -0.12074137 0.38604328 -0.57480174 -0.1303824 0.23557946 0.06879053 -0.19816753 0.17558335 -0.4656462 -0.10064735 -0.38906386 -0.4451767 0.24711643 -0.06686298 0.26703197 -0.12359222 0.1160225 0.01692699 -0.26208127 -0.16787057 0.2462746 -0.33259416 0.15759394 -0.29601398 0.20235616 0.43230212 0.095601305 -0.14070249 0.23959014 0.5015232 0.23263024 0.37341797 0.30459812 0.08544418 -0.32476488 0.7303841 -0.0746111 -0.60968924 -0.16133381 -0.19168928
38 0.5419703 -0.3816411 0.5828506 -0.09492468 0.09406813 -0.77705556 0.19346042 -0.042347565 -0.6494281 -0.117232054 0.32664034 -0.9769596 -0.61803555 -0.38171858 0.24250558 0.4191816 0.16478893 -0.087529376 0.119426735 0.5645389 0.65953034 0.6503328 0.42416537 -0.49371564 -0.15281259 0.41614714 -0.6515984 -0.13345519 0.25489867 0.067257114 -0.22147878 0.14274639 -0.49326757 -0.09146865 -0.4297029 -0.49919975 0.27931473 -0.06474788 0.31093612 -0.15316696 0.10770509 0.00033702218 -0.25791448 -0.17991711 0.29336306 -0.40409082 0.17634714 -0.2876971 0.20213327 0.44524318 0.12790902 -0.17459284 0.29437676 0.5514709 0.26158538 0.42126855 0.3554278 0.07949708 -0.3196273 0.79034317 -0.11424577 -0.62397027 -0.16783282 -0.22076775
13 0.50517076 0.45748523 0.81255454 -0.510324 -0.15420848 -1.1266568 -0.15820487 0.59583473 -0.24882741 -0.3068512 0.57999676 0.27537578 0.36813527 -0.26008043 0.0012188435 -0.43895227 0.09406944 0.04307389 -0.1754754 -0.42206863 0.1275489 -0.40614796 -0.023868233 0.14850457 0.5969667 0.34334648 0.8134918 0.115269944 0.03620242 0.5653956 0.14054836 0.60553384 -0.6737791 -0.12885475 -0.37942594 0.5743957 -0.42556092 -0.12856382 -0.8288381 0.1328341 0.022386609 0.7771566 -0.119697474 0.30278385 0.080872476 0.61983854 0.1906886 -0.46840903 0.49340662 0.5360402 -0.34665698 0.11149894 -0.3950214 -0.1299095 0.23328793 0.06574388 0.08121967 0.4133776 -0.21985029 -0.04226041 0.53980523 -0.4923668 -0.3588105 -0.1768365
27 0.5232585 -0.3597053 0.56518805 -0.12716092 0.06490294 -0.7552972 0.20642766 -0.04133815 -0.62863934 -0.11603153 0.31048658 -0.92782545 -0.5497712 -0.36520073 0.24078116 0.39983588 0.16663699 -0.0663936 0.110484086 0.5316975 0.60704994 0.6108333 0.39326283 -0.46992257 -0.112076126 0.39355904 -0.6046615 -0.13890715 0.25011218 0.070751585 -0.20214614 0.16473232 -0.4871633 -0.08388669 -0.42223218 -0.45963547 0.2536713 -0.0693036 0.29779533 -0.11714267 0.1110703 0.006179659 -0.2406408 -0.18187879 0.25870448 -0.36290553 0.1529546 -0.26894835 0.2036046 0.45346898 0.118005395 -0.1677306 0.26010513 0.49276486 0.2416474 0.3789081 0.3331076 0.07821579 -0.32920262 0.7566464 -0.09632356 -0.6082237 -0.17665043 -0.21572047
54 0.58297276 -0.3823009 0.64194554 -0.13602237 0.09419296 -0.8316237 0.20701402 -0.011499275 -0.6856374 -0.11845351 0.32955962 -1.0086585 -0.62198085 -0.39246392 0.25083467 0.41390115 0.1815529 -0.07336447 0.10005384 0.579162 0.6729298 0.65561295 0.44845033 -0.50814974 -0.13828832 0.44388616 -0.64534116 -0.14675114 0.25124678 0.07893283 -0.22775845 0.16933078 -0.5412536 -0.10581572 -0.4587503 -0.509039 0.28658053 -0.09141993 0.3040125 -0.14845173 0.1446086 0.0049785 -0.28982168 -0.1799001 0.27902794 -0.3928792 0.18206598 -0.3276231 0.19783427 0.47174606 0.11787849 -0.15309328 0.2901821 0.55789065 0.27954152 0.4233469 0.37214583 0.1004657 -0.34154958 0.82372475 -0.11389744 -0.6718618 -0.17651094 -0.22700109
6 0.51972646 -0.37052357 0.56705856 -0.1137104 0.07887344 -0.7335657 0.19567673 -0.025867645 -0.6224141 -0.10369629 0.28878593 -0.9299971 -0.5731591 -0.36144757 0.22598572 0.388958 0.16004388 -0.07372412 0.10679086 0.5278925 0.618517 0.60537654 0.42154562 -0.4499182 -0.12921938 0.4073657 -0.6104038 -0.14285597 0.23334056 0.05566804 -0.21422333 0.14448544 -0.4754135 -0.086589895 -0.42141402 -0.45772746 0.276027 -0.064063355 0.29304463 -0.11131062 0.131555 -0.0046141967 -0.25064513 -0.19096868 0.2569217 -0.36521703 0.16677377 -0.28220022 0.17261656 0.44008872 0.09230215 -0.14261103 0.27177662 0.4971645 0.2525343 0.40336233 0.315312 0.06429229 -0.3009025 0.74371237 -0.08454978 -0.61987644 -0.17090014 -0.1937777
90 0.51890546 0.4488141 0.81182605 -0.519872 -0.15521657 -1.1370026 -0.1658147 0.5979015 -0.26303935 -0.31041873 0.5780491 0.24790779 0.34978184 -0.2719312 0.0140663525 -0.43988204 0.119361565 0.039243627 -0.16077603 -0.4281405 0.15060842 -0.39833224 -0.025332224 0.13290082 0.60498077 0.3711837 0.7892328 0.09355074 0.064193554 0.55413806 0.14001405 0.62218654 -0.7001195 -0.14497623 -0.38019854 0.57231027 -0.43943205 -0.14858514 -0.8480177 0.13352433 0.024453461 0.80005527 -0.1397141 0.3013044 0.08725306 0.6230099 0.18815185 -0.4827484 0.48552483 0.5345926 -0.3312534 0.11598945 -0.37959987 -0.11508331 0.2656196 0.068091676 0.088019624 0.43930832 -0.23008661 -0.04838773 0.55224466 -0.5292775 -0.3638044 -0.16769588
10 0.552493 0.4756148 0.8599443 -0.5366655 -0.16125357 -1.2099819 -0.1854817 0.6273772 -0.29373273 -0.30454662 0.6195046 0.26792282 0.36720404 -0.26010168 0.013723591 -0.4708943 0.1107748 0.03512816 -0.1761995 -0.45021167 0.15908548 -0.41213766 -0.033616997 0.14516255 0.6413673 0.38316604 0.8347892 0.12609749 0.042563424 0.59245247 0.15345365 0.65131044 -0.71205014 -0.14886856 -0.41265404 0.59561396 -0.45524222 -0.16093047 -0.8689277 0.11850897 0.036583032 0.8229924 -0.15537843 0.3144751 0.10055947 0.64774334 0.20149906 -0.49048838 0.5347358 0.5811214 -0.3407978 0.14193064 -0.4136297 -0.14837214 0.25829983 0.064241104 0.102546185 0.46168095 -0.22779971 -0.039722864 0.56342137 -0.551329 -0.35739478 -0.19008516
15 0.5303075 0.45621338 0.85413045 -0.5273979 -0.1476936 -1.1841714 -0.15331765 0.6177798 -0.27485093 -0.3078403 0.6061825 0.2519522 0.35053772 -0.277822 0.019480508 -0.45752117 0.110130355 0.032818887 -0.15456577 -0.4389066 0.14587662 -0.40978202 -0.031727884 0.16314076 0.6197185 0.38472793 0.82553357 0.11252455 0.054448925 0.5844206 0.12201753 0.64971834 -0.6896039 -0.14093879 -0.3790028 0.5898212 -0.43485713 -0.1471201 -0.8576907 0.12900183 0.03815845 0.8247639 -0.1530361 0.3219498 0.07687665 0.63800555 0.17266941 -0.47492042 0.5058496 0.55764174 -0.3359142 0.11618995 -0.3905228 -0.13136052 0.25363895 0.05394121 0.0812551 0.4575705 -0.23271385 -0.035479326 0.55095214 -0.5312432 -0.35224238 -0.18526958
25 0.5259323 -0.36932 0.56725764 -0.12562278 0.07365007 -0.7598933 0.19125636 -0.032179717 -0.62443066 -0.12001553 0.29738858 -0.9174458 -0.56374747 -0.3645296 0.21790747 0.36725923 0.1634344 -0.08625932 0.0896021 0.5309641 0.62942 0.583348 0.42113757 -0.4692554 -0.11777788 0.42104286 -0.5909332 -0.118853346 0.24408993 0.07231225 -0.19464806 0.1490161 -0.49669465 -0.10345037 -0.41505596 -0.46172714 0.26218256 -0.08357036 0.28285283 -0.124719396 0.12908769 -0.00279262 -0.25939462 -0.16171122 0.2779031 -0.35427114 0.16373849 -0.29718444 0.19439721 0.42841595 0.08417843 -0.15011795 0.25839975 0.5118224 0.23663679 0.39537427 0.32959658 0.07443868 -0.3171462 0.7461244 -0.09855416 -0.61366427 -0.16818279 -0.20327765
67 0.52396923 0.47299296 0.8367991 -0.509 -0.13784528 -1.1661391 -0.15607429 0.6274192 -0.2792278 -0.31467026 0.59517974 0.27657497 0.34152058 -0.25857213 0.0074190204 -0.44792432 0.11268593 0.021986507 -0.1512272 -0.44626993 0.14707308 -0.39461344 -0.028736155 0.13615863 0.6254033 0.35415155 0.80850226 0.105214246 0.038350277 0.5780646 0.14674845 0.6276576 -0.6756535 -0.12269436 -0.37109673 0.586038 -0.42960158 -0.13090557 -0.84464884 0.1357502 0.01631024 0.8158934 -0.12530911 0.33462653 0.07571789 0.6264055 0.18293841 -0.4646221 0.48770627 0.54972583 -0.3338001 0.13920361 -0.39376733 -0.12836426 0.26621923 0.05811343 0.09190923 0.42338625 -0.21577717 -0.04179452 0.5570893 -0.5321496 -0.36090595 -0.16364238
52 0.5308686 -0.3577303 0.5846072 -0.10872221 0.065428 -0.7388858 0.17714761 -0.026992943 -0.59385675 -0.11473998 0.29839402 -0.89782554 -0.5578405 -0.36131856 0.21450779 0.38361028 0.1441204 -0.06930775 0.08838593 0.52264315 0.5996789 0.58031625 0.41489044 -0.46481156 -0.11387589 0.40057293 -0.58944184 -0.1455403 0.25035122 0.055643033 -0.1930564 0.1425345 -0.48038366 -0.09280809 -0.416633 -0.4475845 0.24431725 -0.07372179 0.274641 -0.12448614 0.10757116 -0.0071613295 -0.24009953 -0.17126466 0.2709806 -0.34451988 0.17534336 -0.2898341 0.17876177 0.43681872 0.08083866 -0.14163774 0.27202034 0.5004543 0.26164746 0.39794946 0.32907593 0.093284786 -0.30113238 0.73338443 -0.10068504 -0.61690485 -0.1734482 -0.20564505
93 0.56218123 -0.37703186 0.5969227 -0.10857417 0.078027524 -0.7999177 0.20025001 -0.034162793 -0.6451833 -0.13476533 0.3195516 -0.9196805 -0.5634849 -0.35008335 0.25267193 0.39740032 0.15371476 -0.06384499 0.08421356 0.52473325 0.6436071 0.62019724 0.40560666 -0.4806781 -0.10486371 0.41199255 -0.60458493 -0.12637271 0.26056206 0.07370457 -0.20693144 0.18002933 -0.49003154 -0.082260564 -0.4092339 -0.46790746 0.26643115 -0.07427832 0.29682636 -0.110855 0.12941599 0.018432211 -0.24974942 -0.16218168 0.2741581 -0.37638703 0.16401945 -0.2821232 0.19373173 0.45413747 0.10741114 -0.16878214 0.27462438 0.5162143 0.2623097 0.41488317 0.3352757 0.08889331 -0.3445129 0.77646184 -0.10873209 -0.6130348 -0.1708155 -0.21428053
62 0.50504017 0.47660792 0.8259423 -0.50722224 -0.15584292 -1.1635884 -0.17014524 0.6066129 -0.28125063 -0.32423255 0.5932627 0.26622972 0.3581724 -0.25528577 0.002825909 -0.46000254 0.105134 0.025319332 -0.16623238 -0.41283965 0.1370477 -0.40254027 -0.01325071 0.14500713 0.6091858 0.38339326 0.8263543 0.10483835 0.050696768 0.5562426 0.13912368 0.62235993 -0.6875069 -0.1464245 -0.38331527 0.58450896 -0.4519121 -0.14670287 -0.86829615 0.12955812 0.03406214 0.8054131 -0.13588473 0.3187476 0.0926073 0.6351693 0.1944524 -0.47812724 0.49425197 0.5418007 -0.36047992 0.11283051 -0.38718218 -0.12507917 0.2469861 0.049070556 0.07906098 0.44949943 -0.23263018 -0.041908436 0.5621162 -0.509924 -0.36398232 -0.16652499
32 0.54419714 -0.34808072 0.5937495 -0.12644435 0.088543974 -0.7882044 0.20486043 -0.02606328 -0.62838244 -0.14047687 0.32802603 -0.93397814 -0.5826922 -0.3630505 0.23225613 0.38978752 0.16161674 -0.093331076 0.08505054 0.5236647 0.61687243 0.60523844 0.4340942 -0.47224486 -0.13083065 0.41450015 -0.59497035 -0.14464375 0.24774024 0.05719604 -0.19734761 0.15283367 -0.5141556 -0.08179038 -0.43592045 -0.45574844 0.26897803 -0.05578399 0.29370588 -0.12431867 0.1236278 0.015784131 -0.25599676 -0.17626652 0.2804998 -0.35164335 0.1817329 -0.29985788 0.19926879 0.46348232 0.08619338 -0.15786657 0.25125718 0.5259374 0.24626105 0.4070656 0.3485332 0.081275724 -0.34237543 0.74498445 -0.08526276 -0.6375705 -0.16952795 -0.21350014
2 0.5634904 -0.38495663 0.5847338 -0.11995594 0.09151047 -0.7817547 0.2152868 -0.04416257 -0.65437144 -0.11767513 0.30566332 -0.974971 -0.6020153 -0.36841252 0.24168238 0.41682845 0.1745372 -0.06953417 0.11514937 0.5607012 0.6339032 0.6488943 0.4276395 -0.47649541 -0.1433341 0.43155444 -0.6272253 -0.15454318 0.2505334 0.0543559 -0.21259154 0.1385649 -0.49083805 -0.08797552 -0.42568475 -0.4917915 0.27269572 -0.05759286 0.30406094 -0.14439532 0.12899217 -0.022457253 -0.26760966 -0.18880874 0.27566564 -0.39671442 0.17369059 -0.2915326 0.19881539 0.4464972 0.12073338 -0.17883436 0.2909129 0.5259482 0.26245233 0.39986938 0.3363778 0.06778296 -0.33699867 0.79376745 -0.10396203 -0.6275786 -0.18572931 -0.20296969
57 0.50440264 -0.35913357 0.5509301 -0.11772175 0.0817301 -0.73798275 0.19509947 -0.026633017 -0.612493 -0.11761477 0.2916134 -0.9101815 -0.5716743 -0.34025937 0.23274577 0.38079193 0.14523412 -0.07072957 0.098858595 0.5014647 0.61426157 0.60310704 0.38812062 -0.4513731 -0.113177285 0.39137572 -0.58895296 -0.14026557 0.2501638 0.06509409 -0.19591026 0.14171086 -0.47076467 -0.094202094 -0.4136323 -0.4388218 0.26352054 -0.069432735 0.30135313 -0.13730669 0.123182856 -0.014649877 -0.2529062 -0.16325344 0.25378543 -0.3655079 0.14726219 -0.28195336 0.18029276 0.41690305 0.11728466 -0.1390745 0.25741717 0.49633956 0.23562703 0.3996839 0.31139174 0.08486377 -0.2968465 0.7365113 -0.099446855 -0.5838915 -0.15302639 -0.20828336
55 0.51342887 0.47303537 0.8279607 -0.5113577 -0.14657117 -1.1538141 -0.18257776 0.611208 -0.27360412 -0.30466652 0.57348984 0.26900968 0.3774112 -0.24357598 0.018397154 -0.4482467 0.0944814 0.03862133 -0.16862008 -0.44486475 0.14342944 -0.42691973 -0.01991049 0.14785212 0.60649335 0.3610108 0.81418794 0.120120116 0.039084356 0.5484978 0.14520337 0.63232434 -0.6777157 -0.13359748 -0.38259962 0.57267874 -0.43742445 -0.12519032 -0.861626 0.124049105 0.032365516 0.80954546 -0.14459942 0.3131993 0.08160999 0.63672084 0.18870324 -0.4579628 0.4864066 0.55628985 -0.34711978 0.123775624 -0.40388408 -0.14336623 0.2655465 0.06323517 0.07385042 0.44142556 -0.22306426 -0.07041161 0.5566729 -0.5080601 -0.34714073 -0.15292247
64 0.5380622 0.44666374 0.8367848 -0.5097616 -0.14304492 -1.1473387 -0.17342268 0.6107732 -0.28022295 -0.29694515 0.58439046 0.25910136 0.34358054 -0.28535897 0.005282584 -0.44539768 0.12247131 0.021432208 -0.17323452 -0.40255797 0.13440023 -0.39660186 -0.0040421663 0.12761974 0.6084211 0.36675504 0.8134313 0.09778275 0.041093484 0.57781845 0.12381447 0.6419097 -0.71372306 -0.12792575 -0.39110607 0.5542645 -0.43385264 -0.14424638 -0.8462453 0.12558112 0.018589575 0.7915386 -0.14539738 0.3250267 0.09894354 0.6243832 0.1795412 -0.46299818 0.48394865 0.55342025 -0.3304588 0.11830191 -0.39043656 -0.1330416 0.2453905 0.07678966 0.102605216 0.43804199 -0.2063517 -0.051010963 0.54544646 -0.52864915 -0.36557135 -0.18676572
26 0.5676479 -0.37664723 0.59423923 -0.11316834 0.07085329 -0.79877764 0.20067926 -0.02700065 -0.65768063 -0.13020508 0.30682224 -0.944538 -0.58830315 -0.36822462 0.24340755 0.39208817 0.1786612 -0.06712704 0.09928386 0.5410132 0.6417795 0.62792164 0.43774217 -0.47800392 -0.123591386 0.42161578 -0.6068716 -0.15067597 0.25062484 0.055858586 -0.20999254 0.16883989 -0.5046308 -0.10070475 -0.4216412 -0.4767834 0.28480732 -0.07442263 0.29583544 -0.121412605 0.12298452 0.01350086 -0.26156035 -0.18982193 0.2726876 -0.37220314 0.15515943 -0.29578257 0.2109508 0.4540682 0.11182136 -0.16060698 0.26675707 0.5328826 0.2473535 0.3969162 0.35120314 0.078256994 -0.3178679 0.7769518 -0.10672107 -0.6232831 -0.1707251 -0.22699448
20 0.52886313 -0.39212772 0.585705 -0.102050275 0.082897894 -0.7560171 0.18644425 -0.044143584 -0.62533545 -0.12994078 0.2903451 -0.94041485 -0.59491557 -0.36768532 0.24432412 0.41324213 0.15042552 -0.06265821 0.117704466 0.5527892 0.6218057 0.63607395 0.40962926 -0.476774 -0.13263845 0.40106386 -0.63472265 -0.13762772 0.26202837 0.043758664 -0.22111255 0.15869372 -0.4873596 -0.10629714 -0.40617558 -0.48019496 0.2857959 -0.06617816 0.3255378 -0.113606505 0.13492809 -0.022112677 -0.2585295 -0.184297 0.27121547 -0.36324328 0.1682757 -0.30215403 0.20767727 0.43957022 0.10883029 -0.15140973 0.26441354 0.5210245 0.25365737 0.41205448 0.3392566 0.07220264 -0.3365283 0.7542843 -0.08835203 -0.6304147 -0.15454733 -0.20710568
60 0.51420593 0.44966564 0.8276158 -0.48682222 -0.12679125 -1.1489265 -0.14477251 0.5832134 -0.29020196 -0.31461298 0.5738767 0.24161518 0.32117417 -0.26693067 0.013038932 -0.427593 0.10183561 0.03652492 -0.15024336 -0.40381444 0.145459 -0.38345584 -0.013825339 0.13721946 0.60628104 0.3766129 0.76181084 0.088525504 0.038931094 0.53721094 0.1298871 0.60000336 -0.6770891 -0.12151261 -0.37093994 0.5457038 -0.4026063 -0.12648964 -0.81443787 0.11088364 0.027518578 0.7854033 -0.12672082 0.29761788 0.10643672 0.6045094 0.18908818 -0.47032085 0.49250203 0.54067606 -0.341258 0.12582053 -0.38185817 -0.12082913 0.25816628 0.08442308 0.092183925 0.43754598 -0.21006554 -0.022243103 0.5177944 -0.5099056 -0.35519284 -0.17629324
56 0.5240568 0.43232143 0.8224752 -0.508674 -0.14375626 -1.1478674 -0.16816297 0.5984426 -0.26336285 -0.29262227 0.5582006 0.23369357 0.34399417 -0.27495295 0.020871595 -0.41946813 0.08908898 0.043480046 -0.14875026 -0.40823177 0.14651802 -0.3992387 -0.003682181 0.15050705 0.6041532 0.3497098 0.80165976 0.097807616 0.04696126 0.55995405 0.13259186 0.61990476 -0.6922007 -0.12825269 -0.38542318 0.55408067 -0.41650993 -0.13418435 -0.81716275 0.11487865 0.034758672 0.7908716 -0.14352374 0.31633228 0.07573288 0.6259917 0.18948933 -0.45620996 0.4979992 0.5494265 -0.33745703 0.11042376 -0.37689844 -0.11673073 0.24742343 0.0503743 0.085763186 0.44109035 -0.19952114 -0.027356315 0.5285644 -0.5152059 -0.3581381 -0.15755494
7 0.5307334 -0.3361429 0.5669751 -0.120980255 0.08128806 -0.74795634 0.17721105 -0.030707331 -0.60645926 -0.13397405 0.31640032 -0.88556474 -0.55499375 -0.35472697 0.21316732 0.37142974 0.16820839 -0.07608603 0.0804592 0.5245606 0.59239155 0.59448653 0.41062814 -0.44945267 -0.12840487 0.41443416 -0.58637345 -0.14117481 0.25428596 0.049661994 -0.2130597 0.150286 -0.4758901 -0.087157 -0.416061 -0.4459347 0.26896146 -0.054384205 0.2896056 -0.120515145 0.12232002 0.01294062 -0.2489336 -0.16025203 0.26601622 -0.34716016 0.15546525 -0.2961207 0.20628104 0.4251958 0.100621484 -0.1518837 0.24657959 0.48985797 0.25519305 0.3748322 0.31131545 0.08037065 -0.30793023 0.73782855 -0.09077813 -0.59104586 -0.18120791 -0.21276094
29 0.48865443 0.42832777 0.80620205 -0.5041134 -0.15710144 -1.1222411 -0.14345288 0.58745617 -0.26497447 -0.3014273 0.5546624 0.2454549 0.33422273 -0.2651009 0.0013758356 -0.42130283 0.08275882 0.032384973 -0.163756 -0.3886418 0.13447885 -0.37465703 -0.028213901 0.12835008 0.5939417 0.35508403 0.77153623 0.09858588 0.06127827 0.52541465 0.119401135 0.6028597 -0.66570956 -0.11823308 -0.37074015 0.5350602 -0.42894578 -0.1494689 -0.82246375 0.11251292 0.018798158 0.7611893 -0.13274178 0.295407 0.087498724 0.6097739 0.19169775 -0.4570363 0.48637742 0.5387339 -0.33093894 0.108176984 -0.37485358 -0.13131551 0.25220376 0.07614799 0.103190765 0.40553367 -0.19979376 -0.032772407 0.5327442 -0.5127017 -0.33604836 -0.17395762
0 0.51770914 0.4543449 0.8519531 -0.50450736 -0.15921652 -1.1654811 -0.16754708 0.6317879 -0.30027193 -0.29497525 0.5815781 0.22620495 0.34557864 -0.26986262 0.0013436785 -0.4372301 0.1048045 0.021472203 -0.15485512 -0.40568388 0.16617534 -0.37765336 -0.021754203 0.14370556 0.6171697 0.38690245 0.8103 0.09486037 0.065310724 0.5646719 0.12745033 0.61991554 -0.7011128 -0.13335659 -0.40676725 0.5758986 -0.4271182 -0.1419018 -0.84697914 0.12328598 0.042885486 0.8038343 -0.15157492 0.3239008 0.09523482 0.60825425 0.20006967 -0.47042254 0.5116505 0.57317805 -0.34905314 0.11337477 -0.38337427 -0.12345453 0.25825846 0.07064055 0.08626421 0.44255817 -0.22103211 -0.030983573 0.55432075 -0.530045 -0.34679028 -0.17951448
78 0.5417646 0.46377465 0.8427001 -0.52571946 -0.14174604 -1.1642756 -0.16883856 0.64157605 -0.28718996 -0.29754418 0.5939304 0.2623299 0.35750416 -0.28089675 0.005770741 -0.44728017 0.111649 0.047300763 -0.18356788 -0.4207776 0.12639086 -0.40570745 -0.008299007 0.14624119 0.6101555 0.35867906 0.8327498 0.10598069 0.03475985 0.576159 0.13961095 0.64275813 -0.6954745 -0.13495575 -0.40103936 0.593745 -0.43944535 -0.15514125 -0.8672268 0.12921672 0.027488656 0.8086062 -0.14667977 0.3223485 0.09539367 0.638137 0.18730088 -0.4751287 0.5011535 0.5441069 -0.33082864 0.1108679 -0.3968921 -0.13256888 0.24741417 0.06318986 0.106379956 0.44030657 -0.21036586 -0.048190743 0.5479589 -0.5303635 -0.35836688 -0.16137153
42 0.5528565 -0.35813615 0.57690096 -0.12642156 0.0907341 -0.7668485 0.20705809 -0.027827049 -0.6188672 -0.13477996 0.3276291 -0.9428215 -0.5794703 -0.34762347 0.22132833 0.40128797 0.15177776 -0.08948594 0.10383468 0.53906804 0.62214565 0.6273603 0.4078948 -0.46878856 -0.112310834 0.4197024 -0.6185796 -0.13154817 0.24315503 0.05803766 -0.20663226 0.16878884 -0.4821873 -0.10037123 -0.4041036 -0.47385505 0.2848731 -0.08346538 0.28524607 -0.12858285 0.105605945 -0.0025637103 -0.25900492 -0.17767455 0.25787428 -0.37790206 0.15314043 -0.29135188 0.20331098 0.4444026 0.11761225 -0.16448346 0.2801083 0.5268672 0.26829 0.4015645 0.3352067 0.082964286 -0.3406583 0.7706579 -0.100694075 -0.607232 -0.17004687 -0.20696804
1 0.55617595 -0.38701928 0.6044116 -0.1153696 0.06664493 -0.7958061 0.19710797 -0.03069644 -0.6381849 -0.12202114 0.33004868 -0.9564394 -0.59474355 -0.35861206 0.2497854 0.408997 0.17351119 -0.09021101 0.11380631 0.53330725 0.62693155 0.63634044 0.42315954 -0.4938264 -0.12890403 0.43651855 -0.6177212 -0.13341999 0.25233167 0.06970898 -0.2122374 0.1485791 -0.513366 -0.082894206 -0.42695123 -0.47845203 0.28579995 -0.062142286 0.30783173 -0.1308149 0.10462944 0.002886413 -0.25566673 -0.19107284 0.2932734 -0.38477027 0.15490128 -0.3079052 0.21209994 0.4445053 0.11564322 -0.1744932 0.2760124 0.53279394 0.26407602 0.42171124 0.3519231 0.085141964 -0.32440132 0.78173405 -0.091779634 -0.62013865 -0.18344592 -0.22796206
23 0.5361229 -0.36344498 0.57824504 -0.12255969 0.092605844 -0.78122526 0.20405805 -0.014852386 -0.62842995 -0.11810453 0.32193205 -0.9300682 -0.55670446 -0.34427914 0.23078826 0.37115765 0.14678405 -0.09199365 0.10432247 0.5355491 0.6349806 0.6020289 0.41359234 -0.45674732 -0.13222182 0.39923564 -0.5870603 -0.14813419 0.24065466 0.058052476 -0.19790217 0.15844597 -0.47737586 -0.09006307 -0.42582855 -0.46135423 0.26718265 -0.081072405 0.29911032 -0.10926459 0.12468648 -0.001788758 -0.26497874 -0.17444316 0.26332653 -0.36676636 0.17716113 -0.27995598 0.19050235 0.45001045 0.10833529 -0.15188448 0.2736208 0.50673765 0.24454196 0.39511958 0.31676683 0.09699666 -0.33516088 0.7475786 -0.09470199 -0.6140134 -0.1676597 -0.22257616
92 0.5178458 0.45042324 0.8338779 -0.5020357 -0.1482088 -1.157383 -0.17361835 0.61783034 -0.29464588 -0.29927656 0.57850534 0.23079991 0.35447037 -0.26798886 0.0009699732 -0.4490792 0.105291985 0.017710675 -0.15796648 -0.40762824 0.15278962 -0.4023219 0.0011466548 0.12497493 0.6183999 0.36762655 0.7975019 0.10813404 0.047769584 0.55239195 0.12730183 0.6159402 -0.6959635 -0.14663292 -0.37835363 0.54684454 -0.43368328 -0.1529541 -0.8495984 0.12266179 0.01845881 0.78364825 -0.13478822 0.30886957 0.09580048 0.6311059 0.17008527 -0.46002483 0.4865049 0.5610618 -0.32316923 0.13420916 -0.39174357 -0.1141622 0.24351582 0.06663643 0.0880279 0.42413497 -0.21340163 -0.026348142 0.53607595 -0.53676486 -0.3459998 -0.17650777
74 0.52796346 -0.3717818 0.5830822 -0.10143581 0.07126694 -0.7582362 0.20648907 -0.034460336 -0.62914103 -0.12297371 0.31660315 -0.92752683 -0.5756109 -0.37358418 0.24466795 0.37578526 0.1485344 -0.07579608 0.104056634 0.53342223 0.625528 0.61657196 0.41841665 -0.45641816 -0.12933263 0.4034206 -0.6157882 -0.12298457 0.2534468 0.052341342 -0.19864005 0.17320167 -0.47916907 -0.102065764 -0.42469135 -0.4658776 0.25730428 -0.062703446 0.3030918 -0.13396917 0.12763245 -0.009151371 -0.24540079 -0.1834047 0.2717101 -0.37091762 0.16870335 -0.27700552 0.19287181 0.4392 0.089103766 -0.15212834 0.27262905 0.5255836 0.24791671 0.38390735 0.34365493 0.07183999 -0.3169885 0.76414454 -0.100721166 -0.61646515 -0.17934601 -0.22290677
45 0.5161995 0.4459825 0.8181837 -0.5157864 -0.14867213 -1.1474267 -0.15871619 0.6193237 -0.2745735 -0.31367314 0.5752385 0.25661865 0.35257494 -0.28222328 0.026075022 -0.41962886 0.119060144 0.01772692 -0.16460468 -0.41257963 0.15541972 -0.39530239 -0.019143207 0.1493984 0.61853296 0.37134752 0.7866428 0.09561684 0.045485478 0.5671723 0.1285136 0.62002313 -0.70894367 -0.14276357 -0.37113175 0.5708443 -0.41968134 -0.14363632 -0.8199346 0.12346063 0.03038559 0.80278397 -0.15128903 0.32032046 0.10789602 0.62597173 0.19190037 -0.4665067 0.4947583 0.53713036 -0.33573666 0.121854156 -0.38855734 -0.112454325 0.26779613 0.05852861 0.0992688 0.44935903 -0.23972215 -0.024769912 0.5258891 -0.5387876 -0.34081137 -0.18372054
17 0.5650197 -0.40434414 0.59896785 -0.12954971 0.08548212 -0.7994163 0.19453162 -0.044022102 -0.6666681 -0.12927462 0.3139494 -0.9865409 -0.5993879 -0.3698256 0.26032218 0.42239457 0.16814646 -0.07310068 0.12092698 0.57111657 0.66126543 0.6496003 0.4243621 -0.48691773 -0.12662737 0.4344324 -0.626695 -0.1555636 0.26947406 0.04643503 -0.23759213 0.16546677 -0.50554645 -0.089047156 -0.45262575 -0.48336157 0.29179057 -0.068749644 0.31896883 -0.12337074 0.13944082 -0.017129222 -0.28683853 -0.17904003 0.28342825 -0.4074649 0.16131385 -0.30313045 0.21764916 0.46295473 0.111047074 -0.17571115 0.26896325 0.54838055 0.2655128 0.4077922 0.35037518 0.0687343 -0.34061918 0.80359006 -0.106454134 -0.6352026 -0.17108981 -0.22548297
66 0.5621342 -0.37304384 0.60988426 -0.09970322 0.09242165 -0.7710177 0.21570109 -0.036391176 -0.6529174 -0.10687517 0.31544968 -0.96430904 -0.5961696 -0.37321523 0.2560394 0.41302416 0.1716811 -0.06883129 0.11513714 0.5465623 0.63291913 0.62640005 0.42279896 -0.49902922 -0.13603513 0.41163185 -0.61552864 -0.14750482 0.2463808 0.044269435 -0.2246245 0.14180586 -0.49756807 -0.08496569 -0.4294346 -0.47103605 0.28043613 -0.0836534 0.3089137 -0.13711534 0.11073098 -0.019753998 -0.26895112 -0.18712766 0.28568497 -0.39408112 0.15742803 -0.29295403 0.19310096 0.45620808 0.1057913 -0.15598327 0.2885185 0.5204577 0.26490483 0.41871938 0.33921883 0.08825022 -0.339059 0.76931286 -0.11879766 -0.61675966 -0.18993737 -0.2182647
49 0.5252712 -0.36282748 0.5852238 -0.12377828 0.06639991 -0.7311563 0.17627373 -0.00994583 -0.61594635 -0.10796745 0.2989644 -0.9057428 -0.56632394 -0.356007 0.23825507 0.38790414 0.1556588 -0.06311252 0.100622095 0.5240342 0.61375535 0.5741074 0.4182315 -0.46662048 -0.12594523 0.4052252 -0.57682574 -0.14671044 0.2439064 0.07078123 -0.2171745 0.16987148 -0.48426306 -0.07396171 -0.4146457 -0.43756273 0.27429292 -0.08493681 0.2847445 -0.13475023 0.1262809 0.019932002 -0.25957257 -0.16931212 0.25777254 -0.36760232 0.16112572 -0.29876655 0.19194163 0.41949674 0.107434615 -0.13913535 0.2524383 0.49433348 0.23260257 0.39521676 0.3271143 0.092434324 -0.30673197 0.7240619 -0.08866029 -0.5886508 -0.15520543 -0.19190533
84 0.540222 -0.3827727 0.61326945 -0.13092335 0.087516315 -0.77609175 0.19583027 -0.014105205 -0.6562227 -0.11331956 0.32703832 -0.94056565 -0.59282035 -0.34915462 0.25131005 0.39465994 0.17264026 -0.06863152 0.099039696 0.5517792 0.63207 0.617871 0.42174226 -0.4820365 -0.12500691 0.41205806 -0.6082412 -0.12603605 0.2600725 0.07142148 -0.22039393 0.17132892 -0.51357204 -0.100408085 -0.40924102 -0.45962536 0.26688898 -0.08247379 0.30736703 -0.1227499 0.13036533 -0.0041722404 -0.26437286 -0.17757717 0.27458215 -0.36800453 0.15505926 -0.28853878 0.19592655 0.46893534 0.100793585 -0.14381222 0.2685391 0.53316045 0.24828885 0.39202204 0.33751154 0.08021006 -0.31646618 0.77623725 -0.105071746 -0.61812013 -0.17650859 -0.22944874
63 0.52184385 0.44283456 0.7982361 -0.48778474 -0.13245448 -1.1190242 -0.16024324 0.61533237 -0.26309848 -0.31454402 0.5868504 0.24054466 0.32722408 -0.24559568 0.00081276905 -0.4183039 0.085815445 0.04636323 -0.17016438 -0.4027274 0.15636139 -0.38319734 -0.017226093 0.12979399 0.5798286 0.36868194 0.80472887 0.0927572 0.059435703 0.55832183 0.1159603 0.6154338 -0.6903996 -0.14133477 -0.37464032 0.54473865 -0.4326708 -0.14904216 -0.8402764 0.11208859 0.043381017 0.79231954 -0.13692239 0.3031313 0.09947619 0.61338997 0.16681194 -0.4741725 0.49003932 0.553251 -0.32930285 0.1340036 -0.3665212 -0.11993467 0.26528895 0.08043279 0.103475645 0.44122246 -0.23065351 -0.03312803 0.52378976 -0.5213204 -0.35987613 -0.16079327
65 0.53843933 0.45718315 0.8598253 -0.51773626 -0.14496069 -1.1782793 -0.17422275 0.619931 -0.27588066 -0.3226391 0.5902561 0.26912674 0.353688 -0.281324 0.017679326 -0.4394932 0.11759813 0.03526845 -0.15541297 -0.42888057 0.15975232 -0.41487762 -0.015779462 0.16038795 0.6115816 0.38509065 0.8357266 0.118445106 0.050015286 0.5744719 0.12355597 0.63710636 -0.7155577 -0.15050203 -0.3903874 0.59880966 -0.43844372 -0.15604292 -0.8786306 0.12478278 0.032796886 0.8049148 -0.13077922 0.32811373 0.08724674 0.6610776 0.2062707 -0.485958 0.5212529 0.5504091 -0.3650495 0.1222142 -0.37805197 -0.12421962 0.27378744 0.054700658 0.10411241 0.44948202 -0.22807303 -0.046497747 0.570353 -0.55129784 -0.35359892 -0.17053111
40 0.53707135 -0.3702126 0.5728103 -0.12714309 0.072671056 -0.761775 0.18706827 -0.028693551 -0.63944405 -0.12757422 0.30796435 -0.93528175 -0.56159806 -0.34139252 0.24194711 0.39012918 0.15016958 -0.07863583 0.10199507 0.5330443 0.6370929 0.604338 0.42293906 -0.4544242 -0.117187925 0.4263631 -0.60521626 -0.14187753 0.25678772 0.07781369 -0.20237903 0.15315533 -0.47747654 -0.08769852 -0.41613254 -0.44559905 0.2728743 -0.06477663 0.29039448 -0.14161822 0.1139956 0.008639993 -0.2673074 -0.16172442 0.28060997 -0.37691703 0.15576497 -0.3003168 0.19531281 0.44065213 0.09891843 -0.15922315 0.26628953 0.5261313 0.2464346 0.3833065 0.3364042 0.072167106 -0.31231263 0.75301486 -0.108857684 -0.6292921 -0.18582821 -0.20563512
21 0.5380824 -0.35077968 0.5813418 -0.11731733 0.084325455 -0.76256925 0.17717092 -0.018736033 -0.60900474 -0.12370682 0.3035298 -0.9038183 -0.5398616 -0.35575297 0.24652272 0.36969987 0.14136319 -0.08410942 0.08963291 0.5190571 0.6217239 0.59294134 0.4182141 -0.4506415 -0.10634543 0.40804768 -0.58313984 -0.12118388 0.24630974 0.07774601 -0.21759237 0.14968069 -0.4860129 -0.0949244 -0.41321626 -0.44592237 0.25091952 -0.083049394 0.2940311 -0.1273059 0.112778224 0.009131507 -0.25453743 -0.1827285 0.2590045 -0.35101244 0.17505197 -0.29921764 0.18947059 0.4350556 0.101521246 -0.15973994 0.24620722 0.48983452 0.25765532 0.37657243 0.31801385 0.08428971 -0.3157884 0.71623194 -0.073957816 -0.60875434 -0.17109373 -0.21758741
72 0.51896876 -0.33954933 0.5856167 -0.114171855 0.08422024 -0.7693583 0.18445079 -0.020623108 -0.6111568 -0.1143853 0.31131592 -0.90427244 -0.54159933 -0.33807898 0.21520543 0.37547302 0.14987743 -0.060805466 0.09739032 0.51113117 0.6027847 0.56696373 0.41816196 -0.44959694 -0.09859812 0.41329804 -0.5816457 -0.13410135 0.24589059 0.060409594 -0.18456727 0.15446337 -0.49911553 -0.087214425 -0.41410252 -0.44913742 0.2557103 -0.06238273 0.26222187 -0.124697946 0.10309916 0.017780926 -0.25886184 -0.15264875 0.26415718 -0.33864227 0.15583672 -0.2758377 0.19590016 0.42555693 0.077128395 -0.14947958 0.26451936 0.5019519 0.24139662 0.37517616 0.30514365 0.092558175 -0.3339057 0.7322926 -0.08016527 -0.6086825 -0.1883316 -0.19476971
