100 64
64 -0.24204625 0.06108936 0.8333971 0.14343148 -0.20712322 -0.6355274 0.34028283 -0.15847526 -1.120233 -0.18743534 0.92617553 -0.72244495 -0.86503786 -0.2341252 0.6239217 -0.011211048 0.20669633 -0.55277526 0.30179843 0.0778886 0.31323424 0.5758137 0.29782125 -0.21977533 0.286064 0.6745157 -0.8235321 0.43558872 0.019029908 -0.45472503 0.14045097 -0.13404296 -0.33369103 -0.36765698 -0.070278436 0.12583065 0.3674026 -0.079374745 0.45147166 -0.5856712 -0.01946371 -0.1160006 0.27603307 -0.9610077 0.052705124 -0.33200443 0.36413592 -0.1273358 -0.015238504 0.52877563 0.47542188 0.5168857 -0.07304385 0.44451952 0.29239273 -0.2553041 0.36784315 -0.58755845 -0.06785568 0.6955562 0.09383424 -0.603817 -0.39164874 -0.22000271
75 -0.26406616 0.06957642 0.83857405 0.15002498 -0.19320841 -0.62154764 0.33808586 -0.16033988 -1.1274079 -0.19433947 0.9388824 -0.7143891 -0.84409195 -0.24549808 0.6373169 -0.033989564 0.1965799 -0.55258465 0.32751617 0.09936386 0.2912827 0.5679926 0.30653998 -0.23278242 0.27989492 0.69332767 -0.8224321 0.43715715 0.032044128 -0.45366272 0.16644245 -0.1320309 -0.3658256 -0.36866364 -0.05999117 0.14695479 0.34083596 -0.062103588 0.46908265 -0.5784066 0.011225314 -0.1369703 0.29454273 -0.9580436 0.049325787 -0.34278435 0.3735803 -0.14971459 -0.04085652 0.52454007 0.49420112 0.5364694 -0.0553047 0.4592804 0.27289265 -0.26422665 0.36292562 -0.5897286 -0.04923833 0.66459817 0.10515111 -0.60498476 -0.40446463 -0.20857747
29 -0.26737216 0.078075245 0.878176 0.1369878 -0.18821365 -0.64721936 0.3410603 -0.16803947 -1.1429377 -0.17820649 0.9782589 -0.7198338 -0.86238474 -0.25298536 0.64558005 -0.01966095 0.19465934 -0.56083906 0.32729378 0.08409067 0.31842384 0.5807369 0.32149 -0.25054637 0.28093448 0.71176094 -0.85112715 0.46185216 0.04660931 -0.44844604 0.14836502 -0.12967424 -0.3811011 -0.37015772 -0.07029983 0.13464192 0.36682898 -0.05927104 0.4937621 -0.6142341 0.016640207 -0.11401307 0.28927732 -1.0110077 0.06723596 -0.3327942 0.37846187 -0.1566972 -0.046636637 0.5263837 0.5149283 0.53044385 -0.08164942 0.4666001 0.299024 -0.28311554 0.3745951 -0.5963961 -0.06859549 0.67567956 0.10305956 -0.6414076 -0.41280508 -0.21847071
65 -0.24842007 0.04778388 0.8193146 0.1380442 -0.17535563 -0.6189816 0.30765545 -0.16330513 -1.1086622 -0.1754192 0.9098752 -0.71311885 -0.83418953 -0.22462235 0.6243513 -0.013390227 0.18158185 -0.54367304 0.30025205 0.083467625 0.31624174 0.56099284 0.30332652 -0.2321214 0.28422797 0.6940929 -0.8324022 0.41914347 0.017149879 -0.44985425 0.13908282 -0.14994434 -0.33699974 -0.36478338 -0.045233063 0.1431435 0.33800125 -0.0625279 0.46550503 -0.5912219 -0.012694677 -0.1263261 0.27108708 -0.96074575 0.05327365 -0.32386202 0.37037787 -0.14100447 -0.036872283 0.5116621 0.48443675 0.5260159 -0.060817827 0.44799268 0.27577987 -0.2641597 0.35087776 -0.575322 -0.060052868 0.6687721 0.081625566 -0.61794126 -0.40450728 -0.21918344
74 -0.24281268 0.05406349 0.8023653 0.1209221 -0.1827928 -0.62236637 0.3373433 -0.1683729 -1.1051431 -0.16118354 0.91065836 -0.6976104 -0.85394377 -0.23037677 0.628341 0.0012894691 0.20672572 -0.5445807 0.30516896 0.10676707 0.31254598 0.5644412 0.2787786 -0.21728788 0.27846554 0.65315515 -0.82379985 0.41906503 0.03346175 -0.4513658 0.1433089 -0.1438286 -0.33021054 -0.3489795 -0.06861471 0.13720864 0.36376736 -0.07214771 0.456049 -0.5586186 -0.00020944502 -0.12017189 0.30077165 -0.9525101 0.03903841 -0.30792806 0.36985594 -0.1406114 -0.017399568 0.49676713 0.48374808 0.51336735 -0.05690683 0.42468634 0.28725344 -0.23942165 0.35932305 -0.5790283 -0.047715086 0.6654843 0.10586355 -0.60392356 -0.38967404 -0.19541174
6 -0.25177273 0.06037579 0.83832073 0.14949694 -0.19802223 -0.6057168 0.32893935 -0.16144526 -1.0976663 -0.17907868 0.9158762 -0.70574915 -0.84961474 -0.23736826 0.63527536 -0.008055256 0.20611121 -0.55765325 0.29437545 0.09719694 0.3012095 0.55774236 0.2996941 -0.22545865 0.28473896 0.67668253 -0.80480057 0.42213285 0.0241256 -0.44528952 0.15194248 -0.13344982 -0.36083928 -0.36613044 -0.0670282 0.1362175 0.34861296 -0.049675204 0.4610572 -0.5822603 0.0022874773 -0.11415181 0.29685372 -0.9511988 0.058573242 -0.33662325 0.36417758 -0.12421952 -0.035604674 0.48872465 0.49002454 0.5066468 -0.06817787 0.45383328 0.26957867 -0.26641813 0.34642905 -0.5587995 -0.072019905 0.6655885 0.087519795 -0.5906858 -0.3824008 -0.20310712
25 -0.27989316 0.061237037 0.8754097 0.15704547 -0.18512875 -0.64130294 0.31515333 -0.17147519 -1.1461227 -0.18867135 0.9760207 -0.7207737 -0.8525188 -0.2515206 0.65290374 -0.044325724 0.18177493 -0.562312 0.30331165 0.074707076 0.313175 0.5733013 0.3128978 -0.23121582 0.27323776 0.7111824 -0.8464005 0.45591006 0.017138895 -0.4534407 0.1357557 -0.14952868 -0.36578113 -0.36074203 -0.0500882 0.13907291 0.3534821 -0.08002336 0.49492186 -0.5874452 0.006596634 -0.12681258 0.2883521 -0.97805715 0.04280388 -0.3443471 0.38128215 -0.13736427 -0.039539833 0.5033825 0.51118743 0.5270629 -0.06737571 0.46255264 0.28166252 -0.27816102 0.36629796 -0.59853923 -0.08496417 0.695679 0.10922473 -0.63474244 -0.41123313 -0.21700983
28 -0.26261324 0.052898947 0.8287988 0.15249401 -0.15769367 -0.6044517 0.30952504 -0.1725966 -1.1101307 -0.1872136 0.9171879 -0.69775254 -0.81287485 -0.23904307 0.6308445 -0.034046188 0.17883 -0.53742534 0.31810462 0.09002753 0.284857 0.55146366 0.2899309 -0.21459675 0.26578707 0.67156416 -0.79022515 0.44011816 0.022437181 -0.42348465 0.15035316 -0.15252385 -0.3556297 -0.36185315 -0.05326021 0.13646264 0.32710704 -0.075644016 0.46948406 -0.5738517 -0.0070317346 -0.1306963 0.28006303 -0.94969445 0.061801363 -0.33461177 0.35691297 -0.14443764 -0.028161904 0.50045615 0.47509813 0.52189744 -0.07391701 0.44329274 0.26477325 -0.28558806 0.3284133 -0.5643201 -0.058946762 0.65724444 0.0844937 -0.6041156 -0.40441206 -0.21237586
88 -0.2561425 0.04516612 0.79606897 0.11579192 -0.18639371 -0.6046502 0.30965573 -0.16376944 -1.0909047 -0.17864022 0.91282463 -0.6750947 -0.83032185 -0.23060478 0.6199157 -0.03349738 0.18808605 -0.53068197 0.30354902 0.062167052 0.2889233 0.5302726 0.28145757 -0.2016989 0.26926923 0.67288285 -0.78728735 0.41100183 0.04515885 -0.43905994 0.12643647 -0.13881455 -0.3383897 -0.35630047 -0.059878003 0.14712948 0.33792174 -0.06472647 0.4555805 -0.5819034 0.015934257 -0.104148686 0.2583431 -0.92813617 0.0714616 -0.3338513 0.34512308 -0.15178849 -0.017973745 0.49643716 0.49235612 0.48739928 -0.059114456 0.43085125 0.27431864 -0.25183836 0.34307346 -0.5697944 -0.060957346 0.65672225 0.105426066 -0.5850752 -0.38879377 -0.1890646
44 -0.25810108 0.06589995 0.80834264 0.13475011 -0.17530502 -0.61670613 0.32652697 -0.18726599 -1.0840118 -0.1883942 0.88101393 -0.68270487 -0.83569545 -0.23267242 0.62911487 0.0015231102 0.18367068 -0.5448677 0.3254368 0.10429568 0.28866675 0.534309 0.2893684 -0.2265199 0.2874594 0.65201145 -0.80442923 0.4194583 0.02705088 -0.43749583 0.16148166 -0.13079128 -0.34672567 -0.34467 -0.048443943 0.12751047 0.34085432 -0.05214799 0.42992237 -0.5593821 0.010695691 -0.11178555 0.28807276 -0.9422515 0.049710736 -0.3269293 0.38392884 -0.13206418 -0.027148115 0.49684602 0.4698287 0.49035382 -0.062894486 0.4283954 0.2772453 -0.23050888 0.34668076 -0.5598081 -0.06752908 0.6646363 0.08071132 -0.60138714 -0.38316065 -0.21861772
61 -0.2536051 0.054563057 0.85278213 0.1287859 -0.18251503 -0.6037395 0.31285217 -0.1871608 -1.1265924 -0.18578589 0.9261093 -0.724361 -0.8652764 -0.23554868 0.62741184 -0.039701607 0.19224426 -0.56724566 0.30427462 0.0758117 0.29706585 0.551202 0.30967167 -0.22461191 0.27907467 0.69179547 -0.83245695 0.4274812 0.01675152 -0.45917898 0.1483582 -0.12537244 -0.3572205 -0.34678927 -0.04743081 0.1261869 0.35526106 -0.057988193 0.4522888 -0.57188505 0.012995819 -0.13637622 0.28023398 -0.95679516 0.0478399 -0.34623283 0.38863453 -0.14403678 -0.04470858 0.5063592 0.48163342 0.5198857 -0.07014349 0.44662848 0.27255467 -0.26164865 0.36822933 -0.5903772 -0.06438899 0.6851055 0.108567744 -0.6129088 -0.38246042 -0.20014271
38 0.9478825 -0.1395706 -0.31735733 -0.5629783 -0.52791595 -0.6647349 0.37074354 -0.34836984 0.07125422 -0.054307107 -0.7306952 -0.65545297 -0.71615124 -0.3639473 -0.24452434 0.90125483 0.5575233 -0.22016592 0.28992993 0.7594913 0.08261285 0.7088086 -0.40928274 0.19067584 0.2388587 -0.07201792 -0.46547976 -0.29607454 0.07993853 -0.19407594 0.45570704 0.16705939 -0.045729216 0.15627043 -0.22813818 -0.55002826 0.3475679 -0.2540885 -0.5356593 0.44408247 -0.5450644 -0.0039124065 0.4532843 0.14823058 -0.14404431 0.16011085 0.6021563 -0.15795729 0.5073594 0.23576067 0.046406567 -0.42608064 -0.16932516 -0.02322681 0.11601709 0.8302982 0.18436578 -0.23447654 0.20310397 0.70062375 -0.0648651 -0.025015904 0.74217707 -0.002912617
43 0.7549444 -0.08239643 0.48300463 -0.45675856 -0.7403109 -1.3168261 0.71784973 -0.53653705 -1.0281262 -0.23897986 0.13925186 -1.4124414 -1.6363436 -0.6174524 0.37174472 0.9499567 0.78941554 -0.81579167 0.63079363 0.9146727 0.4062029 1.2876586 -0.15529224 -0.025778262 0.539469 0.59382415 -1.3013409 0.11121273 0.10465057 -0.65996236 0.6594138 0.03701048 -0.39184964 -0.16706504 -0.2655759 -0.43344477 0.72065365 -0.32583746 -0.122302935 -0.11893718 -0.6175925 -0.10679301 0.7984594 -0.80420077 -0.11086691 -0.1514074 1.0468948 -0.2934403 0.47964516 0.7684524 0.53608227 0.050901443 -0.24852191 0.41343352 0.40529975 0.59694886 0.54112834 -0.82575125 0.1621456 1.3848071 0.02443993 -0.6455251 0.43377078 -0.23546474
79 0.9704208 -0.12537263 -0.32777557 -0.5528004 -0.5252639 -0.64649487 0.38034493 -0.3647083 0.059961356 -0.042872798 -0.73868364 -0.6653788 -0.7299808 -0.36812514 -0.23110458 0.9278118 0.55215144 -0.23657112 0.2908131 0.78059083 0.09612917 0.69622564 -0.40313366 0.17742096 0.25338608 -0.088130176 -0.44827032 -0.31480026 0.06933774 -0.18905316 0.48084524 0.16550645 -0.050324716 0.16136013 -0.22453155 -0.55057925 0.3177879 -0.24663529 -0.5543017 0.44391355 -0.5549083 0.018787995 0.4553687 0.14455532 -0.17250276 0.1470213 0.60660315 -0.15989344 0.49192896 0.23866785 0.066315606 -0.44315964 -0.14703576 -0.02886942 0.11417622 0.8160728 0.16789135 -0.22520758 0.20394978 0.69201237 -0.06637572 -0.036956575 0.7767911 -0.007832629
34 0.68992615 -0.05447532 0.45866737 -0.42437387 -0.69410825 -1.2209377 0.6555491 -0.4825566 -0.97214323 -0.22402616 0.13145061 -1.2827086 -1.5028168 -0.57352245 0.3644908 0.86013067 0.71879685 -0.74923366 0.56984603 0.8357691 0.3692445 1.1725005 -0.13177119 -0.032058343 0.5104311 0.55117387 -1.2067564 0.1063828 0.111371934 -0.6100308 0.5860565 0.0512188 -0.35356382 -0.17717905 -0.23717983 -0.39977235 0.65894717 -0.28806198 -0.13285409 -0.10418653 -0.55321693 -0.09844397 0.73232853 -0.734102 -0.10743326 -0.12835026 0.9441018 -0.27869606 0.44604963 0.7169111 0.50262356 0.06786644 -0.2235201 0.3830459 0.3653362 0.56418747 0.49284157 -0.75589436 0.15795174 1.2762945 0.016763382 -0.590949 0.38816327 -0.21145372
91 -0.27243394 0.07703462 0.8806215 0.13901763 -0.2052099 -0.648531 0.32778674 -0.19371282 -1.1550399 -0.19327499 0.9593229 -0.7282324 -0.89234906 -0.26450786 0.66348577 -0.03369172 0.20900944 -0.58212245 0.33856067 0.09195438 0.3124545 0.5712474 0.29843926 -0.22026026 0.29354715 0.69362533 -0.8624198 0.44845635 0.037634347 -0.4587625 0.14292887 -0.12645927 -0.35480383 -0.35482565 -0.044624656 0.13018745 0.34738445 -0.06264825 0.48330054 -0.5955623 0.0105904415 -0.13240293 0.3133259 -1.0064439 0.037552085 -0.35620564 0.37853438 -0.13350166 -0.038430665 0.5125856 0.5176685 0.53237677 -0.05613429 0.4513816 0.28906408 -0.26232296 0.37168595 -0.6051982 -0.060734276 0.68976766 0.094660126 -0.6293293 -0.39391112 -0.22365703
84 -0.23554991 0.063851446 0.81730396 0.110814385 -0.18986127 -0.62998646 0.3304233 -0.17983948 -1.0960526 -0.1730851 0.918404 -0.7250754 -0.8680215 -0.25042364 0.613959 0.009840131 0.20459116 -0.5699079 0.30442786 0.11492597 0.29961622 0.5700483 0.2764935 -0.22013389 0.2669241 0.6851323 -0.8484848 0.4191568 0.019855682 -0.4460216 0.16194217 -0.13660367 -0.3605586 -0.36521906 -0.05592363 0.12676503 0.3458491 -0.078171425 0.45358315 -0.57086253 -0.026061647 -0.11637446 0.28223377 -0.97396207 0.05860915 -0.33191055 0.39477983 -0.13579287 -0.022269875 0.5370488 0.49879736 0.5174097 -0.064164124 0.42493823 0.27958685 -0.22751068 0.38251176 -0.5694129 -0.048804406 0.7058069 0.080062546 -0.6088913 -0.38480288 -0.20415516
1 0.7203986 -0.062419116 0.46298668 -0.4287902 -0.7068959 -1.2316756 0.67542183 -0.5087194 -0.96952385 -0.22623754 0.13623333 -1.3342955 -1.5191977 -0.5694018 0.36683404 0.89845407 0.74364835 -0.7764675 0.5853185 0.85746664 0.36309284 1.2121364 -0.14202191 -0.015775716 0.5191527 0.54747075 -1.2156186 0.09799113 0.097428314 -0.6256033 0.6082414 0.027151672 -0.3634338 -0.18364695 -0.2546357 -0.43417215 0.6521319 -0.32401624 -0.13962826 -0.097435236 -0.5673832 -0.10676648 0.74295086 -0.7630178 -0.11823594 -0.13785014 0.9722506 -0.27704427 0.46201435 0.7283673 0.5042618 0.043626964 -0.24799164 0.37418336 0.37168816 0.581914 0.50202125 -0.78852737 0.17151622 1.3204958 0.01781724 -0.5837387 0.40130648 -0.22365893
63 0.9331443 -0.12813358 -0.33049482 -0.53638774 -0.499234 -0.6206091 0.35456082 -0.33996254 0.06899421 -0.047599915 -0.70842284 -0.6371982 -0.70635283 -0.33982834 -0.21667625 0.89716995 0.5230925 -0.2161201 0.27118766 0.76309824 0.09345718 0.68033886 -0.38658732 0.18639798 0.22847553 -0.0722701 -0.44046476 -0.30166546 0.07147346 -0.1602399 0.43341264 0.15720579 -0.02144295 0.15588923 -0.21646541 -0.54733044 0.33501753 -0.23081996 -0.51163167 0.4198702 -0.5531024 0.01103881 0.4574828 0.14387476 -0.1642134 0.14986363 0.58606946 -0.15150551 0.47026137 0.2284248 0.06794191 -0.44130257 -0.1438901 -0.021246543 0.10745942 0.80604386 0.18150808 -0.22959214 0.19586991 0.6466822 -0.08207524 -0.035658572 0.7247176 -0.032670636
7 0.72845715 -0.06572561 0.46934178 -0.444928 -0.72653973 -1.2614828 0.697535 -0.5064974 -0.999931 -0.21072423 0.11737985 -1.3351172 -1.5669941 -0.57911944 0.35702974 0.91339105 0.757351 -0.7818591 0.5913197 0.85163534 0.36576974 1.22829 -0.1516325 -0.01854688 0.5285045 0.5739454 -1.2529275 0.1070649 0.08868678 -0.6429841 0.6423376 0.031958096 -0.3733969 -0.16489157 -0.25143585 -0.4407859 0.68307227 -0.3282438 -0.13018343 -0.11517937 -0.5916459 -0.10522724 0.77696866 -0.7537813 -0.13722177 -0.1495233 1.0059468 -0.28024215 0.46390983 0.74291664 0.5414028 0.050857898 -0.25485188 0.38550743 0.38693282 0.59329385 0.5221983 -0.80782586 0.15793924 1.3459333 0.029394168 -0.62284356 0.39443597 -0.21771029
14 0.97669035 -0.13467608 -0.3316429 -0.5602189 -0.5468554 -0.6824015 0.39825532 -0.3673438 0.055453055 -0.04736134 -0.7514881 -0.68979305 -0.7442407 -0.39160797 -0.2342307 0.9491652 0.5926154 -0.22986653 0.3088065 0.81608933 0.08435832 0.740649 -0.42729017 0.18075061 0.25229216 -0.09594114 -0.48671952 -0.32206446 0.07572588 -0.19067945 0.47139093 0.18405095 -0.05582719 0.15687832 -0.21142857 -0.56604534 0.35651967 -0.2544492 -0.5512711 0.4424442 -0.57090795 0.009594384 0.49345535 0.16596162 -0.15402381 0.17758058 0.62595594 -0.1705422 0.50906354 0.27086404 0.069233105 -0.44503915 -0.15174247 -0.037621997 0.12820406 0.8434208 0.16358909 -0.22611067 0.22223386 0.7084515 -0.07556271 -0.046803825 0.7899657 -0.014757331
82 0.93048936 -0.15001716 -0.31564882 -0.54642063 -0.5035188 -0.6551295 0.36775035 -0.3429243 0.03848313 -0.0474468 -0.7112261 -0.6542061 -0.71354276 -0.3624577 -0.22651343 0.9115118 0.5560544 -0.22359459 0.29557988 0.7765573 0.110374406 0.69130087 -0.38035327 0.18329293 0.25618827 -0.07967029 -0.462383 -0.29905894 0.06488595 -0.18085624 0.4681472 0.17729495 -0.040564794 0.16345865 -0.20581585 -0.55033773 0.33607346 -0.25360572 -0.5067069 0.43322697 -0.5454109 0.0086628795 0.47351426 0.15048954 -0.1573938 0.1410328 0.6246902 -0.14136557 0.48556423 0.25040093 0.050460145 -0.43375415 -0.14227879 -0.02990543 0.10550803 0.8183276 0.18418947 -0.221325 0.20858173 0.6693164 -0.05278459 -0.047866546 0.74908054 -0.01677923
97 1.0021876 -0.16169702 -0.33342856 -0.59082836 -0.54068875 -0.67869145 0.3665458 -0.34402293 0.09809968 -0.052691367 -0.7634294 -0.6738801 -0.7165908 -0.36112076 -0.25125438 0.93681556 0.5574294 -0.21744373 0.29315194 0.791894 0.10796025 0.7025489 -0.43320936 0.18699402 0.25162452 -0.11257275 -0.46355754 -0.33144206 0.09862847 -0.16801421 0.4707082 0.18926595 -0.01957645 0.17069969 -0.21205321 -0.5672686 0.34589022 -0.24458218 -0.5618077 0.45958796 -0.57088155 0.013551579 0.4765761 0.18271357 -0.15843524 0.15485004 0.6227859 -0.16793859 0.524066 0.25486934 0.04701591 -0.4565003 -0.17130591 -0.047360763 0.11688512 0.8603283 0.17381507 -0.21835344 0.21252495 0.6919835 -0.07117763 -0.030365847 0.7765611 -0.02585459
21 0.74832505 -0.073865585 0.47812006 -0.45848143 -0.7217426 -1.2976159 0.7193786 -0.52927685 -1.051598 -0.22642793 0.15207367 -1.3998897 -1.6021104 -0.6055863 0.3985391 0.9359856 0.76895463 -0.8170828 0.62886894 0.88783586 0.3991541 1.2852093 -0.14976022 -0.03228615 0.5462092 0.59727573 -1.2981054 0.13208033 0.09442029 -0.6401443 0.64607435 0.052634332 -0.38226733 -0.18912561 -0.2777288 -0.4325914 0.69460976 -0.31195822 -0.13578811 -0.13401407 -0.60483277 -0.10285303 0.7720094 -0.80438954 -0.13381329 -0.13831586 1.0252594 -0.28740355 0.47598392 0.77480036 0.53450257 0.05932576 -0.25603047 0.39683923 0.38499886 0.6052998 0.530856 -0.83784467 0.15324287 1.3745623 0.028628612 -0.6178413 0.40147272 -0.2113476
54 0.97847044 -0.1547689 -0.35539094 -0.54860085 -0.50276124 -0.6555156 0.357208 -0.3318701 0.090015344 -0.03286862 -0.7646931 -0.6704006 -0.70958877 -0.37900013 -0.2523372 0.91546106 0.57017523 -0.20654206 0.28235826 0.7857258 0.104493596 0.68845785 -0.39151967 0.20033643 0.24708894 -0.10595152 -0.4481084 -0.31681553 0.09354065 -0.18435474 0.45509705 0.18584932 -0.024079526 0.17737997 -0.23311213 -0.56320304 0.33998737 -0.25687924 -0.53201824 0.46726233 -0.5582362 0.0017521671 0.45697758 0.1609524 -0.17771333 0.1621893 0.6103167 -0.14597991 0.48414502 0.24949399 0.036315646 -0.4670553 -0.14145562 -0.020193536 0.10231151 0.8319494 0.15684755 -0.2346936 0.20357393 0.6890533 -0.059914365 -0.009767817 0.7805749 -0.0042737913
24 0.9584278 -0.156537 -0.30801082 -0.5582641 -0.51197124 -0.66132617 0.3698072 -0.3377248 0.054946147 -0.051235724 -0.73397446 -0.6844949 -0.75070304 -0.35214943 -0.2426188 0.9342406 0.5481108 -0.2359718 0.2903049 0.7646479 0.115331724 0.7183111 -0.39633486 0.18662287 0.25223753 -0.063670546 -0.45660493 -0.31459427 0.07293426 -0.19093251 0.46764886 0.16069674 -0.038757432 0.14306247 -0.21203698 -0.55113196 0.34618053 -0.25976837 -0.5443781 0.42021635 -0.5609786 -0.0073719253 0.45733634 0.15349592 -0.14853625 0.1586366 0.611433 -0.16595945 0.5054266 0.2625147 0.050717942 -0.4496849 -0.157483 -0.01920866 0.12207168 0.826379 0.16524929 -0.25247875 0.20090471 0.69773203 -0.0609163 -0.036872596 0.7597318 -0.012505293
27 -0.24128444 0.06923721 0.80703485 0.14140211 -0.1792405 -0.61358815 0.33697543 -0.1594831 -1.1050977 -0.18486711 0.91787803 -0.7309192 -0.8375435 -0.2456205 0.6407818 -0.013271228 0.19890441 -0.5717812 0.29360718 0.075318225 0.2958466 0.5676682 0.27776858 -0.22784163 0.26292607 0.6754487 -0.8134566 0.43421948 0.041938297 -0.431278 0.13939704 -0.12322938 -0.36416683 -0.36333397 -0.075961955 0.1361822 0.35740277 -0.057366528 0.4613729 -0.5894351 0.010448833 -0.12749338 0.29972127 -0.95605975 0.047445916 -0.3339701 0.3672531 -0.15342553 -0.012935698 0.5134311 0.50255346 0.49546415 -0.06756253 0.4368265 0.2938128 -0.26561606 0.37464675 -0.5778632 -0.07519219 0.6642851 0.092083514 -0.6181641 -0.3901274 -0.21828665
86 0.6970826 -0.068821974 0.43829024 -0.41594425 -0.7007191 -1.2167593 0.6762434 -0.48415396 -0.9762249 -0.20168486 0.13273782 -1.2971061 -1.4857904 -0.5831881 0.36622053 0.8806272 0.72639877 -0.75669414 0.5691068 0.8244305 0.36436194 1.1913126 -0.13581894 -0.0034009528 0.5233845 0.53249544 -1.1821345 0.102593884 0.10657149 -0.5979647 0.6001327 0.044820227 -0.35672194 -0.17435883 -0.26236072 -0.4091292 0.66314435 -0.30305108 -0.12622099 -0.099143125 -0.5480403 -0.11635286 0.73483366 -0.7455054 -0.11035474 -0.118754946 0.9639136 -0.2621156 0.463674 0.7210714 0.51418895 0.06441955 -0.23904623 0.38211548 0.36910868 0.5558971 0.5076698 -0.758653 0.1685092 1.2942638 0.036673322 -0.5825742 0.40415138 -0.20344324
22 0.7060229 -0.07380811 0.44781584 -0.40871036 -0.6916908 -1.2104405 0.6718085 -0.50826687 -0.94148314 -0.22762796 0.11265605 -1.28348 -1.4846117 -0.57626075 0.35715234 0.88501036 0.7115829 -0.75555176 0.56621575 0.8215233 0.3643097 1.2022643 -0.13774392 -0.017424734 0.51179653 0.5493004 -1.1797756 0.11164385 0.10772079 -0.6113421 0.59406585 0.031312212 -0.3358162 -0.16853142 -0.26470765 -0.4002882 0.6655958 -0.30926526 -0.11331584 -0.103894725 -0.5650842 -0.10421149 0.7292535 -0.7370076 -0.111329995 -0.123933434 0.96067303 -0.28418383 0.44834012 0.70094925 0.5154819 0.060755607 -0.23753265 0.36909315 0.3497696 0.55926996 0.50813997 -0.76745224 0.14538543 1.275474 0.017098328 -0.584008 0.39709094 -0.19231082
16 -0.23864134 0.063859776 0.78726256 0.13183112 -0.16529924 -0.5603474 0.317095 -0.1417505 -1.0491209 -0.16043572 0.88396263 -0.6499921 -0.79388714 -0.20994407 0.6044201 -0.021778923 0.18631834 -0.5190875 0.2958345 0.064972594 0.28741562 0.5364194 0.25845778 -0.22191387 0.23478779 0.64098954 -0.7745064 0.41399544 0.046378102 -0.4106374 0.13287118 -0.12931909 -0.33037916 -0.35729793 -0.043212578 0.12010736 0.33332643 -0.043237932 0.44829592 -0.54480493 0.013448815 -0.11433009 0.26731083 -0.9024824 0.06738294 -0.30302554 0.34459507 -0.12810452 -0.046201322 0.49807554 0.47947344 0.47457212 -0.061067205 0.40353313 0.2737061 -0.23999038 0.3605855 -0.53570586 -0.060991265 0.6227412 0.104020335 -0.59012264 -0.38890517 -0.20060277
13 -0.258125 0.06912208 0.7963236 0.13061999 -0.18732163 -0.5855726 0.30745295 -0.17408271 -1.0746933 -0.16127843 0.9057792 -0.69424534 -0.8110349 -0.22599122 0.60188353 -0.011347203 0.1708273 -0.5448015 0.29025695 0.06282733 0.2994462 0.5533507 0.29682904 -0.20533785 0.2612908 0.66653544 -0.7987208 0.40546814 0.034357257 -0.42596948 0.118390135 -0.14347467 -0.35500515 -0.36246726 -0.050922856 0.15382978 0.34486687 -0.0575894 0.46922916 -0.5765684 0.0050617917 -0.13008736 0.27136502 -0.9452493 0.05688639 -0.31114992 0.33886462 -0.14428599 -0.043966416 0.49047688 0.4731797 0.50956255 -0.059618205 0.42204973 0.2637822 -0.26254615 0.35960716 -0.5467044 -0.071474604 0.6368713 0.08585783 -0.59508204 -0.39027676 -0.20099156
81 0.7217085 -0.07346587 0.45417917 -0.43787122 -0.70850605 -1.2533287 0.6830413 -0.5073527 -1.0022465 -0.20374936 0.117894895 -1.3409805 -1.5513937 -0.57112736 0.37517086 0.9063057 0.7460781 -0.76744264 0.58578324 0.8635628 0.37653986 1.2259024 -0.15090926 -0.017541507 0.5317159 0.5532667 -1.2230022 0.10824425 0.10966922 -0.61167765 0.6193472 0.031762186 -0.36562008 -0.166199 -0.2668261 -0.42184564 0.66937375 -0.30528706 -0.1412541 -0.09456112 -0.57511044 -0.11622586 0.7560428 -0.7580217 -0.13127737 -0.14507373 0.97481334 -0.29194304 0.46283808 0.7348045 0.5128236 0.05976312 -0.23187692 0.39419746 0.37204337 0.5740742 0.5104984 -0.78983366 0.14305148 1.3360451 0.021776948 -0.61678773 0.38702238 -0.21942237
42 0.9815622 -0.13346308 -0.31007326 -0.5811237 -0.5295503 -0.67890304 0.3740456 -0.34485027 0.05818874 -0.05753339 -0.75237507 -0.6889562 -0.750989 -0.35677117 -0.2228104 0.9216235 0.5531496 -0.22652583 0.29198036 0.78393614 0.11324915 0.71048 -0.40147975 0.18008153 0.2437251 -0.081067726 -0.46180704 -0.2899512 0.08673255 -0.18295716 0.46314397 0.1709967 -0.046686403 0.16046496 -0.22287342 -0.5709606 0.33237606 -0.24029887 -0.538777 0.43548977 -0.5748303 0.016193334 0.46422878 0.15321085 -0.16372675 0.16962947 0.6446408 -0.16511463 0.50616634 0.25721082 0.04608953 -0.4523282 -0.1601021 -0.017060213 0.13521045 0.8477097 0.1642249 -0.23256598 0.20256592 0.70435756 -0.07015171 -0.031303756 0.77337676 -0.011139022
41 0.9579576 -0.13874234 -0.30880854 -0.56118214 -0.5109588 -0.6761501 0.37194744 -0.34404668 0.032280866 -0.06300851 -0.7071061 -0.67230815 -0.7358851 -0.35667643 -0.22515005 0.91524315 0.5699355 -0.23983663 0.3028542 0.76369524 0.11340818 0.697023 -0.38723022 0.15904023 0.2520172 -0.08098061 -0.47530085 -0.2972956 0.07578183 -0.19025213 0.4644399 0.1621557 -0.058493156 0.1404113 -0.21557498 -0.5556125 0.3235104 -0.25181147 -0.5083357 0.4298657 -0.571335 0.007216556 0.4591837 0.1151978 -0.15565006 0.14967844 0.6103345 -0.16722578 0.4850895 0.27227807 0.053404234 -0.41290078 -0.15828544 -0.01798947 0.13637358 0.81738603 0.17314167 -0.2376565 0.21403377 0.70736414 -0.06377788 -0.058874276 0.74361736 -0.033682942
96 0.7015812 -0.060034204 0.4667013 -0.4086101 -0.71285397 -1.2431421 0.6909304 -0.5032 -0.9988239 -0.21693428 0.14587834 -1.321195 -1.536841 -0.57125884 0.38478458 0.8690005 0.73424166 -0.7696549 0.57505286 0.8383505 0.36164716 1.2256716 -0.1534579 -0.016385393 0.5195201 0.562244 -1.2197542 0.12773718 0.10295161 -0.62401426 0.6078834 0.04154103 -0.36254087 -0.18678534 -0.2629864 -0.42598006 0.67581 -0.30303383 -0.107869916 -0.10445797 -0.57647574 -0.10364976 0.75639296 -0.7543948 -0.111095056 -0.13185179 0.95359963 -0.26238975 0.46699217 0.741044 0.50488365 0.069831796 -0.22372639 0.37667704 0.35944447 0.56982684 0.49454013 -0.7917218 0.15941314 1.3282361 0.036523964 -0.6075084 0.37435183 -0.20007749
89 0.7068686 -0.07368532 0.44206986 -0.42913884 -0.70206827 -1.2320058 0.67697495 -0.50334495 -0.9853207 -0.22543293 0.15264702 -1.3156843 -1.5309719 -0.5620252 0.36858407 0.889562 0.7249501 -0.7712399 0.5835536 0.83333397 0.35420355 1.2012316 -0.13938257 -0.012311927 0.5257022 0.55697733 -1.2225544 0.10774691 0.093548454 -0.60261804 0.5977821 0.04067665 -0.35703602 -0.18004256 -0.26368156 -0.4041711 0.6487447 -0.30837005 -0.1167702 -0.10094712 -0.57578087 -0.10153986 0.7547028 -0.76110595 -0.12155601 -0.13280798 0.970696 -0.27285746 0.46521705 0.7237684 0.5170188 0.055799652 -0.24647242 0.38088772 0.36939391 0.5453796 0.50054616 -0.778433 0.15235022 1.3201009 0.019335255 -0.606076 0.3983865 -0.22468585
30 -0.2691744 0.055497237 0.8155582 0.13805245 -0.1924253 -0.62276083 0.31387413 -0.17223245 -1.1123818 -0.15993996 0.91169906 -0.70260483 -0.83496 -0.26487666 0.64882845 -0.022577701 0.22442105 -0.53412515 0.33115748 0.088346966 0.2682763 0.5740708 0.29002008 -0.22173402 0.30352694 0.6611613 -0.7882288 0.42672914 0.0090481425 -0.4659448 0.15228271 -0.14267503 -0.33419934 -0.33269197 -0.07761941 0.14437887 0.36385143 -0.06890674 0.44642487 -0.58037865 -0.01201445 -0.14653207 0.2888749 -0.93712354 0.04130232 -0.32307494 0.3752986 -0.1238722 -0.01741352 0.5083614 0.46063575 0.5294506 -0.05252171 0.46137005 0.26247838 -0.25976157 0.33033952 -0.57720256 -0.05793547 0.69753706 0.09215347 -0.5767141 -0.3637081 -0.23169419
59 0.95351344 -0.1257437 -0.31300965 -0.5441294 -0.52530724 -0.66626245 0.38339671 -0.35022157 0.060207535 -0.048526883 -0.7190692 -0.6573245 -0.73416203 -0.3653518 -0.22064808 0.9133221 0.5527447 -0.23210093 0.27566254 0.7833887 0.08628116 0.71024704 -0.38786364 0.16517062 0.24124011 -0.08911058 -0.46718422 -0.2807304 0.09607299 -0.18259983 0.4571941 0.17987837 -0.04809548 0.1518995 -0.20962363 -0.5600663 0.32011122 -0.26381963 -0.507873 0.43610498 -0.55867755 -0.010189627 0.4627498 0.14866011 -0.15851542 0.15471278 0.6079835 -0.14626183 0.4883543 0.2672336 0.04240474 -0.4396881 -0.1702465 -0.0239747 0.10428142 0.8162891 0.16138636 -0.2452739 0.2145318 0.67563933 -0.065841354 -0.05338311 0.76081645 -0.0070990925
9 0.9435167 -0.12976895 -0.30717602 -0.55692154 -0.49861735 -0.6660278 0.38083184 -0.34014273 0.047902785 -0.055307396 -0.70090085 -0.6649882 -0.7091591 -0.36891946 -0.21174707 0.9026398 0.5633698 -0.23811384 0.29562575 0.77741754 0.10100219 0.69735646 -0.39018822 0.18874654 0.26220682 -0.06467768 -0.44570765 -0.28058535 0.09340435 -0.18359578 0.45379886 0.16403988 -0.03754315 0.15473567 -0.22869608 -0.56296706 0.32593518 -0.23451877 -0.5302935 0.41658562 -0.54409844 0.005539376 0.46287403 0.1488182 -0.14914446 0.1637353 0.61440045 -0.1531897 0.49905577 0.25371736 0.052260265 -0.41821447 -0.1461221 -0.021373542 0.110686325 0.8134254 0.18393056 -0.22107589 0.2091672 0.6686472 -0.06658413 -0.04212812 0.7509942 -0.036396056
92 0.94084775 -0.14654557 -0.29740784 -0.55531424 -0.4914497 -0.6298378 0.36483714 -0.3441619 0.05153355 -0.048633266 -0.7134384 -0.6389737 -0.71092385 -0.34840918 -0.23423629 0.90134877 0.5433695 -0.22740772 0.26696384 0.75809115 0.10786488 0.6949967 -0.39983937 0.16243148 0.2340406 -0.07659077 -0.46502617 -0.30228758 0.07482708 -0.18220228 0.43488047 0.15626642 -0.035234712 0.16340668 -0.20783554 -0.53828305 0.31783676 -0.25470027 -0.5195352 0.43190673 -0.53393066 0.00024939002 0.4563532 0.12386913 -0.15831232 0.14252757 0.61198753 -0.1564444 0.46890983 0.22935364 0.05706324 -0.43639338 -0.15559307 -0.030799177 0.1103896 0.7900556 0.15766604 -0.23444046 0.20656586 0.66584367 -0.07730633 -0.043560866 0.7160768 -0.020094158
37 0.91465855 -0.13675714 -0.28181967 -0.518543 -0.48595276 -0.63166094 0.3774353 -0.350166 0.021171963 -0.061594687 -0.6845722 -0.658612 -0.7250983 -0.35672435 -0.20235643 0.86708796 0.5215686 -0.22523826 0.28274912 0.74549073 0.11063467 0.6930493 -0.37815246 0.16915728 0.23662983 -0.06209959 -0.44746673 -0.25994545 0.074315965 -0.18090174 0.43349382 0.15239312 -0.031138096 0.13745707 -0.20910989 -0.5415625 0.3111542 -0.22658737 -0.5054427 0.40898713 -0.5437728 -0.002265966 0.4363628 0.13119812 -0.14235608 0.15040281 0.60959464 -0.15346527 0.4513045 0.26521334 0.057966914 -0.3945256 -0.14128175 -0.01756658 0.104416 0.77040774 0.18211971 -0.24563995 0.20156528 0.65939575 -0.05180221 -0.053552277 0.72448367 -0.034219082
85 0.94510275 -0.15415986 -0.33814692 -0.5512562 -0.51853544 -0.6353188 0.373167 -0.34064162 0.08107441 -0.034241166 -0.7456248 -0.64340657 -0.7318567 -0.35687461 -0.24063146 0.9171602 0.56524074 -0.22868234 0.2807655 0.773787 0.092375614 0.6884656 -0.39656007 0.171962 0.25702515 -0.094024785 -0.44385988 -0.30151117 0.08043094 -0.1762816 0.45600492 0.17692393 -0.032831203 0.15887897 -0.23052995 -0.5722298 0.3311994 -0.2591242 -0.5405471 0.4386526 -0.57372415 0.0075292573 0.47017026 0.15888062 -0.17153017 0.16653106 0.61254096 -0.16195683 0.48966488 0.24351239 0.046157673 -0.46247134 -0.14490871 -0.027490381 0.10682545 0.8337558 0.16799667 -0.21438834 0.20820427 0.6933016 -0.070651405 -0.038382456 0.7526926 -0.0015335089
90 0.68383104 -0.06496651 0.45250905 -0.4222475 -0.68083256 -1.2082106 0.6487139 -0.504095 -0.947498 -0.20542137 0.13934031 -1.2720838 -1.4769967 -0.55134964 0.3513473 0.86111313 0.72637415 -0.7398385 0.5770089 0.8058107 0.36958003 1.181172 -0.13504057 -0.03528736 0.5016908 0.53996146 -1.1924558 0.09585792 0.10800541 -0.60454947 0.58502823 0.050791293 -0.35575545 -0.1537274 -0.24668276 -0.398393 0.6397977 -0.30749583 -0.13496721 -0.10820383 -0.55835146 -0.10854154 0.7317953 -0.74021316 -0.12248782 -0.14255577 0.9281879 -0.28226963 0.44234437 0.7182655 0.510613 0.046470955 -0.23994346 0.36178744 0.34150457 0.5412369 0.47763795 -0.7526244 0.13832432 1.2760088 0.025469841 -0.57106405 0.37729737 -0.22119503
49 -0.2269687 0.053017117 0.8324416 0.12697753 -0.1767095 -0.6253915 0.3278045 -0.16449943 -1.122664 -0.20447876 0.9309351 -0.72732997 -0.8690215 -0.24136186 0.61558264 -0.00076174375 0.19730169 -0.574031 0.30961668 0.09547255 0.32498112 0.5609994 0.2798349 -0.23316905 0.25168857 0.6841348 -0.8365355 0.41164237 0.026250685 -0.44768733 0.15673335 -0.13501297 -0.33700794 -0.3783303 -0.07491485 0.12826084 0.3698364 -0.06256299 0.46562597 -0.5819467 0.005655332 -0.13205497 0.29283592 -0.96156794 0.06560871 -0.32620612 0.36607024 -0.15857369 -0.013576267 0.5225513 0.4819082 0.51277304 -0.08068118 0.45223767 0.301313 -0.25772905 0.3782868 -0.56898797 -0.07537824 0.67364204 0.11485303 -0.6091438 -0.40799794 -0.19202194
47 -0.21109377 0.058743823 0.7769816 0.11691548 -0.15966609 -0.5856213 0.31712827 -0.14662345 -1.0377916 -0.19031093 0.87104404 -0.6735829 -0.797145 -0.21384887 0.60983807 0.0014920874 0.19315755 -0.5472014 0.2762273 0.07895471 0.30354086 0.53229636 0.26064909 -0.21419454 0.23520972 0.66322076 -0.77549064 0.39080742 0.03770695 -0.4049692 0.12823333 -0.14156018 -0.32885325 -0.33146834 -0.07543155 0.12696828 0.32337263 -0.060014457 0.44517526 -0.5610798 -0.00112004 -0.10761436 0.2570665 -0.90234375 0.062018197 -0.32399526 0.349484 -0.13915662 -0.04079469 0.47943422 0.45456278 0.47116277 -0.054443244 0.42317235 0.27940935 -0.25563285 0.36283326 -0.5327252 -0.06734492 0.61415017 0.09059914 -0.58774656 -0.38860744 -0.18910475
68 0.685294 -0.07872281 0.40928727 -0.40442356 -0.68632954 -1.188694 0.658704 -0.48645377 -0.933512 -0.21369296 0.10989495 -1.2477716 -1.4682076 -0.5623749 0.33375284 0.84633034 0.69554025 -0.7417668 0.5710689 0.8234165 0.34460375 1.1442816 -0.14959331 -0.021665074 0.50924194 0.52518857 -1.1724277 0.09227956 0.082507014 -0.5814275 0.5802856 0.03617615 -0.32875046 -0.14701371 -0.23834504 -0.41612583 0.6455831 -0.3120496 -0.14067976 -0.10821639 -0.5521338 -0.10086086 0.7067333 -0.7044066 -0.09925577 -0.1175903 0.9258503 -0.25103992 0.44504148 0.68818784 0.47872415 0.05411987 -0.23894648 0.35247147 0.3614937 0.54598343 0.48181227 -0.75551784 0.1583551 1.2670716 0.0053926683 -0.5707411 0.39846474 -0.19783652
57 0.9769136 -0.14223777 -0.33187783 -0.5523785 -0.5393919 -0.6889256 0.3910647 -0.35820714 0.035575327 -0.042816382 -0.73926723 -0.7027279 -0.7475917 -0.36874884 -0.21341795 0.9412531 0.5751238 -0.25620472 0.30678236 0.812014 0.10402592 0.7265212 -0.41373235 0.17933884 0.24665053 -0.06872112 -0.47993734 -0.28740093 0.07365886 -0.20213741 0.46584663 0.15840098 -0.04062039 0.16396374 -0.2234121 -0.5627128 0.33240643 -0.26010668 -0.5516877 0.4450186 -0.5757798 0.016356658 0.47373214 0.1502365 -0.1575807 0.15805307 0.6393277 -0.1498323 0.50561935 0.27756512 0.07133954 -0.43500137 -0.15148313 -0.032620046 0.11247375 0.8383612 0.18168096 -0.24355206 0.215139 0.7284514 -0.075641386 -0.04868298 0.780624 -0.01887257
12 0.95209134 -0.1319761 -0.31139123 -0.56344265 -0.51450133 -0.6785772 0.37029195 -0.3669524 0.042229336 -0.06681376 -0.69671714 -0.67672676 -0.7202979 -0.37888896 -0.22454637 0.912401 0.5502103 -0.2384931 0.2883465 0.7673571 0.0916575 0.68804175 -0.38610452 0.17751941 0.26481584 -0.08416442 -0.46315852 -0.30483794 0.094067514 -0.18092282 0.4524137 0.17731489 -0.05076529 0.13717501 -0.21161014 -0.5453245 0.32469594 -0.2637704 -0.507018 0.42843977 -0.5546461 0.0057468168 0.46187657 0.13401711 -0.1546429 0.1671739 0.61071306 -0.15307997 0.49854967 0.24630272 0.051695835 -0.41212085 -0.14686039 -0.025907481 0.12829776 0.8114552 0.17028724 -0.24415608 0.19921039 0.70504516 -0.06427431 -0.06132711 0.74549055 -0.02643792
17 0.67294455 -0.06580671 0.43056372 -0.39817432 -0.66473454 -1.1414397 0.6417044 -0.48159218 -0.9240181 -0.20769276 0.11025011 -1.2261132 -1.4436561 -0.55115557 0.34236827 0.83167124 0.7002299 -0.7184754 0.54789275 0.7944512 0.35275733 1.1360629 -0.12564483 -0.011344882 0.4743455 0.50988615 -1.1544839 0.08974454 0.090555295 -0.5892336 0.5873597 0.040871825 -0.33259898 -0.16733016 -0.2524528 -0.4103357 0.6361981 -0.29482985 -0.11543028 -0.105344005 -0.51793253 -0.09419054 0.69906443 -0.70500016 -0.11037537 -0.13162892 0.9178788 -0.2516465 0.43290162 0.6841732 0.4873194 0.037921906 -0.20585693 0.35128084 0.3340063 0.5464726 0.46799818 -0.7174988 0.14466341 1.2419149 0.025896922 -0.56330633 0.36650664 -0.18550299
36 0.7059167 -0.0780552 0.45482534 -0.42963693 -0.69765466 -1.2454339 0.6904942 -0.5044076 -0.9714469 -0.20988312 0.12782142 -1.3098611 -1.5280617 -0.5938811 0.37883762 0.89947695 0.7508674 -0.7689373 0.57276595 0.8484599 0.35851994 1.2251475 -0.14209473 -0.013175088 0.5278828 0.55306214 -1.2252065 0.11060885 0.11657762 -0.6249604 0.6083337 0.035644177 -0.34858948 -0.16180317 -0.26266727 -0.41107047 0.6575525 -0.3039606 -0.11177155 -0.10597872 -0.574885 -0.11176579 0.7553464 -0.7375917 -0.108416036 -0.14461228 0.96535444 -0.28759027 0.4509789 0.73142207 0.5065458 0.045894697 -0.22215673 0.39136115 0.37950823 0.5682746 0.49013385 -0.79295266 0.15625031 1.2986528 0.011342893 -0.5944945 0.38729957 -0.22807781
70 0.919806 -0.1483996 -0.30471575 -0.5338016 -0.49859062 -0.6438814 0.35491252 -0.3268707 0.05134063 -0.062423553 -0.6659921 -0.6390145 -0.72434396 -0.3584557 -0.20289491 0.8887117 0.5326539 -0.24106646 0.29033822 0.731411 0.08991591 0.6807605 -0.37012187 0.15990612 0.25091314 -0.06770486 -0.45165196 -0.26971504 0.08112369 -0.17428675 0.4437692 0.1453201 -0.029351465 0.13696039 -0.20258607 -0.5355328 0.31612957 -0.25317255 -0.49400365 0.40706623 -0.53198814 -0.013136975 0.44142333 0.115241975 -0.13831589 0.13144855 0.6073706 -0.15400471 0.4700298 0.26287907 0.057523567 -0.42095065 -0.14852107 -0.0048776404 0.12976763 0.7754671 0.17751463 -0.2266043 0.19099334 0.6830776 -0.07400908 -0.04556315 0.72437984 -0.016220259
93 0.6975259 -0.06322889 0.465502 -0.41224772 -0.7149913 -1.2255782 0.68722373 -0.50895876 -0.968548 -0.22310634 0.13294144 -1.3256619 -1.5326701 -0.577251 0.36062807 0.8739283 0.74705696 -0.77290285 0.57525367 0.8535438 0.3858273 1.2166804 -0.14725244 -0.01969376 0.5176332 0.5627421 -1.2300293 0.110314324 0.10808567 -0.6157555 0.61282 0.045827564 -0.34034348 -0.16778119 -0.24020514 -0.42560986 0.67319965 -0.31530583 -0.13217169 -0.10798635 -0.5751823 -0.11550101 0.74743193 -0.7380324 -0.12639192 -0.15334195 0.96195436 -0.26515803 0.44156387 0.7410436 0.5139444 0.060837243 -0.23832525 0.36618677 0.3721396 0.5750304 0.49168944 -0.7822323 0.15765926 1.3200339 0.03265956 -0.6019955 0.40421468 -0.22288737
71 0.655139 -0.048909955 0.44121924 -0.4117468 -0.663032 -1.1773415 0.6392281 -0.46809685 -0.9436088 -0.197065 0.14244829 -1.2474025 -1.4570637 -0.5496969 0.34397018 0.83554995 0.708208 -0.719624 0.5488388 0.79645663 0.33965614 1.1395257 -0.13733755 -0.006217364 0.48042136 0.51334584 -1.1497947 0.1100553 0.08436622 -0.58982044 0.5736672 0.030632334 -0.3509713 -0.16997817 -0.24397938 -0.38093022 0.63019294 -0.28860328 -0.113745235 -0.112913355 -0.5295137 -0.10025128 0.71106213 -0.7137184 -0.12373526 -0.13207659 0.9271564 -0.26873225 0.4201514 0.68230605 0.5012409 0.055788282 -0.20621046 0.34392905 0.36159816 0.5139102 0.48946494 -0.7359315 0.14989126 1.2300857 0.035282865 -0.5561739 0.3572658 -0.21750277
15 1.0012816 -0.15171103 -0.33671874 -0.5726025 -0.5534158 -0.704315 0.40746856 -0.3680911 0.046397764 -0.059870202 -0.7560772 -0.7060209 -0.7762188 -0.3933156 -0.2442445 0.96478224 0.5918107 -0.25261366 0.30737785 0.79335254 0.115582034 0.7499568 -0.41396365 0.17443658 0.259048 -0.0718652 -0.49210596 -0.2998851 0.100210756 -0.18949291 0.47310698 0.18181072 -0.050614312 0.1514464 -0.21514103 -0.5908583 0.35084876 -0.26378778 -0.5611939 0.44409803 -0.5703616 -0.0062915077 0.47575125 0.15452814 -0.17239502 0.14855617 0.64966327 -0.16308221 0.52106583 0.26879025 0.0766719 -0.46458024 -0.16008581 -0.013894946 0.124344766 0.8435894 0.18525414 -0.2534594 0.20701331 0.7143331 -0.06885301 -0.05075426 0.79645544 -0.024182474
0 0.77416795 -0.071291685 0.5024565 -0.47598764 -0.75488 -1.3376069 0.738266 -0.5485915 -1.0724162 -0.22114082 0.13940953 -1.4209365 -1.6624105 -0.6216498 0.4106798 0.95704967 0.8079673 -0.8269256 0.6466592 0.9275455 0.399692 1.3087832 -0.17415811 -0.0065108035 0.55697584 0.59908473 -1.3236116 0.13002434 0.12269514 -0.66178924 0.6657062 0.05325049 -0.38181832 -0.17593199 -0.27654666 -0.45575356 0.72874635 -0.34044075 -0.14046468 -0.10391386 -0.6300787 -0.120330326 0.80036926 -0.8044508 -0.11341282 -0.15865928 1.0578725 -0.30031228 0.48278967 0.7811667 0.55453193 0.052337825 -0.25543448 0.39925474 0.40691054 0.6282636 0.54330784 -0.83952695 0.16744682 1.4203525 0.012876487 -0.6429436 0.4338235 -0.22008254
48 0.7120511 -0.06333654 0.45149282 -0.43672043 -0.6961235 -1.2289907 0.6829504 -0.48842877 -0.9745941 -0.21227331 0.13472201 -1.2980198 -1.508932 -0.582349 0.3735547 0.86639786 0.7192011 -0.76348096 0.5689414 0.8295929 0.3501243 1.200027 -0.15354769 -0.023997253 0.5218948 0.5487853 -1.2033173 0.10325045 0.1153462 -0.60507566 0.6139142 0.054151528 -0.36601424 -0.181909 -0.23740922 -0.41039383 0.6545012 -0.29908416 -0.13378274 -0.11535353 -0.57769734 -0.09333993 0.7313477 -0.7518738 -0.12689486 -0.12633334 0.954583 -0.28365347 0.45099115 0.7142792 0.5034677 0.048579205 -0.22569655 0.37288052 0.35765022 0.5664256 0.50623626 -0.78689426 0.14042614 1.3091706 0.0070924032 -0.5894011 0.37747422 -0.19689293
45 -0.26363483 0.048759636 0.81459665 0.1324501 -0.17849527 -0.590556 0.31439126 -0.16241953 -1.0837842 -0.16694793 0.8822588 -0.69479597 -0.82648265 -0.22416577 0.61811906 -0.040092934 0.20723817 -0.5166434 0.30119827 0.09035829 0.2736596 0.55314803 0.30559602 -0.2214175 0.2929485 0.6689973 -0.78682894 0.40927628 0.0294468 -0.44942513 0.14390421 -0.11911506 -0.3437443 -0.32231 -0.057850145 0.13608561 0.3384933 -0.08810863 0.41792434 -0.55611485 -0.018067535 -0.12047858 0.29005748 -0.9415682 0.03847229 -0.33016476 0.34741822 -0.12784077 -0.01308092 0.4765453 0.4620406 0.5243213 -0.049417652 0.45316923 0.23829785 -0.24962936 0.32430208 -0.5536925 -0.04410523 0.6581528 0.1008297 -0.58967704 -0.36268562 -0.20433488
35 0.7075826 -0.059704058 0.43129835 -0.41661936 -0.6986543 -1.2180388 0.6710332 -0.5119037 -0.95404136 -0.20974512 0.13103889 -1.29796 -1.4982256 -0.5742293 0.34344748 0.87260777 0.7321908 -0.7535384 0.5709246 0.84279805 0.35828444 1.1813287 -0.13709205 -0.015297836 0.5074406 0.54891115 -1.1804526 0.10620974 0.10464862 -0.6025857 0.6130095 0.048596866 -0.35344014 -0.17235756 -0.251988 -0.42549345 0.65604603 -0.31901482 -0.13244548 -0.09421222 -0.5566355 -0.09895004 0.7163843 -0.72159547 -0.1090571 -0.12742794 0.9618801 -0.26800534 0.46079248 0.72254497 0.5006061 0.04610639 -0.22717032 0.35311297 0.36787918 0.55282915 0.48658958 -0.76631135 0.1666792 1.290048 0.019269487 -0.58554155 0.39012963 -0.2105593
8 0.61011 -0.06504067 0.41192046 -0.3667785 -0.61808604 -1.0874605 0.60590774 -0.45527786 -0.89710003 -0.18456131 0.14341062 -1.1823744 -1.354336 -0.498875 0.32072228 0.7761738 0.6399244 -0.6773119 0.51750726 0.74758536 0.34631982 1.0637254 -0.14008476 -0.01796526 0.44892296 0.48245135 -1.1050555 0.10151523 0.08578477 -0.5473075 0.5401362 0.046247162 -0.3053123 -0.16626635 -0.21220428 -0.38062236 0.59112173 -0.2695367 -0.10529058 -0.11171875 -0.5009217 -0.094230995 0.6468105 -0.68630916 -0.11544701 -0.12135443 0.8596152 -0.25788334 0.41291153 0.6485297 0.4670591 0.06569928 -0.21517506 0.3508312 0.31633 0.4887204 0.43825144 -0.6964671 0.12483263 1.1847705 0.030755835 -0.5470498 0.35097697 -0.18158203
77 0.6463025 -0.05675098 0.4133118 -0.38323197 -0.6488268 -1.1555039 0.6239981 -0.47613776 -0.9228053 -0.202244 0.14106613 -1.2356032 -1.4436567 -0.55683154 0.34122157 0.8289285 0.6892646 -0.71956223 0.5613944 0.7874609 0.35619852 1.1404599 -0.14759669 -0.0233044 0.47429386 0.50735575 -1.1492058 0.1133194 0.09268681 -0.5619151 0.56897336 0.028280163 -0.3269027 -0.15744932 -0.23970217 -0.3944483 0.613854 -0.28332093 -0.12857218 -0.119238734 -0.54603887 -0.08684158 0.7031452 -0.6944852 -0.093928404 -0.14123778 0.91291916 -0.2543063 0.4387922 0.67520493 0.49768445 0.04394361 -0.20805351 0.3641187 0.34330374 0.5358377 0.48243833 -0.7303201 0.15614584 1.234898 0.018995006 -0.54849756 0.37299478 -0.20480871
52 0.95262486 -0.13887097 -0.31549305 -0.5609163 -0.52531207 -0.6530231 0.37546626 -0.35830298 0.0738077 -0.05395236 -0.71648955 -0.65433913 -0.7120975 -0.37015742 -0.23698056 0.9136806 0.54796255 -0.22038671 0.27414548 0.7738905 0.09382019 0.694631 -0.3955554 0.17507187 0.24075997 -0.096988365 -0.45191237 -0.2908907 0.07319667 -0.16809954 0.4629961 0.15797244 -0.036510658 0.16353628 -0.22647345 -0.5495488 0.34059432 -0.2389496 -0.52305424 0.439817 -0.561185 -0.008005981 0.475127 0.13800102 -0.16236912 0.1519 0.6237256 -0.16420831 0.49299526 0.2508672 0.05003376 -0.44905898 -0.1676683 -0.02335783 0.09894608 0.82447195 0.16675095 -0.24840404 0.20228906 0.69623667 -0.073095426 -0.026628708 0.7350837 -0.036577743
39 0.65502346 -0.06277864 0.42555338 -0.41750482 -0.6768203 -1.171652 0.656559 -0.49236563 -0.9474546 -0.20392232 0.14085262 -1.2628571 -1.4379933 -0.56057197 0.35838377 0.84943473 0.70589274 -0.71795 0.56886095 0.80133176 0.3416221 1.1576107 -0.14817159 -0.031575732 0.50211686 0.51660234 -1.170617 0.10203123 0.10068263 -0.57602376 0.58217967 0.04411026 -0.34379864 -0.15847366 -0.2524785 -0.39438942 0.61928236 -0.29296637 -0.1073235 -0.102552414 -0.54425275 -0.09948394 0.71644354 -0.7284104 -0.11727091 -0.13542384 0.91060704 -0.25001615 0.44243544 0.7049489 0.5054927 0.045094237 -0.22326988 0.348127 0.3424973 0.5176364 0.48392847 -0.74437505 0.13405634 1.2590902 0.023175014 -0.5701433 0.36096817 -0.2089811
32 0.96754384 -0.13115877 -0.33179435 -0.5728266 -0.5160443 -0.65254325 0.36842027 -0.3396166 0.06909106 -0.034575913 -0.7594226 -0.67352873 -0.7334026 -0.3715047 -0.24580146 0.92290056 0.5693923 -0.21644159 0.28272018 0.78954697 0.09227063 0.70539457 -0.41464195 0.1776161 0.2389333 -0.0991851 -0.453412 -0.30713505 0.06607861 -0.1704598 0.46115655 0.16253346 -0.040520497 0.15936579 -0.22889291 -0.58125824 0.32870412 -0.2668016 -0.5572129 0.43835193 -0.54829574 0.0026436618 0.45127702 0.17251474 -0.1744203 0.15916522 0.62551343 -0.16950695 0.48004842 0.23551711 0.062892884 -0.4356666 -0.14840624 -0.0311576 0.118854254 0.82663375 0.18480238 -0.21811466 0.22161227 0.7014463 -0.08560798 -0.029306157 0.78425634 -0.02135947
20 0.70830274 -0.07365465 0.4685894 -0.43989202 -0.7227652 -1.2581882 0.699279 -0.51345634 -1.0256629 -0.21127959 0.13717236 -1.3710203 -1.5796517 -0.60619664 0.37319872 0.9066951 0.759037 -0.7853483 0.6110589 0.8613096 0.38570747 1.2465647 -0.13424897 -0.010752121 0.5308227 0.5754039 -1.2683148 0.108960904 0.0927085 -0.6332546 0.6191622 0.032314982 -0.36675647 -0.17657003 -0.2773707 -0.4232694 0.69300556 -0.31155342 -0.12855841 -0.10465999 -0.5666099 -0.11176152 0.7654098 -0.79572666 -0.12760577 -0.14540654 1.0024523 -0.28509688 0.45559862 0.75758314 0.52170414 0.076239415 -0.23175028 0.38031134 0.38378006 0.5880214 0.5104827 -0.816374 0.17162615 1.3568685 0.03992408 -0.6347039 0.39559132 -0.20900637
80 0.9633477 -0.14575097 -0.3563915 -0.5688008 -0.52472836 -0.62745035 0.36109102 -0.3592622 0.103667624 -0.048746843 -0.7590417 -0.6467743 -0.70322454 -0.36520606 -0.25073975 0.91458887 0.5661158 -0.20526503 0.28126824 0.7646112 0.09554067 0.6903481 -0.42068556 0.17773801 0.23702784 -0.097728305 -0.45055184 -0.32134032 0.09250604 -0.17837816 0.4701371 0.17170522 -0.034962744 0.16174753 -0.21780217 -0.5536114 0.31669062 -0.25967413 -0.5570367 0.46415028 -0.565247 0.012837126 0.45546 0.16306067 -0.16516238 0.16609193 0.6143994 -0.16590418 0.4806664 0.22625461 0.04970779 -0.46135336 -0.15241262 -0.03322117 0.113216385 0.832522 0.15880266 -0.21884215 0.20450625 0.66219425 -0.058451924 -0.028820354 0.7523692 -0.00795166
10 0.74348336 -0.071513206 0.4706808 -0.44811943 -0.7318745 -1.2891171 0.6908491 -0.5374821 -1.0240742 -0.21013182 0.15063933 -1.3628274 -1.5781602 -0.5857188 0.3781409 0.90774024 0.76602685 -0.7860404 0.59957105 0.86384153 0.39704356 1.2638319 -0.16629793 -0.029626394 0.5386006 0.5705181 -1.2743571 0.12561038 0.096331544 -0.62713814 0.646604 0.043310903 -0.36093527 -0.18035759 -0.27924362 -0.43115368 0.6862358 -0.33575466 -0.12027643 -0.123568915 -0.5800931 -0.11772508 0.75403154 -0.7899211 -0.11274295 -0.1506464 1.0092268 -0.28901517 0.48860547 0.7614358 0.5480586 0.07006295 -0.25502044 0.37318873 0.3713357 0.58396155 0.5279805 -0.8017564 0.1567983 1.3660264 0.0180754 -0.62797225 0.41502228 -0.23561059
31 -0.22298801 0.051935345 0.7949124 0.11570518 -0.17653762 -0.6036427 0.32841352 -0.17359182 -1.04987 -0.17117189 0.88996 -0.69311446 -0.82252735 -0.23754252 0.609242 -0.010898189 0.1990091 -0.5374999 0.30537444 0.07522424 0.29403856 0.53957784 0.2586116 -0.19629993 0.25070676 0.661684 -0.7863625 0.41294324 0.032580376 -0.40721405 0.12804295 -0.11554115 -0.31904823 -0.34225956 -0.057419203 0.12852003 0.34377956 -0.06712421 0.4408925 -0.5523398 0.008127229 -0.09993169 0.26102078 -0.9144712 0.039625954 -0.31700182 0.3438753 -0.13361591 -0.027641447 0.49395585 0.47952083 0.46966484 -0.06505862 0.4136197 0.267863 -0.25114566 0.33809575 -0.5332024 -0.075846754 0.6506772 0.086075 -0.586683 -0.36616346 -0.20998575
67 0.661486 -0.076587886 0.41529882 -0.41223747 -0.6714191 -1.1702052 0.6445596 -0.4925534 -0.9374918 -0.20943101 0.11570988 -1.2600199 -1.4543332 -0.5607251 0.3331068 0.8269309 0.70578575 -0.73790896 0.5480956 0.81100976 0.36255425 1.139764 -0.12894712 -0.030650914 0.4924187 0.53444064 -1.1621981 0.11783259 0.09582927 -0.5757962 0.5919178 0.024208907 -0.34746313 -0.17498827 -0.24365711 -0.40911034 0.63224953 -0.30696183 -0.120001584 -0.103387766 -0.52969486 -0.11603956 0.70072067 -0.70266825 -0.09789903 -0.13460241 0.9193635 -0.27223608 0.43537822 0.677011 0.47538334 0.05499826 -0.2217336 0.3653134 0.3336186 0.5410141 0.4787393 -0.75064397 0.1478207 1.2574847 0.011458529 -0.566397 0.379096 -0.19975948
94 0.6532138 -0.050014623 0.42981684 -0.38653088 -0.6339532 -1.1496497 0.638647 -0.46166703 -0.91676724 -0.20719461 0.1361818 -1.2046382 -1.4240328 -0.5307928 0.33611968 0.81472015 0.69009274 -0.7166694 0.55427784 0.760911 0.35265878 1.1313907 -0.14019117 -0.03498113 0.48789263 0.49682754 -1.1395987 0.10015755 0.082317114 -0.5526172 0.5763081 0.037059665 -0.3147777 -0.1435892 -0.22653605 -0.37766144 0.6223271 -0.27644873 -0.107629776 -0.09422268 -0.5345327 -0.08569259 0.69716436 -0.67978644 -0.12216564 -0.13500965 0.8919069 -0.2487687 0.40855837 0.6701745 0.48648062 0.06807409 -0.2208321 0.34998912 0.348822 0.5159732 0.4675669 -0.73538417 0.14322218 1.2194928 0.027554585 -0.5671997 0.3533245 -0.19313204
3 0.97991574 -0.14884226 -0.31786993 -0.5620006 -0.54689413 -0.65963864 0.37179694 -0.3661552 0.07256169 -0.05040553 -0.74973506 -0.6795732 -0.7571916 -0.38729137 -0.24761075 0.9435919 0.55878353 -0.23284064 0.28547108 0.80353016 0.09209934 0.7133522 -0.40031233 0.16850434 0.2577569 -0.08493502 -0.4870258 -0.31644103 0.09371083 -0.19811895 0.4795225 0.1569256 -0.0368191 0.15775844 -0.23192735 -0.5730135 0.3313058 -0.26256862 -0.5485805 0.44012257 -0.58192325 -0.0119078085 0.48673794 0.14555307 -0.15391712 0.16363767 0.6473958 -0.165596 0.48786253 0.2594472 0.048891705 -0.4369405 -0.14782535 -0.025192799 0.1297194 0.85038704 0.18755084 -0.23618987 0.22925617 0.710593 -0.08445642 -0.055646688 0.7680814 -0.02406508
23 0.9595513 -0.14940049 -0.3189916 -0.5343553 -0.5210937 -0.67231727 0.37598345 -0.35638323 0.043461744 -0.061105333 -0.7171298 -0.6475749 -0.7192061 -0.35162482 -0.21216826 0.9143813 0.5459277 -0.22335416 0.27134556 0.762756 0.10853936 0.7120569 -0.40802032 0.1647908 0.2631577 -0.08609537 -0.4656034 -0.28176636 0.08972329 -0.17822808 0.45673501 0.1792479 -0.027213935 0.16513936 -0.19871482 -0.5587816 0.33474672 -0.2522336 -0.51473594 0.446126 -0.54625046 0.010692277 0.47312793 0.15645173 -0.15568165 0.14227116 0.61027235 -0.13951282 0.4808705 0.25327054 0.06539311 -0.44104573 -0.14442565 -0.02480539 0.11910873 0.82537055 0.17338766 -0.23365426 0.19398919 0.7024735 -0.08461809 -0.027416771 0.757567 -0.021668078
98 -0.2574896 0.06985359 0.7378984 0.13875967 -0.16812931 -0.5367092 0.27831122 -0.15445213 -0.99173445 -0.16431965 0.8160565 -0.6135819 -0.7405179 -0.20226343 0.5608057 -0.048697904 0.17745607 -0.48190716 0.28127515 0.08856345 0.24811937 0.48345485 0.27037227 -0.20907371 0.24309084 0.60073674 -0.6971681 0.38307762 0.021570563 -0.40437946 0.1336566 -0.1199595 -0.29630342 -0.30906057 -0.050648846 0.13370743 0.28985852 -0.07017405 0.3772454 -0.50846803 0.0051291217 -0.10957148 0.2499644 -0.8287922 0.044418287 -0.2947578 0.3246728 -0.1139422 -0.04156255 0.4258468 0.4009829 0.45411894 -0.05218479 0.39751452 0.21480982 -0.25514796 0.28716627 -0.49683467 -0.06557876 0.59580314 0.09146516 -0.5034535 -0.35408673 -0.18355878
26 -0.21734396 0.0725352 0.75965905 0.10518281 -0.17268264 -0.5956199 0.32274994 -0.17027253 -1.0340378 -0.1945182 0.87405115 -0.6871104 -0.8229657 -0.2218479 0.58677024 0.0090769855 0.18588237 -0.5527921 0.27497295 0.0745968 0.28581545 0.5389916 0.2755903 -0.20483072 0.23853338 0.6405019 -0.78435874 0.3917137 0.03105649 -0.42136568 0.15188597 -0.1414228 -0.34114516 -0.33334094 -0.07338017 0.12068203 0.34120914 -0.045564592 0.43931967 -0.54325026 -0.0021701187 -0.10340465 0.27710965 -0.91699284 0.06041306 -0.2982615 0.37500483 -0.14800993 -0.02164229 0.5085608 0.45876592 0.4715387 -0.08174713 0.41841626 0.26679793 -0.22229773 0.3723943 -0.5467423 -0.0757398 0.62665135 0.09946964 -0.5981703 -0.35423863 -0.19288936
62 0.728266 -0.0719185 0.4315418 -0.4418634 -0.70375866 -1.2399063 0.6896482 -0.5136034 -0.97877216 -0.21299803 0.108700395 -1.327063 -1.5325283 -0.5824283 0.35676154 0.89881164 0.75065017 -0.7491897 0.59378946 0.8494557 0.35786724 1.2252823 -0.15489322 -0.008713352 0.51514584 0.55268985 -1.2073214 0.09060993 0.097536735 -0.6110897 0.6165959 0.027571004 -0.34459528 -0.1612103 -0.25712177 -0.43057212 0.65282845 -0.30087003 -0.14902839 -0.11061358 -0.56607383 -0.12017603 0.7390539 -0.74282295 -0.12231813 -0.14453691 0.9767066 -0.27520862 0.46861354 0.72044444 0.52211344 0.031212088 -0.22575592 0.36255166 0.36843446 0.56462973 0.49764565 -0.7878936 0.15228592 1.3284369 0.025351074 -0.58922875 0.39492765 -0.20238377
4 0.6862284 -0.07191626 0.4281875 -0.43320817 -0.68665016 -1.2174158 0.67233664 -0.49227828 -0.968306 -0.21602966 0.1169267 -1.3075663 -1.5155218 -0.56739396 0.35954604 0.8743326 0.71729666 -0.7436164 0.57851386 0.8166498 0.3734705 1.2024333 -0.16104347 -0.019445473 0.51960087 0.53385115 -1.198773 0.0962102 0.10862235 -0.5907338 0.6053454 0.033670966 -0.34998113 -0.17167959 -0.2655585 -0.40268818 0.65271735 -0.3066615 -0.12019849 -0.11617015 -0.55258626 -0.116112225 0.7229568 -0.72321296 -0.122728884 -0.13799222 0.94279444 -0.2785427 0.4486066 0.7049104 0.5176654 0.06432909 -0.23278862 0.36618203 0.35177663 0.57580906 0.4853372 -0.7576308 0.16894567 1.3002319 0.019733416 -0.5743083 0.4046232 -0.21431191
56 -0.2366829 0.07628076 0.78848815 0.13055335 -0.16456214 -0.5874433 0.28927153 -0.16371784 -1.053838 -0.17962244 0.8820082 -0.6628207 -0.78089446 -0.19600885 0.6132215 -0.01577288 0.17067981 -0.52995646 0.27545613 0.04519906 0.30637315 0.514085 0.2793651 -0.21241564 0.23323426 0.65131146 -0.7836411 0.4240987 0.019986212 -0.42554998 0.13931991 -0.12538701 -0.32177544 -0.34520432 -0.06330921 0.12431547 0.3354396 -0.03947367 0.4409074 -0.5619857 0.017449364 -0.095829256 0.25529706 -0.9231682 0.053217698 -0.3102846 0.35187396 -0.13159949 -0.04840984 0.5024199 0.46837217 0.48018515 -0.08242211 0.40470418 0.29549438 -0.24930595 0.33823526 -0.53197676 -0.083965026 0.6033242 0.10426535 -0.5883992 -0.38272735 -0.17543504
33 0.90839195 -0.138528 -0.2832676 -0.51747775 -0.49326697 -0.6187417 0.3479306 -0.33738196 0.04009035 -0.039763924 -0.6740557 -0.62388015 -0.70972055 -0.36319903 -0.22061248 0.85613567 0.54503876 -0.23731646 0.26778057 0.7466236 0.08385567 0.6754368 -0.36553612 0.15190423 0.24003023 -0.071307674 -0.439591 -0.28251725 0.06685544 -0.16721769 0.43201846 0.167142 -0.052895248 0.15657818 -0.21073635 -0.5356467 0.31861562 -0.24260916 -0.5000243 0.3989464 -0.5397683 -0.005402485 0.4404126 0.13600057 -0.13993552 0.14145954 0.58470756 -0.14097404 0.4483365 0.25003797 0.06864747 -0.40865058 -0.15890974 -0.033556584 0.09878275 0.77953476 0.17433673 -0.23286635 0.21545248 0.6469951 -0.06332501 -0.04828873 0.69414 -0.03851449
19 0.70006996 -0.07204765 0.4234898 -0.4027611 -0.6916606 -1.2030632 0.66369873 -0.49802876 -0.96392035 -0.2166617 0.112391755 -1.2760097 -1.490048 -0.56146246 0.3563672 0.8574712 0.73052245 -0.73058385 0.5678398 0.8186548 0.36029288 1.1873063 -0.1309834 -0.021431154 0.5012744 0.5289807 -1.1840875 0.09331168 0.09487 -0.60847336 0.59568465 0.04219204 -0.33752897 -0.16993208 -0.23851122 -0.41942227 0.6616154 -0.3000166 -0.12217688 -0.0967361 -0.5540612 -0.09893294 0.72548026 -0.7419613 -0.119398564 -0.1374856 0.9257032 -0.26252854 0.4546565 0.7014976 0.5114854 0.0494694 -0.22884332 0.37359396 0.34245637 0.5412313 0.4989807 -0.76797533 0.1649884 1.2860216 0.008516633 -0.5643716 0.39578494 -0.2170806
58 0.6396125 -0.0760914 0.43079883 -0.3858879 -0.65461296 -1.1456102 0.61979896 -0.47821444 -0.9099508 -0.21625046 0.11425379 -1.2220936 -1.4344896 -0.5483938 0.3491015 0.8334178 0.672558 -0.6988085 0.55954725 0.78885514 0.3366633 1.141443 -0.14807226 -0.0263624 0.48640576 0.5023557 -1.1525629 0.107287735 0.10631536 -0.580031 0.5619994 0.042497497 -0.3299358 -0.17395481 -0.22635709 -0.39253563 0.6237953 -0.2827683 -0.10124909 -0.09085521 -0.51654255 -0.112301715 0.6933054 -0.7025758 -0.10828397 -0.11619155 0.9080851 -0.27123648 0.440311 0.67488706 0.48189425 0.061658587 -0.22823331 0.35011858 0.3450459 0.5354395 0.47531182 -0.73132193 0.13049021 1.216584 0.035267044 -0.5718909 0.3779121 -0.19943911
69 0.65999126 -0.048684526 0.4480963 -0.3867936 -0.6453898 -1.1807286 0.6530918 -0.49254075 -0.94464576 -0.2181336 0.13629925 -1.2299312 -1.4528521 -0.5496877 0.34463465 0.82349765 0.693138 -0.715951 0.5589616 0.7880606 0.3450746 1.1387612 -0.14118463 -0.015578992 0.50393564 0.5372346 -1.1666167 0.0966 0.08030242 -0.58960116 0.5826186 0.026357232 -0.3344767 -0.14847903 -0.23497917 -0.3899811 0.64176196 -0.28126585 -0.11799792 -0.11842081 -0.5378441 -0.088817894 0.7133132 -0.71932405 -0.09313191 -0.12993158 0.9218093 -0.26991487 0.43630597 0.68685794 0.47153497 0.063055344 -0.23486824 0.34706 0.3520623 0.54486275 0.4724946 -0.7289537 0.15242057 1.2464185 0.0111063905 -0.55872554 0.35209882 -0.2088769
46 0.9569584 -0.15436625 -0.30941537 -0.55713606 -0.5164572 -0.66818714 0.3618502 -0.34943408 0.06997312 -0.037850637 -0.7400626 -0.67222685 -0.7170667 -0.37933406 -0.21720569 0.9177127 0.5403442 -0.2167251 0.30271095 0.76922876 0.101047374 0.68741506 -0.38846046 0.19157793 0.25673473 -0.098549485 -0.44674465 -0.30125943 0.077501714 -0.17256238 0.4626185 0.17685197 -0.048306804 0.16650307 -0.2229945 -0.5526211 0.34274697 -0.2458142 -0.516963 0.42923042 -0.5470391 0.014289574 0.4549235 0.1571947 -0.17480777 0.17075947 0.6214565 -0.14441693 0.49533352 0.2599927 0.049012434 -0.44493186 -0.15806459 -0.02371782 0.10799048 0.80061495 0.16026394 -0.21896602 0.22383785 0.6964544 -0.072803736 -0.03870469 0.74085975 -0.0065357513
11 0.92113477 -0.122788504 -0.31007022 -0.54087967 -0.50028753 -0.6375994 0.35560873 -0.3494737 0.04721666 -0.06561428 -0.68499655 -0.64159155 -0.7226381 -0.36634052 -0.22808495 0.88357717 0.55324924 -0.23116001 0.26947463 0.76667947 0.08298307 0.6965015 -0.37504134 0.17053582 0.2290653 -0.06289562 -0.46752447 -0.29302806 0.092864685 -0.19623573 0.43585786 0.1512858 -0.03517044 0.15225579 -0.21938759 -0.54206914 0.3414507 -0.22715124 -0.49174812 0.4161187 -0.5340279 0.006432395 0.45627955 0.14271185 -0.15078598 0.1459485 0.5976979 -0.16278239 0.48632085 0.23894742 0.068216294 -0.4219183 -0.1547531 -0.029035121 0.12041885 0.78285307 0.16085428 -0.23576595 0.20949222 0.6841116 -0.069279835 -0.032270405 0.71326333 -0.029757189
53 0.69755405 -0.07953138 0.46505156 -0.44432706 -0.71910214 -1.2560385 0.6985943 -0.51382023 -0.9854737 -0.22843228 0.12758304 -1.3224629 -1.5396833 -0.59557796 0.35592324 0.89498866 0.7258924 -0.76585543 0.5862181 0.8609527 0.37078175 1.2273835 -0.15793154 -0.032638066 0.5300122 0.5571285 -1.2354707 0.1040052 0.11504288 -0.6323854 0.6085802 0.040732365 -0.35782397 -0.15638092 -0.26031983 -0.4314882 0.65739715 -0.32720947 -0.14011712 -0.1204623 -0.5814433 -0.10947319 0.74713594 -0.76253116 -0.11392766 -0.13258904 0.9889652 -0.28577384 0.4691281 0.74044245 0.51211864 0.042631816 -0.24047166 0.36768365 0.38004595 0.58436745 0.52016026 -0.79933316 0.16433252 1.3288903 0.030425211 -0.61322063 0.39653224 -0.22461876
18 1.000782 -0.14738595 -0.34322512 -0.57757646 -0.554718 -0.67361224 0.37803462 -0.3479482 0.07779129 -0.03239838 -0.80593044 -0.69095165 -0.7383613 -0.38021705 -0.27509138 0.965008 0.58290726 -0.23840939 0.30461612 0.8190733 0.10973282 0.7386492 -0.4442338 0.19963205 0.26542872 -0.09732419 -0.452838 -0.33521208 0.09195247 -0.17800559 0.47914273 0.16840412 -0.027791487 0.18541719 -0.24234952 -0.5764956 0.34617543 -0.26341212 -0.57881933 0.47670996 -0.5761883 0.015038253 0.47147003 0.19831797 -0.16847266 0.16251703 0.654928 -0.15237136 0.5249411 0.26295716 0.03497245 -0.48540345 -0.16475973 -0.04860009 0.110423915 0.871141 0.1579501 -0.22647409 0.22845058 0.70592123 -0.06745125 -0.02247263 0.8189198 -0.020578424
60 0.9371272 -0.1399846 -0.3061908 -0.5425098 -0.49510765 -0.63520724 0.36329493 -0.32368279 0.044286557 -0.033076048 -0.70221347 -0.6490945 -0.7126139 -0.3697959 -0.22505513 0.8924184 0.5514864 -0.21109392 0.26993108 0.76707083 0.0799698 0.68669283 -0.3735689 0.17180437 0.23066692 -0.0941231 -0.4429274 -0.2915809 0.06316226 -0.17362578 0.45045835 0.17083557 -0.029345522 0.1582252 -0.22605973 -0.5306898 0.33519602 -0.2559096 -0.5166034 0.42343608 -0.54159296 0.00042474357 0.4426621 0.14452773 -0.1457579 0.15058386 0.5986854 -0.14513458 0.47193402 0.23439217 0.06941115 -0.44088668 -0.15560812 -0.025838338 0.09776638 0.7961669 0.18134755 -0.22827195 0.21702577 0.670109 -0.07558282 -0.04040324 0.73329526 -0.00990685
55 0.71725464 -0.05971024 0.42128608 -0.4376136 -0.683292 -1.2067976 0.67633367 -0.49930435 -0.93866223 -0.22476907 0.12703924 -1.3030322 -1.4995468 -0.5582804 0.33349738 0.8864792 0.7160616 -0.7559092 0.5776813 0.83696043 0.3545483 1.2017974 -0.16427936 -0.014099157 0.5228 0.53544754 -1.2047597 0.10402287 0.090982564 -0.5986863 0.6085991 0.05428002 -0.33346802 -0.17005256 -0.23756947 -0.42707655 0.66458875 -0.31910014 -0.14665683 -0.09664843 -0.57737064 -0.108879626 0.7318465 -0.7247552 -0.13427031 -0.14014012 0.9418484 -0.2722835 0.4648639 0.70954424 0.5174553 0.037412 -0.21972229 0.37247297 0.37153456 0.5666088 0.49164146 -0.7597001 0.13837425 1.3043958 0.01655178 -0.568734 0.4020221 -0.20305692
50 0.94434655 -0.15792286 -0.33959746 -0.5453445 -0.5184297 -0.6326874 0.351344 -0.34499112 0.097229935 -0.04066698 -0.73565745 -0.64402807 -0.6948341 -0.3445764 -0.23331477 0.9092767 0.5485719 -0.22135898 0.28814656 0.7477086 0.07599058 0.68665004 -0.4058771 0.16857882 0.2306626 -0.09386628 -0.43131557 -0.3014923 0.07821579 -0.16101164 0.4482135 0.15191223 -0.03283672 0.17938733 -0.21271096 -0.56007177 0.3287947 -0.23031941 -0.52069205 0.44730622 -0.56234604 0.0025483952 0.4539061 0.16302048 -0.1432022 0.14766291 0.5810141 -0.15915613 0.493088 0.21951765 0.056465946 -0.46102706 -0.142757 -0.032779302 0.10469585 0.8272983 0.16768 -0.21010101 0.21368726 0.6690835 -0.06497343 -0.0045082364 0.7500275 -0.02951973
78 0.9372799 -0.14185157 -0.32086086 -0.5533439 -0.50200003 -0.6640667 0.38017446 -0.3397105 0.04630415 -0.050831225 -0.7039431 -0.6766611 -0.7247932 -0.35136092 -0.22903763 0.8955219 0.5400203 -0.2470224 0.29601184 0.77877855 0.10943492 0.70001215 -0.39257842 0.1808538 0.23204789 -0.09006618 -0.45463094 -0.30812275 0.07610888 -0.1949673 0.46477082 0.15778564 -0.024237808 0.15323636 -0.2252749 -0.55642706 0.33598346 -0.25755322 -0.51283354 0.4412629 -0.5465646 -0.009662102 0.4513429 0.13939472 -0.15823533 0.1432133 0.6287331 -0.14824086 0.47858903 0.25561887 0.069663234 -0.42660376 -0.13886553 -0.022475088 0.106410794 0.80712855 0.16432409 -0.22211377 0.19180785 0.6880652 -0.0726271 -0.0384849 0.7525775 -0.035970077
99 -0.2072045 0.04778628 0.76117224 0.10961491 -0.20943467 -0.60163915 0.3040794 -0.16743505 -1.0394936 -0.1480782 0.7944158 -0.6985491 -0.8111093 -0.24995522 0.5629419 0.0035768973 0.22170503 -0.52302665 0.3234432 0.13776131 0.26736772 0.53466237 0.2655176 -0.21612695 0.30044475 0.6063484 -0.76663774 0.38940528 0.021086065 -0.43972588 0.16171762 -0.1214114 -0.32276702 -0.31504005 -0.05577819 0.08565487 0.3278093 -0.10207043 0.35966653 -0.5068988 -0.051108822 -0.13252105 0.29989985 -0.8648524 0.03623821 -0.2804362 0.35486987 -0.11203224 -0.014988165 0.47705406 0.45117086 0.47839254 -0.07837787 0.41614577 0.22131205 -0.20399249 0.30891007 -0.56070346 -0.027075525 0.6727392 0.07004071 -0.5472139 -0.29951963 -0.21210745
5 -0.24930295 0.045427177 0.77778476 0.13284509 -0.20634918 -0.58514833 0.3235229 -0.17524053 -1.0572119 -0.15853666 0.84574497 -0.6838484 -0.8221102 -0.25977746 0.6082372 -0.023217961 0.19385399 -0.5094779 0.32096922 0.1099031 0.26787722 0.54016215 0.2734273 -0.20084096 0.2830903 0.61335826 -0.7820453 0.41346157 0.027017063 -0.44719714 0.16457148 -0.10673508 -0.31460384 -0.3276624 -0.06942122 0.117842376 0.32557252 -0.0733541 0.40881017 -0.54185784 -0.010638083 -0.13933915 0.29512978 -0.89221203 0.03870375 -0.3103961 0.3658318 -0.107849196 -0.018790726 0.46209124 0.43222547 0.49498197 -0.054535415 0.43211251 0.23171236 -0.24392211 0.32970947 -0.5605839 -0.036738977 0.6747209 0.07686257 -0.54340065 -0.34357128 -0.21774259
66 0.9126906 -0.1339383 -0.31474143 -0.53938985 -0.50806576 -0.63069236 0.3651652 -0.3285727 0.053448305 -0.05500561 -0.705901 -0.63346 -0.6999145 -0.3704408 -0.20908375 0.8985902 0.5574168 -0.24016273 0.27814132 0.7550922 0.099128105 0.68385714 -0.39237 0.18107611 0.25061357 -0.07595641 -0.46075502 -0.29309985 0.06951177 -0.17483363 0.4466558 0.15650441 -0.056938566 0.14738272 -0.20129506 -0.5275437 0.33238715 -0.24807657 -0.49281746 0.42002118 -0.5364119 0.013407032 0.43891853 0.14919357 -0.13603628 0.15286185 0.6054336 -0.1458593 0.471206 0.23556587 0.06148408 -0.41970336 -0.16150454 -0.020874597 0.1232009 0.7809869 0.172772 -0.21743318 0.18857397 0.67811376 -0.07938842 -0.0549344 0.7387436 -0.032099698
95 0.93747914 -0.15174553 -0.32197964 -0.55791146 -0.51296043 -0.6499585 0.35679814 -0.3580703 0.045161508 -0.055600252 -0.7213636 -0.66790015 -0.719451 -0.35526752 -0.21271196 0.9100895 0.5472703 -0.22752844 0.30108884 0.7654044 0.10339387 0.69880605 -0.40696487 0.18570548 0.25679192 -0.07675758 -0.44415444 -0.3012278 0.08729087 -0.19755034 0.4396633 0.1683158 -0.03144523 0.16062814 -0.22686198 -0.5402727 0.33681187 -0.24177508 -0.5212738 0.4370557 -0.54021937 -0.011914712 0.44519562 0.15105672 -0.15972684 0.13741308 0.6056718 -0.15182579 0.49770206 0.24761476 0.05645208 -0.44245335 -0.16663423 -0.017838625 0.11446748 0.79437554 0.17406859 -0.25100657 0.19965847 0.69259864 -0.06526377 -0.029742468 0.75213253 -0.02162873
2 -0.22804348 0.06233193 0.7994856 0.13713776 -0.18360107 -0.59048754 0.325948 -0.17069909 -1.0691155 -0.14725353 0.85380363 -0.69207937 -0.81852275 -0.25263926 0.6180058 -0.00448702 0.21268955 -0.50592154 0.32968572 0.09953748 0.26117897 0.5327602 0.26974678 -0.23148969 0.2809324 0.6190397 -0.7579065 0.3987563 0.015245525 -0.44888875 0.14835054 -0.13925974 -0.3282868 -0.3147479 -0.065571 0.13277052 0.3311959 -0.09057994 0.4068717 -0.5420636 -0.027185945 -0.14180788 0.27639538 -0.89644283 0.04900081 -0.3233812 0.35289067 -0.12120849 -0.022461317 0.48271886 0.44809195 0.49625865 -0.046656054 0.41271025 0.2495616 -0.22340533 0.326099 -0.5451694 -0.054267343 0.65290856 0.07021557 -0.54252785 -0.362617 -0.21630603
72 -0.2802139 0.05008437 0.8372207 0.13499957 -0.18916023 -0.5714991 0.29277214 -0.14169668 -1.0951116 -0.15018924 0.8976843 -0.6866319 -0.82327044 -0.24598615 0.6340847 -0.034526344 0.19137746 -0.5040432 0.31850415 0.090930745 0.27579123 0.5083919 0.31532305 -0.24129191 0.2769011 0.6512745 -0.76519275 0.40842032 0.025007859 -0.43146315 0.12462873 -0.11319996 -0.34791067 -0.31867674 -0.066494085 0.15688862 0.34602115 -0.08837828 0.43704912 -0.57888496 0.014240383 -0.11433221 0.2638107 -0.91753846 0.041484043 -0.33701512 0.34417757 -0.13509095 -0.03317236 0.46264836 0.46581215 0.5324029 -0.05810909 0.43349573 0.22497077 -0.26354322 0.32570463 -0.5418994 -0.052250676 0.64812243 0.092959404 -0.5495402 -0.36846596 -0.20017125
83 -0.25182208 0.040505778 0.77449673 0.11226105 -0.1788794 -0.55175227 0.29132193 -0.14528614 -1.0330019 -0.13778374 0.8280641 -0.6468495 -0.79435635 -0.21677482 0.5953342 -0.02336158 0.20273414 -0.4802367 0.30132914 0.1063578 0.24776937 0.50376904 0.2658255 -0.21587713 0.2735854 0.589869 -0.7284636 0.40522355 0.029541617 -0.40956017 0.13606721 -0.10742862 -0.32803047 -0.31471735 -0.03973722 0.13258208 0.3097975 -0.08883001 0.40217966 -0.51310223 -0.0027244308 -0.13243063 0.27013212 -0.856719 0.03439468 -0.29441178 0.3267484 -0.104776606 -0.027660087 0.46113792 0.42975447 0.49223277 -0.059074063 0.4150045 0.21154664 -0.24829444 0.3029955 -0.533536 -0.028180353 0.6369269 0.07060802 -0.5129201 -0.33255818 -0.21527284
51 -0.18824631 0.058559526 0.7315869 0.123452425 -0.1637958 -0.5628522 0.3075885 -0.14890487 -0.99756134 -0.18748344 0.8507389 -0.6706043 -0.8048303 -0.20191067 0.5624698 0.025752533 0.17289619 -0.50976056 0.26688996 0.09077422 0.30872327 0.5367099 0.25010112 -0.2062817 0.22197801 0.63560337 -0.7546318 0.3796529 0.041936494 -0.3882088 0.12653877 -0.11815015 -0.3339136 -0.3404519 -0.061671954 0.09670567 0.32366008 -0.069647275 0.40818608 -0.53797346 0.013224761 -0.08824376 0.26736215 -0.88599944 0.06273113 -0.29666707 0.33806363 -0.15196042 -0.02007725 0.49631125 0.46105993 0.46806517 -0.060449883 0.39873007 0.288937 -0.20497768 0.3599301 -0.5070117 -0.079776615 0.62130976 0.07987016 -0.5859464 -0.3639205 -0.17874312
76 0.6653396 -0.07570422 0.43186727 -0.39077663 -0.6538421 -1.1486726 0.6333158 -0.48737058 -0.91595703 -0.20812885 0.11131263 -1.23144 -1.4410225 -0.55207306 0.34510383 0.8449934 0.7038283 -0.716949 0.5641185 0.7973761 0.35693857 1.1379212 -0.13558544 -0.0092833415 0.4730294 0.5267173 -1.1457678 0.10918138 0.092582695 -0.5814148 0.5663384 0.03301909 -0.33787653 -0.16779445 -0.2395663 -0.3820915 0.63278764 -0.30494896 -0.13151231 -0.10579545 -0.5291078 -0.115624785 0.70920587 -0.6999573 -0.11573975 -0.11532485 0.92321235 -0.25951606 0.44018906 0.6680111 0.4708305 0.045436267 -0.2067784 0.35768434 0.3541671 0.5222653 0.47919038 -0.73417634 0.14527147 1.2319139 0.02839145 -0.5754761 0.37960774 -0.19258432
73 -0.21999452 0.05091807 0.74137306 0.10752771 -0.17797232 -0.5639417 0.2918034 -0.16185325 -1.031842 -0.18318732 0.84793097 -0.6726079 -0.77712035 -0.19375387 0.58477944 -0.0005228527 0.1692519 -0.52178586 0.27863896 0.08123367 0.30936113 0.5212462 0.27721277 -0.19345029 0.24393532 0.64467096 -0.77109754 0.3840881 0.043737687 -0.38382363 0.13849325 -0.1353161 -0.31122848 -0.33468077 -0.059854526 0.1305394 0.33208326 -0.054896265 0.42915323 -0.54961485 0.00025788727 -0.101271845 0.25024045 -0.87799114 0.07019692 -0.3220098 0.33654258 -0.1501912 -0.025968345 0.47653392 0.45363948 0.4571359 -0.060859714 0.4174717 0.2620207 -0.24478549 0.35152942 -0.5334344 -0.053281914 0.62169194 0.07827008 -0.59024286 -0.380633 -0.18281542
87 -0.16859683 0.059711944 0.72408056 0.0965508 -0.1815637 -0.58801615 0.2961293 -0.16841322 -0.9870616 -0.18029109 0.8045265 -0.6737913 -0.78398323 -0.22040883 0.572059 0.028345417 0.1750199 -0.5335992 0.27096167 0.10182972 0.3026951 0.5431081 0.2537637 -0.18771172 0.25206307 0.6180151 -0.7722221 0.38289475 0.0380886 -0.38587582 0.13650845 -0.13363338 -0.31838858 -0.3319228 -0.06664663 0.093780994 0.32485643 -0.07521976 0.4140398 -0.51484036 -0.022415621 -0.1018525 0.2734935 -0.8841222 0.046393316 -0.29076952 0.3749449 -0.15661038 -0.0153413685 0.4801237 0.4573262 0.42825204 -0.08388815 0.37797865 0.28273857 -0.21005973 0.34383583 -0.52295065 -0.055703994 0.61018324 0.101657964 -0.5722342 -0.32959267 -0.19445679
40 -0.20865221 0.048378825 0.6768999 0.10718758 -0.16205472 -0.5290242 0.2699749 -0.15101273 -0.9039772 -0.1210112 0.7082264 -0.6022009 -0.69983524 -0.20672101 0.49816984 0.00557348 0.17929266 -0.41613525 0.2867595 0.114153534 0.21897835 0.45034817 0.2471185 -0.18480758 0.2699924 0.53291285 -0.6720764 0.33881497 0.023677174 -0.38457933 0.15721639 -0.1066615 -0.2945001 -0.2568065 -0.05774957 0.08319287 0.29074475 -0.065883435 0.32170737 -0.45306563 -0.043083925 -0.109826766 0.24523254 -0.73619765 0.026544034 -0.2566537 0.3085108 -0.08596999 -0.008850357 0.3843262 0.36416906 0.418272 -0.036131565 0.3713119 0.18691361 -0.19960622 0.2502364 -0.4704252 -0.045254342 0.5805905 0.06939059 -0.46196425 -0.29306406 -0.17263402
