100 64
33 0.71329117 -0.5175348 0.49106905 -0.10429968 -0.10288669 -1.0366316 0.51803976 0.1199195 -0.58524895 -0.29620004 0.577219 -0.3017647 -0.12304299 0.04848562 0.41590324 0.6179584 0.18153211 -0.33744386 -0.10303137 0.7711715 0.45942616 0.9209191 0.3860696 -0.42916352 0.42637303 0.83464766 -0.5998257 0.18741257 0.67538685 -0.16416073 -0.6034246 0.43546814 -0.59072363 -0.69835114 0.17908043 -0.3527757 0.031184582 0.007588715 0.5937446 0.4936309 -0.21302551 -0.051465724 0.12410883 -0.48603988 0.4086155 0.10173982 -0.06682921 -0.54887545 0.3409237 0.74236006 -0.088254996 -0.031875722 0.26890615 0.89047486 0.9070273 0.61050487 0.35428157 -0.2962468 -0.5022822 0.3318062 0.27282298 -0.7918236 -0.1481552 0.111161895
0 0.20461348 0.1862181 -0.442971 0.18811576 0.22788341 -0.13220797 -0.47116375 0.567229 0.582092 0.08663476 0.17289104 1.2961451 0.5326671 1.4310439 -0.03561348 -0.19688317 -0.87705976 -0.12007021 -0.42566156 -0.6177597 0.23786901 -0.86698854 0.017015181 -0.93515867 0.1973957 0.79688716 -0.012152951 0.18746597 -0.75607836 0.123898484 0.48194376 -0.015168502 0.09489743 0.033370033 0.43462873 0.21778515 -0.41187847 0.30984673 -0.32241595 -0.102559075 -0.92702997 1.1596875 -0.18235323 -0.23186077 -0.7602499 0.32771274 -0.16843095 -0.2963992 0.0032587799 0.1074426 0.20272765 0.6527647 -0.14704135 0.32374772 0.15814583 0.5228352 -0.10259327 -0.14246278 -0.3862562 -0.12150847 -0.032655943 -0.58839685 -0.54871464 0.6353564
41 0.23161666 0.229673 -0.46004468 0.14957379 0.20881096 -0.20333908 -0.48865363 0.5045387 0.6056001 0.09758127 0.25218266 1.3404711 0.53717077 1.4003085 -0.039436623 -0.19296427 -0.84968436 -0.16793469 -0.4264169 -0.65215695 0.2436285 -0.84483385 -0.009718405 -0.9611731 0.22552128 0.8245871 -0.044099875 0.23024634 -0.7436223 0.16140416 0.49513343 -0.0074611227 0.098909 0.055819187 0.44171175 0.21018079 -0.38583747 0.33484828 -0.32911575 -0.12100006 -0.94672865 1.2228941 -0.18956688 -0.26308796 -0.71156156 0.32529753 -0.14799593 -0.31956962 0.020300426 0.1147866 0.24986292 0.6295366 -0.22300342 0.2987521 0.19494824 0.50609887 -0.07969874 -0.15503137 -0.40607774 -0.103517085 -0.068964794 -0.6084055 -0.55918837 0.57873636
46 0.21455723 0.14006212 -0.400163 0.17595667 0.2276978 -0.14624204 -0.44998387 0.5549995 0.5447925 0.10303597 0.13992973 1.2084247 0.50588006 1.373811 -0.026044106 -0.15426832 -0.8580694 -0.09309083 -0.42590305 -0.5830801 0.2586439 -0.81066746 0.039900623 -0.8908365 0.19433767 0.7741014 -0.025235157 0.16586517 -0.7214482 0.1021785 0.42290428 -0.028637238 0.10335669 0.015077159 0.41515368 0.200678 -0.40024137 0.29253304 -0.28675792 -0.10734911 -0.89856607 1.0957587 -0.18548281 -0.24413534 -0.72671646 0.33301362 -0.1529645 -0.27625573 -0.0011830266 0.10793617 0.17497608 0.61716413 -0.11727599 0.33209956 0.1651414 0.50861514 -0.10447797 -0.13463546 -0.38230336 -0.11135902 -0.036798578 -0.5934887 -0.52391094 0.60405624
61 0.17732263 0.13693257 -0.41988912 0.19992968 0.25418103 -0.084635414 -0.4531656 0.60260844 0.5664969 0.1246529 0.10554051 1.2736241 0.50712097 1.4627368 -0.031411953 -0.17413308 -0.8938777 -0.07220855 -0.43761343 -0.5981694 0.2654775 -0.885921 0.023105662 -0.9118968 0.18105218 0.74665236 0.003730597 0.1663262 -0.7550706 0.089262076 0.433686 -0.03473147 0.12035855 0.041199353 0.41355404 0.19783056 -0.39203358 0.26750603 -0.31764674 -0.105403356 -0.9112142 1.1264338 -0.17138997 -0.2376896 -0.7888878 0.37256274 -0.19247757 -0.2575454 0.0048945635 0.064407215 0.15741615 0.6514006 -0.101914406 0.3163446 0.15085216 0.5352244 -0.123557344 -0.13197497 -0.3797033 -0.1353152 -0.0018751113 -0.59097165 -0.5277399 0.68422264
65 0.7431543 -0.55299616 0.5865794 -0.05734145 -0.09881056 -1.0377681 0.5553112 0.18014476 -0.60552794 -0.21299854 0.4502705 -0.41105404 -0.19848904 -0.05754119 0.41427824 0.62500453 0.1196562 -0.24094954 -0.13333833 0.80907446 0.45877987 0.8601659 0.49092025 -0.43694088 0.33133167 0.7619421 -0.57471746 0.11544545 0.5608076 -0.15604195 -0.5233274 0.37800053 -0.62733454 -0.7238992 0.055698164 -0.34747532 -0.024864476 0.04481877 0.66712856 0.50297374 -0.15622081 -0.08719862 0.14692271 -0.48938876 0.25896516 0.118583985 0.046178233 -0.4982977 0.237622 0.69791466 -0.10966182 0.03547735 0.4133773 0.9369115 0.7853912 0.678254 0.30793822 -0.27873343 -0.430776 0.35850856 0.28576806 -0.87866676 -0.07935909 0.19116274
67 0.17708014 0.22672491 -0.44333783 0.14921902 0.18785746 -0.15685387 -0.50260025 0.3996223 0.5435501 0.08435908 0.22962713 1.1758922 0.4567142 1.2098224 -0.041766748 -0.20557201 -0.7556804 -0.1602849 -0.37035376 -0.61636555 0.1975237 -0.7707694 -0.033639226 -0.8416952 0.18091817 0.70188725 -0.043191563 0.19301134 -0.7309773 0.16163635 0.48569518 -0.06117491 0.13180245 0.112355754 0.385103 0.20583451 -0.32100424 0.27365568 -0.3239621 -0.12649772 -0.8495284 1.086199 -0.18823199 -0.17795412 -0.65101343 0.2436572 -0.1025212 -0.25058994 0.02130469 0.050454956 0.26005894 0.55785275 -0.21685141 0.2099088 0.11189648 0.4198795 -0.07901148 -0.13087624 -0.34959286 -0.034453046 -0.1043007 -0.500118 -0.49596843 0.47749934
34 0.75978714 -0.5671965 0.64457875 -0.042686883 -0.0717824 -1.0573342 0.6165791 0.22657193 -0.6220118 -0.19025421 0.39382485 -0.38708213 -0.13860935 -0.07497002 0.3918325 0.5878942 0.10902487 -0.19782172 -0.15262379 0.7991799 0.43899465 0.8134295 0.49673063 -0.37679744 0.28299236 0.73216116 -0.5430959 0.12797332 0.5476531 -0.18164922 -0.5311132 0.40329662 -0.6540359 -0.7813108 0.07020047 -0.3562743 -0.08780863 0.050445702 0.7030603 0.58214694 -0.15846331 -0.10533696 0.20085905 -0.5273984 0.1914437 0.19880752 0.074464805 -0.48731962 0.21066982 0.7363676 -0.17887634 0.07437448 0.44056615 0.94683075 0.78943765 0.7172833 0.27716726 -0.30106172 -0.4040039 0.26727813 0.37792084 -0.9430276 -0.057783667 0.26094374
31 0.7395613 -0.5801014 0.5777441 -0.10940381 -0.10408623 -1.0790879 0.58776665 0.16408688 -0.63465846 -0.26204324 0.5285626 -0.3370603 -0.13258874 -0.014212296 0.43528816 0.625756 0.17804323 -0.28581056 -0.107883565 0.81997156 0.45586506 0.90830076 0.43697593 -0.39712754 0.3973973 0.8309276 -0.58887494 0.15832594 0.7146207 -0.2087449 -0.63733554 0.46113053 -0.65748 -0.7653661 0.15261348 -0.35966757 -0.019921366 0.02235133 0.6639105 0.55302835 -0.16040392 -0.09273423 0.16596706 -0.5116457 0.37421557 0.14320524 -0.029613374 -0.5611165 0.31526148 0.7574268 -0.12085464 -0.02815227 0.36659688 0.955299 0.9066499 0.6861678 0.33212236 -0.31309912 -0.48601857 0.29223457 0.36092123 -0.85817504 -0.10185713 0.19942863
35 0.18818456 0.29404572 -0.5276438 0.12940544 0.19099118 -0.21243991 -0.57063174 0.29121846 0.5581436 0.058913697 0.30977178 1.2281394 0.43449047 1.2023906 -0.015610533 -0.19301832 -0.7240059 -0.25249892 -0.31176153 -0.6414079 0.19098717 -0.779192 -0.061811477 -0.93014634 0.23715806 0.7318975 -0.086381406 0.22279738 -0.7500821 0.21126258 0.57661825 -0.080458075 0.15413631 0.15541819 0.39520591 0.23856065 -0.28107244 0.3167006 -0.38905135 -0.18693185 -0.8803342 1.1671576 -0.23156244 -0.17748034 -0.57114816 0.17870656 -0.07334084 -0.28587285 0.056064762 0.073540986 0.33237228 0.5665714 -0.2930714 0.15806724 0.122672886 0.40775144 -0.055086263 -0.120849654 -0.36052912 0.027259547 -0.21727334 -0.49235392 -0.5552578 0.3779944
13 0.77726334 -0.58532625 0.6461277 -0.07826672 -0.08981783 -1.0726154 0.61294866 0.22952113 -0.6178948 -0.21221346 0.45740032 -0.33712256 -0.12363739 0.012237192 0.4054287 0.6039664 0.12352986 -0.25904357 -0.17200942 0.7979403 0.4666859 0.8380988 0.49257326 -0.42480946 0.34347638 0.81768054 -0.57610005 0.14266708 0.6311679 -0.22719795 -0.6017009 0.4767036 -0.6690346 -0.7878005 0.14179854 -0.37355813 -0.07034675 0.057909638 0.6635286 0.60771275 -0.173441 -0.094478875 0.18922335 -0.5383328 0.25270188 0.2055173 0.03788447 -0.53185785 0.24286702 0.77401096 -0.18013875 0.036881596 0.40969333 0.9824628 0.87601614 0.7408063 0.3339956 -0.31364083 -0.47932556 0.25467122 0.40868333 -0.93288016 -0.07193456 0.27790684
49 0.7274439 -0.491527 0.4426515 -0.16303553 -0.11238041 -1.0869292 0.5194051 0.093609 -0.53308195 -0.34965622 0.6809296 -0.1297606 0.008585747 0.16195728 0.4312207 0.614178 0.23638336 -0.43911988 -0.11192203 0.7596422 0.4421276 0.96130216 0.28357553 -0.42856494 0.5055196 0.9707214 -0.6323792 0.25858304 0.8050081 -0.20222498 -0.668601 0.5305892 -0.64813596 -0.7311006 0.31009546 -0.35446283 0.021948438 0.03700241 0.5643932 0.5647016 -0.2594233 0.0003646984 0.17761698 -0.5329942 0.5246342 0.14445046 -0.15380679 -0.6300399 0.42651594 0.7793989 -0.06971247 -0.072335616 0.14557965 0.9139084 1.0485306 0.6355383 0.3917835 -0.3129815 -0.5924936 0.23932095 0.32419014 -0.764701 -0.21357277 0.13927327
5 0.75515866 -0.5770993 0.6489715 -0.048349313 -0.07295182 -1.0542998 0.60345685 0.23745768 -0.6042356 -0.18215092 0.3889655 -0.43401712 -0.19770119 -0.08621219 0.3749962 0.59740037 0.09539135 -0.17805673 -0.15683106 0.80767715 0.4706144 0.8044762 0.5284449 -0.41196927 0.2565864 0.72684985 -0.5622862 0.09714808 0.5244599 -0.1848404 -0.5250574 0.3878974 -0.64756924 -0.74447554 0.04353647 -0.3357901 -0.06233174 0.057750706 0.7173906 0.5482129 -0.14071386 -0.10340566 0.17554328 -0.5157179 0.17963208 0.1767125 0.10392785 -0.4749437 0.17522891 0.7183388 -0.18447672 0.07938434 0.4887138 0.9607913 0.78053564 0.7225418 0.29485008 -0.29038015 -0.40403852 0.29079723 0.36675975 -0.9617537 -0.03507395 0.24366894
74 0.20476563 0.06379492 -0.30777815 0.26354495 0.26072785 -0.07189502 -0.41196936 0.6850982 0.5195078 0.14791052 -0.0037429102 1.1763475 0.4731957 1.4460241 -0.016569253 -0.13325536 -0.9765182 0.0068891128 -0.42892256 -0.53717357 0.2890317 -0.9059365 0.13866712 -0.95191365 0.14808108 0.75179166 0.03283088 0.11928861 -0.7772677 0.053368878 0.42431808 -0.031192249 0.05939696 -0.007818551 0.35729566 0.16975349 -0.44305262 0.24203579 -0.29576224 -0.08718229 -0.8940311 1.077348 -0.1976691 -0.253287 -0.856993 0.3890493 -0.18862376 -0.24118757 -0.03313116 0.06654021 0.09176467 0.6853586 0.027129263 0.42471093 0.10965792 0.5901363 -0.14679329 -0.115825206 -0.4015491 -0.11338295 0.033110306 -0.66332847 -0.4611099 0.7863167
22 0.22302997 0.30966917 -0.5500449 0.09452754 0.1704155 -0.22967651 -0.5971136 0.29240528 0.56291693 0.021668939 0.35807014 1.2511468 0.43799263 1.2216071 -0.019125354 -0.2043973 -0.7042406 -0.28143263 -0.3438111 -0.6395279 0.20395136 -0.74371564 -0.09027927 -0.9442699 0.25620303 0.7887453 -0.12483832 0.2328581 -0.7181319 0.21702549 0.542298 -0.055033106 0.15170386 0.15061006 0.43519434 0.23360656 -0.25789335 0.33000168 -0.38211155 -0.1814514 -0.910638 1.1915567 -0.23723608 -0.16429402 -0.53299636 0.17532426 -0.12170595 -0.33250484 0.08145481 0.083834216 0.35554984 0.5742139 -0.32122442 0.1771242 0.16434985 0.40449753 -0.040562797 -0.12482314 -0.3636457 0.03523144 -0.22415118 -0.48807773 -0.5642913 0.3690987
94 0.80265737 -0.57076627 0.65280443 -0.07759049 -0.09519591 -1.1350868 0.621446 0.20314166 -0.6384521 -0.22517142 0.47463453 -0.38169047 -0.17044859 -0.05837974 0.4272255 0.6292186 0.12928937 -0.24962495 -0.15777738 0.8381087 0.48763862 0.88043046 0.5087258 -0.42277092 0.33566567 0.8037706 -0.61948866 0.14034404 0.6113483 -0.17208458 -0.59678245 0.45286563 -0.67226857 -0.7906029 0.10711238 -0.38782924 -0.078357905 0.068435706 0.7414852 0.59726006 -0.16226867 -0.0874106 0.20039281 -0.56155324 0.22034578 0.17530306 0.04811369 -0.53191864 0.23576626 0.76472986 -0.14192261 0.055096585 0.46830335 0.99053115 0.87501556 0.7707624 0.33074662 -0.3228719 -0.4536023 0.30093175 0.37229103 -0.9890848 -0.068973765 0.23592865
10 0.22653797 0.2557726 -0.48879224 0.1288803 0.20555902 -0.20719704 -0.5025339 0.44952333 0.6030684 0.09422797 0.28474694 1.3187752 0.51801646 1.3466728 -0.03713855 -0.197121 -0.80084544 -0.20725687 -0.432762 -0.64353865 0.21074647 -0.82684875 -0.042575967 -0.9253815 0.2177953 0.8035527 -0.06194842 0.21712618 -0.7573278 0.16522662 0.51162946 -0.023508739 0.10714142 0.059809156 0.450464 0.23549053 -0.38596502 0.33416778 -0.33506885 -0.111654244 -0.9549811 1.211774 -0.1958534 -0.2580489 -0.6789971 0.2821675 -0.12424173 -0.29748017 0.02893934 0.13779254 0.2698985 0.6281584 -0.2305439 0.2452644 0.18196705 0.49659884 -0.060832154 -0.1369051 -0.3810066 -0.060986347 -0.10971612 -0.56823194 -0.5706421 0.53088164
14 0.70587826 -0.4835952 0.45408753 -0.13443047 -0.10275648 -1.0134101 0.48853177 0.08163042 -0.5365413 -0.32326883 0.6193316 -0.23461083 -0.0456484 0.09583468 0.42831632 0.6252791 0.21865758 -0.40459478 -0.08611991 0.7799454 0.42835775 0.9216177 0.32845232 -0.41214186 0.45897424 0.86999637 -0.5886893 0.2022793 0.73835504 -0.18286917 -0.6194366 0.45247614 -0.61400884 -0.69338226 0.2432103 -0.3614102 0.009994674 0.00669532 0.55137616 0.5208814 -0.21755497 -0.037258763 0.15355709 -0.49571514 0.47526598 0.10458336 -0.095136315 -0.57850194 0.3746765 0.73593855 -0.07388799 -0.08715743 0.19088802 0.86832297 0.9489196 0.60556793 0.3538335 -0.2880325 -0.5103297 0.27040532 0.27536818 -0.7323174 -0.16208991 0.09673672
6 0.23862728 0.34319186 -0.58030236 0.07542149 0.153161 -0.24463731 -0.565498 0.23534219 0.5720517 0.044765536 0.41125292 1.2400634 0.4463116 1.1800268 -0.014405799 -0.19934063 -0.6640093 -0.30546075 -0.3472722 -0.6526382 0.17829762 -0.699473 -0.11635015 -0.8727109 0.24446681 0.77155066 -0.11270984 0.24327943 -0.7111911 0.24540232 0.54937655 -0.060573176 0.16483818 0.14341109 0.40928403 0.23462719 -0.26168314 0.35223275 -0.35821536 -0.17229944 -0.90836364 1.1868677 -0.20017245 -0.19616495 -0.53254575 0.1555225 -0.09187267 -0.32514784 0.075058736 0.101408154 0.39043248 0.5248405 -0.35198745 0.14157727 0.16953224 0.38220358 -0.010156082 -0.15028484 -0.36321515 0.012219577 -0.22338942 -0.46784636 -0.57596034 0.31179288
57 0.18502305 0.1275265 -0.34542826 0.2047009 0.22129473 -0.09708659 -0.4372532 0.59541005 0.5300283 0.13358018 0.060761366 1.1926538 0.47103056 1.3652066 -0.046784274 -0.1721738 -0.8604986 -0.05222339 -0.41484493 -0.58388716 0.23826377 -0.8675526 0.060772814 -0.89070505 0.15079223 0.7241447 0.0049518435 0.15411443 -0.7481888 0.07683377 0.44871476 -0.03268891 0.08729122 0.042291224 0.38807392 0.16782159 -0.38524663 0.24629246 -0.30353257 -0.11086177 -0.8729517 1.069512 -0.16277258 -0.20144898 -0.7705895 0.33810255 -0.13798536 -0.23300292 -0.022048337 0.072425425 0.1535795 0.6299411 -0.09577663 0.32821926 0.11930201 0.5346201 -0.11687516 -0.12686402 -0.362812 -0.11297763 -0.005322932 -0.5923886 -0.4898059 0.65715003
76 0.7279847 -0.48201782 0.4732102 -0.11156075 -0.10065466 -1.0714962 0.54265934 0.10265136 -0.5594888 -0.30484992 0.62194765 -0.20285554 -0.032118566 0.07458372 0.42574933 0.606424 0.23090675 -0.38609725 -0.12160678 0.7764657 0.43444392 0.92154217 0.33027327 -0.42928198 0.4441367 0.89094234 -0.6256763 0.20368959 0.7041211 -0.17926605 -0.6208931 0.50525653 -0.6562597 -0.7355085 0.26630184 -0.34559605 0.010778617 0.06645689 0.60466397 0.5424153 -0.22876912 0.0017482011 0.1979351 -0.50785655 0.4342999 0.15906009 -0.092404135 -0.5987955 0.35688213 0.7725022 -0.06698988 -0.02963342 0.24437325 0.89449877 0.9833029 0.6436551 0.3359164 -0.2914307 -0.53170425 0.24530865 0.32557106 -0.82469183 -0.15300061 0.1553049
77 0.7732213 -0.6029941 0.7035818 -0.01723749 -0.06681361 -1.0742934 0.6497553 0.28468642 -0.655657 -0.12715651 0.32605776 -0.45849323 -0.19920678 -0.13091947 0.38436192 0.61220443 0.08075488 -0.11818536 -0.1700407 0.82608145 0.4737938 0.7759516 0.60503346 -0.39956668 0.23894921 0.6832894 -0.54997873 0.070163585 0.46478495 -0.18622285 -0.4953641 0.39813828 -0.6609874 -0.78267753 -0.00697459 -0.36652035 -0.09782968 0.05617148 0.7576035 0.5934724 -0.11331601 -0.12583493 0.20231754 -0.508703 0.08805523 0.20707211 0.15295433 -0.43458855 0.14547499 0.7218071 -0.21649511 0.118232906 0.57466143 0.9762396 0.71686655 0.7985024 0.28809714 -0.2820887 -0.36947381 0.2830183 0.414352 -1.0145277 0.00045443396 0.3120492
24 0.24771771 0.40563288 -0.65130615 0.0023257204 0.107121065 -0.33117706 -0.68044525 0.007459963 0.5484698 -0.033221733 0.57705975 1.1706634 0.3853298 0.99670523 -0.018543491 -0.22798555 -0.4990952 -0.43924123 -0.24036258 -0.67721546 0.15483966 -0.5803294 -0.2236292 -0.9095817 0.30422187 0.74928635 -0.2253961 0.27285564 -0.6740785 0.32491004 0.6303267 -0.095245704 0.20384221 0.25841978 0.4150099 0.25212252 -0.12603454 0.34611222 -0.40223062 -0.25096625 -0.86830324 1.1884954 -0.27339673 -0.09285331 -0.30667174 -0.012147545 -0.060420606 -0.36777613 0.16530518 0.081541605 0.5149856 0.4883436 -0.5149545 -0.0024680013 0.16798176 0.26516265 0.03131943 -0.12986737 -0.3320053 0.17775343 -0.36812273 -0.36729655 -0.5937678 0.08763345
21 0.21370754 0.048204094 -0.29191294 0.22136472 0.26167983 -0.10007773 -0.3854919 0.6805886 0.48826385 0.14200798 0.01699377 1.1179922 0.47239876 1.3909492 -0.00010708918 -0.11663189 -0.9310344 -0.008779783 -0.40409312 -0.5035688 0.2899588 -0.84702295 0.13695127 -0.91385365 0.14286527 0.7405474 0.014176911 0.14321518 -0.7328797 0.06609849 0.38916805 -0.004258637 0.054566033 -0.03132594 0.34426433 0.16851002 -0.43014136 0.24906114 -0.27682653 -0.08317457 -0.8734794 1.0363952 -0.17581487 -0.25691843 -0.82748264 0.39831302 -0.15003267 -0.23164387 -0.036849394 0.10641025 0.0708542 0.64852065 0.0055875066 0.41173935 0.117187425 0.5956287 -0.1274688 -0.13451248 -0.39256746 -0.13308488 0.0380702 -0.63054657 -0.4709575 0.74980074
58 0.72147804 -0.54334736 0.49298498 -0.098173566 -0.082624495 -1.033817 0.5252734 0.14334482 -0.5734108 -0.27593082 0.5506853 -0.28891978 -0.07386087 0.041812997 0.42293176 0.6205505 0.21066129 -0.3312724 -0.09053306 0.8116004 0.45868427 0.9140759 0.38212353 -0.3969293 0.43451783 0.84234655 -0.5939208 0.18675701 0.7527631 -0.20482224 -0.6371056 0.487583 -0.62175107 -0.70546246 0.19823715 -0.35785073 0.017003093 0.0041749654 0.60664564 0.5525243 -0.198676 -0.07909704 0.16764455 -0.5066786 0.42179108 0.13413815 -0.082375176 -0.5540437 0.3372507 0.75204855 -0.117175415 -0.072274424 0.28340223 0.9193445 0.9269858 0.63222975 0.3402654 -0.29758993 -0.52374893 0.2758597 0.32524213 -0.7639104 -0.12667786 0.16380273
71 0.18494006 0.050807424 -0.31024662 0.25708857 0.26903212 -0.06590812 -0.45298806 0.6800841 0.5237415 0.1545431 -0.009408418 1.1348515 0.44180274 1.4174613 -0.036261875 -0.13479964 -0.973846 0.013416472 -0.40325877 -0.5582035 0.29103473 -0.8955467 0.13800137 -0.9388215 0.13150142 0.7333895 0.043697722 0.107794546 -0.7891407 0.073124304 0.44548926 -0.060041934 0.09789904 0.012585898 0.34151858 0.18180555 -0.40328485 0.22085749 -0.31795684 -0.13007589 -0.88916504 1.0413835 -0.21514374 -0.20872985 -0.8221736 0.37489462 -0.16405067 -0.23339765 -0.025058182 0.0635412 0.093298905 0.6668899 0.009257163 0.39219916 0.06884072 0.5740099 -0.15182757 -0.124854825 -0.3852191 -0.095396474 -0.0017481054 -0.6223035 -0.46960676 0.74661106
48 0.74190557 -0.5799372 0.675809 -0.020663895 -0.07265612 -1.0080671 0.6248457 0.2376556 -0.657606 -0.127974 0.27972072 -0.62488335 -0.29847085 -0.25815514 0.3913435 0.5881108 0.053194463 -0.08794221 -0.15442793 0.8005621 0.42178056 0.8021612 0.5851483 -0.37521043 0.16612133 0.5765133 -0.5212759 0.030906126 0.44865054 -0.123504415 -0.48206764 0.30452237 -0.6183542 -0.7269902 -0.12398513 -0.34028998 -0.06579598 0.03955256 0.7448082 0.4952014 -0.023477342 -0.21389656 0.14703013 -0.46438146 0.06597724 0.12975076 0.17483199 -0.42961976 0.12588367 0.66066194 -0.16683063 0.095210314 0.6021567 0.913881 0.6380399 0.70162207 0.2853062 -0.28680554 -0.3044934 0.3956133 0.30976298 -0.961986 0.014848964 0.20490636
90 0.68167925 -0.45355654 0.37282336 -0.14511082 -0.10370569 -1.0054544 0.45699495 0.072933786 -0.51975584 -0.3255618 0.6668597 -0.13308737 0.0029386957 0.13861671 0.43374518 0.6038169 0.2258482 -0.45407388 -0.09062987 0.7147821 0.4316999 0.9077366 0.26974857 -0.4150718 0.513664 0.9045714 -0.58121747 0.24079211 0.7626717 -0.15466943 -0.6076726 0.48740953 -0.59604293 -0.65761936 0.2916387 -0.32914832 0.048149522 0.02829936 0.5179436 0.4983298 -0.25372562 0.0049089873 0.15632525 -0.4816357 0.5181323 0.11582687 -0.12664944 -0.58481055 0.41730773 0.7334643 -0.015161718 -0.07622022 0.12061035 0.85067725 0.9839568 0.5608149 0.3755837 -0.2730256 -0.53593427 0.24566703 0.27543575 -0.7040484 -0.1864082 0.09179781
83 0.22196017 0.33033308 -0.55940664 0.09121475 0.14213642 -0.24300916 -0.59189755 0.1776647 0.55849874 0.024245955 0.3966053 1.1778992 0.41529188 1.0803916 -0.022864165 -0.19723986 -0.6305465 -0.32029215 -0.29777366 -0.65934473 0.16869546 -0.6671525 -0.109433375 -0.88689494 0.24800435 0.73374546 -0.10986251 0.24816729 -0.70596546 0.23435088 0.5765695 -0.10063458 0.18142468 0.18318887 0.3678763 0.25644055 -0.21580791 0.3078886 -0.3644483 -0.20495905 -0.86999893 1.1404289 -0.24162015 -0.1466103 -0.47039604 0.12079928 -0.05828312 -0.3221828 0.08000857 0.06734504 0.4098104 0.5411078 -0.37082404 0.102166995 0.11765343 0.3301062 -0.006617532 -0.1319053 -0.33846596 0.06949191 -0.2645843 -0.4279578 -0.54009867 0.29083553
85 0.7220542 -0.5037341 0.44053426 -0.1438968 -0.08553223 -1.0319787 0.48448077 0.088684395 -0.5678754 -0.32409003 0.6592091 -0.209705 -0.07872429 0.12481751 0.45874554 0.6372404 0.2000533 -0.41281572 -0.06910899 0.78060853 0.45917174 0.96268696 0.31143364 -0.48483273 0.4771547 0.9258172 -0.63544524 0.22983791 0.7587717 -0.14885332 -0.6174831 0.46487474 -0.6154674 -0.6904928 0.26568323 -0.36138445 0.04718314 0.023297042 0.5729636 0.5013063 -0.24716444 -0.02062009 0.1353962 -0.48976675 0.4967858 0.094533235 -0.10696552 -0.6101604 0.38175705 0.7602029 -0.02071987 -0.070493765 0.20532106 0.8897806 0.979678 0.6142028 0.39062017 -0.29579264 -0.54956245 0.32622403 0.26367602 -0.78627026 -0.20403533 0.086433515
64 0.6731919 -0.45625606 0.32557258 -0.18701448 -0.11223569 -1.005059 0.42300633 0.0025791877 -0.5095624 -0.3774692 0.7280941 -0.12616959 0.001461799 0.19473758 0.43615156 0.64811313 0.24325825 -0.51076484 -0.051371735 0.7543053 0.44473803 1.001847 0.22650106 -0.43808746 0.563292 0.97360116 -0.6296908 0.2568913 0.85970414 -0.1567502 -0.6780661 0.49810216 -0.6104322 -0.653141 0.35863096 -0.3297462 0.07927511 0.00033640894 0.5026829 0.4808903 -0.28658193 -0.004357037 0.13912638 -0.47802457 0.6233862 0.07915013 -0.20802274 -0.65853125 0.46125826 0.7426117 -0.005829327 -0.14448987 0.07346026 0.8403866 1.0395086 0.5342692 0.40446708 -0.27172676 -0.6065603 0.2609432 0.22159182 -0.65848607 -0.2336557 0.039617356
17 0.23604117 0.39365038 -0.6066807 0.022266462 0.10505901 -0.3112159 -0.6132058 0.05148029 0.50808036 0.03130466 0.49224558 1.124531 0.36222658 0.96208405 -0.016666574 -0.20841369 -0.4911004 -0.3919559 -0.26029912 -0.64009976 0.13671172 -0.59433395 -0.17687589 -0.8496917 0.27408028 0.69607985 -0.1643715 0.2627413 -0.6666897 0.2881988 0.6149925 -0.10032119 0.17140985 0.22507034 0.36734083 0.2511351 -0.17707373 0.33534443 -0.39656237 -0.19376457 -0.8337852 1.1231534 -0.2347458 -0.12372283 -0.37887716 0.0358868 -0.028895887 -0.33138502 0.105627894 0.088121876 0.457341 0.47949392 -0.44331548 0.03496161 0.13626634 0.26796326 0.018178351 -0.13613795 -0.3202444 0.1394914 -0.32261473 -0.38590482 -0.5601704 0.13638791
51 0.14550583 -0.053813327 -0.15987667 0.30921865 0.287686 0.028587844 -0.33394265 0.8445321 0.4774285 0.1838848 -0.21224807 1.0532528 0.4585848 1.4396131 -0.019490026 -0.1389566 -1.0117766 0.16785794 -0.4298665 -0.46309647 0.30939996 -0.94346344 0.21751316 -0.8614537 0.057295572 0.64318055 0.12106888 0.08621306 -0.7174182 -0.01386094 0.30650234 -0.006165757 0.040673576 -0.056030236 0.30964822 0.11281056 -0.47025144 0.18007334 -0.24328698 -0.04901912 -0.82240033 0.9266777 -0.1541727 -0.22005463 -0.91337574 0.49269417 -0.18402185 -0.1571318 -0.08557288 0.031202352 -0.077081785 0.6722664 0.16810387 0.48739934 0.057552792 0.63362354 -0.20633855 -0.080835395 -0.37137023 -0.2112912 0.14369506 -0.6422386 -0.37354285 0.9097956
27 0.19356316 0.12729985 -0.38102195 0.20679063 0.24384096 -0.10035098 -0.47670788 0.57305354 0.5284993 0.11982812 0.07567522 1.1616962 0.4558589 1.3449962 -0.03606607 -0.1631578 -0.86385566 -0.048877742 -0.37362397 -0.57970923 0.25638378 -0.87035227 0.07129347 -0.92792404 0.14937474 0.6935864 0.0019218436 0.13806729 -0.7638616 0.10829975 0.46722287 -0.055958703 0.09760069 0.04660125 0.35444328 0.18507932 -0.39088014 0.24724221 -0.3090025 -0.11712084 -0.89068884 1.0704187 -0.21108352 -0.21563138 -0.7571838 0.32188717 -0.15292567 -0.2477415 -0.01714547 0.06730747 0.14522156 0.65252304 -0.07608218 0.3175254 0.09518738 0.5196184 -0.12587848 -0.10433307 -0.35506603 -0.066510506 -0.047611892 -0.58002615 -0.48149672 0.63427573
1 0.17039776 -0.020784825 -0.21478285 0.32315692 0.2741781 -0.018452886 -0.36471277 0.7839535 0.47513595 0.1686967 -0.13321 1.0945048 0.44039038 1.4536577 -0.009740028 -0.14362845 -1.0017061 0.10033219 -0.43679953 -0.48898825 0.297427 -0.90926677 0.17921655 -0.91644716 0.09753193 0.6983694 0.07299481 0.10721554 -0.75783867 0.0081595965 0.360722 -0.024499565 0.05995443 -0.0369807 0.31429726 0.10765984 -0.43054497 0.19318013 -0.24584837 -0.067039676 -0.8729227 0.9832064 -0.1642077 -0.21968669 -0.88748723 0.4510103 -0.20448528 -0.17165051 -0.056199774 0.052924037 -0.01760352 0.70073354 0.1291971 0.46253172 0.04681371 0.632876 -0.18970962 -0.112056315 -0.36898103 -0.13146232 0.09511933 -0.674326 -0.434254 0.87474686
63 0.20772952 0.31742743 -0.566896 0.08126333 0.1411878 -0.23284571 -0.61119735 0.17402259 0.5180747 0.03942604 0.401373 1.1065357 0.35719204 1.0483043 -0.021525864 -0.19253094 -0.6202775 -0.3021872 -0.2546275 -0.63339514 0.14815629 -0.67776275 -0.09307487 -0.8819913 0.23596713 0.6930474 -0.13194422 0.21899687 -0.7252755 0.26079896 0.5886227 -0.11337445 0.17609224 0.2008954 0.33311665 0.25436768 -0.22006652 0.28627682 -0.37784216 -0.20793699 -0.8483902 1.1089468 -0.2432226 -0.12635045 -0.4708841 0.096497625 -0.039350417 -0.29010952 0.08770084 0.051668737 0.40129033 0.5260105 -0.3550925 0.09088208 0.08628888 0.29847848 -0.023905363 -0.11623863 -0.3106766 0.124499574 -0.28786752 -0.4191432 -0.52090436 0.24565777
66 0.2378707 0.451248 -0.6846444 0.031062875 0.104702905 -0.37115622 -0.7223516 -0.05314067 0.5201309 0.010846073 0.6238269 1.1768925 0.35472322 0.89711046 -0.006324905 -0.24840906 -0.4502341 -0.46773654 -0.2092551 -0.71055853 0.12378992 -0.5735776 -0.20034616 -0.9599514 0.30169508 0.74542844 -0.22988507 0.2961704 -0.7568269 0.32717416 0.7142149 -0.14736703 0.21672036 0.29258454 0.35809162 0.27573717 -0.104926154 0.35520577 -0.40352014 -0.2796949 -0.8813364 1.1944499 -0.31032097 -0.081242464 -0.3146105 -0.02403827 0.015487492 -0.34733647 0.14095041 0.088581696 0.5502199 0.5241299 -0.50684595 -0.005839399 0.12518403 0.24830405 0.029274454 -0.14560798 -0.3109893 0.25316668 -0.4171646 -0.36788273 -0.58964705 0.05490691
26 0.7158475 -0.59748095 0.73112434 0.05036411 -0.06507206 -0.9341866 0.56457347 0.2858159 -0.65630245 -0.011565251 0.08346083 -0.7693051 -0.46760947 -0.34031513 0.346213 0.56999314 -0.12104576 0.11213623 -0.13177551 0.79201955 0.41344354 0.67201155 0.73792875 -0.4309982 0.011157335 0.41262615 -0.48966768 -0.07806631 0.20254679 -0.08088602 -0.30647767 0.13734986 -0.5297352 -0.6434145 -0.30874395 -0.31896493 -0.10682006 -0.013267802 0.75785834 0.4126457 0.00823112 -0.26018208 0.042971607 -0.40440866 -0.15599343 0.099549614 0.30027902 -0.31173834 -0.020380085 0.57827413 -0.20656647 0.22154376 0.7534363 0.8937387 0.35455704 0.74554306 0.2040751 -0.25543222 -0.15780516 0.5282406 0.23229265 -1.0129542 0.0880213 0.27755597
11 0.6868882 -0.42449483 0.31442186 -0.1943113 -0.074100934 -1.029958 0.42605296 0.022312032 -0.48541656 -0.3987602 0.76361555 -0.06517319 0.03796407 0.22334957 0.45162278 0.61116636 0.25331548 -0.5235338 -0.069275975 0.72888863 0.44488487 0.94951683 0.20832975 -0.44412577 0.58070916 1.0044656 -0.6125112 0.29502928 0.8226633 -0.14099768 -0.64131683 0.50964636 -0.58835655 -0.63748544 0.36108297 -0.34981602 0.054240223 0.04000692 0.48122936 0.46745196 -0.30282184 0.069412455 0.14646004 -0.47554576 0.59388304 0.086481966 -0.19616392 -0.65319234 0.48052254 0.74930024 0.008367146 -0.11343877 0.056906622 0.8374541 1.0500448 0.5452099 0.3961468 -0.2776782 -0.60543245 0.23309816 0.2378769 -0.67984474 -0.24529031 0.029196624
75 0.74306214 -0.6040691 0.7428012 0.00937505 -0.04592278 -0.959577 0.5993354 0.29308185 -0.6494207 -0.04743658 0.15371211 -0.62653655 -0.34296647 -0.25506935 0.33900985 0.57211334 -0.03838216 0.024306359 -0.16841345 0.7810349 0.4433156 0.6922298 0.6603507 -0.4116739 0.08098728 0.5094829 -0.5052902 -0.03429773 0.2887852 -0.13008125 -0.4004379 0.22528905 -0.5747453 -0.6921488 -0.19054872 -0.32675833 -0.11884252 0.019035535 0.7362493 0.4944143 -0.022517703 -0.20143145 0.11203269 -0.46695384 -0.07760436 0.15528718 0.2571629 -0.3604782 0.023199897 0.6039913 -0.21069546 0.18618119 0.6857447 0.9084552 0.49708152 0.75038904 0.21580417 -0.2662259 -0.23757648 0.40819338 0.30268887 -1.0093287 0.03471881 0.29123846
15 0.78128654 -0.6053283 0.7327834 0.012153972 -0.05174011 -1.0276291 0.63500154 0.27676216 -0.6679741 -0.09783738 0.2216178 -0.6064709 -0.32829878 -0.21969216 0.37236452 0.582307 -0.030163273 -0.022077195 -0.1761703 0.8051753 0.47000274 0.7457753 0.6586573 -0.41672656 0.13191012 0.5956092 -0.5231692 0.025463285 0.33923513 -0.13389732 -0.43563163 0.27070096 -0.5987964 -0.75219035 -0.14398149 -0.3573258 -0.12397777 0.06607008 0.75428724 0.5241142 -0.076368414 -0.17048213 0.115154244 -0.47480908 -0.021015294 0.18198623 0.23613702 -0.40785596 0.05230647 0.68559235 -0.20958714 0.19957076 0.67084926 0.9580072 0.57819366 0.783228 0.26356897 -0.29819188 -0.28646544 0.39337534 0.3525116 -1.0475779 0.036205444 0.2824373
98 0.14592373 -0.10623749 -0.14247379 0.36203563 0.2945549 0.0051278053 -0.37440893 0.8047754 0.4157652 0.21422549 -0.20450677 0.9595077 0.35168293 1.340073 -0.004507094 -0.092116065 -0.9938917 0.15781556 -0.35427907 -0.4093264 0.32673335 -0.91368157 0.28934625 -0.9654075 0.07079297 0.63682806 0.068243675 0.058651153 -0.76490074 0.0037349982 0.36766654 -0.05851916 0.053496204 -0.02822931 0.21922633 0.09639496 -0.4107455 0.11749051 -0.24945356 -0.09415069 -0.82842916 0.88464916 -0.19762172 -0.18722843 -0.90453243 0.43146887 -0.13982877 -0.16004044 -0.09385334 0.01600053 -0.042826228 0.6975453 0.22989687 0.49934542 -0.02410183 0.6399734 -0.18373 -0.06999276 -0.35666925 -0.07317713 0.06412524 -0.692554 -0.38150615 0.8929997
78 0.26693946 0.5216449 -0.73655015 0.0044758087 0.08466388 -0.44297266 -0.82736826 -0.20494048 0.5312464 -0.015924444 0.7391483 1.1904291 0.31176674 0.85898274 -0.017247602 -0.25801837 -0.39008895 -0.56114143 -0.14996757 -0.7501655 0.14358966 -0.54835147 -0.23771437 -1.0543189 0.328535 0.7794799 -0.32537553 0.32353553 -0.7697637 0.38854158 0.79462725 -0.16190843 0.22788692 0.38085502 0.37325352 0.2885797 -0.05605874 0.34391907 -0.467632 -0.32621625 -0.92356527 1.2656597 -0.34285474 -0.050967135 -0.23409083 -0.11959353 0.02880688 -0.3950614 0.17489503 0.07684345 0.6785763 0.5095507 -0.62649554 -0.09827196 0.08952154 0.19784807 0.053356867 -0.1424845 -0.32038063 0.34493074 -0.5237995 -0.3370207 -0.6328344 -0.064109124
69 0.6448241 -0.43019825 0.27234325 -0.18445203 -0.07133077 -0.9453857 0.3578677 -0.0012037363 -0.475931 -0.4133485 0.74413604 -0.07643584 -0.0010556786 0.22897124 0.4156065 0.59961504 0.23046434 -0.513952 -0.036922865 0.70500505 0.4360035 0.92615354 0.16439697 -0.46930578 0.54793614 0.9492276 -0.6103539 0.25715357 0.7949603 -0.12456727 -0.60929555 0.47246048 -0.5285355 -0.58796364 0.35854104 -0.3188842 0.10350956 -0.003595699 0.44244993 0.42557943 -0.29357058 0.03573611 0.11405962 -0.43020552 0.62662303 0.039253652 -0.22741319 -0.64580595 0.4839532 0.70071805 0.025202494 -0.13533796 0.01110303 0.79374504 1.0185889 0.47380477 0.38705793 -0.25924978 -0.5968741 0.27519912 0.19339775 -0.59532773 -0.27317715 0.012987667
28 0.11411017 -0.19544813 -0.023183374 0.41094685 0.33524305 0.10502409 -0.32158417 0.9157628 0.37391368 0.23140371 -0.38247114 0.8297971 0.333889 1.3193555 0.00200522 -0.07155688 -1.0354701 0.2864117 -0.34340075 -0.3365494 0.3422654 -0.94630986 0.34499165 -0.91118044 -0.030599855 0.5576582 0.13541515 -0.020003125 -0.74826974 -0.05272162 0.30433154 -0.08239093 0.044036653 -0.018852554 0.15543577 0.07547486 -0.43301722 0.047553495 -0.22300074 -0.089744374 -0.7431452 0.7552955 -0.2107886 -0.13938431 -0.94734055 0.45393884 -0.15717837 -0.07072558 -0.15423474 -0.056803048 -0.15574943 0.70387274 0.36635578 0.5447595 -0.10305991 0.62808967 -0.22103293 -0.041077357 -0.32030722 -0.13996151 0.12494368 -0.66721755 -0.30494574 0.97990793
36 0.13028878 -0.05439804 -0.21293963 0.34682405 0.2865136 0.040744204 -0.38733268 0.80850863 0.48150232 0.19041443 -0.20498228 1.0659108 0.421074 1.416568 -0.040817153 -0.14491144 -1.0429101 0.14352898 -0.38437378 -0.4736573 0.2935565 -0.98624855 0.21739207 -0.92736524 0.07379262 0.64155155 0.09401253 0.056672733 -0.80589354 0.011134288 0.3778055 -0.05982116 0.09174952 0.01158841 0.28954446 0.12469327 -0.42752305 0.142484 -0.29355097 -0.11297384 -0.8413932 0.9439016 -0.2005667 -0.18957964 -0.91281134 0.45139897 -0.17571855 -0.13259245 -0.09367264 -0.006879891 -0.034365077 0.71477014 0.14637409 0.44880915 -0.0021274257 0.6052359 -0.19685477 -0.089495555 -0.3443001 -0.13727117 0.058238823 -0.64718854 -0.38343537 0.8865655
4 0.32189527 0.5183827 -0.7548078 0.013626262 0.07330859 -0.5310485 -0.8356889 -0.29393557 0.43437788 -0.038098007 0.80866176 1.0685163 0.22847255 0.7339268 0.026351813 -0.22999622 -0.3218051 -0.6301887 -0.10766575 -0.6645129 0.14644739 -0.44127724 -0.23865685 -1.0934721 0.33489388 0.8105846 -0.41000792 0.34822202 -0.7824572 0.42357567 0.8244973 -0.21119943 0.22587608 0.40152606 0.33160192 0.25449207 0.011297261 0.34711257 -0.42618552 -0.3391892 -0.9127345 1.263573 -0.41092563 0.00447934 -0.12110668 -0.19479747 0.07528934 -0.40191233 0.2118386 0.086908214 0.72508675 0.51408833 -0.6093321 -0.1065122 0.10271934 0.20833556 0.095854126 -0.15727575 -0.3020545 0.4974219 -0.6098615 -0.35954338 -0.63462055 -0.13368364
9 0.7526718 -0.65350443 0.8172402 0.076793194 -0.042650264 -0.96689665 0.5573188 0.33392003 -0.7149318 0.04944268 -0.020571256 -0.9470266 -0.5783384 -0.4604745 0.33395123 0.572805 -0.23236561 0.23805945 -0.14359744 0.795572 0.43815702 0.60083365 0.8793722 -0.47335666 -0.0796484 0.3385021 -0.47888482 -0.18576707 0.04235349 -0.037801616 -0.22997221 0.033597652 -0.5202144 -0.6555756 -0.47044298 -0.30315995 -0.13302033 -0.013349651 0.8198825 0.37559915 0.06173685 -0.28165844 -0.015928408 -0.40087727 -0.3263118 0.10604488 0.4224056 -0.28062364 -0.11034157 0.53384095 -0.22671428 0.34669626 0.9470535 0.9329449 0.23743856 0.8094658 0.18327814 -0.2528615 -0.09011211 0.67632943 0.20424339 -1.13313 0.11989693 0.30193716
8 0.7253947 -0.5833491 0.7106316 0.03087202 -0.060536273 -0.9289809 0.54796994 0.28090188 -0.6432622 -0.036233597 0.118645385 -0.68660057 -0.43074688 -0.29116896 0.34601164 0.5493772 -0.103891395 0.06583662 -0.14804399 0.7499302 0.43511036 0.65137196 0.7143491 -0.42334893 0.03618408 0.46886954 -0.50511765 -0.072934635 0.18637685 -0.093484335 -0.29560542 0.14920883 -0.52895445 -0.65717256 -0.27922878 -0.32065785 -0.08817132 0.020494888 0.7389602 0.40452218 -0.0039142366 -0.18476637 0.053464092 -0.43366134 -0.14582092 0.11041663 0.29807407 -0.33822182 -0.002543155 0.5867094 -0.17101227 0.22516339 0.7352252 0.893624 0.40071774 0.7608515 0.21504161 -0.2420617 -0.19086303 0.52412426 0.2458308 -1.0178312 0.039996993 0.2827923
19 0.6698177 -0.44151014 0.31281915 -0.18388945 -0.084959745 -0.9973634 0.41777754 0.02360926 -0.46670496 -0.3739572 0.7078691 -0.08002204 0.0011939347 0.19471824 0.4418832 0.6164611 0.24090436 -0.49625233 -0.08855844 0.71621674 0.41899827 0.94167906 0.21001098 -0.43494985 0.5499052 0.95313627 -0.6108014 0.26416153 0.80034864 -0.14407311 -0.6253589 0.4786481 -0.5616995 -0.6094538 0.3418786 -0.32204577 0.05177366 0.02324738 0.4944755 0.46649963 -0.29628295 0.04252101 0.147493 -0.4469407 0.57404894 0.06207051 -0.18488847 -0.64431465 0.4384808 0.72732544 0.0029943583 -0.12753016 0.0790157 0.8299013 1.0273218 0.53135395 0.36268198 -0.2918085 -0.57707757 0.24185964 0.21214126 -0.66597223 -0.2417946 0.02343998
87 0.2383353 0.51935524 -0.7612354 0.013731541 0.0931187 -0.37053895 -0.8232329 -0.18474154 0.5410935 -0.015781334 0.7008232 1.1676238 0.2872119 0.8100382 -0.027918302 -0.27691284 -0.39102188 -0.5478759 -0.14387178 -0.76495117 0.095647596 -0.57885724 -0.24955562 -0.9939322 0.3067945 0.7086957 -0.27704135 0.32478443 -0.7878895 0.40682712 0.8111746 -0.20422074 0.2724957 0.3846011 0.3539822 0.2791525 -0.05462548 0.33496305 -0.4605605 -0.3400002 -0.8765724 1.219401 -0.36375487 -0.01759027 -0.21583629 -0.13285376 0.04802033 -0.344714 0.15748604 0.036398128 0.64208084 0.48895413 -0.61071736 -0.12564193 0.07249911 0.16284113 0.04781169 -0.12216189 -0.28082418 0.33635208 -0.5386008 -0.28725216 -0.6019082 -0.049686383
93 0.6593117 -0.5969376 0.7545085 0.10326901 -0.050455637 -0.83974814 0.52199936 0.33864775 -0.6220875 0.053533822 -0.044059962 -0.8333122 -0.51913327 -0.37457165 0.300012 0.5046329 -0.20776694 0.21339543 -0.13993193 0.73028743 0.42239672 0.54285717 0.7879244 -0.4231276 -0.0799509 0.32879978 -0.4344838 -0.15180314 0.03553787 -0.057108406 -0.20480669 0.034762528 -0.4503553 -0.58608526 -0.4007588 -0.28335583 -0.11603639 -0.0062109353 0.72145027 0.3488893 0.03953932 -0.2593384 0.006948764 -0.36085498 -0.31944975 0.08597394 0.37359548 -0.2398898 -0.12726025 0.5100714 -0.20841917 0.3078032 0.8461491 0.8488453 0.21639238 0.74933535 0.15304577 -0.22506994 -0.07861003 0.57854486 0.21133353 -1.0194132 0.11927983 0.29419583
89 0.758816 -0.6430285 0.82068396 0.08002993 -0.04664472 -0.9852319 0.5475885 0.36454797 -0.72278816 0.07703169 -0.017843163 -0.938988 -0.61882627 -0.43910962 0.33953086 0.5752161 -0.2482864 0.24487679 -0.15023038 0.7933794 0.44349453 0.6007862 0.8807444 -0.48799452 -0.10130552 0.3529502 -0.48779157 -0.17029521 -0.01821921 -0.04046098 -0.19463518 -0.0040933653 -0.5194396 -0.6447949 -0.49386463 -0.2906829 -0.13162859 0.01726231 0.81457335 0.35844472 0.04663288 -0.25743458 -0.012859235 -0.41488618 -0.37490445 0.08799681 0.46316972 -0.30291274 -0.13518003 0.54793084 -0.186808 0.35795432 0.9626816 0.9383987 0.23427032 0.81532234 0.20678465 -0.2559441 -0.07288786 0.68640447 0.19948414 -1.1418134 0.09877576 0.2968101
16 0.5644398 -0.38292593 0.13651566 -0.20948869 -0.076800875 -0.8392891 0.2661099 -0.098674126 -0.42533067 -0.4343446 0.7140038 -0.1324356 -0.062388778 0.20247236 0.3981908 0.59447986 0.21412158 -0.50422233 0.018023293 0.6390382 0.40153062 0.9435982 0.11985776 -0.44226262 0.53833985 0.8928132 -0.5854125 0.24401231 0.76956236 -0.040591557 -0.5737808 0.3786886 -0.4561935 -0.45865208 0.3313333 -0.30600554 0.13617304 -0.055559594 0.3562537 0.29442888 -0.25333622 0.021071495 0.019338178 -0.3448749 0.6358733 -0.08648565 -0.22696283 -0.6227643 0.48634443 0.60672516 0.117100894 -0.19317514 -0.016128872 0.6838301 0.91322523 0.36094055 0.3765291 -0.23141025 -0.5513991 0.34723562 0.060185246 -0.49440938 -0.250836 -0.10841842
2 0.65774274 -0.4297613 0.27250093 -0.24902591 -0.10241678 -0.984119 0.3943414 -0.059712138 -0.50816405 -0.4338733 0.7946696 -0.097428866 -0.011787684 0.22168572 0.4731624 0.6395115 0.305543 -0.5605914 -0.011998092 0.7717011 0.425421 1.0440586 0.12397636 -0.4000352 0.60366 0.99404335 -0.64189434 0.3046783 0.92673135 -0.12518194 -0.6876055 0.51375884 -0.5650089 -0.59042025 0.39830396 -0.34776425 0.12529905 -0.024815353 0.46005297 0.46079454 -0.29548705 0.005064349 0.1210788 -0.44607025 0.7291571 0.0004116344 -0.2401528 -0.6800638 0.50546145 0.7347544 0.04465418 -0.21696003 -0.016203439 0.7861086 1.0956985 0.47950813 0.41529518 -0.2711801 -0.6152378 0.28870183 0.1721246 -0.5789669 -0.25970328 -0.04026034
12 0.32624713 0.5374575 -0.7708117 -0.04991504 0.055888087 -0.5563715 -0.8978157 -0.4935244 0.3526814 -0.12383978 0.91380477 0.91250104 0.088133976 0.51021844 0.048421066 -0.21362567 -0.18783419 -0.709084 -0.008739009 -0.614116 0.11736899 -0.26387468 -0.27705252 -1.0993404 0.387717 0.77949363 -0.5111772 0.3352131 -0.7014657 0.49275705 0.85930187 -0.23827294 0.22725847 0.47350878 0.2939168 0.2140473 0.18235579 0.3085918 -0.40081888 -0.42872927 -0.85362065 1.1730905 -0.47813895 0.07179291 0.066893205 -0.34624672 0.08197132 -0.4452561 0.269709 0.017674316 0.80487967 0.42952678 -0.67290056 -0.1691603 0.0834299 0.10980546 0.14886321 -0.16802034 -0.28280807 0.6760677 -0.7532152 -0.26410925 -0.6460406 -0.31745195
82 0.13304746 -0.17170142 -0.08649322 0.39403003 0.3436393 0.07556287 -0.35591143 0.92248785 0.42596185 0.21665576 -0.31856567 0.95947427 0.3907336 1.45359 -0.013494571 -0.09835851 -1.0825049 0.2595765 -0.39418632 -0.38905755 0.34569967 -0.96022075 0.34131277 -0.9683266 0.03830539 0.6568434 0.11027074 0.010046756 -0.77562845 -0.04391548 0.32487527 -0.043345638 0.03765876 -0.02784035 0.23828365 0.089725554 -0.446969 0.08291563 -0.25218806 -0.07270151 -0.8346817 0.8730542 -0.20127246 -0.20019436 -0.9788934 0.4722088 -0.19608334 -0.13206556 -0.097044475 -0.020558156 -0.11376891 0.75559694 0.3139565 0.57594514 -0.049321253 0.69040954 -0.22771192 -0.06042872 -0.3603416 -0.14025657 0.13525331 -0.728481 -0.34970462 1.0023583
45 0.32953444 0.54383284 -0.7576734 0.0059294747 0.051987346 -0.5560995 -0.89095545 -0.40438867 0.41007105 -0.05125222 0.86098564 0.99348366 0.148369 0.6043937 0.0075367573 -0.24250108 -0.25918114 -0.6547202 -0.062410675 -0.65644467 0.13922483 -0.40416652 -0.2243492 -1.1197417 0.34105018 0.78523576 -0.43956882 0.34490976 -0.78255635 0.4675216 0.89885545 -0.23161614 0.23446488 0.4407634 0.28384882 0.22932412 0.09363754 0.3102427 -0.4262888 -0.38193068 -0.8800512 1.2319603 -0.46108404 0.0525091 -0.05048015 -0.25928953 0.12704782 -0.4044836 0.2302063 0.056899823 0.7654225 0.5007143 -0.63653237 -0.15727477 0.06870517 0.15784104 0.10456869 -0.15563646 -0.25993827 0.57908964 -0.6804662 -0.33350134 -0.6361807 -0.222858
88 0.16303563 -0.059840355 -0.1910915 0.33042094 0.2950363 -0.006379211 -0.36153254 0.81564635 0.46287778 0.19107369 -0.14692575 1.0847842 0.4640657 1.4807571 -0.029083008 -0.12755711 -1.0372093 0.13367282 -0.4381205 -0.46690148 0.3381675 -0.9500294 0.19869123 -0.9359289 0.07721697 0.68454814 0.05586861 0.088100426 -0.7577413 -0.0017226097 0.3509142 -0.0008266011 0.063344784 -0.0561756 0.3393863 0.10058766 -0.458445 0.18078871 -0.2532039 -0.06516291 -0.8652179 0.97366315 -0.18719883 -0.23684439 -0.93066555 0.4733024 -0.18904339 -0.19451456 -0.066585615 0.04899371 -0.022667915 0.71642953 0.14571923 0.5082897 0.04436575 0.645939 -0.19777256 -0.103006355 -0.40012363 -0.1455202 0.11577733 -0.70469266 -0.40542033 0.9098521
55 0.30880374 0.5450854 -0.7563347 -0.012133136 0.047551285 -0.58326924 -0.90439814 -0.5043413 0.34830648 -0.088552296 0.91537184 0.8873292 0.07126818 0.44619125 0.027157042 -0.21197769 -0.16754384 -0.68856716 0.019284114 -0.61549735 0.1376154 -0.27469742 -0.26211902 -1.0905622 0.3436825 0.7328058 -0.51025873 0.3520524 -0.72883207 0.49833223 0.86935854 -0.26068503 0.24414499 0.4750499 0.25505936 0.22128104 0.153348 0.3111057 -0.4065443 -0.41246802 -0.8400998 1.16479 -0.45093995 0.08663888 0.0720191 -0.34980005 0.14605708 -0.40993673 0.25873697 0.032293204 0.814414 0.436851 -0.65315545 -0.16606732 0.06281949 0.12065989 0.1504721 -0.15000787 -0.24330778 0.6556728 -0.7294675 -0.2670289 -0.6008755 -0.32913905
60 0.6769631 -0.64403677 0.74659693 0.16750143 -0.010545749 -0.81652063 0.3553243 0.3527126 -0.665838 0.16565987 -0.19080321 -1.071627 -0.76813966 -0.49042094 0.3025283 0.53219 -0.48770258 0.41210294 -0.068737924 0.7101317 0.4358341 0.43439427 0.9787359 -0.64108074 -0.23275928 0.18913011 -0.43454978 -0.2825351 -0.3207027 0.08926234 0.064793624 -0.26704794 -0.3433691 -0.421105 -0.71828246 -0.22866705 -0.09788743 -0.038385622 0.72350365 0.15010354 0.050142948 -0.27120763 -0.19424807 -0.30218968 -0.5473389 -0.048451986 0.56585103 -0.21349005 -0.22069274 0.3860849 -0.14109328 0.45501804 1.0389209 0.87326616 -0.1186988 0.7841451 0.13588338 -0.21653935 0.04883568 0.94367266 -0.048348553 -1.0941447 0.09356349 0.27506208
56 0.5962512 -0.3945672 0.14165013 -0.26022944 -0.10214555 -0.9150815 0.29101732 -0.12789539 -0.4607947 -0.47378582 0.82669264 -0.10023664 -0.015018474 0.2509545 0.45857555 0.64295435 0.25351778 -0.5674074 0.022640785 0.70946056 0.40944612 1.0315098 0.08633493 -0.47616142 0.62955284 0.98010063 -0.64609194 0.27997014 0.864448 -0.056827504 -0.62956774 0.4395283 -0.5020215 -0.4946765 0.38396382 -0.32171962 0.13646472 -0.04615936 0.3961638 0.3503951 -0.31409022 0.052511718 0.06282703 -0.41158015 0.72713697 -0.07063704 -0.2760469 -0.6786594 0.5486126 0.6983646 0.13264509 -0.22779553 -0.07034738 0.7201036 1.027408 0.3818342 0.42294204 -0.26038063 -0.62062275 0.3778171 0.078370795 -0.519826 -0.3089337 -0.12670402
96 0.7202227 -0.6368849 0.7829406 0.14826688 -0.013866045 -0.8914414 0.41664883 0.39704782 -0.69983625 0.18277316 -0.18402974 -1.0798591 -0.77502894 -0.50440776 0.31986794 0.535227 -0.4587321 0.39970693 -0.11152505 0.7236709 0.4422651 0.46795306 0.98600745 -0.62069845 -0.22838302 0.22470556 -0.45156085 -0.2759389 -0.30295345 0.074060805 0.027380036 -0.22417404 -0.3877967 -0.5012735 -0.7069868 -0.2546424 -0.14214621 -0.018324822 0.761262 0.18716289 0.074812226 -0.25023472 -0.1803294 -0.32812598 -0.5818365 -0.007797457 0.5823824 -0.23492879 -0.249692 0.43267247 -0.13844734 0.49066234 1.0726453 0.91255105 -0.043153975 0.8155188 0.16882914 -0.21480107 0.060575467 0.9184657 -0.0055067902 -1.1668198 0.12734637 0.3043845
99 0.7102898 -0.6378375 0.7510731 0.12533271 -0.03248007 -0.88848674 0.4277935 0.33534086 -0.7028796 0.13751706 -0.11536467 -1.0475385 -0.7287215 -0.5075191 0.31873235 0.54255706 -0.3692108 0.3253181 -0.08188373 0.7314043 0.44209835 0.5277505 0.94178367 -0.56320137 -0.17192847 0.26910418 -0.48669916 -0.24811332 -0.20357898 0.04734436 -0.034185458 -0.16979721 -0.3997543 -0.49992988 -0.64223427 -0.25405514 -0.0945347 -0.003282337 0.76043767 0.24296014 0.07391587 -0.2550779 -0.1374993 -0.3551869 -0.46268559 -0.014444693 0.5326948 -0.2434463 -0.19760019 0.4697554 -0.15450649 0.4298279 1.0024945 0.87656265 0.03203288 0.8008266 0.15755048 -0.23753111 0.028635098 0.86835617 0.04498754 -1.1318648 0.09983891 0.27775246
29 0.27445415 0.51762277 -0.74294937 -0.0154908225 0.056899916 -0.4579571 -0.8319129 -0.33260977 0.44784284 -0.048742786 0.77709275 1.0183202 0.20428213 0.6458122 0.0012329493 -0.2437581 -0.27640748 -0.58425015 -0.0805815 -0.67590904 0.12796299 -0.42550927 -0.25375625 -1.0365102 0.3177615 0.7288239 -0.39573824 0.31315333 -0.7307419 0.42418116 0.83008975 -0.20905995 0.23024502 0.40509063 0.3052143 0.26126322 0.033743024 0.31453297 -0.43494773 -0.34348863 -0.85064816 1.1902564 -0.39786917 0.009865752 -0.10339502 -0.21165976 0.0878466 -0.3905292 0.18328989 0.03177001 0.71261233 0.4633205 -0.61474127 -0.13269182 0.08038618 0.15518294 0.08665165 -0.13969035 -0.27521685 0.45913655 -0.5933008 -0.3020598 -0.6225982 -0.16655286
62 0.43915838 0.45619467 -0.7414036 -0.09817806 0.024239656 -0.7399513 -0.9568617 -0.77743906 0.12953195 -0.23300754 1.0960882 0.56508476 -0.1614528 0.248699 0.12634538 -0.06937421 -0.0030194242 -0.80980986 0.13988183 -0.40103814 0.20314226 0.108831294 -0.24154423 -1.1980487 0.4465191 0.8401381 -0.7571895 0.34254712 -0.6173907 0.5700671 0.8377156 -0.3086019 0.20317945 0.5308697 0.15688746 0.10495201 0.39857784 0.21342008 -0.2579521 -0.49846584 -0.7646004 1.0137784 -0.60285574 0.13194738 0.37180397 -0.5899529 0.13029483 -0.5368169 0.40062332 0.06261742 0.94215214 0.37065068 -0.6797649 -0.15853068 0.12936488 0.08050801 0.24635819 -0.17125101 -0.274868 1.035951 -0.92085963 -0.28521657 -0.6283122 -0.59029764
52 0.7638696 -0.6579126 0.82024425 0.093960896 -0.04365843 -0.97759444 0.54972756 0.35132614 -0.69973147 0.103987396 -0.055269293 -0.9908652 -0.6656994 -0.48557913 0.3432807 0.5501113 -0.30291852 0.28616858 -0.14031038 0.75534004 0.4457384 0.5727226 0.9014506 -0.49852508 -0.14165628 0.3283751 -0.4854091 -0.20031802 -0.08733481 0.0147030605 -0.14286745 -0.045679674 -0.46273136 -0.612609 -0.5478148 -0.28127635 -0.13268235 0.018537499 0.8277546 0.33083 0.069891 -0.24371122 -0.06425159 -0.40584785 -0.45241436 0.06284933 0.4836572 -0.26915216 -0.17059717 0.53303236 -0.17809683 0.37927142 0.9895851 0.9337808 0.1426076 0.8250268 0.16909495 -0.24206062 -0.037244763 0.76844037 0.14206761 -1.170676 0.12082648 0.28958306
95 0.33933175 0.543323 -0.8002336 -0.05203093 0.03707635 -0.61677504 -0.952204 -0.64662296 0.29201323 -0.1458071 0.9612185 0.7956735 -0.012195687 0.35228541 0.026965681 -0.21004413 -0.09468151 -0.76205075 0.052472968 -0.5728357 0.13736798 -0.19359125 -0.25381568 -1.1497036 0.38132456 0.7761166 -0.6007182 0.35025096 -0.75286764 0.54110765 0.9317573 -0.31504297 0.24380252 0.5315462 0.21180499 0.18021415 0.27468327 0.28750694 -0.37098864 -0.46373233 -0.81090295 1.1307935 -0.53466105 0.14405963 0.17342009 -0.4499921 0.14502306 -0.4514065 0.29451284 -0.011193428 0.86387604 0.43631685 -0.6980571 -0.20228231 0.03799702 0.08693483 0.16539823 -0.16698612 -0.23899384 0.82101935 -0.84474283 -0.2551912 -0.6212433 -0.43060997
7 0.4098059 0.5569859 -0.7554143 -0.048085246 0.039697323 -0.7331791 -0.93366313 -0.6364599 0.25688824 -0.15529093 1.0592588 0.82389873 -0.0267506 0.36212295 0.07100966 -0.16817443 -0.07214599 -0.8005719 0.07548025 -0.5719247 0.16938412 -0.11652128 -0.25522438 -1.2185189 0.42374182 0.815606 -0.6646306 0.3654764 -0.7326051 0.5551222 0.92813146 -0.27499136 0.23303649 0.5247189 0.24364398 0.19415534 0.27717265 0.31889892 -0.34262642 -0.42255992 -0.8679579 1.1909403 -0.5107124 0.11768305 0.1723154 -0.4546702 0.16435054 -0.48337555 0.29878724 0.064455934 0.91180366 0.46446663 -0.7064816 -0.16138919 0.12155254 0.12162994 0.1992727 -0.1954448 -0.2727618 0.8516633 -0.82701373 -0.3332666 -0.66278 -0.43517017
42 0.6252867 -0.6974212 0.71382797 0.33249095 0.038511842 -0.7015316 0.0999645 0.44178018 -0.6459829 0.29142404 -0.33589226 -1.136516 -0.9040381 -0.42836478 0.30909595 0.528324 -0.7638889 0.54987955 0.06354479 0.65851295 0.46900108 0.2337557 1.1343957 -0.93690383 -0.29184029 0.16181979 -0.42422542 -0.39435515 -0.5711828 0.10713415 0.3152037 -0.49171877 -0.19842078 -0.23869579 -0.8897915 -0.1562445 -0.08581743 -0.13267502 0.5743694 -0.056694195 -0.0376234 -0.22278997 -0.40774268 -0.18636042 -0.67694885 -0.13314553 0.63401866 -0.15481794 -0.28992736 0.25634804 -0.09260089 0.62183195 1.1773201 0.889984 -0.35343063 0.7988311 0.10860014 -0.1349553 0.10954645 1.1599962 -0.28933272 -1.1086551 0.041838437 0.36192685
54 0.12780945 -0.26269713 0.019200582 0.47857353 0.34613279 0.0775082 -0.35887554 0.93856925 0.3192439 0.25954634 -0.42393968 0.7775449 0.28887343 1.3318394 0.018519918 -0.042151116 -1.1204133 0.35980487 -0.3170546 -0.311501 0.39409634 -0.95298725 0.4278018 -1.0149878 -0.024737915 0.5450976 0.09950809 -0.020107692 -0.79617506 -0.05790662 0.34299114 -0.094533525 0.05105574 -0.015742455 0.13646291 0.05433372 -0.41360065 0.013931534 -0.2057493 -0.08596761 -0.74761236 0.7467574 -0.23629802 -0.12505125 -0.9991037 0.45233348 -0.13104871 -0.059975002 -0.16629183 -0.056243606 -0.14636058 0.7605778 0.44627893 0.59343535 -0.14959112 0.70270425 -0.2378465 -0.040056784 -0.3440295 -0.045534857 0.09331269 -0.7111654 -0.28174445 1.0269719
40 0.5173788 -0.27365136 -0.09936552 -0.3266634 -0.07744619 -0.82387567 0.09284862 -0.32805187 -0.37452742 -0.62978935 0.9949492 -0.012212691 -0.028187096 0.35432518 0.44177666 0.6036121 0.2959352 -0.72595084 0.07679589 0.64566696 0.3875824 1.111817 -0.07571038 -0.47910145 0.7077769 1.0670544 -0.67796445 0.32559925 0.9013725 0.03936483 -0.61449516 0.37795177 -0.3948528 -0.34387895 0.48566964 -0.28637147 0.2636058 -0.08406093 0.26153675 0.18849719 -0.34177113 0.1258696 -0.037945192 -0.31810388 0.9296473 -0.23334192 -0.38281694 -0.7739008 0.64469224 0.60282576 0.2667502 -0.32470822 -0.2810829 0.58913636 1.0639378 0.20765656 0.4446223 -0.23266733 -0.6548882 0.4779439 -0.09085685 -0.32707515 -0.4151012 -0.33054677
72 0.62364286 -0.6084902 0.69545805 0.22427188 0.020302748 -0.75249904 0.2696739 0.39667857 -0.6178938 0.20689788 -0.24510005 -1.0199362 -0.7795102 -0.42305383 0.29010093 0.4831785 -0.5741266 0.43047103 -0.051490232 0.61618876 0.4146367 0.30710787 1.0047451 -0.7116458 -0.26090807 0.17536853 -0.3897802 -0.31293595 -0.42120832 0.0720842 0.16784786 -0.3319007 -0.290284 -0.34178728 -0.7466169 -0.1838725 -0.11362155 -0.03414737 0.6425053 0.0826695 0.017676244 -0.20352541 -0.25838026 -0.25534785 -0.6063832 -0.0389097 0.57914346 -0.16937448 -0.2528278 0.33816233 -0.1320908 0.5174834 1.0378654 0.8501271 -0.2111483 0.77339834 0.12597357 -0.18134424 0.06043017 0.93195814 -0.09655735 -1.081701 0.09397648 0.3318327
92 0.66324127 -0.6496598 0.68971 0.27535617 0.041941855 -0.7615815 0.17690328 0.41130674 -0.65973604 0.26579973 -0.29527256 -1.107334 -0.8725424 -0.4370998 0.30797938 0.50654763 -0.67374736 0.5079757 0.021761859 0.632052 0.45192853 0.28320965 1.0745522 -0.8493262 -0.2896852 0.18482998 -0.41363546 -0.36325607 -0.5647478 0.12318539 0.27985498 -0.44478104 -0.22223966 -0.27171388 -0.83636415 -0.17079532 -0.10372116 -0.070821896 0.60275936 -0.01441505 -0.014270294 -0.19866715 -0.36875227 -0.21679235 -0.68376726 -0.12687983 0.6321126 -0.16045292 -0.27290532 0.2812766 -0.062099915 0.581765 1.1342592 0.85733646 -0.30505034 0.7834631 0.10313476 -0.17821223 0.088129416 1.1173421 -0.21565479 -1.1167059 0.048991468 0.35146186
53 0.74562013 -0.63951844 0.7134114 0.17136161 -0.0039938358 -0.9267685 0.30664945 0.36008266 -0.7001439 0.19754529 -0.17649503 -1.1462685 -0.89865744 -0.51692843 0.3300633 0.53959304 -0.6000167 0.42940807 -0.08509215 0.66234124 0.4778081 0.4395669 1.0439501 -0.7691206 -0.24750187 0.23045047 -0.50334334 -0.3330187 -0.46686408 0.16598912 0.19717965 -0.36759984 -0.31786105 -0.40961847 -0.82505906 -0.1966706 -0.12253649 1.1815636e-05 0.772148 0.07309147 0.027504005 -0.19606805 -0.29332685 -0.29993388 -0.669405 -0.10571667 0.6510341 -0.24523368 -0.27341774 0.40039995 -0.04701738 0.5803842 1.1126372 0.9081965 -0.17707233 0.85953486 0.14850716 -0.21995462 0.113331996 1.1234974 -0.1456668 -1.2210315 0.081082106 0.25946233
80 0.4467817 0.47246656 -0.7779352 -0.09431604 0.059590675 -0.75122315 -1.004561 -0.7826352 0.13576514 -0.27128625 1.1051266 0.5812144 -0.16552651 0.3024675 0.14804111 -0.036330853 -0.05665413 -0.8239595 0.14105263 -0.41126242 0.21764901 0.08966043 -0.2106042 -1.2572186 0.45910212 0.892476 -0.793374 0.3315059 -0.66958815 0.57549405 0.8595419 -0.3330091 0.21523125 0.5682987 0.1634058 0.09919393 0.42826304 0.25657576 -0.2708817 -0.5246482 -0.8097002 1.0821087 -0.6405245 0.14161685 0.3429342 -0.6132006 0.11763199 -0.5611266 0.3880273 0.054806758 0.96159637 0.37984204 -0.6854692 -0.12964801 0.16403458 0.10272417 0.23095796 -0.18282424 -0.30307353 1.0834736 -0.9571392 -0.30252144 -0.67536414 -0.5705971
44 0.49724233 0.40228322 -0.7253561 -0.11121795 0.03505916 -0.7903574 -0.95424855 -0.8306141 0.058023397 -0.2902296 1.1435453 0.4535186 -0.25687158 0.15395598 0.15976219 0.013242834 0.039778206 -0.85744876 0.17364956 -0.27873898 0.21084298 0.24198143 -0.17722009 -1.2466174 0.47881064 0.88992935 -0.8239245 0.30727208 -0.5779231 0.60230803 0.78512937 -0.31380555 0.15112075 0.5405783 0.12887661 0.05037326 0.46938968 0.20631756 -0.20395672 -0.4981037 -0.7694566 0.9717725 -0.6351994 0.1586271 0.44989094 -0.65720934 0.11835287 -0.58266234 0.41282684 0.080458775 0.96818596 0.33370712 -0.64333653 -0.103695974 0.17090413 0.10868231 0.2852152 -0.19353065 -0.2762986 1.1515185 -0.9681302 -0.316938 -0.6625205 -0.65577435
86 0.608555 -0.6714096 0.67311996 0.37685066 0.06403659 -0.6744675 0.06146367 0.48624995 -0.6249118 0.33005098 -0.40459985 -1.0885876 -0.89973116 -0.37063363 0.30008432 0.47013366 -0.8187231 0.6003026 0.053236965 0.5751534 0.47557834 0.13371825 1.1556534 -0.9720277 -0.3366868 0.13765936 -0.38062647 -0.40948004 -0.706715 0.11857212 0.39006773 -0.51928073 -0.15970215 -0.19904503 -0.8984932 -0.1339087 -0.08537884 -0.11243016 0.5448564 -0.08798753 -0.05946406 -0.14583215 -0.44499886 -0.17712708 -0.80124 -0.12439841 0.629327 -0.111497946 -0.3127008 0.20339546 -0.06352861 0.6824139 1.1872013 0.87832767 -0.46196583 0.7927515 0.077087104 -0.14274926 0.13252063 1.165883 -0.30551067 -1.1037109 0.05363835 0.40500227
81 -0.00026668215 -0.39057246 0.18061668 0.6146038 0.39102134 0.2313256 -0.43863133 0.98933136 0.21808915 0.34829968 -0.6694136 0.4680897 0.103475325 1.1121359 0.012693834 -0.0075084474 -1.175422 0.55093485 -0.105224304 -0.18135971 0.38985345 -1.0038275 0.5904918 -1.0582224 -0.1552046 0.34521016 0.13458972 -0.13735008 -0.8656778 -0.11499166 0.39457083 -0.22324565 0.07322097 0.046435468 -0.06987968 0.046317387 -0.3327373 -0.13810189 -0.22804222 -0.16673993 -0.63514227 0.5094238 -0.33557227 0.0063283835 -1.0284486 0.43805838 -0.054023292 0.043875497 -0.21162108 -0.20648694 -0.23193751 0.83311427 0.6301247 0.59259045 -0.40859503 0.66674614 -0.29132673 0.035122056 -0.26400736 0.039710578 0.06075933 -0.6843577 -0.15304297 1.0911456
37 0.47079247 0.41027942 -0.7136676 -0.104990296 0.060766593 -0.786334 -0.92344195 -0.8408057 0.03677773 -0.34162048 1.1275214 0.4189208 -0.2757972 0.16811341 0.1648087 0.02885459 0.012936679 -0.823742 0.19461237 -0.27902213 0.2137878 0.26087293 -0.18952295 -1.2070298 0.49459958 0.9048543 -0.8523105 0.28139296 -0.5738568 0.5709531 0.77259964 -0.34733617 0.16816077 0.5519117 0.13482542 0.054762553 0.5070177 0.21405691 -0.17971891 -0.52116674 -0.74187243 0.96161747 -0.6231778 0.1469792 0.4661952 -0.6694528 0.10460993 -0.6027637 0.4430571 0.05690079 0.9390848 0.33362168 -0.6374086 -0.091638386 0.191771 0.1045757 0.27017018 -0.1785932 -0.27791536 1.18877 -0.9811924 -0.28923923 -0.65837115 -0.65187025
30 0.48891124 -0.61204094 0.5667531 0.4043578 0.112216994 -0.52086824 -0.11840595 0.46950474 -0.49600175 0.36264503 -0.4190265 -0.95345163 -0.80935085 -0.2574804 0.2709055 0.41383332 -0.88956434 0.5882168 0.14403223 0.45881477 0.44327074 -0.030087918 1.0691872 -1.0056634 -0.30571878 0.10276717 -0.30649522 -0.38771358 -0.7678798 0.14376082 0.48428926 -0.5592342 -0.07015451 -0.04068422 -0.86268383 -0.06302797 -0.053294033 -0.14403093 0.38011965 -0.20191032 -0.12101325 -0.06911735 -0.5134832 -0.06144892 -0.7703463 -0.13791282 0.58202964 -0.06133621 -0.2869 0.10151877 -0.032010462 0.66950893 1.0703884 0.7637885 -0.531758 0.6803459 0.021064855 -0.06475456 0.11841732 1.1220248 -0.3952889 -0.95526296 -0.023167009 0.42042542
18 0.47224513 0.3105193 -0.74642545 -0.21462803 0.049448315 -0.73554766 -0.90799075 -0.96142244 -0.069222964 -0.499295 1.1980108 0.15932742 -0.39928165 0.064889066 0.22502802 0.18305779 0.12213985 -0.87678754 0.2633803 -0.056912947 0.2292838 0.57803446 -0.1923031 -1.1109946 0.5359296 0.9256586 -0.9348443 0.25008017 -0.3137785 0.59797865 0.5632529 -0.3474737 0.13505241 0.54088706 0.11003249 -0.030285558 0.6509052 0.13073276 -0.06165344 -0.5487768 -0.62011504 0.75967973 -0.6633495 0.18606547 0.6956253 -0.8170651 -0.00962553 -0.68524534 0.55212396 0.047781076 0.9808473 0.15941685 -0.62158304 -0.05534595 0.29916808 -0.014275358 0.3347272 -0.19324891 -0.29701853 1.3357458 -1.035967 -0.20342264 -0.6484082 -0.82542986
38 0.42088276 -0.27687722 -0.19632563 -0.3766644 -0.06269769 -0.6695533 -0.03970997 -0.43930024 -0.35929638 -0.64949095 0.92961305 -0.20234469 -0.18742208 0.23193027 0.42676827 0.6209283 0.22100934 -0.66429806 0.17302944 0.6292358 0.3516387 1.1370322 -0.12086665 -0.46027082 0.6732394 0.92354536 -0.6725319 0.24791513 0.8304451 0.14978419 -0.5484669 0.21275364 -0.27970782 -0.1423459 0.36294696 -0.2755139 0.3632978 -0.17986134 0.21212788 -0.011768306 -0.2676207 0.033393506 -0.17030235 -0.20160007 0.9552855 -0.40617952 -0.36199987 -0.74179286 0.6494307 0.4815163 0.3661814 -0.36260736 -0.28782153 0.44434616 0.9160919 0.08069073 0.4618348 -0.20603006 -0.5342665 0.6750151 -0.29012302 -0.21352462 -0.39345247 -0.51291585
73 0.45233938 -0.638174 0.6139223 0.4856244 0.13304551 -0.46024883 -0.15049557 0.58837944 -0.52221197 0.42181298 -0.5051397 -0.95096433 -0.8162498 -0.18845604 0.24395354 0.39992377 -0.97176266 0.63462347 0.14953437 0.4650496 0.48177558 -0.10553114 1.1222543 -1.0922002 -0.33614898 0.12116192 -0.27649787 -0.41905227 -0.8404389 0.11728369 0.5215658 -0.6085772 -0.046612173 -0.02028911 -0.91110426 -0.035706125 -0.07820511 -0.18444283 0.3366456 -0.22043034 -0.14731205 -0.057904568 -0.5540265 -0.041004393 -0.84251165 -0.13846788 0.60242975 -0.031765006 -0.320094 0.06806489 -0.07400947 0.73790675 1.1433307 0.7982147 -0.6029602 0.73915607 -0.016309962 -0.059261378 0.10633423 1.112005 -0.38315752 -0.99211633 0.0062056496 0.51012254
84 0.40876922 -0.7364787 0.6466838 0.611245 0.23260203 -0.341459 -0.29643676 0.7002413 -0.53462523 0.48014152 -0.6071556 -0.94691724 -0.8326348 -0.08932944 0.27167794 0.42551827 -1.0906731 0.7453921 0.25696468 0.5052569 0.5176003 -0.25936425 1.2525597 -1.3081105 -0.37506187 0.10879249 -0.25308958 -0.4388094 -0.94116366 0.071786396 0.58641636 -0.6430174 -0.010170818 0.061618473 -0.9423268 -0.023633841 -0.035450783 -0.3253671 0.2165309 -0.30116236 -0.23475121 -0.0742448 -0.6549476 0.040476028 -0.8561632 -0.11582551 0.55106723 0.002561304 -0.3267815 -0.067470066 -0.07383663 0.8204681 1.2304662 0.85739917 -0.73709536 0.7611473 -0.03274269 -0.0053138654 0.05428148 1.1409506 -0.45799467 -0.9848047 -0.013701052 0.6677538
43 0.5148548 0.028902574 -0.70544875 -0.3587547 0.079139285 -0.6972097 -0.71920544 -0.8761624 -0.2077326 -0.744325 1.2545959 -0.14078191 -0.46381822 0.2621917 0.38852125 0.5167716 0.049383804 -0.8949093 0.30882204 0.3084736 0.36632162 1.023957 -0.18764323 -0.9997971 0.7258795 1.1014175 -0.9831122 0.24156727 0.1362203 0.5842943 0.09207511 -0.2164795 0.015467708 0.36247694 0.23630749 -0.16677244 0.695761 -0.09193486 0.060227975 -0.5085711 -0.55279505 0.48337463 -0.64049226 0.07047377 0.91631216 -0.8931296 -0.27561384 -0.8629903 0.71376264 0.20302573 0.9176207 -0.08553627 -0.4909287 0.2208212 0.6296715 -0.024364892 0.4630277 -0.20507725 -0.4906788 1.4087344 -0.97249115 -0.21587604 -0.6540091 -0.8694069
3 0.44497648 0.19501664 -0.7312844 -0.2470125 0.03996128 -0.6614423 -0.83871436 -0.8814489 -0.058759224 -0.5385677 1.1578684 0.08723904 -0.38861704 0.19070674 0.28565654 0.27386248 0.058622234 -0.84703225 0.26746577 0.0013791514 0.25139827 0.66478634 -0.21571021 -1.0399694 0.56824493 0.94139344 -0.8710772 0.25136796 -0.18025482 0.6034953 0.39914832 -0.3165072 0.097780064 0.4914422 0.16286477 -0.060939558 0.6126613 0.05689866 -0.038143978 -0.53092194 -0.5992518 0.65701807 -0.6245759 0.11964833 0.727969 -0.82035065 -0.11758063 -0.7166123 0.5764097 0.075174615 0.9377187 0.060250983 -0.56589156 0.018664647 0.37700158 -0.011081946 0.37087345 -0.178442 -0.33762217 1.2811805 -0.97021484 -0.17356023 -0.6295639 -0.8208955
59 0.1923218 -0.7118732 0.51861954 0.76973367 0.38465422 -0.055077136 -0.5251653 0.9010381 -0.29569533 0.5078102 -0.74037796 -0.5221024 -0.5500037 0.43176752 0.20151813 0.28912693 -1.2997553 0.7493552 0.30575827 0.29975894 0.5729392 -0.6863393 1.171555 -1.4664232 -0.3318423 0.1932593 -0.09642173 -0.394389 -1.0476463 -0.022557544 0.63992876 -0.60904586 0.07378995 0.17613964 -0.72585124 0.014010657 -0.0795352 -0.40364143 -0.04881372 -0.36509413 -0.45294344 0.115300015 -0.68979895 0.14693692 -0.9717219 0.04115693 0.3477444 0.07712124 -0.3034577 -0.2298694 -0.13618784 0.96064115 1.1676286 0.82259053 -0.8021703 0.74535537 -0.19685157 0.09521503 -0.12115229 0.85714185 -0.3899984 -0.87908655 -0.071387626 0.9250264
97 0.03956057 -0.5993657 0.40142727 0.7479102 0.4470813 0.20275998 -0.470526 1.1101108 0.0048953546 0.42696255 -0.80868053 0.12948842 -0.06304139 1.0067973 0.07344009 0.114025645 -1.2626667 0.6648207 0.05076814 0.048255168 0.5289307 -0.9820174 0.889226 -1.2748004 -0.19813564 0.3479084 0.09720593 -0.22087386 -0.90366405 -0.157269 0.38716418 -0.31779045 0.015341717 0.044502046 -0.25624612 -0.016928583 -0.26845014 -0.32506534 -0.21280792 -0.2195965 -0.6295748 0.3396135 -0.44024566 0.063237175 -1.0449091 0.4073078 -0.013855584 0.08489104 -0.26410854 -0.22904308 -0.29036096 0.93098027 0.9015936 0.7802258 -0.54994637 0.7548492 -0.30825138 0.058259998 -0.2679025 0.24479324 -0.009393116 -0.8083437 -0.09774698 1.1967344
70 0.44618407 -0.68175805 0.61128134 0.531196 0.15458472 -0.45154634 -0.18502228 0.57786024 -0.53214514 0.40671384 -0.48676252 -0.94913095 -0.8283019 -0.1733397 0.29101437 0.40956393 -1.0138683 0.6518901 0.20129363 0.49035168 0.498849 -0.13107914 1.1708202 -1.1750481 -0.3331128 0.12957817 -0.31938314 -0.3958689 -0.8420258 0.08880063 0.5446191 -0.5865054 -0.04187966 -0.020960834 -0.9047724 -0.054926153 -0.066720866 -0.21637182 0.32069933 -0.24994554 -0.17954522 -0.07658351 -0.5713802 -0.03533402 -0.81068736 -0.13780843 0.5760001 -0.03511406 -0.3053048 0.02774077 -0.07136866 0.7794511 1.1747545 0.8458772 -0.6203684 0.7347018 0.009941294 -0.053217888 0.06670721 1.155493 -0.4257951 -0.9979417 -0.02592317 0.53346545
32 0.47608507 0.28882524 -0.7593296 -0.17883381 0.06475149 -0.72643197 -0.93181103 -0.8713865 -0.031250972 -0.4643039 1.1508209 0.22551525 -0.36539736 0.15243664 0.2457871 0.19139159 0.026264483 -0.8647208 0.24438038 -0.10357039 0.272656 0.48445687 -0.17204927 -1.1862648 0.5542581 0.95370525 -0.9208772 0.24625272 -0.42219853 0.62589836 0.6215982 -0.3669181 0.1259081 0.53843164 0.12812068 -0.00041787882 0.6050007 0.114414684 -0.08357248 -0.5626197 -0.6852924 0.8318643 -0.7037843 0.17733821 0.6141563 -0.7838238 0.006806973 -0.6719906 0.5131842 0.041518174 0.9770537 0.22912373 -0.5931601 -0.005447689 0.2788978 0.03440497 0.33123225 -0.17932358 -0.33722275 1.3427035 -1.0560312 -0.28852573 -0.64980584 -0.76100695
79 0.5041978 0.04998695 -0.7347443 -0.33811098 0.08408599 -0.6918542 -0.7978128 -0.9091637 -0.19160049 -0.70354974 1.2103949 -0.103385694 -0.46744913 0.241895 0.3933371 0.47407886 0.03311215 -0.8688066 0.3135988 0.24120294 0.3555215 0.9410752 -0.18418302 -1.029374 0.6918904 1.0747821 -0.95759463 0.21414378 0.030387923 0.594901 0.16691898 -0.27738005 0.043747976 0.4295537 0.16755496 -0.1280699 0.6924861 -0.03482412 0.061566204 -0.53106123 -0.5471474 0.5257624 -0.68655866 0.10130721 0.8640492 -0.91448706 -0.22754693 -0.8394135 0.68973434 0.1578864 0.9343274 -0.04027256 -0.5239906 0.17078589 0.54924893 -0.032389697 0.44156465 -0.22039202 -0.4455377 1.4321654 -1.0020355 -0.22126465 -0.64985824 -0.8823651
68 0.30648395 -0.6734763 0.5628034 0.7094803 0.31005755 -0.18883824 -0.4276569 0.78115916 -0.37672013 0.49961242 -0.6488816 -0.6511742 -0.65458626 0.21953669 0.24711381 0.34114274 -1.2002957 0.7327211 0.2763564 0.33141243 0.5335209 -0.52062774 1.1692474 -1.4227546 -0.32304668 0.18021451 -0.16243112 -0.39159036 -1.024639 0.019607397 0.62487376 -0.6388868 0.035077993 0.137693 -0.79018116 0.019565808 -0.07766466 -0.34147835 0.04984726 -0.351686 -0.39782855 0.07384943 -0.66879094 0.08234514 -0.9255321 -0.035902746 0.42416814 0.029214574 -0.306209 -0.13801152 -0.101574674 0.91775537 1.1676713 0.810546 -0.7353038 0.7659655 -0.118672706 0.04306395 -0.05692682 0.97244674 -0.43497926 -0.9183574 -0.09151557 0.7957762
50 0.092828974 -0.7311977 0.49446544 0.8646021 0.47957197 0.15374136 -0.7033591 1.0946808 -0.14425035 0.50556207 -0.8304176 -0.15429531 -0.34959045 0.83176583 0.18192525 0.24001943 -1.3963085 0.766957 0.2760477 0.17702205 0.6316954 -0.98464286 1.1380683 -1.6489449 -0.25917032 0.36795446 -0.018659314 -0.32369804 -1.0865195 -0.07099178 0.5852989 -0.4935783 0.05145892 0.23374736 -0.5180729 0.034402683 -0.09678677 -0.4706815 -0.23768492 -0.4095078 -0.6447766 0.32774395 -0.69569504 0.2006446 -1.046432 0.19915305 0.14593841 0.048047893 -0.25105724 -0.35253596 -0.19673188 1.0804533 1.0879341 0.8547921 -0.7867475 0.80649227 -0.26664093 0.1307085 -0.2578722 0.6201442 -0.26600105 -0.8713417 -0.11177955 1.2069434
20 0.42324883 -0.23987457 -0.3655772 -0.41079623 0.00033086253 -0.60800153 -0.24499 -0.52133113 -0.32254493 -0.70572656 1.0468707 -0.16759299 -0.25684357 0.37100673 0.4698862 0.6352782 0.15918943 -0.72561365 0.21098763 0.5845221 0.37373605 1.1461514 -0.1587781 -0.5940687 0.72115296 1.0086205 -0.73384804 0.27563518 0.7358047 0.3004142 -0.47195065 0.122266054 -0.21714804 -0.03547681 0.40175715 -0.23583345 0.44793183 -0.20177916 0.181049 -0.14209738 -0.33815262 0.12788706 -0.2994567 -0.14318177 0.9899806 -0.54533434 -0.43690103 -0.8083682 0.6936132 0.4329272 0.5126318 -0.31103098 -0.35880268 0.42534855 0.88399935 0.0048615197 0.47360745 -0.19840798 -0.55363965 0.86225075 -0.48838565 -0.17484678 -0.494368 -0.63262993
91 0.46471778 -0.20934331 -0.5426489 -0.41632012 0.045957968 -0.59399635 -0.4361071 -0.72357714 -0.33043316 -0.835002 1.1486121 -0.37557954 -0.46375993 0.26878476 0.47239637 0.70816463 0.10472297 -0.7715585 0.29542562 0.5984386 0.4214044 1.2909929 -0.16091506 -0.7093373 0.7182499 1.0541687 -0.8608172 0.19668007 0.6181657 0.47400212 -0.3739572 -0.06310494 -0.13680276 0.14497417 0.28056934 -0.26532277 0.61482525 -0.23992321 0.17968419 -0.36431623 -0.3227854 0.1617978 -0.48012894 -0.035517287 1.0873458 -0.80025214 -0.42555204 -0.89810133 0.7512524 0.3329551 0.7009006 -0.3050793 -0.35880753 0.35654727 0.82802075 -0.048776932 0.52556473 -0.17237204 -0.5447863 1.2072189 -0.7528541 -0.17725489 -0.56459326 -0.8339401
39 0.051046006 -0.6507805 0.4556495 0.81295836 0.46445346 0.1934729 -0.5642325 1.0394946 -0.06077932 0.4583237 -0.83084863 -0.02555628 -0.21818039 0.8403636 0.12267562 0.17743471 -1.2684114 0.7182121 0.19066668 0.11184252 0.5584251 -0.96015 0.98929584 -1.3836155 -0.2646925 0.31621525 0.04981088 -0.25791806 -0.979568 -0.12622446 0.48443648 -0.4165378 0.036898933 0.1340887 -0.39624077 0.029399972 -0.16751713 -0.39767084 -0.2322129 -0.3071679 -0.58864427 0.2749523 -0.5390542 0.15249707 -1.0233047 0.3077654 0.10429602 0.09750141 -0.25444895 -0.316784 -0.27221304 0.962076 1.0086274 0.78104264 -0.66270113 0.73053527 -0.27902204 0.103051275 -0.24383223 0.41097623 -0.12706976 -0.8153937 -0.08163883 1.1734582
47 0.51193184 -0.21139826 -0.6036427 -0.43529642 0.0625402 -0.664631 -0.56486666 -0.7869147 -0.37547138 -0.8620781 1.1948949 -0.41381523 -0.5327699 0.30524102 0.51615226 0.7349998 0.021378675 -0.81909394 0.33430758 0.5954599 0.47417173 1.2945464 -0.09303063 -0.8649058 0.76664346 1.1559006 -0.9855861 0.17924608 0.487304 0.55784816 -0.24529733 -0.16677804 -0.079807796 0.22719368 0.23267603 -0.23325075 0.6938697 -0.21403335 0.20109443 -0.46991456 -0.4237469 0.24394348 -0.6089004 0.007625348 1.0688108 -0.9107179 -0.39569178 -0.9604391 0.7683264 0.30347043 0.7888869 -0.24159382 -0.35124025 0.41167244 0.77776945 -0.04185882 0.53758496 -0.22182448 -0.53398967 1.4193835 -0.90121025 -0.26764822 -0.63737875 -0.8762318
25 0.41400644 -0.16892044 -0.51708883 -0.42503774 0.024166398 -0.56132185 -0.40712637 -0.67483294 -0.26709336 -0.7813795 1.0825456 -0.2441442 -0.32515484 0.2994952 0.469281 0.6274368 0.1173878 -0.7843631 0.25969163 0.5252013 0.37246206 1.1878146 -0.18529044 -0.61806464 0.73466724 1.0028461 -0.78254145 0.24653535 0.6411086 0.42276618 -0.39269587 -0.026800444 -0.12584011 0.115534745 0.32812107 -0.22608621 0.54507804 -0.21738757 0.16122766 -0.29797566 -0.3405414 0.15601692 -0.41163558 -0.07027342 1.0374714 -0.71354693 -0.40631238 -0.85162675 0.71463 0.32089663 0.6457266 -0.3466047 -0.42357495 0.30623817 0.8301382 -0.09536712 0.48179916 -0.17712161 -0.5219675 1.0068734 -0.63365585 -0.1148692 -0.52301395 -0.7947999
23 0.15478222 -0.71499574 0.51044756 0.8373723 0.45488423 -0.0010520783 -0.6128717 1.0001228 -0.20795374 0.4980501 -0.7648957 -0.2862854 -0.41023695 0.7061842 0.18894413 0.2783968 -1.3686717 0.7546283 0.2740384 0.22998664 0.61457896 -0.8562898 1.1630584 -1.5974619 -0.2464742 0.34866944 -0.09852361 -0.32565516 -1.0606102 -0.06455496 0.62456524 -0.5384762 0.025535107 0.17663045 -0.5789212 -0.0005635102 -0.11061964 -0.40160528 -0.15451114 -0.37306172 -0.6155372 0.26331046 -0.684001 0.16683152 -1.0176973 0.16364448 0.2159857 0.05545821 -0.2620629 -0.27623114 -0.19202152 1.0371267 1.1371956 0.8817444 -0.74853766 0.8024757 -0.24553858 0.09355676 -0.24469224 0.730981 -0.30381522 -0.9281315 -0.14095102 1.109557
