150 64
119 0.16654126 -0.045567043 0.12615325 0.25653788 0.1980497 -0.05876643 -0.29329023 -0.041651074 -0.6031697 -0.21916506 0.07376446 -0.24216814 -0.19458416 -0.069567405 0.16614397 0.5113068 -0.110327214 0.017918132 0.36888093 0.219276 0.22188935 0.12818028 0.36903274 -0.25363815 0.36629972 0.08223034 -0.18885003 -0.13036646 0.005569943 -0.12568547 0.08088341 -0.14876926 -0.07185134 -0.019033255 -0.19438224 0.13750413 -0.034475125 -0.14243972 -0.072574206 0.06824627 0.09960922 0.19743125 -0.20238177 -0.2912115 0.27521768 -0.34109437 0.13490936 -0.49492857 -0.073377825 0.2998821 -0.066527404 -0.060175672 0.49827462 0.18331634 0.005146244 -0.19658102 0.1329121 0.053131122 -0.19380471 0.3691554 -0.158379 0.10226424 -0.013443934 0.38683298
39 0.34229207 0.35839918 0.2540958 0.5631776 0.7169484 0.0824542 -1.18457 -0.015308306 -1.5393413 -0.124243334 -0.09418184 -0.23392405 -0.30086663 -0.4741498 0.30593747 0.9493413 -0.5160657 -0.15135011 1.1039989 0.39644074 0.4451145 -0.33442795 1.0119125 -0.25415295 1.4678786 0.054387033 -0.4152947 -0.1992686 -0.43308643 -0.40457907 0.28054023 -0.45896804 -0.22410966 -0.19154102 -0.48333806 0.99627346 -0.6921289 -0.39585647 -0.19094439 -0.076234065 0.6147184 1.0075567 -0.8388589 -1.009661 0.64579266 -1.1289812 0.8888145 -1.6228042 -0.44231302 0.8891886 0.106702745 0.08175173 1.3125273 0.52272946 -0.08868986 -0.835936 0.3406914 0.3371973 -0.42129403 1.0752089 -0.9711623 0.41938186 0.11604492 1.7224915
3 0.36135343 0.37521031 0.28514078 0.57772547 0.7533851 0.07091207 -1.2404794 -0.026943166 -1.6032032 -0.11418979 -0.087482296 -0.24014619 -0.31733647 -0.50235575 0.31315032 1.017387 -0.5426703 -0.14794655 1.1581135 0.40668023 0.4817933 -0.33752584 1.0642602 -0.28223315 1.5374534 0.05669132 -0.4420296 -0.19926627 -0.43762803 -0.41290385 0.27706403 -0.47688085 -0.23527959 -0.18162403 -0.5159111 1.016367 -0.6956416 -0.4125293 -0.19707438 -0.09248101 0.6396377 1.0690038 -0.88274753 -1.0784693 0.69149184 -1.1614232 0.92475295 -1.695324 -0.46322224 0.9166338 0.10929266 0.06319947 1.3531938 0.5420334 -0.07840244 -0.88093406 0.35571066 0.3551636 -0.4581869 1.1271186 -1.0153434 0.4249791 0.12982546 1.7883033
43 0.36586896 0.3584925 0.26442567 0.58987856 0.76602805 0.077140756 -1.2658318 -0.023739664 -1.6184072 -0.1165917 -0.114852935 -0.25447193 -0.31747124 -0.48228946 0.32199344 1.0195194 -0.55164826 -0.1528602 1.1455297 0.40411064 0.49202746 -0.34534064 1.0654321 -0.2736861 1.5525383 0.064083956 -0.45264414 -0.2194039 -0.4696919 -0.4327511 0.27406165 -0.5047243 -0.20875962 -0.19648829 -0.49695444 1.0397596 -0.7190219 -0.41629055 -0.20340097 -0.09800333 0.6212398 1.0605862 -0.8949462 -1.0710899 0.6842169 -1.1727281 0.9327452 -1.6915188 -0.46141267 0.9265369 0.10177486 0.08203048 1.3773353 0.5444403 -0.08357561 -0.8788003 0.34699106 0.35946828 -0.45653656 1.142763 -1.037812 0.4248815 0.114055276 1.7891554
28 0.34375343 0.3481283 0.24721363 0.55054843 0.7299794 0.0712168 -1.1820486 -0.027640782 -1.5536301 -0.09849655 -0.09048641 -0.2302265 -0.32418624 -0.4632282 0.3181177 0.97651285 -0.5082825 -0.15364917 1.0940673 0.40155163 0.4704999 -0.32749742 1.0000657 -0.24822475 1.4782684 0.031961404 -0.43170032 -0.2015062 -0.43736127 -0.4150878 0.2591784 -0.48164177 -0.19772062 -0.18073177 -0.49351948 0.9965531 -0.6626446 -0.41008097 -0.18869767 -0.07559197 0.61406237 1.0184913 -0.8294154 -1.0314355 0.63922787 -1.1082035 0.8921948 -1.6177691 -0.42653552 0.8744283 0.10478248 0.08037178 1.3152194 0.50060797 -0.066729225 -0.8304379 0.3438535 0.33590811 -0.4248178 1.0899029 -0.9695554 0.4077967 0.11080173 1.7283331
90 0.15731533 -0.038898833 0.12982227 0.243702 0.19000323 -0.04074029 -0.28730696 -0.04583328 -0.5649276 -0.2003981 0.055701874 -0.22503458 -0.18356845 -0.08166368 0.16671464 0.49932957 -0.0991147 0.0044921017 0.34743422 0.23637101 0.20178008 0.1101674 0.3520729 -0.24064115 0.35670364 0.08710302 -0.17417118 -0.13915206 0.0035488217 -0.12215132 0.09525815 -0.1440824 -0.10247035 -0.027350228 -0.18724781 0.14323899 -0.046911955 -0.11313271 -0.056158964 0.0643354 0.113533236 0.19660614 -0.16167963 -0.27337646 0.27031913 -0.33397275 0.14681612 -0.47502103 -0.08105144 0.2544421 -0.041655596 -0.0630426 0.47534558 0.18820533 -0.009938364 -0.18925434 0.10432892 0.072731435 -0.18416099 0.34584948 -0.1584174 0.109549314 0.003068371 0.39210126
55 0.16561885 -0.057542823 0.13695562 0.25387937 0.20988028 -0.06565149 -0.31508577 -0.06494773 -0.6055355 -0.22938968 0.079055585 -0.25086302 -0.17734969 -0.08900242 0.17343475 0.5207672 -0.12810215 0.02246824 0.37674174 0.23896134 0.22103928 0.14218816 0.3677918 -0.26446176 0.34566283 0.10573343 -0.20275936 -0.13906634 0.011771758 -0.12065938 0.08258787 -0.15670575 -0.0963897 0.0017837283 -0.17736207 0.121024035 -0.039680935 -0.14846644 -0.060910832 0.103017025 0.10751014 0.18145739 -0.18098795 -0.27415156 0.26953527 -0.33785388 0.15288107 -0.5104082 -0.07392336 0.27353016 -0.043682974 -0.07930155 0.505787 0.19139957 -0.0068945033 -0.18170358 0.12537228 0.049953237 -0.20709962 0.37301373 -0.1370744 0.09351312 0.0012620564 0.39352804
98 0.35468572 0.33952126 0.2653486 0.5675919 0.7399762 0.06798701 -1.1961453 -0.04145628 -1.563694 -0.13301776 -0.10014327 -0.25473863 -0.30940217 -0.48140994 0.31837094 0.97579336 -0.5189169 -0.15510492 1.118155 0.40698785 0.44974715 -0.31378773 0.99892396 -0.24578805 1.468774 0.053257905 -0.41671452 -0.19218497 -0.4366854 -0.39231542 0.27884936 -0.48452762 -0.22511797 -0.1904203 -0.48307866 0.9767246 -0.68346757 -0.41439086 -0.18932153 -0.0773458 0.587967 1.0074527 -0.8350465 -1.0263337 0.66473436 -1.1310822 0.8920949 -1.6269763 -0.42396417 0.88993233 0.098684266 0.069185466 1.2973222 0.5169506 -0.08239904 -0.8488593 0.32305944 0.34154657 -0.43178213 1.1008557 -0.9881478 0.4049159 0.11416652 1.7110612
6 0.33435157 0.33235428 0.2537047 0.5434877 0.7086299 0.064772494 -1.1881391 -0.033208318 -1.5522562 -0.12043462 -0.08456316 -0.23130496 -0.3263452 -0.47256634 0.31742752 0.9567142 -0.5081565 -0.14119257 1.1035008 0.37787974 0.44895262 -0.33610165 1.0014621 -0.24106006 1.4729861 0.056710716 -0.4114793 -0.20807692 -0.41485137 -0.41540906 0.25485903 -0.46943402 -0.21198018 -0.18170671 -0.48598748 0.98579586 -0.6662877 -0.40251026 -0.19490753 -0.091561176 0.6102272 1.0193007 -0.84946805 -1.00902 0.6669932 -1.1261725 0.8692598 -1.6161528 -0.41662982 0.8735306 0.10931752 0.052641965 1.3076782 0.51346684 -0.079980806 -0.823698 0.3244728 0.32715085 -0.43230724 1.0961735 -0.95650005 0.4213061 0.11910743 1.7149025
37 0.35865995 0.37939355 0.27844763 0.604242 0.78524804 0.07096485 -1.268183 -0.04552389 -1.6560408 -0.14138336 -0.11288691 -0.24819517 -0.34089398 -0.49893394 0.3507582 1.059384 -0.5628035 -0.16819014 1.1926513 0.42757827 0.48825413 -0.3619567 1.0818183 -0.28495482 1.5899495 0.04481789 -0.45216492 -0.21708094 -0.4624569 -0.43033803 0.29465508 -0.50095886 -0.23375912 -0.19286469 -0.5131976 1.051492 -0.71779233 -0.41749725 -0.22259603 -0.08741892 0.656611 1.0952425 -0.8961339 -1.1036257 0.70230085 -1.2051439 0.96134967 -1.7259375 -0.45900437 0.9469566 0.10027196 0.061944153 1.4020292 0.5458544 -0.0776603 -0.8777173 0.3609988 0.3728254 -0.48021218 1.1734582 -1.0564339 0.4304691 0.12243463 1.8190014
16 0.3478786 0.34242275 0.26300243 0.5329225 0.7154171 0.0930244 -1.1838123 -0.04248338 -1.514569 -0.11238926 -0.10124812 -0.24375395 -0.31826535 -0.46073893 0.29168212 0.9264819 -0.508425 -0.16829301 1.0660635 0.36476386 0.44354093 -0.33874848 0.9940025 -0.23738842 1.4434909 0.052567717 -0.41815305 -0.20285109 -0.4426402 -0.40343848 0.25651726 -0.44913778 -0.2112753 -0.17021279 -0.46356788 0.958018 -0.6598647 -0.3845024 -0.20049304 -0.07335203 0.60244024 0.9908772 -0.83668804 -0.99597454 0.63614166 -1.1103903 0.89100266 -1.5879841 -0.4367571 0.8620439 0.095464446 0.069275424 1.2709154 0.5006602 -0.08122574 -0.8192916 0.34239507 0.3285301 -0.42966092 1.0799538 -0.9530209 0.40037298 0.13557456 1.6978017
58 0.1529343 -0.034526493 0.12485345 0.23274165 0.20318283 -0.05902372 -0.30875686 -0.052544236 -0.58464324 -0.21202205 0.05623248 -0.2262139 -0.16792989 -0.08278817 0.16067286 0.48986247 -0.11713423 0.023777917 0.38283566 0.21498457 0.19290662 0.117861494 0.3504065 -0.24079852 0.35160565 0.09861419 -0.19946674 -0.13444579 0.009979071 -0.13601476 0.08829495 -0.14937757 -0.09779709 -0.015171661 -0.19840783 0.1528439 -0.0422834 -0.13701828 -0.06778974 0.07988519 0.13132879 0.18531181 -0.19753845 -0.2897267 0.28722578 -0.33495238 0.13931148 -0.51280284 -0.066561945 0.27142894 -0.061180394 -0.04272885 0.48368517 0.18748386 -0.0048452723 -0.18162996 0.13208547 0.06225523 -0.19228886 0.36990866 -0.1570557 0.11395457 -0.018320128 0.420054
115 0.15543357 -0.038133092 0.122509554 0.23496632 0.22203937 -0.045317896 -0.3189716 -0.0495086 -0.56349343 -0.20045127 0.054758944 -0.23487386 -0.18357673 -0.08945108 0.14983302 0.4911668 -0.11778878 0.006007603 0.38437665 0.24139331 0.2164845 0.09387202 0.3571318 -0.2433679 0.34711918 0.09137859 -0.18392512 -0.13276047 -0.00084558874 -0.13227682 0.09324986 -0.1489459 -0.10320456 0.00031593756 -0.17308918 0.16679388 -0.05239742 -0.12600215 -0.055749636 0.06372166 0.108976595 0.20402148 -0.18638377 -0.29436734 0.28176174 -0.34153104 0.1782053 -0.50666004 -0.096623085 0.2789123 -0.058822986 -0.05666175 0.4926501 0.19234765 0.0025763244 -0.20189814 0.12532914 0.07500781 -0.18664068 0.33683503 -0.16599004 0.0928502 0.009457541 0.39681512
14 0.34184188 0.35363498 0.24723601 0.5437636 0.6921809 0.08622953 -1.1408505 -0.04142809 -1.4877698 -0.105521426 -0.094920516 -0.23244002 -0.30401307 -0.45559096 0.3023708 0.9409481 -0.50052756 -0.15471421 1.0568259 0.37617034 0.43952456 -0.32498008 0.9729626 -0.2463044 1.4200885 0.04504226 -0.39399967 -0.20493528 -0.42790562 -0.39604002 0.27003434 -0.4527895 -0.21899948 -0.17243701 -0.475609 0.9548842 -0.6637786 -0.38308692 -0.20804374 -0.0771651 0.5883719 0.9874482 -0.81864476 -0.98818684 0.61739796 -1.0916337 0.83851606 -1.5543253 -0.41637975 0.8354137 0.10616592 0.06596843 1.2660455 0.49569064 -0.077320844 -0.8132676 0.32182416 0.3380773 -0.42918476 1.0514656 -0.9375918 0.3972961 0.13438198 1.6600878
116 0.16052258 -0.012882639 0.123461224 0.22220437 0.2068325 -0.04774106 -0.32681572 -0.038778994 -0.58008206 -0.20016572 0.03771364 -0.21057414 -0.17935497 -0.091875724 0.16187036 0.47802848 -0.1308686 0.0112578925 0.37180224 0.23504265 0.2134923 0.07541729 0.36346254 -0.24236198 0.36699492 0.08555525 -0.1891667 -0.13109687 0.010746963 -0.12685937 0.07701391 -0.1323199 -0.091564715 -0.023421561 -0.16645506 0.1644318 -0.06065503 -0.11756884 -0.08543938 0.0730278 0.13008301 0.2096109 -0.19279543 -0.2809421 0.27084658 -0.32960027 0.16372214 -0.5189137 -0.08682731 0.2861338 -0.045231473 -0.04381259 0.4935566 0.19446933 -0.003910019 -0.18347427 0.116198674 0.08155126 -0.17646791 0.339101 -0.17867294 0.101803094 0.012527631 0.415015
92 0.16162653 -0.033128638 0.13156518 0.23931551 0.20724367 -0.054039102 -0.31388697 -0.07512967 -0.59416616 -0.22117504 0.06421155 -0.23173468 -0.19086172 -0.09407793 0.17430912 0.5069221 -0.11357813 0.00817064 0.39520925 0.24094798 0.22123438 0.116441764 0.35891557 -0.24452916 0.35691634 0.084206894 -0.19918166 -0.13986623 0.026627295 -0.1120513 0.07350321 -0.13282506 -0.08278819 0.005222388 -0.17253807 0.11972115 -0.06051926 -0.12638684 -0.06134109 0.08762543 0.12523876 0.18368837 -0.17097202 -0.30021894 0.26202258 -0.34692153 0.14390229 -0.50191605 -0.08583904 0.27036846 -0.04476851 -0.06957331 0.5178682 0.1712669 0.0009302424 -0.17712833 0.12834188 0.059934452 -0.18283112 0.34020737 -0.15805455 0.09830236 0.007817997 0.39036784
18 0.3467701 0.3710466 0.26638657 0.56985384 0.7575534 0.0844145 -1.2365907 -0.028841687 -1.5771298 -0.1074435 -0.093388386 -0.24210878 -0.3195688 -0.4889223 0.31381503 0.9985449 -0.5340006 -0.15967971 1.1239067 0.41474095 0.45849034 -0.3504678 1.0317736 -0.26138785 1.5089915 0.048858743 -0.43839672 -0.21011728 -0.45966083 -0.41360387 0.2797347 -0.48328784 -0.22735076 -0.18920553 -0.49066365 1.0205725 -0.71045583 -0.41999602 -0.20424205 -0.08220193 0.6074869 1.053374 -0.8802744 -1.0629153 0.6783752 -1.1626714 0.9223776 -1.6494164 -0.451485 0.92152673 0.104646236 0.084066525 1.3564241 0.51377314 -0.09011359 -0.8510547 0.35720423 0.36809137 -0.44075412 1.1400732 -1.0278682 0.43485278 0.116730444 1.7729455
66 0.17176831 -0.026996434 0.13004686 0.23830238 0.21341525 -0.033033263 -0.32306048 -0.051666588 -0.5720751 -0.20531256 0.057389658 -0.2427638 -0.1622378 -0.075535096 0.17056225 0.5102006 -0.116107054 0.0022635972 0.37838548 0.23829608 0.19554079 0.09769805 0.36602408 -0.2407129 0.36158004 0.077911235 -0.1730972 -0.14760628 0.0011739327 -0.1331747 0.08169614 -0.16260086 -0.09605759 -0.0262252 -0.1850259 0.13608725 -0.0770752 -0.1467354 -0.08274883 0.08548879 0.12636904 0.19435292 -0.19444133 -0.29810396 0.27205822 -0.34114656 0.15953387 -0.51223236 -0.08368455 0.28397956 -0.061974924 -0.06753545 0.48746246 0.17987101 -0.0053002187 -0.17848052 0.11954204 0.06528902 -0.16823821 0.35413584 -0.16875021 0.119192064 0.006192025 0.40287626
111 0.1764687 -0.041234385 0.1029297 0.23701629 0.20881431 -0.03786253 -0.29914403 -0.066928044 -0.57540375 -0.21073835 0.061026268 -0.24155475 -0.19146349 -0.06566889 0.17931423 0.5192409 -0.12669922 0.022511391 0.36871555 0.24557328 0.2123106 0.12795691 0.35710138 -0.24489138 0.33169267 0.09983235 -0.18663341 -0.14737809 0.016420731 -0.10101451 0.077147774 -0.14943926 -0.07532279 -0.0063701384 -0.19120526 0.113182746 -0.026545433 -0.122201286 -0.06252885 0.07842529 0.09513602 0.18118018 -0.16517751 -0.2840079 0.25715292 -0.3353872 0.1322403 -0.49971905 -0.07890447 0.27045044 -0.04048177 -0.08163093 0.49922127 0.18449637 -0.005865719 -0.16463724 0.133928 0.052839655 -0.19419254 0.3346071 -0.1564667 0.09659663 -0.012504587 0.37205932
96 0.1639596 -0.028329095 0.13027313 0.23430097 0.20826054 -0.04052767 -0.31371412 -0.03871709 -0.58969444 -0.18858528 0.035446048 -0.21353821 -0.18213052 -0.07306152 0.15274078 0.50234264 -0.12678015 0.0132695045 0.3738152 0.21208085 0.19654241 0.08714636 0.36185563 -0.24253452 0.36771393 0.092555664 -0.19065015 -0.13791767 -0.008484817 -0.14009438 0.10535837 -0.156989 -0.09875512 -0.005870707 -0.17395388 0.14542829 -0.060151104 -0.14246823 -0.06934279 0.06374152 0.11767973 0.20696758 -0.17757317 -0.2791702 0.25425148 -0.35072765 0.17540602 -0.51373655 -0.09129885 0.2854851 -0.03279146 -0.05831812 0.48347044 0.1867413 0.0015118887 -0.18319534 0.12624305 0.058957368 -0.18273908 0.35516724 -0.15665957 0.09155753 -0.009907895 0.41801864
146 0.15133569 -0.027045416 0.1162604 0.25708354 0.20956355 -0.045135904 -0.30269158 -0.06427928 -0.6117324 -0.20689109 0.05959498 -0.23883271 -0.17192322 -0.094596334 0.1778216 0.5151948 -0.10707413 0.022386918 0.39504626 0.24797355 0.19594727 0.12485051 0.35278016 -0.2549512 0.3604407 0.08120448 -0.20064111 -0.15145096 0.000582181 -0.12451461 0.08327437 -0.14067388 -0.10927408 -0.020857964 -0.17454618 0.16142349 -0.045035414 -0.12669387 -0.07217877 0.064252935 0.13129129 0.20138793 -0.17993246 -0.27899715 0.29112384 -0.32918984 0.14253196 -0.5308769 -0.07876498 0.2993185 -0.03800657 -0.05284071 0.51651365 0.17773846 0.0025006218 -0.20079394 0.10827085 0.07971675 -0.1875829 0.35800302 -0.17163478 0.10040119 0.0053550308 0.41973636
100 0.1507209 -0.033226937 0.10615764 0.22648633 0.21940674 -0.0420977 -0.30961603 -0.046850946 -0.5848131 -0.18085217 0.043546826 -0.20788285 -0.15987854 -0.08941032 0.15602747 0.48787272 -0.111216426 0.01772021 0.37895426 0.23177274 0.20817769 0.08098879 0.36224142 -0.22034939 0.3753164 0.07411145 -0.17934865 -0.1367249 -0.018928973 -0.115305945 0.10327299 -0.1268476 -0.09199153 -0.0072427792 -0.17460182 0.15074328 -0.06344762 -0.13938302 -0.05672716 0.07266695 0.12773608 0.20795959 -0.17704897 -0.2721986 0.25778693 -0.34232792 0.1759737 -0.48995024 -0.07994007 0.27603462 -0.049560227 -0.055635467 0.4926138 0.17295334 -0.019761743 -0.17845654 0.13149014 0.08492426 -0.17465788 0.3366189 -0.1590611 0.09972911 0.012004711 0.42061633
126 0.1759889 -0.051105116 0.12917657 0.22200839 0.20666537 -0.05809911 -0.31514668 -0.044857126 -0.570013 -0.20910504 0.060962 -0.2358036 -0.16389921 -0.074977 0.16556892 0.49641702 -0.13263127 0.023429018 0.38153392 0.22563496 0.21953195 0.09908345 0.341783 -0.24999227 0.35895646 0.076365635 -0.19412947 -0.14980109 0.023695553 -0.10919089 0.08715032 -0.1376156 -0.07429895 -0.014645059 -0.17319746 0.15106568 -0.048964445 -0.123305075 -0.081315 0.07089278 0.12188832 0.19835883 -0.18375376 -0.27841493 0.27812544 -0.35470355 0.14928597 -0.5212257 -0.06918494 0.29167682 -0.050900485 -0.052273203 0.48647636 0.16854213 -0.006123427 -0.18198924 0.12395506 0.07635025 -0.18838699 0.34822536 -0.16217375 0.10159666 -0.0096209245 0.38966084
121 0.18075967 -0.052771553 0.1167491 0.23378903 0.22717139 -0.048648767 -0.3021693 -0.05557859 -0.61547196 -0.21576853 0.06574132 -0.25958398 -0.18177971 -0.07418592 0.18589677 0.53297794 -0.121124774 0.006748734 0.3958294 0.24354185 0.22559065 0.13838813 0.36588258 -0.2709877 0.3580916 0.10551633 -0.20109448 -0.13190901 0.011384392 -0.115399726 0.09134134 -0.13565913 -0.096847445 -0.016261095 -0.19850244 0.13939548 -0.049832683 -0.12266235 -0.08003643 0.068114445 0.10545916 0.19315714 -0.19563091 -0.293351 0.26543957 -0.3324973 0.1514937 -0.5115923 -0.08603686 0.29620293 -0.06523727 -0.06978229 0.50096494 0.18093249 -0.011860704 -0.17703056 0.12507087 0.04926421 -0.19917014 0.3491026 -0.14550608 0.11748167 -0.01290376 0.41057304
65 0.17484204 -0.060993757 0.104715385 0.25421333 0.2235495 -0.05358687 -0.31105408 -0.04302252 -0.5739938 -0.20072365 0.047058295 -0.24866766 -0.17666647 -0.09344451 0.16359149 0.502036 -0.09822325 0.032099415 0.3710617 0.24283713 0.2227137 0.11852868 0.3660972 -0.24557923 0.34864786 0.08392536 -0.19470894 -0.14658378 0.0357466 -0.1313086 0.082402125 -0.12554616 -0.08541098 0.0023612932 -0.19086462 0.12805589 -0.03440864 -0.13853711 -0.059627134 0.094587326 0.109717995 0.17626576 -0.17965655 -0.28628543 0.25921914 -0.3331989 0.14178744 -0.496581 -0.08622208 0.2859134 -0.065289095 -0.076896444 0.50490636 0.19184563 -0.012006056 -0.17383936 0.11361574 0.051255897 -0.1964329 0.35564357 -0.13403484 0.11534192 0.009895129 0.39825767
103 0.16246459 -0.060197674 0.12543623 0.23794658 0.22300763 -0.03899544 -0.30765277 -0.0457184 -0.5917972 -0.21467249 0.051660914 -0.25076684 -0.1938739 -0.06803677 0.15784365 0.5293392 -0.13395041 0.017917234 0.38032028 0.21733524 0.22309266 0.12884505 0.36049405 -0.2440694 0.35460067 0.10173534 -0.17475702 -0.15713988 0.0092277 -0.12242239 0.09404722 -0.15501077 -0.08602006 -0.022900606 -0.18336618 0.14509721 -0.03916614 -0.1407426 -0.08903868 0.06275703 0.116319016 0.17341283 -0.19212729 -0.27459833 0.28543225 -0.33258596 0.1355483 -0.5216519 -0.06393349 0.2883467 -0.06138229 -0.0766427 0.5001171 0.18538383 -0.005998471 -0.17891903 0.11382617 0.046109647 -0.20072836 0.35281596 -0.14461179 0.11071891 -0.0002731885 0.40401316
33 0.36228186 0.37272632 0.25707352 0.5963938 0.76557684 0.087152176 -1.2353495 -0.016497135 -1.6126226 -0.12602146 -0.102988996 -0.27013943 -0.3164569 -0.5030448 0.34050056 1.0100706 -0.53588307 -0.17424962 1.1346424 0.39775944 0.46454525 -0.3406222 1.0387676 -0.2740357 1.5308595 0.041934118 -0.42667255 -0.20531437 -0.43878514 -0.40904072 0.26897106 -0.47846758 -0.23816949 -0.19099495 -0.52136815 1.031136 -0.69972056 -0.4085951 -0.20636582 -0.096829765 0.6399237 1.0492282 -0.86259 -1.0572656 0.67726594 -1.1809981 0.9193601 -1.6953437 -0.43627337 0.91590714 0.11415111 0.052167557 1.3698785 0.5341579 -0.07395581 -0.8845463 0.36390764 0.35127583 -0.467162 1.1336592 -1.0285494 0.42891395 0.12251249 1.7755911
147 0.16255304 -0.03807452 0.114009015 0.24258363 0.19632426 -0.04945298 -0.29452994 -0.04183094 -0.60386074 -0.19259043 0.062193003 -0.23531519 -0.16288772 -0.09656392 0.17871484 0.5127708 -0.11464616 0.009299257 0.37209517 0.22505918 0.2088441 0.11587729 0.3671054 -0.22827613 0.37017637 0.078872606 -0.16921152 -0.14181869 0.023587886 -0.11383753 0.08702203 -0.140562 -0.098483734 -0.021675078 -0.19438128 0.14543094 -0.043176327 -0.13054305 -0.07407691 0.08131538 0.13299887 0.17632975 -0.17971547 -0.2921121 0.27717933 -0.32139277 0.1621674 -0.49982527 -0.06412634 0.29194888 -0.03882718 -0.047625065 0.48697692 0.19752236 0.0028192266 -0.19048826 0.13288547 0.07347049 -0.17058097 0.35646173 -0.14163497 0.10522168 0.012338361 0.40832296
15 0.36434165 0.3522067 0.27316633 0.5824512 0.7357339 0.0745201 -1.2130138 -0.04148114 -1.562759 -0.13551745 -0.109816656 -0.2440436 -0.31176105 -0.4889445 0.32463554 1.0066857 -0.5353233 -0.16596144 1.1161281 0.39452013 0.47020447 -0.31744733 1.0384432 -0.2599811 1.5080086 0.06295884 -0.41652974 -0.19753563 -0.43363228 -0.4262112 0.2661249 -0.48885387 -0.20665468 -0.18832372 -0.5103516 1.01425 -0.6744549 -0.4178441 -0.18888552 -0.083026215 0.60890466 1.0348988 -0.8589707 -1.0475336 0.67424667 -1.1377764 0.9169461 -1.6622813 -0.44596246 0.89191884 0.111406304 0.07828406 1.3302813 0.52769023 -0.09341015 -0.8513537 0.3593502 0.3468002 -0.45577177 1.1066626 -1.0033453 0.420825 0.12949102 1.7678725
129 0.15425895 -0.026272098 0.13209787 0.24198192 0.21834783 -0.02499541 -0.3001713 -0.039690364 -0.5985078 -0.1815438 0.06123275 -0.2110924 -0.17734638 -0.08366135 0.17590147 0.49233288 -0.11273433 0.01448018 0.39722654 0.2212205 0.20251594 0.10894821 0.34406942 -0.2530455 0.35916322 0.08159964 -0.1896807 -0.12361681 0.018698191 -0.12550583 0.09136815 -0.14497225 -0.08981751 -0.03220551 -0.17222503 0.15107358 -0.05986933 -0.12000718 -0.067361735 0.07561455 0.13021605 0.19681221 -0.18686898 -0.29319414 0.282638 -0.336008 0.16430745 -0.5127667 -0.09995309 0.29938796 -0.033290558 -0.059161622 0.50122523 0.17776221 -0.008087685 -0.19167407 0.13494879 0.0726631 -0.18216439 0.35989693 -0.15594263 0.099418 -0.0073354403 0.4130616
108 0.15560801 -0.02054801 0.10229503 0.23155937 0.20454538 -0.029605117 -0.31762907 -0.06968909 -0.5778392 -0.17885803 0.044758726 -0.23164576 -0.17169337 -0.08979132 0.14660919 0.5063743 -0.13721092 0.00063625025 0.37629604 0.21721454 0.20826705 0.110396355 0.36389142 -0.22420485 0.36696365 0.08570999 -0.18696003 -0.14822751 0.0026371097 -0.11998667 0.074029416 -0.15679955 -0.10205425 -0.023329118 -0.17777668 0.16707236 -0.05531428 -0.13159026 -0.058051374 0.0673186 0.12236604 0.18490024 -0.19216968 -0.29363412 0.26674545 -0.32913074 0.1552859 -0.5197948 -0.09825995 0.2781178 -0.051246777 -0.05273951 0.4988287 0.17051256 -0.016710749 -0.1927701 0.1280259 0.075695224 -0.18804029 0.34824008 -0.17772464 0.10493945 0.004420025 0.4204014
131 0.1677527 -0.03199617 0.114309765 0.22254269 0.2106385 -0.053871077 -0.3122092 -0.050431013 -0.58944845 -0.1777298 0.03609786 -0.2314154 -0.18301691 -0.07294144 0.17227879 0.50082487 -0.11656295 0.011952027 0.3698762 0.23909305 0.21058597 0.10090842 0.347318 -0.23137684 0.37285277 0.08025593 -0.17581628 -0.1332142 0.012333098 -0.11375401 0.09092085 -0.15064147 -0.094714664 -0.0047017992 -0.19155768 0.15463655 -0.06304954 -0.12466382 -0.08337635 0.0823368 0.119029574 0.19043623 -0.18292075 -0.28709096 0.25046143 -0.3403534 0.15987922 -0.5203247 -0.081154846 0.2829225 -0.05162123 -0.049285274 0.4896843 0.19327757 -0.006663883 -0.18889822 0.12111073 0.06628067 -0.19258882 0.36142167 -0.16938616 0.08787157 -0.0100972345 0.39942375
140 0.17333846 -0.020555759 0.12989716 0.23774213 0.22318919 -0.045816023 -0.33560732 -0.046307817 -0.60338837 -0.20555998 0.035751473 -0.23992887 -0.18441546 -0.079830945 0.18105015 0.49988136 -0.1419367 0.022356914 0.39111063 0.22933784 0.22379996 0.09634419 0.37936154 -0.25007176 0.3698763 0.08467499 -0.18105626 -0.12411972 0.0053989445 -0.11900652 0.083607376 -0.1526048 -0.10500495 -0.010604537 -0.19192329 0.15536581 -0.0746549 -0.12043687 -0.067798935 0.06934423 0.122111276 0.21952961 -0.21195884 -0.2938592 0.2794404 -0.33819112 0.17962593 -0.53675157 -0.082824096 0.2916364 -0.06067769 -0.06402123 0.5142178 0.20124236 0.009601937 -0.187823 0.113008454 0.080445066 -0.1990478 0.36805722 -0.17602982 0.12017832 0.010996402 0.4411188
4 0.35555044 0.34944528 0.24493954 0.5391649 0.72353256 0.068956524 -1.1831877 -0.0226221 -1.5251877 -0.12210357 -0.10438934 -0.23365894 -0.30601117 -0.45669237 0.2994547 0.95929617 -0.496323 -0.15001877 1.0921736 0.37549245 0.45902443 -0.3409123 0.99730814 -0.2599091 1.451922 0.030627474 -0.41633102 -0.20662712 -0.4379407 -0.39834407 0.2669643 -0.46495417 -0.22064213 -0.18667662 -0.47893593 0.96615046 -0.68127745 -0.39690328 -0.18724768 -0.07293189 0.5812974 1.0084991 -0.83929366 -1.0198814 0.6448578 -1.1075689 0.8682588 -1.600596 -0.43245372 0.8785634 0.086556904 0.07929772 1.2866454 0.5068844 -0.06588946 -0.81652737 0.32657728 0.3449803 -0.42510408 1.0880504 -0.96801084 0.4023318 0.12380528 1.6852267
143 0.16380374 -0.008947618 0.122046076 0.249773 0.20726614 -0.04484238 -0.3119415 -0.049519785 -0.5993954 -0.18877305 0.04582372 -0.21959405 -0.18234563 -0.087185085 0.17595471 0.4795794 -0.12752776 0.002038725 0.37436926 0.21764527 0.19590648 0.09643843 0.3530859 -0.22302552 0.38222298 0.0843091 -0.17874792 -0.114753924 -0.012814285 -0.13421175 0.09100036 -0.15027198 -0.092088506 -0.033967618 -0.19463176 0.16314861 -0.06739527 -0.12780745 -0.059780788 0.073543735 0.122043565 0.22263366 -0.18836276 -0.29363823 0.27750605 -0.3408427 0.16393277 -0.5067153 -0.082022816 0.3052041 -0.05187724 -0.041715983 0.5089414 0.18315771 -0.020747967 -0.19591488 0.10962827 0.063261345 -0.17972691 0.3739954 -0.17066081 0.10268232 -0.010632318 0.44803432
125 0.16636816 -0.032006234 0.1003266 0.22697382 0.20922577 -0.04203653 -0.31479123 -0.053740963 -0.58625823 -0.19898431 0.06005976 -0.22590451 -0.18263862 -0.078178376 0.16613966 0.5033016 -0.13095391 -0.0036157514 0.38088316 0.22027944 0.18769465 0.088466816 0.36103684 -0.22096545 0.38082397 0.085352175 -0.18855257 -0.13836034 -0.012673562 -0.114563085 0.07922795 -0.14545368 -0.088486455 -0.02628161 -0.19680065 0.17136349 -0.08145436 -0.1338817 -0.07041707 0.0772028 0.113181174 0.20720515 -0.17896718 -0.30091426 0.26040933 -0.33220464 0.1779446 -0.5110862 -0.07452486 0.2839835 -0.03757344 -0.05667964 0.4793075 0.18503372 -0.006971008 -0.21208504 0.11914917 0.069847114 -0.18160672 0.36638194 -0.1772714 0.0994006 0.013311278 0.4064265
71 0.14966722 -0.045328915 0.104518466 0.24141589 0.21676628 -0.048118528 -0.31854331 -0.056340422 -0.5878036 -0.20031285 0.07228073 -0.22823358 -0.16577591 -0.09267574 0.18542679 0.5010531 -0.10409113 0.021269135 0.3831217 0.2164353 0.19527073 0.12931466 0.35019678 -0.24665041 0.36130804 0.08719718 -0.1702663 -0.1421345 0.0006588591 -0.13382892 0.08645947 -0.15808336 -0.07828924 -0.00672721 -0.1955771 0.14911631 -0.033723902 -0.122809745 -0.06127005 0.0630977 0.1166237 0.16917175 -0.1887908 -0.28193945 0.2711863 -0.33506486 0.15565921 -0.50371087 -0.071300566 0.29543278 -0.0606094 -0.050733924 0.5094161 0.19349803 -0.0042747958 -0.18917999 0.11538638 0.064632945 -0.1898757 0.37314633 -0.15175049 0.110327415 0.0039944104 0.38318935
99 0.17307043 -0.013065764 0.114853956 0.24569628 0.2105422 -0.05093669 -0.3082474 -0.061297055 -0.5877018 -0.19628009 0.04671991 -0.2207918 -0.18580906 -0.09056639 0.16571158 0.50814843 -0.1297177 0.012329261 0.3721886 0.23941642 0.19571279 0.108300336 0.37352008 -0.25486043 0.366258 0.0682685 -0.19762123 -0.12242642 0.010751924 -0.12346409 0.09383199 -0.13632023 -0.09821054 -0.020037329 -0.17769836 0.15138313 -0.081489034 -0.1529959 -0.054165084 0.080800235 0.12317698 0.19349796 -0.19456121 -0.2940908 0.26992437 -0.34430632 0.16118535 -0.51631254 -0.08556351 0.30358008 -0.058278996 -0.06280637 0.4883921 0.18655421 -0.01853722 -0.19288196 0.1145724 0.058931947 -0.18180087 0.35263398 -0.17093547 0.09766998 0.018813936 0.44432732
70 0.16796067 -0.022516927 0.12660298 0.22976953 0.23802748 -0.054610804 -0.31042427 -0.04808647 -0.6074997 -0.20527911 0.06400998 -0.23829843 -0.16415793 -0.098888636 0.18213247 0.51065314 -0.113368616 0.003108929 0.39956447 0.24791083 0.21627326 0.098059624 0.37641972 -0.22977479 0.39400566 0.0985809 -0.17497918 -0.12502696 0.015034547 -0.124648646 0.089911215 -0.15116401 -0.089140035 -0.013000983 -0.20437719 0.1468233 -0.072322085 -0.12357209 -0.08102793 0.059333336 0.13681385 0.20765081 -0.19602358 -0.2909696 0.2820479 -0.3435206 0.17129187 -0.52615994 -0.074643016 0.29881358 -0.05379204 -0.046058625 0.5186402 0.18951239 -0.016907997 -0.19671941 0.13350414 0.081493296 -0.18625371 0.3495961 -0.17623772 0.11200064 0.008239729 0.41047832
112 0.17515436 -0.05265591 0.12658307 0.2216579 0.22221087 -0.031684004 -0.29317462 -0.057769425 -0.57708895 -0.20553555 0.042720575 -0.22490554 -0.17470556 -0.07268992 0.15261611 0.5130864 -0.11209645 0.01589383 0.3543869 0.23502496 0.22300743 0.13024963 0.34022066 -0.26033652 0.33602786 0.0852854 -0.19380215 -0.15270379 0.013691668 -0.11533992 0.07073872 -0.14888637 -0.086122856 -0.00024084057 -0.17806347 0.1346195 -0.05507441 -0.14062318 -0.072010085 0.088156275 0.12118155 0.17799577 -0.1753719 -0.29141846 0.26334763 -0.33655214 0.15204178 -0.49898615 -0.085955165 0.25964466 -0.054391313 -0.06893946 0.4833024 0.16956139 -0.010281589 -0.18413898 0.10312506 0.05940198 -0.17663705 0.3342477 -0.16037288 0.09564492 -0.015782464 0.38776112
74 0.174175 -0.03949297 0.12122728 0.24778914 0.23065425 -0.03113493 -0.29911178 -0.07442861 -0.6021286 -0.21359588 0.040507305 -0.24145901 -0.19237521 -0.091999225 0.16882622 0.5021602 -0.13921505 0.018807745 0.38699397 0.23848557 0.21992615 0.11489535 0.35969242 -0.23876911 0.3582481 0.08973919 -0.1765039 -0.12235161 -0.0006101389 -0.11736991 0.079948135 -0.15488724 -0.07529564 -0.020646147 -0.18829317 0.13595794 -0.07806156 -0.12296053 -0.08332515 0.0805981 0.113747545 0.19444995 -0.20656237 -0.2798896 0.28687525 -0.33741522 0.17610225 -0.5181057 -0.099673465 0.30214298 -0.056114223 -0.049087822 0.5090807 0.17876731 -0.021120885 -0.19335994 0.12995903 0.059116393 -0.18361717 0.34497762 -0.15534738 0.10404014 0.01578395 0.40543473
81 0.3172423 0.3267981 0.24049021 0.5421385 0.6940225 0.08931492 -1.1418533 -0.020849613 -1.4753996 -0.09636998 -0.100796506 -0.21760996 -0.31573856 -0.4485147 0.2980768 0.93068826 -0.4843951 -0.15358429 1.0502478 0.37370822 0.43602493 -0.32506332 0.9760482 -0.25090674 1.4298112 0.044942334 -0.3981521 -0.18854919 -0.41981098 -0.38637355 0.25028422 -0.44253573 -0.20306396 -0.17843626 -0.4803649 0.9311678 -0.6490954 -0.3943744 -0.19467133 -0.086301744 0.5660453 0.97889 -0.7995213 -0.9835598 0.6142459 -1.0721027 0.8541789 -1.5571297 -0.4184546 0.8441552 0.090294346 0.049547374 1.2668238 0.49761364 -0.08148149 -0.7903369 0.32483867 0.341323 -0.42260128 1.0609384 -0.9422545 0.38864738 0.110924326 1.6644726
17 0.3510182 0.3549079 0.27269417 0.5557065 0.7268105 0.065130115 -1.2142707 -0.042985287 -1.5537869 -0.11623569 -0.09097737 -0.24222778 -0.31606942 -0.46626824 0.31440374 0.98800004 -0.5052755 -0.1555758 1.1203752 0.3854383 0.47248822 -0.3216842 1.0230865 -0.2723281 1.4855442 0.052832667 -0.43428725 -0.21517107 -0.4274886 -0.42044494 0.26063907 -0.46254784 -0.22384238 -0.16774026 -0.4906963 0.9979303 -0.68321484 -0.41466227 -0.21696827 -0.082044475 0.5999072 1.018345 -0.83396596 -1.0398791 0.651245 -1.1407919 0.8854674 -1.6415526 -0.43864167 0.90314645 0.11106459 0.05834285 1.3093141 0.5152879 -0.096371695 -0.85004807 0.3328327 0.35028198 -0.45404017 1.1058391 -0.9838877 0.42777845 0.1208017 1.7149777
51 0.16114496 -0.03967953 0.11951796 0.22839184 0.21969889 -0.039328773 -0.29750964 -0.04310938 -0.5671401 -0.20141874 0.05523444 -0.2163869 -0.17380051 -0.08478932 0.1449772 0.47342303 -0.114538155 0.0043148105 0.36558247 0.22408918 0.20424803 0.08277436 0.33031884 -0.2425418 0.33164424 0.0716562 -0.17322834 -0.14102538 -0.005363262 -0.11544264 0.093247935 -0.13450302 -0.07100663 -0.027512308 -0.17929426 0.1411989 -0.045091398 -0.12667345 -0.064257756 0.07181012 0.12070756 0.17316873 -0.17416899 -0.26355466 0.2622485 -0.31465146 0.13928317 -0.4944675 -0.06760337 0.26508403 -0.056955226 -0.045610208 0.46044454 0.18032637 0.0029163896 -0.19190916 0.12202028 0.07396941 -0.17969371 0.33095065 -0.14238307 0.113823056 -0.014551521 0.40161172
67 0.18014738 -0.051962793 0.120717265 0.23057109 0.22177139 -0.04327447 -0.28757086 -0.037864998 -0.57026166 -0.21737976 0.054177083 -0.23127443 -0.17836942 -0.071022406 0.18145062 0.5130645 -0.099621445 0.002441495 0.36167026 0.23468947 0.21634266 0.11500146 0.33622935 -0.25433865 0.3338536 0.10267483 -0.17600897 -0.15358666 0.025821168 -0.10818814 0.07767854 -0.15061346 -0.08363761 0.002935391 -0.19778539 0.1333811 -0.05665211 -0.13239035 -0.068650454 0.06899315 0.10605699 0.18275532 -0.18996742 -0.26537657 0.273423 -0.3447979 0.14211701 -0.49483526 -0.09313606 0.26670182 -0.06687634 -0.07306118 0.50354964 0.18742336 -0.0015825971 -0.19520791 0.1277219 0.07138748 -0.18220404 0.32732826 -0.15146978 0.099251285 -0.015703514 0.39257807
107 0.16507106 -0.044947922 0.1045649 0.2491691 0.20545156 -0.050467517 -0.30973187 -0.057291985 -0.60334176 -0.21134612 0.051401015 -0.22179538 -0.18947572 -0.09620999 0.15982324 0.50229514 -0.14371401 -0.0063503725 0.40110704 0.24323058 0.20358884 0.08450896 0.36287627 -0.24924354 0.3932926 0.08989801 -0.19620511 -0.14320539 -0.011631808 -0.12048788 0.08514519 -0.15751517 -0.0748295 -0.0023518328 -0.18318495 0.14744431 -0.0536789 -0.15458664 -0.08647008 0.05944078 0.12148673 0.20433468 -0.20318083 -0.29423317 0.29062548 -0.3418338 0.16508828 -0.5106473 -0.084352694 0.28907096 -0.05625828 -0.04873224 0.49324495 0.18078199 -0.0004359889 -0.20310095 0.12629144 0.056029223 -0.18175535 0.37391475 -0.18856049 0.10629208 0.013480162 0.42493907
57 0.3686215 0.37082264 0.25731167 0.60764706 0.7626185 0.07265969 -1.2576972 -0.030444188 -1.6458406 -0.11617899 -0.107205346 -0.26745752 -0.32266745 -0.48780712 0.34576917 1.0331186 -0.54345983 -0.1754732 1.171235 0.4296779 0.48393676 -0.34873065 1.0594802 -0.270506 1.5469427 0.058957715 -0.44389355 -0.20044973 -0.4682106 -0.43803748 0.27301618 -0.507441 -0.22026241 -0.18176581 -0.5143832 1.0442039 -0.72546566 -0.42767224 -0.22368498 -0.079217605 0.63232094 1.0869375 -0.8940213 -1.0688704 0.6990978 -1.1855075 0.9385615 -1.695655 -0.45377877 0.9453737 0.10867083 0.079222046 1.3934804 0.530957 -0.09484654 -0.8801159 0.3574714 0.36580092 -0.4619333 1.1683313 -1.0400859 0.4389845 0.14047953 1.8183434
95 0.16585626 -0.031112147 0.11463483 0.22551717 0.2133256 -0.062021 -0.30762064 -0.0706968 -0.5873516 -0.21977045 0.07105519 -0.23951031 -0.16147947 -0.097399615 0.16392763 0.5056314 -0.1197852 0.014682897 0.3730335 0.22581257 0.19236131 0.0929845 0.3669128 -0.24633305 0.36610195 0.07214305 -0.17920722 -0.15207966 0.023133349 -0.110419646 0.0819543 -0.13252899 -0.094228916 -0.025659721 -0.18491937 0.1464393 -0.06187386 -0.14642274 -0.05124261 0.07896578 0.11757637 0.19406328 -0.187813 -0.27955484 0.27644768 -0.3172671 0.13875121 -0.5015871 -0.06773074 0.2679638 -0.06559418 -0.047399726 0.5053053 0.17388321 0.004444845 -0.1867498 0.11284015 0.06342066 -0.19212879 0.36413252 -0.15166177 0.090408355 -0.0035204042 0.39534542
29 0.36325988 0.35387182 0.27440697 0.5710133 0.7282429 0.089665174 -1.2074795 -0.037133742 -1.580116 -0.12697442 -0.10808905 -0.24290684 -0.33521187 -0.48815826 0.32534716 0.99158555 -0.51216877 -0.16245247 1.1187025 0.40199086 0.47434607 -0.32835317 1.0388447 -0.25411513 1.4849101 0.045231298 -0.44183588 -0.21502069 -0.44350532 -0.4271609 0.28550217 -0.47415146 -0.21843481 -0.19192918 -0.5091145 0.9820434 -0.66843927 -0.4122547 -0.1976304 -0.08866479 0.62770164 1.0354083 -0.8506181 -1.0419973 0.6679783 -1.144972 0.9121897 -1.6342511 -0.4387653 0.9012397 0.10443035 0.056613177 1.3453089 0.5252926 -0.091325685 -0.83424366 0.34213617 0.36008763 -0.4494359 1.1226832 -0.98987085 0.41485658 0.118086465 1.754627
10 0.3491597 0.34067944 0.26003322 0.55735564 0.72701687 0.06365388 -1.1826193 -0.027298922 -1.5363458 -0.112469256 -0.105592534 -0.23799771 -0.3176005 -0.4871063 0.32707077 0.99177194 -0.49918514 -0.15897986 1.0889924 0.40100577 0.44565642 -0.31353545 1.0117612 -0.24801329 1.4837159 0.048701495 -0.42479214 -0.20248614 -0.41771016 -0.4159635 0.26498935 -0.4746605 -0.20529501 -0.16878663 -0.49452737 0.9869176 -0.67888683 -0.3971154 -0.1886908 -0.07466613 0.5947594 1.0100479 -0.8284009 -1.0043349 0.6658733 -1.1287061 0.88416505 -1.6244822 -0.4395731 0.88640684 0.08670976 0.05565775 1.3235765 0.5286982 -0.06774469 -0.82996476 0.32445714 0.33182347 -0.43533745 1.0805551 -0.9892981 0.41847265 0.11725331 1.6994064
32 0.35599214 0.34262383 0.24486232 0.55474657 0.7276451 0.07767722 -1.2061416 -0.017710762 -1.531849 -0.123381846 -0.086371034 -0.22749768 -0.32536298 -0.4763383 0.31834057 0.97917163 -0.52156705 -0.16803584 1.106841 0.37478977 0.4475946 -0.3374195 1.0155392 -0.25844586 1.4862187 0.043862183 -0.41614032 -0.19182283 -0.43846944 -0.39535007 0.26538616 -0.48368207 -0.19810738 -0.18918103 -0.47991353 0.98353475 -0.69052935 -0.41388482 -0.19436486 -0.085004136 0.60803705 1.0069405 -0.85223603 -1.032053 0.6644377 -1.1387527 0.9014979 -1.6178623 -0.43466744 0.89637166 0.096559055 0.05970266 1.309876 0.5255292 -0.06708489 -0.8438285 0.3426236 0.35243145 -0.44590247 1.106482 -0.99436665 0.42019773 0.13169299 1.7292395
104 0.15591654 -0.023933955 0.13177674 0.25581774 0.20641154 -0.030499782 -0.31764382 -0.05731499 -0.5892277 -0.20727101 0.045407686 -0.2388776 -0.18919294 -0.089939356 0.16301101 0.4970788 -0.116989695 0.0024366358 0.38156098 0.24190833 0.22783448 0.105715066 0.36843914 -0.24195856 0.37900499 0.092639595 -0.19907682 -0.13538824 0.0064270324 -0.13269787 0.095898904 -0.14773181 -0.07440168 -0.013279986 -0.17419939 0.15468511 -0.061061833 -0.14280203 -0.07783606 0.0737301 0.12517498 0.20119126 -0.19257273 -0.28853163 0.2658681 -0.366321 0.16554184 -0.51847184 -0.1024141 0.3077005 -0.043193843 -0.05095719 0.50785834 0.17822506 -0.0066921613 -0.19077593 0.11278568 0.06896899 -0.1864515 0.37172797 -0.16478702 0.1018625 0.014983489 0.42287058
30 0.33871722 0.36365867 0.26216257 0.53834015 0.7112511 0.06195901 -1.1818465 -0.019644521 -1.5363106 -0.104027174 -0.08997548 -0.2434932 -0.32537022 -0.46989685 0.3055836 0.9653151 -0.49442127 -0.15001217 1.0825003 0.389381 0.44162488 -0.32855675 0.99026126 -0.23297338 1.4473827 0.03344661 -0.41128743 -0.1955425 -0.44278717 -0.41083345 0.26023397 -0.46967772 -0.2224863 -0.18371725 -0.48565415 0.98344743 -0.6651638 -0.39493775 -0.19823256 -0.08681672 0.6006501 1.0054351 -0.8215956 -1.0083414 0.63078445 -1.1066513 0.89371014 -1.6009703 -0.43696234 0.8667714 0.11087998 0.06598392 1.3062983 0.49239388 -0.06646261 -0.8394521 0.34804592 0.3430978 -0.42858627 1.0712378 -0.9562883 0.4204585 0.1126577 1.6799377
84 0.17311361 -0.04352287 0.10244647 0.2465063 0.21164748 -0.05366265 -0.29847848 -0.060051866 -0.5993112 -0.21099491 0.046974253 -0.2397173 -0.19046238 -0.09431555 0.15527855 0.5222476 -0.11399615 0.0060493136 0.3906846 0.21997468 0.22367212 0.11679275 0.36450198 -0.2574722 0.36423907 0.09401854 -0.19234468 -0.133841 0.019655485 -0.11632816 0.080399044 -0.14337139 -0.09245618 -0.026429035 -0.1737338 0.13738349 -0.06402297 -0.13913618 -0.087943204 0.07092231 0.13138495 0.19151795 -0.2032902 -0.28130862 0.26939744 -0.3589196 0.16245563 -0.52038383 -0.07318336 0.29042265 -0.036823973 -0.07450716 0.51193064 0.19485384 -0.005702163 -0.20297587 0.124227375 0.06601924 -0.20086254 0.35107115 -0.16580352 0.10241266 0.017103657 0.41259024
60 0.36527616 0.35644096 0.27625453 0.55553335 0.73881245 0.07327592 -1.2091683 -0.03264019 -1.584839 -0.10973814 -0.10304881 -0.24699041 -0.33325717 -0.47231025 0.33659366 0.99413097 -0.5118844 -0.15597 1.1318146 0.4162085 0.46729183 -0.3308654 1.0108795 -0.24748147 1.4927292 0.0537623 -0.4322663 -0.19611469 -0.42475086 -0.40986454 0.2766462 -0.4677088 -0.21255323 -0.1717419 -0.49667785 0.99160033 -0.6726818 -0.41562116 -0.20746526 -0.06580551 0.5969095 1.023878 -0.85801065 -1.0289289 0.6801038 -1.1510942 0.90951145 -1.6425238 -0.45297727 0.8931008 0.09415216 0.058860008 1.3324195 0.51479846 -0.072706744 -0.83259255 0.34237924 0.35333508 -0.4487172 1.112144 -1.0028949 0.42393836 0.12892218 1.7522216
48 0.3590497 0.35708487 0.26677144 0.54959065 0.725048 0.067738734 -1.1895393 -0.018711183 -1.5598593 -0.116628416 -0.092068695 -0.24115272 -0.31711328 -0.4821564 0.33063695 0.9660603 -0.5254668 -0.16343227 1.0963327 0.38804394 0.4451366 -0.32810843 1.0060773 -0.25891536 1.4909736 0.053443335 -0.42012796 -0.20698665 -0.4208262 -0.4087356 0.2750834 -0.45774388 -0.22770567 -0.19343963 -0.47378656 0.9928979 -0.6796326 -0.398001 -0.20877932 -0.09004347 0.5923662 1.030826 -0.8484105 -1.0377516 0.6494718 -1.1189457 0.88808143 -1.6327345 -0.43762904 0.8829712 0.09168367 0.06393188 1.3223379 0.5181096 -0.08748905 -0.8337156 0.34768558 0.3304431 -0.45198295 1.1091871 -0.99724734 0.41784966 0.10961117 1.7373157
36 0.3538769 0.35211107 0.26498908 0.5778925 0.76158345 0.0932424 -1.237216 -0.027222855 -1.5964708 -0.12266906 -0.11056184 -0.25351197 -0.32574913 -0.4756316 0.32148024 0.9962577 -0.5242459 -0.14446446 1.1301473 0.40669724 0.4671757 -0.32817957 1.0574975 -0.2636988 1.5355098 0.058374114 -0.43092006 -0.22359027 -0.44402382 -0.42319158 0.27358964 -0.478836 -0.22281997 -0.16979502 -0.50666 1.0182191 -0.69936335 -0.43039274 -0.22342774 -0.07473668 0.6145998 1.0559905 -0.8662707 -1.0680329 0.6742463 -1.1730467 0.9075926 -1.6727334 -0.4331154 0.9035899 0.093743004 0.08068298 1.3725886 0.5474669 -0.09814106 -0.8556156 0.34044364 0.3665256 -0.44467872 1.130141 -1.0042158 0.41794163 0.13423893 1.7842427
53 0.16835701 -0.02242435 0.10943624 0.2417512 0.2034646 -0.053390034 -0.30182046 -0.06913968 -0.5770794 -0.19162911 0.06737306 -0.23789077 -0.17828348 -0.0898045 0.15532513 0.48896214 -0.111592084 0.0030012717 0.3723992 0.23766957 0.20163317 0.09656586 0.3610616 -0.23761104 0.35434875 0.09807261 -0.1674596 -0.13178034 0.011578339 -0.12326921 0.09984097 -0.13914242 -0.091903366 -0.01941499 -0.18207914 0.12997293 -0.05116705 -0.14822854 -0.07125481 0.07866408 0.12175387 0.19727175 -0.20343105 -0.27632207 0.27144483 -0.329051 0.16450217 -0.4965141 -0.07127263 0.29175317 -0.050445653 -0.058076683 0.49265993 0.16331837 0.0039806874 -0.19684082 0.111920744 0.06399046 -0.16695237 0.35416877 -0.16123447 0.098513916 -0.006789053 0.3971509
82 0.15573403 -0.051390793 0.11835155 0.25272483 0.22455676 -0.036388155 -0.30565962 -0.062176935 -0.60831743 -0.20456034 0.07441492 -0.25091618 -0.17731322 -0.061997753 0.16234584 0.513298 -0.1358549 0.022018982 0.37630573 0.23981327 0.22894818 0.10645565 0.34722394 -0.25610873 0.3403762 0.07170718 -0.20222703 -0.13951717 0.016669506 -0.120261714 0.089167535 -0.12992463 -0.07414317 -0.019957103 -0.16978298 0.1208514 -0.048186403 -0.13069433 -0.07240485 0.07583924 0.11735968 0.18881366 -0.19886616 -0.29463142 0.26464295 -0.33502343 0.14484918 -0.5298997 -0.06979332 0.28648397 -0.04562877 -0.05690483 0.49881008 0.19634278 -0.02238579 -0.18990502 0.11079711 0.062216695 -0.2028278 0.37533796 -0.1447331 0.09567616 0.007950994 0.4108815
40 0.3702666 0.38406828 0.27147 0.6288635 0.79812783 0.08011954 -1.3158257 -0.035762202 -1.6974326 -0.13643637 -0.09016858 -0.27791306 -0.36365741 -0.5262555 0.34534743 1.0784456 -0.5596579 -0.16930014 1.2191259 0.43429506 0.5139541 -0.34183908 1.0915561 -0.29011258 1.5966386 0.042596374 -0.46866575 -0.2162462 -0.46942285 -0.4293437 0.28833157 -0.5225466 -0.22815825 -0.19096251 -0.5359216 1.0629385 -0.73736596 -0.43504414 -0.23268437 -0.098075025 0.64204025 1.1163367 -0.907829 -1.1025426 0.73421115 -1.239449 0.9706777 -1.7628039 -0.4600439 0.95909077 0.11828198 0.059600446 1.4479259 0.57388467 -0.088828385 -0.9017738 0.38141462 0.3761676 -0.47118583 1.2018617 -1.0668947 0.4645184 0.1392517 1.8620268
142 0.16285905 -0.02281301 0.12155565 0.22562055 0.21635479 -0.036507975 -0.32215452 -0.062325485 -0.57757443 -0.19434991 0.054094784 -0.21593516 -0.16276896 -0.09796424 0.15714243 0.49919817 -0.13615996 0.013619381 0.3757699 0.2282111 0.20735364 0.08219836 0.36686826 -0.23691665 0.37691495 0.0658523 -0.17770185 -0.12675804 -0.015672766 -0.111198545 0.09752928 -0.1607289 -0.090018235 -0.011699095 -0.19887996 0.17204498 -0.0704481 -0.12609364 -0.06794169 0.0696431 0.12962116 0.20174608 -0.18855987 -0.31066355 0.2674975 -0.35614604 0.18936834 -0.53753084 -0.085994214 0.29403093 -0.047158368 -0.06594871 0.4907612 0.18897319 -0.026141258 -0.19490683 0.11649279 0.059064813 -0.19402927 0.3745395 -0.18486516 0.12181046 -0.010445676 0.41890448
145 0.15010303 -0.022738509 0.10036505 0.21273874 0.19693507 -0.037409175 -0.2971066 -0.06226055 -0.57847565 -0.18608677 0.05067683 -0.23353802 -0.15579575 -0.10188346 0.1675306 0.49495056 -0.11613304 0.015894325 0.38502952 0.2258949 0.18789832 0.09836247 0.3401635 -0.23993918 0.37211785 0.068239346 -0.18643147 -0.13618526 0.0023730681 -0.11189634 0.088667236 -0.13737871 -0.08987493 -0.01109764 -0.19271351 0.15236087 -0.08254113 -0.1328103 -0.06183825 0.07514078 0.11266635 0.20166795 -0.1818998 -0.2936528 0.2562884 -0.33207723 0.15918711 -0.4898552 -0.07684773 0.29633766 -0.031868234 -0.06498584 0.48547128 0.162622 -0.019588916 -0.20587285 0.124167375 0.07015021 -0.1895376 0.35707602 -0.16800158 0.104930244 -0.0021408978 0.4038942
45 0.36140954 0.37876877 0.27803573 0.5812573 0.7682351 0.08076059 -1.2586325 -0.019765608 -1.6345882 -0.117411986 -0.10773323 -0.27122033 -0.34128577 -0.4996383 0.32956463 1.0250471 -0.5325411 -0.15353444 1.1551456 0.42045698 0.47938058 -0.3376655 1.0560774 -0.27510875 1.5402305 0.044563908 -0.44271427 -0.21279234 -0.46780348 -0.41628006 0.27749962 -0.4986636 -0.23224722 -0.19398932 -0.51991254 1.0143297 -0.7056006 -0.43634352 -0.22042264 -0.09434165 0.6473893 1.0606595 -0.8929191 -1.0615782 0.6761909 -1.1838858 0.93540657 -1.7084023 -0.4677609 0.9151445 0.11365363 0.08126063 1.3837574 0.54385495 -0.07792702 -0.8821361 0.3714088 0.3705225 -0.45576563 1.1648881 -1.0388315 0.43833408 0.14294599 1.7965072
42 0.33374295 0.34493372 0.25257233 0.553157 0.716033 0.08736561 -1.187804 -0.022460354 -1.5451704 -0.104169965 -0.1085498 -0.2569332 -0.32114807 -0.48132515 0.30381945 0.9685644 -0.5066948 -0.15069754 1.1030389 0.38728762 0.45949095 -0.32523447 1.0149243 -0.2409435 1.4610327 0.050260905 -0.42835233 -0.20930386 -0.442212 -0.4025018 0.25665903 -0.47423503 -0.20820802 -0.17539246 -0.4992629 0.9768768 -0.6605438 -0.3946284 -0.20374878 -0.064976 0.6124753 1.0084994 -0.8338865 -1.0276736 0.64377946 -1.1173422 0.8897219 -1.6050557 -0.44437525 0.88556325 0.08457864 0.080164135 1.3100908 0.49997523 -0.077051625 -0.8179138 0.32639763 0.33147013 -0.4220161 1.0910846 -0.95581424 0.3958375 0.11965886 1.7154019
122 0.17036992 -0.046575435 0.11248857 0.2409359 0.21326843 -0.028622834 -0.3257489 -0.067397036 -0.60022 -0.22024879 0.052606836 -0.24535555 -0.18401697 -0.09576599 0.17694314 0.5243438 -0.1110093 0.027662743 0.4001757 0.2281134 0.22736008 0.11415985 0.3627811 -0.26735285 0.36977953 0.0924141 -0.20297593 -0.15510954 0.022164732 -0.13268052 0.10626657 -0.15238637 -0.100151405 -0.01701787 -0.19489685 0.15707016 -0.06526729 -0.1473939 -0.08801661 0.08740129 0.11872819 0.20812128 -0.19932896 -0.3090412 0.27978867 -0.35352284 0.16846903 -0.54592097 -0.094887376 0.2875489 -0.047996785 -0.07278701 0.5235207 0.19455697 0.0014279904 -0.19050314 0.12270833 0.07040793 -0.2019387 0.3555618 -0.15229174 0.09973505 -0.013502679 0.4262891
34 0.3600992 0.35895282 0.261643 0.55497175 0.7223784 0.06724704 -1.2153308 -0.041069265 -1.5613437 -0.09900997 -0.08799899 -0.2414758 -0.31469363 -0.46482807 0.31589806 0.9629553 -0.51444244 -0.15545402 1.0997032 0.38270038 0.47212717 -0.32743034 0.9994082 -0.25848895 1.4897524 0.046664663 -0.43405646 -0.18681453 -0.45050806 -0.39969736 0.28224877 -0.4701923 -0.2077089 -0.18728617 -0.50515455 0.9948554 -0.6859398 -0.4210152 -0.19081181 -0.0968107 0.6165582 1.0189991 -0.86235505 -1.0424898 0.665266 -1.1396887 0.9061398 -1.6272974 -0.42190912 0.89810586 0.11697055 0.08318625 1.3023512 0.5003495 -0.09133265 -0.84394735 0.34751657 0.35213426 -0.4427494 1.1086998 -0.99571747 0.40665263 0.1320004 1.7150757
148 0.16580413 -0.037513353 0.12713493 0.23740777 0.22458948 -0.050573796 -0.30531266 -0.06328855 -0.58464676 -0.19201477 0.068052486 -0.2358326 -0.1829645 -0.099215634 0.17872159 0.49366227 -0.116446026 0.007618583 0.3988342 0.21444063 0.2063152 0.096126646 0.34766978 -0.22775847 0.37143007 0.092746735 -0.18167186 -0.12857562 0.0035821155 -0.10989196 0.075712495 -0.1389317 -0.07142329 -0.01488537 -0.17687987 0.16510937 -0.05852083 -0.14242469 -0.07025577 0.06969729 0.13388349 0.2165331 -0.21350867 -0.29246843 0.25911853 -0.35444555 0.14941229 -0.5164488 -0.08982349 0.29093608 -0.03519386 -0.07114238 0.51039314 0.17750528 -0.012383225 -0.2120943 0.11198134 0.083403505 -0.19950579 0.37133628 -0.18034072 0.110323414 0.0058425204 0.4086223
134 0.15176985 -0.049990695 0.10225545 0.23031498 0.20850283 -0.04569041 -0.3087681 -0.06604861 -0.5904824 -0.2057748 0.043066397 -0.24140187 -0.18069679 -0.096016236 0.15413865 0.48974562 -0.11284272 0.0031406372 0.3723868 0.23989983 0.22209616 0.0953564 0.36755908 -0.25954518 0.35980174 0.096833624 -0.18681405 -0.12232482 0.00841827 -0.11583239 0.10066012 -0.15621042 -0.09690398 -0.024514839 -0.1867136 0.13299748 -0.05208863 -0.14636351 -0.07181594 0.072466426 0.12746042 0.1780943 -0.19423403 -0.2762049 0.28298268 -0.33736137 0.15718225 -0.5173539 -0.08061199 0.26901633 -0.06333093 -0.05638275 0.49704632 0.19005808 -0.023889935 -0.18508074 0.1242508 0.05995967 -0.18390724 0.3637032 -0.16863781 0.10241542 0.0042618625 0.40695068
137 0.16503759 -0.031698257 0.123316 0.24080431 0.21709174 -0.057282686 -0.28401864 -0.05170091 -0.58842635 -0.21490888 0.063979246 -0.22213161 -0.19497056 -0.073751785 0.16681452 0.5000701 -0.09999098 0.0046255733 0.38409355 0.21652836 0.21421994 0.13153504 0.34543425 -0.26586053 0.35147783 0.073482074 -0.19568527 -0.14022055 0.007638546 -0.10652499 0.10196812 -0.14298092 -0.08019413 0.007320577 -0.17340083 0.13748544 -0.036672696 -0.11763244 -0.061903656 0.08825652 0.09858178 0.19495825 -0.1625012 -0.2609714 0.25334162 -0.3313041 0.14494333 -0.48775294 -0.09100509 0.27524793 -0.043701433 -0.04789304 0.4835154 0.18168253 0.003883944 -0.18530472 0.12310007 0.046673696 -0.17944923 0.35118777 -0.14188568 0.08234066 -0.010334145 0.39328676
136 0.16555707 -0.036923334 0.12803116 0.24219774 0.2057564 -0.025317265 -0.33088776 -0.056492582 -0.57394516 -0.19487697 0.04357385 -0.22426678 -0.18270865 -0.10048358 0.15542921 0.5065514 -0.1412136 0.020225504 0.3755183 0.23437075 0.20001473 0.08691304 0.36946625 -0.25490075 0.37343243 0.081481434 -0.19470312 -0.15071301 0.014501095 -0.131752 0.09612348 -0.16629751 -0.08563882 -0.019091107 -0.19691879 0.15272678 -0.07802492 -0.14023389 -0.077829756 0.06363926 0.114720814 0.18835513 -0.18592606 -0.29338968 0.28150597 -0.34332484 0.17854021 -0.522444 -0.100393794 0.2898692 -0.062291846 -0.045840137 0.51505333 0.18218848 0.0018832973 -0.18021949 0.12722845 0.08022302 -0.16918817 0.3609879 -0.18498452 0.09578835 -0.0030224938 0.41339135
132 0.16540909 -0.044198453 0.106748335 0.24014641 0.20721936 -0.052542087 -0.30068046 -0.060878575 -0.5722839 -0.19831379 0.046114534 -0.2067609 -0.16457522 -0.06900786 0.17182104 0.48190886 -0.13022916 0.023092236 0.35259512 0.20963778 0.2117948 0.10667041 0.33564225 -0.2419338 0.36485925 0.0740174 -0.18223032 -0.114444345 0.010350754 -0.11423226 0.08265822 -0.12953268 -0.07386841 -0.0035584467 -0.16234063 0.14020179 -0.05877945 -0.13029788 -0.06081145 0.079985894 0.12653637 0.19488469 -0.17641944 -0.26936033 0.26101136 -0.33868703 0.15615493 -0.4812709 -0.08859437 0.2743265 -0.03683699 -0.066018544 0.48835212 0.17451997 -0.008302501 -0.1724355 0.11958568 0.06914112 -0.1935524 0.3563262 -0.17896484 0.1166491 0.009507164 0.3986599
64 0.33988595 0.37412763 0.26003337 0.5760528 0.7320661 0.070174724 -1.2148912 -0.041342627 -1.581756 -0.13246958 -0.093606606 -0.245583 -0.32151437 -0.47215205 0.31483477 0.9762147 -0.51909196 -0.16636783 1.1188408 0.41247785 0.46206987 -0.32621944 1.0292699 -0.26151568 1.4930432 0.06166966 -0.42437026 -0.20727582 -0.44279206 -0.41931775 0.27694976 -0.4824995 -0.20857725 -0.19063689 -0.49597842 1.0071106 -0.6966443 -0.4140223 -0.21763593 -0.08132927 0.61608434 1.0369523 -0.85462695 -1.0378026 0.6687617 -1.1436214 0.91384465 -1.6454505 -0.44832668 0.8877532 0.08463235 0.05680204 1.3344103 0.5267581 -0.09175582 -0.8642589 0.33459672 0.35717767 -0.45937297 1.1217686 -0.9879964 0.4323359 0.11227605 1.7491413
86 0.15362675 -0.027103813 0.10991958 0.23361115 0.2203935 -0.04475951 -0.29845357 -0.064040706 -0.58104336 -0.22251256 0.064496666 -0.23456095 -0.19087768 -0.080531575 0.16918118 0.5048664 -0.12210652 -0.0007178308 0.36743018 0.22104754 0.19559404 0.10146795 0.37079248 -0.25125882 0.34611034 0.078778364 -0.17978224 -0.14057304 0.00809158 -0.1269697 0.09806277 -0.16174711 -0.09967095 -9.7566684e-05 -0.19679481 0.14871798 -0.053009234 -0.117542095 -0.06544828 0.07664979 0.12072581 0.19578119 -0.18205711 -0.2887265 0.2774433 -0.32812178 0.16846405 -0.50934464 -0.08293004 0.2923886 -0.061540898 -0.06396857 0.48919564 0.18789378 -0.02145303 -0.18512405 0.1355493 0.06127516 -0.1979493 0.3404843 -0.15642336 0.0962982 0.00862257 0.39807296
102 0.16984819 -0.020699093 0.10030009 0.22047284 0.21533743 -0.04268706 -0.30453384 -0.05813391 -0.58075863 -0.18251824 0.036312178 -0.22672121 -0.17791252 -0.09637835 0.15791935 0.48793796 -0.116602555 0.016774777 0.38382187 0.22066951 0.190839 0.10055918 0.35216624 -0.21870033 0.36732578 0.08866522 -0.17138365 -0.1421242 -0.010725237 -0.120543934 0.08826849 -0.16304268 -0.076612495 -0.010677551 -0.1834688 0.15650743 -0.08882498 -0.122059844 -0.08725586 0.052587423 0.13185349 0.19246316 -0.20305754 -0.29205307 0.26129207 -0.35086527 0.1800942 -0.5067824 -0.08380344 0.2828401 -0.029606272 -0.0682671 0.49621683 0.16865195 -0.0092802625 -0.2075639 0.11628465 0.06097117 -0.18520051 0.36566484 -0.17431799 0.10674109 -0.005625843 0.42674246
130 0.1475961 -0.043042056 0.106051125 0.22711213 0.21675572 -0.050725576 -0.296428 -0.048341975 -0.5953846 -0.20623206 0.05074754 -0.24666716 -0.19422564 -0.08056658 0.17404892 0.503413 -0.12494612 0.018594474 0.38013262 0.21281652 0.22197294 0.12230895 0.33845595 -0.24926321 0.36383334 0.08234239 -0.18699759 -0.14156863 0.020787975 -0.109951876 0.093587965 -0.15263453 -0.087684594 -0.018568339 -0.19867861 0.15732203 -0.051894154 -0.1312181 -0.061617833 0.058568064 0.12629217 0.18037395 -0.19630341 -0.27515492 0.26375648 -0.34233472 0.14015377 -0.5154141 -0.08753539 0.27145213 -0.03389015 -0.043703914 0.49230835 0.18256918 -0.01823496 -0.17642607 0.11336457 0.07527632 -0.17057477 0.36072215 -0.15971114 0.11448354 0.010954034 0.3951103
13 0.38136533 0.38735384 0.29016 0.6084637 0.7893948 0.070579596 -1.3093618 -0.040851932 -1.690065 -0.13142565 -0.111158155 -0.26876932 -0.33387178 -0.49460912 0.35544997 1.0683116 -0.56126463 -0.16456547 1.1912607 0.4141807 0.51115775 -0.36341798 1.100285 -0.28675202 1.5903453 0.050929096 -0.47020575 -0.20873643 -0.479 -0.45537737 0.29864284 -0.5033715 -0.22287515 -0.18987505 -0.5366083 1.0555373 -0.7234174 -0.42561817 -0.22614019 -0.08875361 0.6549959 1.109332 -0.9203382 -1.1148899 0.70868665 -1.2164257 0.9699196 -1.7453477 -0.48213917 0.969209 0.100195125 0.06559194 1.4119178 0.54947835 -0.07121776 -0.8998218 0.35685417 0.3758168 -0.4893192 1.1751088 -1.0539755 0.45348802 0.13464932 1.8734188
94 0.1693817 -0.039672982 0.11904262 0.24201778 0.2177276 -0.027185662 -0.32564208 -0.05760469 -0.5861187 -0.1891211 0.051580843 -0.21182412 -0.18398829 -0.099685915 0.15889421 0.494294 -0.106172495 0.0021948137 0.37580618 0.24091782 0.19572699 0.10498744 0.36514798 -0.25049317 0.36981788 0.082334146 -0.17380136 -0.14479317 -0.0066385143 -0.106573485 0.08047597 -0.13492687 -0.10110145 0.00032206034 -0.18922031 0.14159009 -0.06348418 -0.13840753 -0.07830525 0.06797707 0.11343485 0.19511068 -0.2003444 -0.27520758 0.27797022 -0.3437158 0.15362008 -0.50898254 -0.097653754 0.28783512 -0.040094744 -0.063108765 0.4918427 0.16783738 -0.022881512 -0.18384445 0.1298083 0.06724102 -0.16952468 0.34434152 -0.16910349 0.10365092 -0.012571378 0.39807555
113 0.16992776 -0.04086015 0.103026986 0.24571234 0.20203482 -0.04761648 -0.29732516 -0.06275973 -0.5934907 -0.20946705 0.03902297 -0.2261616 -0.1838209 -0.07952806 0.16813831 0.49145418 -0.10700486 0.021830417 0.37371573 0.22857282 0.20646358 0.11311852 0.36565962 -0.24927817 0.35131496 0.0800489 -0.18129393 -0.14377408 0.0039046062 -0.13281536 0.09197958 -0.14403535 -0.07895944 -0.018452263 -0.17461257 0.13091946 -0.04014745 -0.1317433 -0.06753629 0.07996409 0.11581783 0.19553296 -0.18109182 -0.29828286 0.2633767 -0.33725882 0.14146689 -0.49670961 -0.074284665 0.2772039 -0.037294254 -0.05985 0.48792365 0.18678916 -0.022003025 -0.19892585 0.13093957 0.055464186 -0.17143421 0.35634607 -0.17225319 0.115125254 0.0068894005 0.38465017
77 0.15100959 -0.040200237 0.12807849 0.25632983 0.22224694 -0.03592679 -0.3431075 -0.06344681 -0.59404445 -0.21131092 0.03332564 -0.22561759 -0.19411574 -0.10215633 0.17498718 0.5212618 -0.14514913 0.023199797 0.40691185 0.24009952 0.20569293 0.112445764 0.35760146 -0.24867348 0.3854584 0.072469264 -0.2031353 -0.13271342 0.012198348 -0.13549237 0.08528712 -0.14820376 -0.087632045 -0.026177153 -0.17908603 0.15673953 -0.062114663 -0.13380447 -0.06059088 0.083720945 0.14076506 0.19620614 -0.19979659 -0.30266285 0.2785354 -0.3411734 0.1801247 -0.54640895 -0.07334071 0.28981894 -0.045955762 -0.05215426 0.49974063 0.18622264 -0.0056593143 -0.19032884 0.1306651 0.0705077 -0.20412724 0.36087584 -0.1658443 0.09729763 0.017963875 0.43210053
11 0.34907243 0.37077242 0.2760513 0.5769484 0.745212 0.061885793 -1.1949943 -0.04368255 -1.5734133 -0.13149068 -0.09852711 -0.23362596 -0.3270187 -0.48155963 0.31411803 0.9751259 -0.52219516 -0.14821433 1.1179308 0.39067718 0.45570093 -0.33646372 1.0113336 -0.24844338 1.5054648 0.058987018 -0.435355 -0.21498148 -0.45318505 -0.4171899 0.27492163 -0.4826451 -0.21174185 -0.1683027 -0.4875217 0.99587524 -0.66666967 -0.396708 -0.20524897 -0.093021065 0.608583 1.0377191 -0.8385791 -1.0362847 0.6764972 -1.1307957 0.90659094 -1.6400607 -0.43026417 0.8903726 0.08451495 0.07593493 1.3076856 0.50879043 -0.07680847 -0.82900137 0.33863387 0.35849866 -0.4353487 1.1115904 -1.0015665 0.42787343 0.110645466 1.7264107
2 0.35493022 0.34080487 0.26775572 0.5517411 0.7218093 0.06450587 -1.2009819 -0.03421068 -1.5278542 -0.10665652 -0.11596028 -0.2516403 -0.3076003 -0.4840405 0.32201448 0.97737235 -0.5275433 -0.14134304 1.1089988 0.38696706 0.45830828 -0.33876616 1.0122128 -0.23929918 1.4771991 0.03299876 -0.4114193 -0.20573594 -0.43888643 -0.39461645 0.26934996 -0.46103442 -0.2210671 -0.17194603 -0.49135956 0.98057985 -0.6632532 -0.3954155 -0.18983752 -0.08847617 0.60650945 1.0238746 -0.8436204 -1.0087377 0.6369854 -1.105216 0.89294314 -1.6014073 -0.42622185 0.8860713 0.094719805 0.05935337 1.2999434 0.51170504 -0.086989306 -0.84612435 0.328286 0.35581374 -0.42199785 1.0996851 -0.98533815 0.41559723 0.1083947 1.7211893
56 0.16357538 -0.024363568 0.10616328 0.23180406 0.21685536 -0.036852583 -0.3158577 -0.06443303 -0.57922214 -0.21422619 0.06319392 -0.22246093 -0.18397558 -0.0902104 0.15133858 0.493855 -0.10572179 0.012143344 0.36372274 0.2402937 0.19349344 0.11741917 0.36358202 -0.24261053 0.34328863 0.09537165 -0.19477282 -0.14692278 0.023236793 -0.13443388 0.07573079 -0.15681665 -0.08329638 -0.008746592 -0.19161463 0.13915077 -0.04259204 -0.11794173 -0.05818432 0.07463868 0.124856405 0.19267528 -0.18453342 -0.2775071 0.27311322 -0.339539 0.14840111 -0.5145021 -0.07040788 0.27257714 -0.04383869 -0.059445575 0.49023357 0.16928147 -0.0029448073 -0.19825721 0.10622919 0.061413754 -0.17781816 0.36153856 -0.16239372 0.11609576 -0.012764605 0.3943179
109 0.14712425 -0.051595144 0.12912007 0.22556975 0.2025755 -0.061994385 -0.2922501 -0.06515751 -0.5931983 -0.22070923 0.0515851 -0.23689434 -0.18490328 -0.094558805 0.163026 0.5191958 -0.13478623 0.012911442 0.38191876 0.24857141 0.20964138 0.12565404 0.34794572 -0.26330262 0.369816 0.09133206 -0.19665383 -0.14256537 0.023844965 -0.13702056 0.08387059 -0.14846031 -0.08755097 0.0068493527 -0.19176802 0.13094494 -0.06341256 -0.1482128 -0.08557812 0.06721302 0.10542079 0.18756466 -0.18603328 -0.29425645 0.27837613 -0.3324295 0.17070532 -0.5225775 -0.0738675 0.29382712 -0.057731792 -0.076766506 0.49580106 0.1703236 0.00040180393 -0.17584132 0.13703857 0.05239577 -0.17812583 0.36400032 -0.151067 0.091029085 -0.0001533733 0.3919953
22 0.33672312 0.35347372 0.27597597 0.5735177 0.71643585 0.07850453 -1.2043433 -0.015935086 -1.5693573 -0.10713846 -0.10808891 -0.25865838 -0.31564134 -0.4742439 0.30388668 0.981775 -0.5168952 -0.16309674 1.1157266 0.4009867 0.4737457 -0.31363168 1.0011425 -0.25032744 1.4884207 0.05752906 -0.4156097 -0.21207748 -0.42632157 -0.40382215 0.26888338 -0.48142633 -0.21272005 -0.17116414 -0.50471044 0.99596083 -0.6683294 -0.40462312 -0.20736901 -0.079525165 0.6119455 1.0241984 -0.8512083 -1.0108613 0.6583226 -1.1406052 0.90361375 -1.6140854 -0.4277808 0.8982502 0.085088626 0.055271298 1.3129805 0.5095656 -0.08495601 -0.8387805 0.3266195 0.34821966 -0.4377837 1.0986265 -0.9746572 0.41789243 0.13114797 1.7156197
149 0.173854 -0.038076073 0.1201769 0.23102506 0.22315955 -0.036817927 -0.30158857 -0.04141392 -0.5960018 -0.1856537 0.056342956 -0.23382306 -0.18475862 -0.09720525 0.16173407 0.5054251 -0.10958323 0.026155729 0.36063877 0.24083048 0.18838926 0.11146541 0.36594823 -0.24766128 0.34560943 0.06841287 -0.1815134 -0.13768317 -0.0095526185 -0.1196672 0.09397944 -0.14132257 -0.07619921 -0.011724727 -0.19949971 0.15661345 -0.051348135 -0.14670143 -0.076832905 0.07415673 0.11589728 0.1925977 -0.19523837 -0.28459316 0.27719432 -0.33934936 0.1551157 -0.5027608 -0.08780036 0.27035275 -0.030102452 -0.07533814 0.48627394 0.17715229 -0.023342734 -0.18647225 0.13314979 0.06122348 -0.17200589 0.35251814 -0.17004266 0.10325861 -0.0021807398 0.41015235
25 0.35652384 0.3563738 0.24848185 0.5429292 0.72536343 0.07946055 -1.1765778 -0.02991273 -1.521006 -0.12967548 -0.0828686 -0.2541639 -0.31545353 -0.45682573 0.29682115 0.97053987 -0.5212903 -0.16275266 1.093735 0.38924357 0.4506008 -0.3129773 0.9883894 -0.24967222 1.4738818 0.051472597 -0.42770517 -0.19621651 -0.43828583 -0.4031325 0.26721096 -0.452924 -0.19764547 -0.18380621 -0.46980262 0.966001 -0.65462744 -0.41199195 -0.210808 -0.08164133 0.585293 1.0007352 -0.8343338 -1.0114052 0.6327431 -1.1237414 0.8692136 -1.6000371 -0.42080337 0.8743544 0.11134984 0.06066204 1.3088619 0.5176361 -0.06905165 -0.82575524 0.33339128 0.34309298 -0.4500011 1.0990639 -0.9719499 0.42306036 0.12622413 1.7054069
85 0.16065878 -0.055360734 0.1188128 0.24539551 0.20005663 -0.05112523 -0.31245828 -0.066292755 -0.5814776 -0.20307554 0.06475793 -0.24482507 -0.19057167 -0.07586414 0.17835164 0.51780885 -0.112915926 0.0018880572 0.3907701 0.22071862 0.1978564 0.12662382 0.35495895 -0.26411977 0.35134995 0.09515628 -0.1919354 -0.13041703 0.014103534 -0.11502865 0.08984013 -0.16422193 -0.091394946 0.0016526233 -0.18541546 0.13133113 -0.041695785 -0.121351995 -0.05849299 0.07788572 0.103729635 0.18371244 -0.1748748 -0.29792908 0.28822634 -0.35402718 0.13772528 -0.5216494 -0.070790805 0.2698697 -0.037720487 -0.078392245 0.5064171 0.18702687 -0.0076773544 -0.17531008 0.1292603 0.06438453 -0.1803033 0.36619917 -0.15363379 0.12063899 -0.004514672 0.38932893
91 0.15779553 -0.055191644 0.10831285 0.2393406 0.22585888 -0.056047827 -0.2948265 -0.049846355 -0.59326875 -0.21484937 0.07067647 -0.2515178 -0.17900024 -0.057981446 0.16648698 0.50094944 -0.13354467 0.0022680794 0.38729233 0.24152224 0.2244686 0.1179644 0.35545868 -0.25659108 0.33233222 0.07654089 -0.1802861 -0.15714587 0.015588862 -0.12577474 0.10053259 -0.15295084 -0.07334707 -0.010410557 -0.19319674 0.12580417 -0.038015097 -0.14425625 -0.061727203 0.095002495 0.11857843 0.16970384 -0.18697615 -0.2809877 0.27286607 -0.34437332 0.15516686 -0.49823907 -0.08116378 0.28487605 -0.0494082 -0.060308103 0.5146079 0.18150331 -0.012396061 -0.18330552 0.106235385 0.07516674 -0.20101969 0.3506827 -0.15158209 0.106908806 0.0018368444 0.37824383
19 0.34482625 0.35370848 0.2693234 0.5733656 0.7280439 0.07556512 -1.2185305 -0.023989009 -1.5763516 -0.11718711 -0.10441052 -0.2592537 -0.30893132 -0.47719762 0.30382758 0.9731515 -0.519206 -0.16625705 1.1191953 0.40182644 0.46962216 -0.3380255 1.0310829 -0.27254176 1.5015197 0.04847871 -0.42920128 -0.19921441 -0.4399741 -0.41660544 0.26622012 -0.4828147 -0.21684124 -0.18930532 -0.48606944 0.9770645 -0.68449533 -0.42169836 -0.21622539 -0.08321115 0.5965125 1.0168698 -0.8447673 -1.0343394 0.66763717 -1.1215304 0.8815398 -1.6231745 -0.4500206 0.90155387 0.109994926 0.07974034 1.3099294 0.5233157 -0.0967137 -0.8464977 0.3348619 0.3347551 -0.437568 1.1132802 -0.9943219 0.40600562 0.12867951 1.7264407
26 0.35313857 0.35952738 0.26983202 0.6039731 0.75096345 0.09123179 -1.2482892 -0.0404321 -1.6348082 -0.13162822 -0.09869643 -0.25969765 -0.33932802 -0.51021785 0.3414187 1.0146176 -0.5543543 -0.15917818 1.1644324 0.41439575 0.48486736 -0.33828837 1.0659971 -0.2577286 1.545498 0.040422156 -0.45713216 -0.20327663 -0.4527757 -0.43828133 0.29090562 -0.4822564 -0.21121815 -0.19950384 -0.52381575 1.0295937 -0.7181264 -0.41749525 -0.20262744 -0.09262255 0.64611393 1.0555766 -0.87471294 -1.0820322 0.6943084 -1.1879278 0.9400303 -1.6892674 -0.45888308 0.92174023 0.08789827 0.07516028 1.3881421 0.5524681 -0.09284109 -0.89344084 0.36729836 0.35398722 -0.45508984 1.1667035 -1.03434 0.43941045 0.123418316 1.7959559
31 0.3399337 0.35767478 0.24710199 0.5568671 0.7251593 0.089592166 -1.2028491 -0.018575586 -1.5469851 -0.119263925 -0.10964783 -0.22575593 -0.3044265 -0.4902964 0.3227101 0.98867023 -0.50508696 -0.17047797 1.1035185 0.39222527 0.46471784 -0.33878267 1.0050292 -0.24153529 1.4986722 0.045422297 -0.43161836 -0.20937209 -0.44954386 -0.4015252 0.2684654 -0.476113 -0.2265402 -0.18449856 -0.47949326 1.0036741 -0.67525303 -0.41167763 -0.1875433 -0.08336365 0.60869056 1.0354248 -0.8605961 -1.018645 0.6722895 -1.1262082 0.9023016 -1.6187055 -0.4399017 0.8759923 0.102883 0.07122154 1.3051549 0.5194732 -0.07466398 -0.8521317 0.34470358 0.35902297 -0.4549486 1.1083158 -1.0039139 0.40701568 0.1364771 1.7197173
79 0.3398842 0.33560434 0.24204944 0.53998923 0.7133547 0.07803779 -1.1896191 -0.04241906 -1.5290564 -0.11641968 -0.10741226 -0.24395582 -0.30415422 -0.461264 0.31992492 0.9644057 -0.508384 -0.14749655 1.0985478 0.3879824 0.45396215 -0.3238631 0.97848827 -0.23987143 1.4599723 0.046215102 -0.40014353 -0.20765495 -0.4240874 -0.411649 0.24910715 -0.46017486 -0.2017097 -0.16934034 -0.49506178 0.97665393 -0.6619376 -0.39096314 -0.19833814 -0.072901644 0.60643774 0.98934275 -0.8446319 -0.9961415 0.6436461 -1.1221641 0.871121 -1.5898747 -0.41381526 0.867083 0.09579921 0.056001812 1.2781918 0.50787944 -0.08053815 -0.83591366 0.3345067 0.32601908 -0.43661812 1.0842332 -0.9646065 0.4210255 0.13017948 1.6889272
141 0.16592841 -0.0009241362 0.124084264 0.24820043 0.22816351 -0.022559928 -0.3101876 -0.04936852 -0.583617 -0.16438627 0.044093065 -0.21834542 -0.1724017 -0.103702284 0.17418943 0.48368198 -0.119909436 0.014636365 0.39119864 0.20425683 0.18976404 0.07172279 0.35061908 -0.24037257 0.37663633 0.06247024 -0.16288342 -0.13264069 -0.022431247 -0.13790518 0.08030477 -0.16500291 -0.08083121 -0.009501588 -0.18760172 0.18238732 -0.08399477 -0.14922495 -0.07794094 0.05372143 0.11799036 0.1987161 -0.20950484 -0.3009938 0.2692717 -0.35993865 0.16650257 -0.5142403 -0.09610996 0.2926596 -0.041342452 -0.04265874 0.5063919 0.16491865 -0.0032678589 -0.19334273 0.119349204 0.08377018 -0.19146325 0.34609827 -0.19826485 0.12421261 -0.008983033 0.4252673
0 0.35952985 0.357683 0.28342164 0.5676662 0.737658 0.095535085 -1.2522537 -0.014073716 -1.608746 -0.11300173 -0.102755114 -0.25648534 -0.33850107 -0.49959788 0.33462253 1.0181651 -0.5340462 -0.1512955 1.1465383 0.41038474 0.47856352 -0.3580121 1.0579959 -0.2760446 1.5265046 0.05109112 -0.42778763 -0.22439851 -0.44827867 -0.4091888 0.26338333 -0.47059494 -0.22964525 -0.1714252 -0.5150747 1.031202 -0.6854393 -0.4343535 -0.20824715 -0.09831877 0.63693786 1.0689778 -0.88180286 -1.056669 0.67465335 -1.1774241 0.92197233 -1.6917928 -0.44470873 0.9018726 0.11260507 0.08236845 1.3524842 0.5268383 -0.10215711 -0.85832804 0.35583338 0.37093735 -0.45022875 1.1317406 -1.0120813 0.44435853 0.14361247 1.79171
76 0.14837043 -0.050225884 0.1273736 0.22387114 0.21559234 -0.028479997 -0.31240773 -0.04218421 -0.5954422 -0.18923433 0.061068397 -0.22235675 -0.18999866 -0.06759418 0.1769401 0.50160974 -0.11305288 0.021089565 0.37310553 0.23567253 0.19979206 0.10419963 0.3542645 -0.24729481 0.3575035 0.071922794 -0.1754103 -0.12549087 0.013870485 -0.10946611 0.07943722 -0.14283296 -0.096445516 -0.02209299 -0.16974409 0.1580034 -0.06443797 -0.14295644 -0.061953727 0.0743952 0.12788913 0.17873113 -0.18693554 -0.28321528 0.2679997 -0.33304816 0.14521585 -0.4993757 -0.08433222 0.29497585 -0.050603807 -0.0446026 0.4921768 0.1874562 -0.0199702 -0.2039528 0.12019213 0.06330782 -0.16596296 0.356248 -0.17054631 0.115723446 0.001066962 0.38555834
50 0.16508418 -0.030637013 0.097045146 0.24506219 0.22741154 -0.023759503 -0.31014708 -0.03697114 -0.5620129 -0.19872068 0.06161027 -0.22447672 -0.18439215 -0.07297676 0.15208124 0.49579683 -0.1309022 0.02694873 0.36109465 0.22535431 0.2151437 0.098542385 0.34583598 -0.23759753 0.34249714 0.08340779 -0.16524261 -0.13999309 0.008317266 -0.11163075 0.073308975 -0.1396466 -0.097459756 -0.019797998 -0.17757057 0.14039654 -0.06975328 -0.14640176 -0.08223776 0.057405144 0.13563962 0.20555349 -0.18913011 -0.28626123 0.2696246 -0.33141476 0.14427476 -0.510768 -0.08124749 0.2907142 -0.039380707 -0.040538948 0.49278903 0.17493099 0.0039898986 -0.17595464 0.12964162 0.0825146 -0.1942386 0.35384992 -0.18089804 0.093571216 -0.010839282 0.4117297
61 0.1585084 -0.05092912 0.12265226 0.24504589 0.21116577 -0.03178755 -0.30131662 -0.06506884 -0.5653427 -0.20617142 0.045263603 -0.22145858 -0.1820793 -0.08580072 0.16912091 0.50378186 -0.103040166 0.015118821 0.38258028 0.23005576 0.2141067 0.10949982 0.35222104 -0.23206551 0.3287489 0.09631599 -0.17584561 -0.12423967 0.010332306 -0.11897146 0.07915635 -0.14751843 -0.08933776 -0.018680476 -0.17735319 0.14899044 -0.03756424 -0.14207372 -0.08527486 0.07046386 0.11669806 0.16693337 -0.16839372 -0.2672644 0.25790948 -0.3135527 0.16031218 -0.4926514 -0.070027426 0.25966933 -0.065331034 -0.06680466 0.49918407 0.18360181 0.0013731762 -0.19337578 0.1264964 0.06269549 -0.18097267 0.34056 -0.14155032 0.08654873 0.00493185 0.39798686
127 0.15839578 -0.0405268 0.10431934 0.22755262 0.20575452 -0.034424398 -0.31705493 -0.054332368 -0.5984757 -0.20368469 0.051665872 -0.23870051 -0.16998026 -0.06790688 0.1729998 0.50068635 -0.13029628 0.0113441115 0.38193718 0.2275249 0.22228111 0.10014501 0.3680069 -0.23005985 0.36916968 0.094968155 -0.18877427 -0.14231662 0.021397047 -0.10458941 0.092211656 -0.15065776 -0.07555715 -0.008891471 -0.1820777 0.16302098 -0.04995116 -0.12586653 -0.07282753 0.056314446 0.116481274 0.19961187 -0.19872396 -0.2732882 0.27962694 -0.35271114 0.14711502 -0.520823 -0.08232879 0.28112593 -0.04962588 -0.061261985 0.5013048 0.19781692 -0.01321241 -0.20171492 0.12572624 0.056291092 -0.1703543 0.35772926 -0.17630364 0.09500632 -0.013907258 0.41149902
110 0.16036403 -0.032041475 0.116789035 0.23684575 0.21701244 -0.047359947 -0.3175808 -0.057341244 -0.5737733 -0.20461817 0.05374089 -0.23257267 -0.16425154 -0.08763939 0.18019143 0.48995486 -0.13742171 0.004175824 0.37119424 0.23096013 0.21403839 0.11039409 0.36641863 -0.24354959 0.3648171 0.08460067 -0.18842928 -0.12408196 0.016647587 -0.10788975 0.074393615 -0.15777688 -0.085287526 -0.01579191 -0.18687169 0.13993037 -0.06225181 -0.14438896 -0.056456484 0.067868434 0.11397219 0.18535368 -0.18703859 -0.2987392 0.26398516 -0.3372766 0.16356234 -0.5208015 -0.08936628 0.27701345 -0.046739865 -0.06556127 0.48481327 0.16377196 8.734639e-05 -0.20266534 0.11442438 0.06690882 -0.18228975 0.33449844 -0.1437235 0.10231139 -0.0015314536 0.38611344
105 0.1353013 -0.016733484 0.11890674 0.22639693 0.21628018 -0.0458799 -0.30865872 -0.052069392 -0.5611425 -0.17253858 0.044288892 -0.21960124 -0.16229787 -0.07412581 0.14333487 0.46950662 -0.1292493 0.020167032 0.36661464 0.21610996 0.19114853 0.06504327 0.35515794 -0.2229003 0.37051097 0.082518004 -0.1871235 -0.12390626 -0.0036845815 -0.12494934 0.10363515 -0.14914222 -0.09546638 -0.0076354365 -0.18236622 0.14668246 -0.062602125 -0.11965663 -0.07620622 0.051030315 0.10809151 0.20111474 -0.1953837 -0.2651114 0.25409573 -0.32209638 0.15978265 -0.4780207 -0.08406221 0.25486255 -0.049276464 -0.049105957 0.47842118 0.1764713 -0.022159733 -0.20098361 0.1014945 0.07249301 -0.1867622 0.34547007 -0.16794266 0.09976905 -0.012245823 0.4120322
83 0.16021828 -0.05442492 0.09987004 0.25264907 0.21695767 -0.057739712 -0.3071698 -0.05190043 -0.6033279 -0.21513677 0.053956844 -0.24655594 -0.17823288 -0.080826916 0.18203297 0.5057026 -0.11454281 0.023438819 0.3714074 0.24651161 0.20470065 0.11112916 0.33895695 -0.24493852 0.36529112 0.088756554 -0.19693941 -0.14439374 0.0002237877 -0.11315137 0.07888203 -0.13965145 -0.09695748 -0.021197127 -0.19890836 0.14731468 -0.068393394 -0.14060086 -0.08606322 0.06796988 0.110153444 0.19236839 -0.17268424 -0.28659427 0.26255012 -0.33223295 0.16535717 -0.5156913 -0.08681324 0.28961384 -0.039706968 -0.07602794 0.5093424 0.16080289 -0.018492624 -0.19720939 0.12308223 0.06461305 -0.18026465 0.36515525 -0.15244146 0.09969434 -0.0138227325 0.38447753
1 0.33143565 0.35208237 0.23559272 0.5398433 0.69869053 0.06616118 -1.1531228 -0.03564919 -1.485753 -0.122339964 -0.08625069 -0.2446491 -0.30617195 -0.44394982 0.30075914 0.91954726 -0.49859658 -0.14272529 1.0561839 0.37155178 0.4365752 -0.3112419 0.9636377 -0.24749973 1.418613 0.032237187 -0.3923888 -0.20886888 -0.41998577 -0.37540874 0.2497535 -0.43884966 -0.1941408 -0.18236665 -0.46731016 0.93350655 -0.6561161 -0.3876919 -0.1827144 -0.065018564 0.56806785 0.96692437 -0.8124863 -0.9731281 0.62999177 -1.0899348 0.8533292 -1.5567584 -0.41207066 0.85043424 0.086911306 0.06466923 1.2475756 0.47590527 -0.082467474 -0.79117054 0.3098329 0.32008198 -0.4202487 1.0584561 -0.93477947 0.41276404 0.106335506 1.6532452
59 0.33369038 0.3350111 0.24110183 0.5534926 0.7092874 0.086864084 -1.1770903 -0.026384713 -1.5146044 -0.12867348 -0.100793876 -0.24580769 -0.32570523 -0.45865187 0.31298974 0.9571173 -0.508833 -0.1623237 1.0805284 0.38832465 0.46361694 -0.31245148 0.9876955 -0.24389838 1.4491826 0.038354088 -0.42190433 -0.20971519 -0.42409503 -0.41441405 0.25100592 -0.4711429 -0.19714524 -0.17334981 -0.47146517 0.98249465 -0.6727281 -0.4037497 -0.18568061 -0.07100423 0.6015035 1.0154138 -0.81440246 -1.0099809 0.6476792 -1.0976609 0.88902277 -1.575372 -0.43909785 0.8608459 0.10486554 0.06723837 1.2922786 0.5188523 -0.06998943 -0.83262855 0.32830372 0.3259748 -0.42025584 1.0834529 -0.9678429 0.41128537 0.13196243 1.7044469
27 0.35827938 0.3575074 0.2612515 0.57503027 0.729257 0.07823013 -1.2145854 -0.025995716 -1.5662801 -0.10799137 -0.10790822 -0.24737763 -0.31605354 -0.47719923 0.3019982 0.9856306 -0.52685 -0.16968216 1.1114904 0.39286515 0.47092173 -0.3392469 1.0135741 -0.2562072 1.4895624 0.032163855 -0.4146727 -0.21778028 -0.4489243 -0.40758306 0.26241353 -0.47967616 -0.22134607 -0.17322947 -0.50528103 0.9912121 -0.66988987 -0.40605623 -0.20250136 -0.06991245 0.5908604 1.0066054 -0.83759844 -1.0107636 0.6470016 -1.1418571 0.8923115 -1.637469 -0.43141386 0.8999249 0.088625416 0.057388924 1.330778 0.5157256 -0.08802609 -0.84233993 0.32673088 0.33808768 -0.44719625 1.1003712 -0.9832863 0.42901465 0.1349565 1.7219633
138 0.14184627 -0.024890997 0.10467811 0.25360435 0.22516628 -0.038774185 -0.3060308 -0.06376823 -0.58925766 -0.19721548 0.06323076 -0.21195173 -0.1748931 -0.08165222 0.15938158 0.5089746 -0.13935107 0.002152737 0.3715248 0.24057211 0.20327887 0.090151526 0.36971235 -0.25268844 0.36448893 0.08645287 -0.19132516 -0.11726973 0.0021519307 -0.12886272 0.09736931 -0.13704535 -0.08084832 -0.0035466496 -0.19590175 0.15025203 -0.05049761 -0.1234724 -0.073041074 0.05976365 0.1305713 0.20677347 -0.17948277 -0.2914974 0.28289747 -0.35143116 0.15663424 -0.5182906 -0.08280693 0.28092375 -0.035371266 -0.072619796 0.48245928 0.19401415 0.002817221 -0.20191151 0.11436563 0.06016314 -0.18369958 0.3726417 -0.17169845 0.105578765 -0.006148341 0.4118053
124 0.14807206 -0.024951713 0.10681658 0.2380846 0.20910868 -0.02896225 -0.3070012 -0.0555589 -0.5936049 -0.20679379 0.06898887 -0.23708479 -0.17448707 -0.09246387 0.183739 0.52668124 -0.116670206 0.008976911 0.38453582 0.22026184 0.22461382 0.08601362 0.3552741 -0.24067676 0.36961955 0.09991069 -0.20064048 -0.12256783 0.0072119124 -0.13909188 0.10038164 -0.15824458 -0.078003064 -0.002418291 -0.20566954 0.165721 -0.05437559 -0.12804207 -0.08620673 0.06073852 0.105804615 0.21187334 -0.20150729 -0.28756237 0.28177732 -0.33483928 0.17052299 -0.5223003 -0.084081374 0.29249388 -0.061990783 -0.069138594 0.50409687 0.19317771 -0.013720307 -0.21220064 0.12401343 0.081274174 -0.17809482 0.36836126 -0.17666905 0.10341622 -0.0025972172 0.40965736
101 0.14741048 -0.025453595 0.11656501 0.24348225 0.2255344 -0.024811478 -0.32875267 -0.03627136 -0.5922599 -0.19111985 0.041052565 -0.22838514 -0.17830387 -0.10013477 0.18087092 0.5017008 -0.124256894 0.01280972 0.39314833 0.21428886 0.21242127 0.09444554 0.36185908 -0.23900208 0.35547122 0.09011914 -0.18408492 -0.14804862 -0.00020114776 -0.13375694 0.100532554 -0.1608031 -0.09181513 -0.011957584 -0.1926981 0.15558705 -0.057126794 -0.13007653 -0.08800788 0.06696127 0.108393036 0.20085295 -0.18840446 -0.28589353 0.25749552 -0.3410919 0.17411993 -0.5264117 -0.091353275 0.28086147 -0.05896352 -0.053191222 0.5094276 0.18566966 -0.002125655 -0.19785783 0.1200352 0.060308482 -0.18519847 0.36751428 -0.17080936 0.10899346 0.0135078225 0.42493817
35 0.3406587 0.36817732 0.27642792 0.5539922 0.74610585 0.06531715 -1.2123219 -0.021950908 -1.5789697 -0.13158712 -0.11346028 -0.2636683 -0.33140537 -0.4618554 0.3245225 0.97470254 -0.507467 -0.14600112 1.1284583 0.41385087 0.4519088 -0.3358147 1.0260541 -0.25518757 1.5027303 0.034557145 -0.4197885 -0.19060674 -0.45651495 -0.399041 0.2745917 -0.4845136 -0.21778394 -0.19594763 -0.50853765 1.0058706 -0.68780863 -0.39233476 -0.21833564 -0.09358833 0.6223055 1.041897 -0.84643793 -1.0225967 0.6734145 -1.1483792 0.916438 -1.649299 -0.444537 0.8850595 0.10848222 0.0606978 1.3358889 0.51823515 -0.08281825 -0.8559026 0.33474755 0.34306264 -0.445139 1.1125454 -0.999044 0.42479134 0.114850305 1.7559177
23 0.3632337 0.35260594 0.26766193 0.59743285 0.7521372 0.06870928 -1.2563698 -0.04047959 -1.6209599 -0.11524508 -0.11210309 -0.25528935 -0.33134058 -0.48319128 0.31712404 1.0333859 -0.53988636 -0.15181488 1.1345705 0.4187191 0.4668026 -0.34268352 1.0500785 -0.27629742 1.534495 0.050409067 -0.43413424 -0.21623594 -0.4563008 -0.43325436 0.2914581 -0.48336464 -0.20676285 -0.1779815 -0.51767653 1.0344535 -0.7086047 -0.41645017 -0.2144921 -0.081947245 0.6323957 1.051584 -0.8815596 -1.0661589 0.68532073 -1.1606928 0.9140872 -1.6779157 -0.4562567 0.9088231 0.09206217 0.07087761 1.3822603 0.54736453 -0.07081481 -0.8575588 0.34813708 0.35277537 -0.44553247 1.1519351 -1.0074426 0.4442675 0.12895195 1.79131
7 0.31678447 0.34971252 0.2600041 0.5180942 0.69107175 0.08981987 -1.1334904 -0.014862754 -1.4566634 -0.10889179 -0.08297835 -0.2164401 -0.30173436 -0.4518165 0.31301746 0.93153167 -0.50188583 -0.15412892 1.0409372 0.37451217 0.43542537 -0.333816 0.9604768 -0.22100827 1.4127253 0.049960747 -0.39546305 -0.17900902 -0.40267068 -0.38049245 0.24966496 -0.4409752 -0.2139316 -0.15864864 -0.47001114 0.9567587 -0.6605412 -0.3893924 -0.17572871 -0.08643779 0.5722765 0.9790158 -0.7898766 -0.97327197 0.6105068 -1.0551466 0.8345543 -1.5357207 -0.4048636 0.8270108 0.08677957 0.052173752 1.2435021 0.49546725 -0.09166608 -0.8011853 0.335197 0.32236734 -0.41102389 1.0478947 -0.94331336 0.38789856 0.13232155 1.6344938
89 0.1768906 -0.035141956 0.12363513 0.24798785 0.22105177 -0.032089535 -0.33170524 -0.034277737 -0.595704 -0.20470135 0.05768269 -0.21061744 -0.18806268 -0.08125549 0.17412046 0.49689278 -0.12560762 0.025027696 0.39585897 0.21123485 0.20311733 0.11147864 0.3596344 -0.25722253 0.37535575 0.069705665 -0.1833441 -0.13468674 -0.007809248 -0.13305338 0.10503207 -0.1442459 -0.083175056 -0.013549002 -0.17373987 0.15479732 -0.05388791 -0.13739653 -0.08559167 0.050551794 0.12314889 0.21564214 -0.1936014 -0.30770072 0.2743508 -0.35410833 0.15832287 -0.507029 -0.077939086 0.28748602 -0.040080898 -0.054776467 0.48645774 0.18914858 0.0015870291 -0.19276276 0.12646239 0.064863235 -0.18461826 0.35000566 -0.16797788 0.11306658 0.0023962725 0.42074397
93 0.34278974 0.34959543 0.25535482 0.55963975 0.7130455 0.07705671 -1.1730549 -0.038226537 -1.5244064 -0.11679421 -0.09212211 -0.22380258 -0.30531856 -0.4692947 0.31192443 0.9411236 -0.50535166 -0.13784547 1.088581 0.3806881 0.43615308 -0.3193852 0.99726754 -0.23107094 1.4395049 0.05655679 -0.39449054 -0.21177799 -0.41275746 -0.39616713 0.25285488 -0.45241585 -0.19264477 -0.187262 -0.46534982 0.9535768 -0.67307276 -0.38444296 -0.2033377 -0.07350926 0.60163045 1.0080873 -0.8150395 -1.0103008 0.64423615 -1.1127365 0.8703868 -1.561868 -0.4317927 0.86748034 0.08957236 0.054175396 1.288712 0.50434947 -0.06984442 -0.8124296 0.3320241 0.34202662 -0.44021258 1.0789154 -0.9668521 0.41435167 0.11116079 1.6797023
73 0.16446166 -0.03439213 0.102534555 0.22628535 0.19515586 -0.02587808 -0.31648836 -0.05243328 -0.5945925 -0.20225 0.03961633 -0.21530549 -0.1676335 -0.07705573 0.17935003 0.49391872 -0.10154346 0.0230676 0.37652636 0.22602998 0.19109245 0.09391148 0.3589146 -0.2491168 0.36528113 0.06758433 -0.16753471 -0.1358654 0.0018564034 -0.13221128 0.10137316 -0.15660049 -0.09913624 -0.0025796278 -0.18614332 0.15036778 -0.054627348 -0.12328717 -0.061524156 0.080107264 0.12911683 0.18590002 -0.17921132 -0.2714077 0.2573599 -0.3333785 0.15524817 -0.5075669 -0.06921818 0.28056642 -0.03815944 -0.0645002 0.49564028 0.17378993 -0.016111331 -0.18774675 0.13411129 0.057357024 -0.17466079 0.34906068 -0.1779751 0.095832035 -0.010148179 0.41476873
123 0.15665294 -0.04171484 0.1182795 0.24515036 0.23089693 -0.058929466 -0.3132591 -0.0576301 -0.5955851 -0.2005171 0.06320855 -0.2280811 -0.15963092 -0.08619389 0.16430844 0.5105352 -0.11016818 0.011507604 0.38094577 0.23697913 0.20359397 0.11116892 0.35839802 -0.25166792 0.37897944 0.078714356 -0.18345335 -0.14569756 0.008607677 -0.112351604 0.09742654 -0.16252509 -0.09776859 -0.002752243 -0.17830457 0.15634425 -0.07132179 -0.13558856 -0.085541904 0.073521905 0.119144015 0.19765733 -0.18342026 -0.2845619 0.26155293 -0.34143963 0.15286489 -0.5225615 -0.081267975 0.30006433 -0.056305204 -0.051607564 0.5113983 0.1991733 0.0013475416 -0.20707968 0.12728563 0.0812022 -0.17714489 0.36382383 -0.1704709 0.113774925 0.0074186455 0.43057364
144 0.15109538 -0.048891567 0.12215023 0.22266726 0.2063616 -0.03874985 -0.30343127 -0.06125371 -0.57119143 -0.21271418 0.0538924 -0.23080048 -0.18187694 -0.07544177 0.1638227 0.4942768 -0.11558203 -0.00272677 0.38263324 0.21820223 0.19997436 0.11526913 0.34811193 -0.23229043 0.3561951 0.08473407 -0.16763052 -0.11741698 0.005555834 -0.1233565 0.09353609 -0.1549429 -0.069720104 -0.009089551 -0.1701612 0.14490813 -0.058624856 -0.1278603 -0.07578615 0.08780573 0.124910876 0.19548617 -0.19276522 -0.29310757 0.27647647 -0.32532787 0.1458014 -0.5085129 -0.08354331 0.27815783 -0.058909066 -0.06005942 0.4885729 0.15984593 -0.009980771 -0.19437346 0.1122618 0.06078785 -0.19572602 0.34072462 -0.16909614 0.09178614 0.0036072715 0.39851606
63 0.17955151 -0.025502278 0.10803899 0.2279331 0.23398249 -0.033518292 -0.30413154 -0.06304956 -0.6099807 -0.21343726 0.03956669 -0.22398867 -0.18968119 -0.06931444 0.15914673 0.52791256 -0.13370168 0.02777889 0.37795833 0.22692536 0.22732268 0.09274643 0.35161623 -0.24432912 0.35395876 0.09587541 -0.18301864 -0.14897494 0.011945595 -0.12090775 0.10520929 -0.14654993 -0.09876352 -0.016363744 -0.17835213 0.13796827 -0.03931766 -0.14152284 -0.07808744 0.06915574 0.1290156 0.18097296 -0.18466616 -0.29930526 0.28998983 -0.35538995 0.15070826 -0.51466984 -0.07064491 0.2919219 -0.051344246 -0.05669949 0.49053052 0.17808422 -0.018596843 -0.19144885 0.111190915 0.05393422 -0.19933163 0.367953 -0.16030975 0.12117169 0.004212924 0.42304483
49 0.35651267 0.35986498 0.25131226 0.56229573 0.7256288 0.08380005 -1.207785 -0.030622505 -1.5435089 -0.12570034 -0.112298496 -0.23435771 -0.31657556 -0.47217 0.30409652 0.9904391 -0.5152495 -0.15110832 1.1028395 0.39267516 0.4680547 -0.34279647 1.011691 -0.26359367 1.4937385 0.05284933 -0.43126708 -0.2043276 -0.44458097 -0.39177376 0.28316122 -0.46725434 -0.1976911 -0.18829522 -0.4835491 0.97725815 -0.68766725 -0.41003168 -0.20324896 -0.0907283 0.59658104 1.0177542 -0.84260184 -1.0359937 0.66656077 -1.122539 0.8750988 -1.6206945 -0.44535667 0.89621234 0.097809464 0.07974183 1.3194531 0.50789297 -0.09643462 -0.84624505 0.35344306 0.342755 -0.44032592 1.0966611 -0.99540687 0.42252985 0.10924097 1.7333599
47 0.3147641 0.34588474 0.24060687 0.5249421 0.6806539 0.07539552 -1.1264504 -0.024720352 -1.4611437 -0.09604389 -0.10637931 -0.23855644 -0.30856663 -0.4371574 0.29283506 0.9093855 -0.4796213 -0.15816684 1.0441281 0.38342533 0.4417162 -0.32000783 0.95587486 -0.2293251 1.4110816 0.039182264 -0.39488056 -0.19740133 -0.41796273 -0.38264552 0.25540465 -0.45054504 -0.19388697 -0.17772001 -0.46759003 0.9175614 -0.62780714 -0.37270993 -0.19314678 -0.06611146 0.5756672 0.9472398 -0.80772156 -0.9722348 0.6051825 -1.0497375 0.84999806 -1.5220406 -0.41157934 0.82188785 0.10331156 0.05593613 1.2319692 0.4755564 -0.080123246 -0.804498 0.32504916 0.31440616 -0.4021158 1.0234523 -0.9374025 0.39309773 0.10309115 1.6330361
80 0.33963454 0.34681088 0.26962078 0.561503 0.71995825 0.0855766 -1.1873778 -0.020593278 -1.530133 -0.13179602 -0.095924824 -0.25858197 -0.3176216 -0.4541829 0.30845082 0.9650567 -0.5066802 -0.14063951 1.1058571 0.38084784 0.4673539 -0.31264222 0.99351543 -0.25591204 1.4659109 0.03184502 -0.4231321 -0.18872434 -0.43463555 -0.41513756 0.2586567 -0.48287773 -0.20758584 -0.16805968 -0.48523566 0.97100496 -0.65293133 -0.41416728 -0.20698184 -0.09469335 0.6127288 1.0051936 -0.8425841 -1.0258516 0.6647408 -1.1213074 0.87312514 -1.6005557 -0.44051388 0.89121956 0.10607202 0.05905272 1.2994853 0.513048 -0.09527387 -0.8219948 0.34191442 0.35089347 -0.4492878 1.0879917 -0.982286 0.42142007 0.13617525 1.7015741
139 0.14454329 -0.022298837 0.113583565 0.23881069 0.2012887 -0.042832553 -0.31310666 -0.04303123 -0.5912885 -0.20050351 0.047028538 -0.22622192 -0.16567276 -0.08514171 0.1597481 0.47686222 -0.13633181 0.011009498 0.3743006 0.208356 0.21614419 0.108909525 0.36217096 -0.24433437 0.35882586 0.09417439 -0.19303867 -0.14436305 -0.009820052 -0.1143892 0.075948216 -0.1438735 -0.07396821 -0.010534769 -0.19827814 0.16188301 -0.050208677 -0.14476655 -0.06167313 0.08391925 0.13147669 0.18736053 -0.1777645 -0.2919101 0.25176436 -0.32849964 0.15319641 -0.5093851 -0.09171275 0.26641488 -0.049795322 -0.052913796 0.49047711 0.19203353 -0.0022246728 -0.20440738 0.10706383 0.06480135 -0.18652359 0.34205934 -0.15074506 0.111373685 -0.010104289 0.4175714
133 0.15758339 -0.05530736 0.11804222 0.25193712 0.20429577 -0.050369788 -0.3068091 -0.046193294 -0.5829754 -0.21876982 0.040681824 -0.23614863 -0.1767047 -0.07447137 0.17566575 0.506366 -0.121956825 0.021408742 0.37602782 0.23792337 0.21199991 0.12848099 0.34869948 -0.24692537 0.36191818 0.07596533 -0.1744219 -0.12671523 0.01883702 -0.12540862 0.10525086 -0.13913569 -0.09088 -0.0075965323 -0.17659959 0.15465342 -0.046686064 -0.12817098 -0.07406257 0.06620632 0.10004263 0.1879993 -0.18958351 -0.2792043 0.2706004 -0.3318682 0.16020957 -0.51643604 -0.07035739 0.29134092 -0.04041068 -0.059742827 0.49691397 0.184968 -0.020408265 -0.19704351 0.12597004 0.06262376 -0.17873931 0.34642497 -0.14815941 0.09578536 0.009524004 0.39725035
118 0.15170212 -0.035935305 0.11133947 0.22576156 0.20013067 -0.030770142 -0.31284466 -0.04369101 -0.5709636 -0.18411016 0.05704961 -0.22322911 -0.17574282 -0.082538255 0.15672308 0.48567405 -0.106041536 0.0021450468 0.36895156 0.2317219 0.2130204 0.1029276 0.35359147 -0.2553221 0.34887084 0.0973307 -0.17152712 -0.14318228 0.010033054 -0.13050808 0.08424365 -0.13229872 -0.09968612 -0.0034833094 -0.18656516 0.14511833 -0.045912206 -0.12395188 -0.07051185 0.059282303 0.10304707 0.1852258 -0.19440274 -0.26199242 0.26724577 -0.32529944 0.16349086 -0.49953428 -0.077452384 0.27284244 -0.037812974 -0.05543534 0.47700617 0.16502868 -0.021998009 -0.17048578 0.12483096 0.07692656 -0.16913833 0.32463488 -0.13775265 0.08760803 -0.0018458599 0.38978013
117 0.17102812 -0.04783429 0.11699058 0.22402278 0.21554342 -0.02721378 -0.32852158 -0.0387214 -0.59364265 -0.18532974 0.03701429 -0.23765253 -0.18745324 -0.07467937 0.1613831 0.49605152 -0.13915245 0.026787706 0.38170797 0.21982142 0.1990636 0.10889146 0.3595779 -0.2530905 0.3686604 0.07409597 -0.17586395 -0.1214608 0.0015264377 -0.12246997 0.09981503 -0.1566684 -0.08136114 -0.0070607313 -0.20214523 0.14637055 -0.048639845 -0.13008162 -0.059030373 0.06586131 0.1320415 0.18167523 -0.1850715 -0.2992412 0.2735824 -0.32526106 0.16047178 -0.4976861 -0.09831616 0.28174067 -0.042559873 -0.06799822 0.5049822 0.16758788 -0.014526819 -0.17654201 0.1320894 0.06767234 -0.16958734 0.33918414 -0.17211598 0.10951886 -0.0022460443 0.4139997
62 0.18066764 -0.049619827 0.108999595 0.2534943 0.20061272 -0.0619471 -0.30468297 -0.073335886 -0.587966 -0.20769872 0.0448684 -0.23796467 -0.19036454 -0.08085111 0.17200175 0.5199896 -0.1246283 0.030066224 0.37925842 0.24427988 0.21919623 0.12295863 0.3723774 -0.25827122 0.35420027 0.08004824 -0.18012092 -0.15350959 0.009646253 -0.104831904 0.08647483 -0.14276998 -0.085235484 -0.008998236 -0.18663265 0.12121702 -0.031577468 -0.12055769 -0.089247495 0.06967462 0.11792697 0.18461604 -0.18696323 -0.27119756 0.25729007 -0.34399408 0.16143315 -0.5083178 -0.08624029 0.29907697 -0.04186721 -0.07046254 0.48745304 0.18153596 0.0068232785 -0.18598093 0.12690175 0.060646307 -0.17875436 0.3529972 -0.14501026 0.12180042 -0.015659321 0.40614796
68 0.1454108 -0.048373513 0.12489647 0.23977776 0.2274471 -0.056272164 -0.30016306 -0.065791234 -0.59677917 -0.19527678 0.04568115 -0.22322011 -0.18290548 -0.09584171 0.17797148 0.49303204 -0.109961115 0.0057529984 0.37803626 0.23496832 0.21695143 0.09729977 0.3417995 -0.24611896 0.37595245 0.0947202 -0.19132262 -0.12847577 0.01684788 -0.1347222 0.09028019 -0.14562383 -0.09715831 -0.021283057 -0.17667565 0.14360823 -0.06799345 -0.1339374 -0.057739243 0.08139934 0.11268098 0.19040544 -0.174262 -0.28704986 0.25859272 -0.35033098 0.1532362 -0.5022394 -0.079583526 0.27343464 -0.037445806 -0.058563802 0.49474895 0.17038278 -0.0055562626 -0.19244917 0.12562725 0.05989211 -0.1873567 0.3522598 -0.17076229 0.10437338 0.013908789 0.41135195
54 0.17163126 -0.023599768 0.11518005 0.23555149 0.22543618 -0.032465085 -0.3220048 -0.04518427 -0.5885627 -0.1962654 0.034713287 -0.23700991 -0.18478143 -0.07236962 0.1631639 0.4876076 -0.13278458 0.019994566 0.38568822 0.2331472 0.20537476 0.08350048 0.3661696 -0.23964502 0.3622096 0.08831408 -0.16460524 -0.13455565 -0.004668393 -0.12177906 0.09333602 -0.14756377 -0.08647845 0.004590892 -0.17753284 0.1379405 -0.0416705 -0.14251487 -0.07398298 0.08060623 0.11378106 0.20712106 -0.198043 -0.29901803 0.24816458 -0.33301917 0.16560699 -0.4921817 -0.07591277 0.28516302 -0.04637498 -0.06886123 0.50252837 0.16657563 0.0040447167 -0.19065209 0.11279118 0.060147915 -0.16975546 0.34008968 -0.1608585 0.10533784 0.002345016 0.39886647
106 0.1408902 -0.044087738 0.10730661 0.23115481 0.20173767 -0.025491953 -0.302368 -0.06311203 -0.582132 -0.2063826 0.040668145 -0.21697587 -0.17188632 -0.07113254 0.17154106 0.48641983 -0.10321256 -0.00020459764 0.3597947 0.22161373 0.1904111 0.09097946 0.3503765 -0.2473441 0.35595828 0.08217265 -0.17492557 -0.13535625 0.000745965 -0.10617094 0.09436906 -0.14689235 -0.09388682 -0.02592349 -0.18269284 0.14544052 -0.07781599 -0.13035202 -0.078950725 0.06043019 0.11837878 0.19265042 -0.17559747 -0.275376 0.2808734 -0.32441282 0.16485319 -0.50082886 -0.07482808 0.27523148 -0.031541537 -0.069959395 0.48705503 0.18648073 0.009071476 -0.20007716 0.13570477 0.07513749 -0.19114394 0.36484843 -0.17238012 0.1189289 -0.011616795 0.39755628
87 0.17018996 -0.03914442 0.10069732 0.23082215 0.19619042 -0.03116521 -0.2871617 -0.059691105 -0.56766605 -0.20727152 0.06395982 -0.22655328 -0.19125602 -0.0809055 0.15674964 0.51113 -0.12814659 0.025633793 0.37394568 0.238713 0.21238582 0.12653916 0.3518316 -0.2410707 0.35347822 0.081849806 -0.1847071 -0.13233489 0.025294434 -0.10510833 0.08632427 -0.13786283 -0.08677245 -0.0096882945 -0.18992527 0.1287018 -0.06674593 -0.1263913 -0.083882935 0.08706806 0.10664434 0.18343185 -0.19387728 -0.26916334 0.27539417 -0.33058164 0.14917798 -0.51027715 -0.089444466 0.2943833 -0.06296687 -0.055664025 0.49701154 0.19157112 -0.0027088514 -0.18279 0.12640074 0.071214505 -0.2004264 0.3376056 -0.1550376 0.102089055 0.006216185 0.39002264
88 0.15393482 -0.018377049 0.11859449 0.24465674 0.23313747 -0.034116007 -0.3129932 -0.064657964 -0.5691028 -0.19287644 0.05041121 -0.21489786 -0.15702587 -0.08051571 0.17481908 0.48711005 -0.13404551 -0.0018857215 0.36464116 0.22603056 0.21605085 0.093165 0.3499841 -0.22934923 0.35870528 0.09058359 -0.16897577 -0.13130905 0.01225052 -0.13534096 0.0742359 -0.13064985 -0.077550374 -0.025885954 -0.16928037 0.15188079 -0.06860336 -0.12636326 -0.09006599 0.073681794 0.11524607 0.19831099 -0.18385014 -0.2760355 0.2772654 -0.33652025 0.17225696 -0.52276534 -0.09003729 0.27945676 -0.036599692 -0.043192152 0.50224864 0.17778581 -0.022005325 -0.18431556 0.13215862 0.06090533 -0.17387237 0.36341837 -0.17685992 0.11371146 -0.0068110866 0.40083593
46 0.31968772 0.32094917 0.23031643 0.5356223 0.676901 0.08349386 -1.1286075 -0.032358114 -1.4772137 -0.117895305 -0.0899366 -0.21456829 -0.30273482 -0.4349592 0.29101387 0.935923 -0.4888381 -0.155998 1.0470084 0.37096578 0.4444936 -0.3237503 0.95611364 -0.23349729 1.4079273 0.041147165 -0.40403175 -0.20454603 -0.40574408 -0.39443365 0.26314363 -0.43134353 -0.19152795 -0.15976532 -0.46858215 0.94389945 -0.64882034 -0.3685611 -0.19612238 -0.07535057 0.5691414 0.9609938 -0.78442746 -0.96292496 0.60424936 -1.0543691 0.8475275 -1.5370166 -0.40151462 0.83193266 0.10207935 0.06105156 1.2486104 0.49499953 -0.07980045 -0.80328584 0.31993586 0.33048925 -0.42570907 1.0236565 -0.9266622 0.393353 0.10864434 1.6155552
120 0.17552146 -0.010693442 0.10350412 0.22793773 0.21925274 -0.0423414 -0.3243143 -0.06269661 -0.6047004 -0.20163025 0.05008443 -0.21584566 -0.19285418 -0.10730557 0.1541733 0.5035747 -0.13943008 0.010180762 0.3993564 0.21564014 0.2012567 0.10655251 0.37352774 -0.23690578 0.37255362 0.067276515 -0.19304596 -0.1342495 0.010261494 -0.12982056 0.10361259 -0.16342305 -0.07874272 -0.00813415 -0.19477533 0.17606643 -0.08175016 -0.12997414 -0.09074135 0.068039134 0.12263137 0.2191195 -0.19389631 -0.3088591 0.2719069 -0.35744873 0.15943639 -0.52302223 -0.07823248 0.28066775 -0.030289335 -0.049861908 0.49021012 0.18422693 -0.004678654 -0.18971492 0.12215358 0.08764997 -0.1921224 0.34642327 -0.19231668 0.11648828 -0.0048237145 0.41146165
69 0.1471357 -0.01618145 0.12930866 0.22904028 0.22776279 -0.037956353 -0.31004268 -0.04011901 -0.59939206 -0.20321539 0.039732404 -0.2092544 -0.16036545 -0.08544961 0.17052981 0.5009992 -0.119857326 0.0052987398 0.39353102 0.22425665 0.20301521 0.07043443 0.34769595 -0.23808333 0.37628826 0.092802 -0.1957021 -0.14668092 -0.005435316 -0.11293493 0.10325711 -0.15941349 -0.079148814 -0.01563583 -0.1942278 0.16576673 -0.080911875 -0.15225092 -0.069378085 0.071862124 0.12811501 0.22004612 -0.19541131 -0.28560996 0.26021892 -0.34460446 0.17101867 -0.51833797 -0.094466604 0.27727416 -0.041543175 -0.06309287 0.5109652 0.16987413 -0.011961765 -0.19358179 0.11404967 0.062665634 -0.19078112 0.34709996 -0.17649722 0.09837054 -0.0044669616 0.42143866
9 0.35911041 0.34309793 0.24727353 0.558176 0.7180553 0.08900338 -1.1893476 -0.03853666 -1.5422498 -0.13112293 -0.08362531 -0.22579865 -0.30932495 -0.47935838 0.30780372 0.9738748 -0.5202829 -0.1396036 1.1034557 0.38578433 0.443394 -0.31158277 0.9987624 -0.25829008 1.4683336 0.035524175 -0.43215713 -0.18927039 -0.43126342 -0.3980232 0.2807001 -0.47292456 -0.21846214 -0.19286424 -0.46979153 0.9706629 -0.6611718 -0.39644045 -0.21110924 -0.07890144 0.6120681 1.0005076 -0.83324724 -1.015568 0.6598438 -1.11819 0.8749613 -1.6146199 -0.43660757 0.8791352 0.09518258 0.06847573 1.31334 0.5206532 -0.07174342 -0.8198477 0.34449512 0.33842316 -0.43373975 1.0948718 -0.98370326 0.4163237 0.115949236 1.7155862
38 0.3503065 0.34378976 0.25814173 0.543437 0.70016515 0.07656255 -1.180155 -0.039318223 -1.5193601 -0.107018776 -0.11556691 -0.23873095 -0.31173933 -0.45971528 0.31562263 0.9633601 -0.5051575 -0.16733651 1.0844525 0.39763916 0.46400765 -0.3218383 0.9964802 -0.23698209 1.4507885 0.03568394 -0.41460615 -0.20537876 -0.42543486 -0.38894933 0.26044172 -0.47836378 -0.2150602 -0.18992978 -0.492824 0.9782172 -0.6640051 -0.40514493 -0.2100459 -0.08323207 0.59789133 1.0071585 -0.819482 -1.0098014 0.62943774 -1.0990779 0.89325595 -1.602064 -0.41681796 0.8777158 0.095224485 0.06601677 1.2987382 0.5186389 -0.06688159 -0.8367591 0.33423266 0.33226293 -0.4458633 1.0740807 -0.97711504 0.40154725 0.12737964 1.6900933
114 0.15467773 -0.04822215 0.11519145 0.24054483 0.21719371 -0.03720123 -0.2977328 -0.045673568 -0.55938417 -0.20510009 0.070899345 -0.23635752 -0.16814138 -0.0867225 0.17090067 0.5058071 -0.12919092 0.019161904 0.37394977 0.21078974 0.18832268 0.10657433 0.35017687 -0.24118654 0.3503461 0.08242068 -0.17147674 -0.15005949 0.01591137 -0.12441368 0.08823163 -0.14344363 -0.06549825 -0.0024196496 -0.17589636 0.12193793 -0.03405303 -0.13811249 -0.07169142 0.07293226 0.105230056 0.17200021 -0.16219965 -0.26340052 0.2629414 -0.32239226 0.13557275 -0.49694228 -0.081894405 0.2728495 -0.064298116 -0.062179063 0.4857325 0.16960688 -0.0012390374 -0.17368037 0.11883995 0.067677535 -0.17908338 0.33219466 -0.14321801 0.09147908 0.011319441 0.37063977
24 0.36276528 0.35169283 0.26567903 0.5851307 0.755596 0.08483159 -1.2139977 -0.018949352 -1.5847842 -0.12947895 -0.10361603 -0.26553342 -0.32561228 -0.49328965 0.3311236 1.0042137 -0.5165706 -0.17043507 1.1207745 0.41208756 0.4736817 -0.33838487 1.0376594 -0.26408964 1.5214555 0.04778978 -0.42817217 -0.21400526 -0.43330613 -0.40570945 0.267618 -0.49636316 -0.22407822 -0.17153336 -0.5121958 0.9933004 -0.6801533 -0.4251975 -0.21534361 -0.090484135 0.6112784 1.050259 -0.86915076 -1.0308635 0.68918025 -1.1643622 0.91938096 -1.6566308 -0.43566403 0.9081691 0.10654042 0.05670841 1.3548938 0.5356261 -0.07243418 -0.85747015 0.33901086 0.3433217 -0.4547982 1.1152483 -1.0086671 0.42926654 0.12744468 1.7419192
