150 64
90 0.11599242 -0.27374002 0.1752802 0.20901431 0.085883446 -0.3797106 -0.09205029 -0.20375213 -0.4347868 -0.15196672 0.11288769 -0.5126065 -0.23878512 -0.23310347 0.2873059 0.5263264 -0.013086611 0.15386534 0.3016888 0.17307192 0.08186249 0.4761989 0.26577842 -0.0031826876 0.085506655 0.003525893 -0.1467928 -0.07182996 0.17067556 -0.2873382 0.02475301 -0.22747274 0.018252503 0.21231416 -0.38002828 -0.1381022 0.2450486 -0.106218316 -0.02992416 0.21494864 0.09026495 -0.1461098 0.0024711604 -0.08135451 0.32275164 -0.23412205 -0.061839346 -0.29542717 0.07838852 0.25383666 -0.2746588 -0.18342665 0.5400902 0.015906187 0.017102072 0.1602425 0.051870093 -0.14406171 -0.1270952 0.41083393 -0.023637163 0.030147513 -0.072361335 0.007075295
74 0.11880514 -0.26438186 0.15786594 0.19982976 0.08860466 -0.3281921 -0.08547833 -0.19214192 -0.43206808 -0.17256679 0.11895395 -0.48706234 -0.22152357 -0.22302115 0.2772609 0.5128526 -0.016181253 0.14523321 0.3161354 0.21076667 0.08539448 0.45668924 0.25676206 -0.05310726 0.07582996 0.030453809 -0.14219955 -0.07909869 0.1905752 -0.2464835 0.060770337 -0.20373785 -0.017342122 0.20083682 -0.36234602 -0.13758886 0.20680526 -0.0886805 -0.02362232 0.21266653 0.102257475 -0.16121198 0.017401734 -0.068402395 0.3079462 -0.24145742 -0.04688282 -0.31909466 0.054992694 0.24058336 -0.23024616 -0.18571384 0.543418 0.03595789 0.007439314 0.13771167 0.067163475 -0.12785834 -0.11053847 0.36242878 -0.016242826 0.035367157 -0.07224451 0.019413162
75 0.11189616 -0.26133612 0.17922063 0.18487525 0.09456714 -0.36228073 -0.094652355 -0.20815963 -0.40868595 -0.13640517 0.119161844 -0.4868197 -0.21807624 -0.25016794 0.27577803 0.5287028 -0.01969824 0.16141103 0.3167816 0.18574253 0.08071637 0.4692203 0.2671657 -0.026983038 0.07345387 0.015731271 -0.14558567 -0.064435415 0.2020872 -0.26263604 0.039077878 -0.21149081 -0.013884505 0.22655988 -0.38286904 -0.1458455 0.23687062 -0.086576 -0.01487315 0.2073894 0.11415334 -0.14424504 0.012367118 -0.09238216 0.32792312 -0.21860811 -0.048237827 -0.32127073 0.062314734 0.22997181 -0.24777746 -0.1986121 0.52811617 0.029921882 0.014678754 0.1493403 0.05190654 -0.13297106 -0.12356647 0.37188292 -0.01759222 0.02125236 -0.06067044 0.013340395
67 0.12269058 -0.28607565 0.15526581 0.19690244 0.10781296 -0.34592718 -0.115280606 -0.20062718 -0.42753446 -0.14583968 0.09570743 -0.4972538 -0.22117428 -0.22064587 0.28120515 0.5310387 -0.026829215 0.15487923 0.30310264 0.19004613 0.09897327 0.4583247 0.2651081 -0.036228698 0.08485207 0.029843997 -0.15811017 -0.08774197 0.17351486 -0.27159932 0.03646973 -0.23177232 0.009776986 0.21122247 -0.35722518 -0.1371949 0.21595055 -0.091262594 -0.01924891 0.19992128 0.08162623 -0.15992996 0.0027274475 -0.077648185 0.32038832 -0.22615601 -0.043129496 -0.3104998 0.061687775 0.23988047 -0.25040072 -0.18358077 0.54356587 0.028469028 0.009515741 0.14716512 0.05030655 -0.12869686 -0.12061046 0.3809704 -0.034166243 0.018695027 -0.07390836 0.005816793
33 0.112023756 -0.73006386 0.57244533 0.4579439 0.37775323 -1.6569457 -0.3693266 -0.7572439 -0.9518799 -0.094717555 0.09708375 -1.6914909 -0.5199798 -1.0826958 1.016925 1.3448858 -0.044228442 0.6500154 0.9593333 0.17809953 -0.29591805 1.4138378 0.8221119 0.8492016 0.13486785 -0.2337856 -0.26934746 -0.1800067 0.4849501 -1.3910517 0.012219405 -0.89083874 0.0956722 0.80045396 -1.2187396 -0.10482112 0.8106623 -0.2808457 0.008025042 0.97553086 0.5883813 -0.42867282 0.06136086 -0.16986401 1.0142871 -0.56457067 -0.22139545 -0.9083686 0.3709074 0.7672479 -1.1550193 -0.29997134 1.7486871 -0.076553516 -0.2488625 1.045099 -0.21309252 -0.5826614 -0.2470032 1.306926 0.05334223 0.038616788 -0.23093261 0.17190447
73 0.122075826 -0.26854724 0.17278673 0.2037636 0.075213835 -0.328894 -0.08430999 -0.19825032 -0.40798053 -0.1480477 0.104887985 -0.48826465 -0.23687334 -0.2269822 0.2845495 0.5292912 0.0008426186 0.12996823 0.2846934 0.20492917 0.09062046 0.45596167 0.2529594 -0.0374201 0.08944127 0.018043082 -0.13621925 -0.08016201 0.17577837 -0.25443405 0.04858555 -0.20875423 -0.017306244 0.19409066 -0.36776644 -0.14017507 0.22200924 -0.07571232 -0.020975335 0.19534233 0.08972903 -0.14350092 0.030589685 -0.07603145 0.31502673 -0.23225719 -0.047232956 -0.28864956 0.060149264 0.21430635 -0.22981988 -0.194003 0.5178045 0.03678385 0.005805884 0.13758212 0.050500777 -0.11126195 -0.12876093 0.37445387 -0.032681663 0.037423693 -0.05737739 0.01812949
6 0.10797751 -0.6984645 0.5752039 0.45413807 0.35369056 -1.6000515 -0.3801786 -0.7299399 -0.9016464 -0.10907199 0.09687838 -1.6320525 -0.48007727 -1.0609022 0.96430796 1.274921 -0.061585136 0.6227893 0.9140147 0.15407974 -0.29327536 1.3609331 0.7961965 0.81775904 0.12090108 -0.2000217 -0.25495455 -0.16484958 0.45176446 -1.3239691 0.011538722 -0.8505781 0.073573805 0.77758396 -1.1549001 -0.11668516 0.7669451 -0.2769338 0.0085573355 0.94359064 0.5521128 -0.41077155 0.04662244 -0.14243288 0.9736855 -0.5528355 -0.20102389 -0.8657014 0.35038534 0.7279787 -1.1006742 -0.3065801 1.6645516 -0.056007523 -0.2520198 1.0007349 -0.20726067 -0.5601856 -0.266279 1.2708855 0.047847252 0.034492806 -0.20296003 0.15709932
77 0.12717652 -0.28031483 0.16881709 0.19929445 0.11360183 -0.35415193 -0.10131209 -0.22403707 -0.44323337 -0.16446888 0.10792033 -0.5084672 -0.22589833 -0.24740897 0.29292628 0.5309922 -0.01907128 0.145145 0.32852376 0.20938367 0.07145934 0.477078 0.24468096 -0.016674908 0.071195014 0.019945871 -0.139965 -0.06971216 0.18023083 -0.2518118 0.05572076 -0.23217341 -0.013843886 0.20742665 -0.37118632 -0.14740452 0.21913011 -0.106218345 -0.016237058 0.21317296 0.08259597 -0.16157821 0.021215534 -0.08413228 0.328767 -0.23943359 -0.043993775 -0.32227713 0.079443164 0.24318783 -0.24568403 -0.19093287 0.5222346 0.02093529 0.008976677 0.14046794 0.03874172 -0.12760843 -0.11589834 0.39032117 -0.032145195 0.023070019 -0.07391146 0.012633268
135 0.105711095 -0.2854433 0.1575261 0.17574954 0.08705964 -0.3511847 -0.102416046 -0.21072243 -0.43610063 -0.15045053 0.11873052 -0.4786012 -0.23906872 -0.23801492 0.28983673 0.5050235 -0.013284307 0.15488063 0.31748623 0.17858516 0.07471117 0.4425798 0.25023022 -0.011622824 0.08471182 0.023105688 -0.13410987 -0.08015128 0.20320128 -0.27444428 0.029024847 -0.21583927 -0.001460463 0.21118857 -0.36594275 -0.130635 0.22336115 -0.09858184 -0.025795912 0.19725697 0.10738515 -0.14281608 0.000402731 -0.06811274 0.33332273 -0.2420534 -0.057533298 -0.31912863 0.08377275 0.23339736 -0.23423344 -0.20690604 0.53498244 0.02214802 0.007208139 0.15747672 0.04002485 -0.14085841 -0.11492887 0.3872529 -0.0086682 0.040730897 -0.06357734 0.026709378
30 0.10353718 -0.71414995 0.5804847 0.46884564 0.37934107 -1.6451113 -0.3718717 -0.76881516 -0.93921804 -0.1267394 0.07998332 -1.6745455 -0.5103157 -1.0798438 1.0163072 1.3471338 -0.06364902 0.636434 0.973844 0.17608662 -0.3076223 1.3864614 0.8278871 0.8236983 0.14470088 -0.22245488 -0.25687817 -0.17813379 0.48070568 -1.3666906 0.030195063 -0.872329 0.07571617 0.79059565 -1.1960982 -0.11401512 0.79052246 -0.25854862 -0.01254202 0.9566607 0.5882432 -0.41762978 0.050169446 -0.17226781 1.0248882 -0.5804417 -0.20513164 -0.89943445 0.36305475 0.7721661 -1.1514391 -0.31828108 1.7292317 -0.064835906 -0.2481627 1.041219 -0.21385364 -0.5622207 -0.26948762 1.3035012 0.027329488 0.035069697 -0.22592752 0.14551362
70 0.13579339 -0.2802127 0.16660444 0.182055 0.09936418 -0.29948336 -0.10731265 -0.21795864 -0.43734518 -0.16084166 0.111428194 -0.4948627 -0.24326545 -0.21291126 0.2606525 0.51225626 -0.016217068 0.119892225 0.29178146 0.19040959 0.098800465 0.43996307 0.2560807 -0.055496257 0.07388994 0.03266404 -0.15825851 -0.08716303 0.16992415 -0.24675727 0.04431036 -0.19468765 -0.013909132 0.21856225 -0.34895584 -0.1626066 0.2277161 -0.083809175 -0.035370618 0.20859341 0.09690621 -0.16559355 0.004805496 -0.07291473 0.30938905 -0.2411353 -0.028682787 -0.3126663 0.05103788 0.22960514 -0.23361108 -0.20018692 0.51324666 0.022867352 0.014495153 0.12800714 0.08031564 -0.12503724 -0.12882148 0.3801225 -0.01223961 0.025629465 -0.045130525 0.026142703
22 0.1017862 -0.69453263 0.5678529 0.43930236 0.3477212 -1.5971047 -0.3691607 -0.72989815 -0.8962141 -0.10885974 0.08091166 -1.6295816 -0.4810985 -1.050832 0.9596607 1.2699867 -0.05031464 0.63280886 0.9283618 0.14291361 -0.31108806 1.3628106 0.7886862 0.82504094 0.11661189 -0.19802926 -0.25592253 -0.1665905 0.46234298 -1.3397309 0.014168886 -0.8476938 0.07022934 0.7662649 -1.177413 -0.10398676 0.78015924 -0.2676839 -0.0048953034 0.93394005 0.57076865 -0.42303562 0.034744877 -0.15554537 1.0019993 -0.55403435 -0.226904 -0.87220126 0.36605042 0.7312186 -1.1233559 -0.2814163 1.6568931 -0.054896247 -0.2518394 1.0084717 -0.19749817 -0.55566776 -0.257515 1.2725141 0.041727 0.056459498 -0.22338599 0.17059392
148 0.11325676 -0.2764772 0.1641354 0.18568632 0.10400598 -0.347807 -0.10647304 -0.2000495 -0.3951279 -0.14952587 0.1078942 -0.4988082 -0.22839843 -0.23870765 0.27015576 0.517515 -0.0114743365 0.13990022 0.3103446 0.19898257 0.08569999 0.44695136 0.25024801 -0.022235842 0.062713735 0.017891139 -0.14120907 -0.077168025 0.17885943 -0.2711933 0.04716642 -0.22084346 -0.019717533 0.2311559 -0.35682896 -0.120384574 0.23625629 -0.08591637 -0.009141572 0.20481855 0.08747039 -0.14484832 0.024214095 -0.08311513 0.32299042 -0.22858578 -0.03140628 -0.30274457 0.060036786 0.22416279 -0.25885746 -0.19208908 0.5273019 0.035900675 0.02200412 0.14362825 0.05647897 -0.12145212 -0.11998918 0.35850397 -0.016760074 0.015635218 -0.051437467 0.008108234
82 0.12633605 -0.24464169 0.15539898 0.19214098 0.08818079 -0.3185419 -0.09158639 -0.2183022 -0.41347137 -0.14000641 0.098098636 -0.47904798 -0.22342797 -0.2294409 0.27190843 0.51822644 -0.021692267 0.13370408 0.2998267 0.18673906 0.07907686 0.43592247 0.24934304 -0.031232787 0.076766394 0.015482259 -0.13457921 -0.09133721 0.16253999 -0.26301837 0.05164496 -0.2136643 -0.019771509 0.21101326 -0.36046952 -0.12859134 0.20513195 -0.086418696 -0.043147486 0.20980981 0.10321541 -0.1405506 0.0037445666 -0.08331272 0.29341114 -0.23370332 -0.059677392 -0.30286497 0.06132948 0.21231312 -0.22754253 -0.18409504 0.52378476 0.016882824 0.009077614 0.13256532 0.053832825 -0.11295241 -0.12558825 0.36715195 -0.015202853 0.023781989 -0.043131024 0.02754331
11 0.11553538 -0.6901462 0.57664627 0.44182545 0.35277075 -1.6131489 -0.38374588 -0.7239481 -0.915777 -0.116906755 0.07679632 -1.643039 -0.4992823 -1.0676408 0.9836501 1.2950851 -0.052014787 0.62858176 0.93188274 0.17396647 -0.29465762 1.3504707 0.81402624 0.8118139 0.13086328 -0.20588155 -0.2569849 -0.17796934 0.48353 -1.348322 0.0071611647 -0.83875483 0.0765066 0.7689742 -1.1646475 -0.104567885 0.7802713 -0.25180328 -0.014767337 0.9462056 0.56525517 -0.41122168 0.04930754 -0.1460476 1.0054516 -0.55329347 -0.22035326 -0.8852817 0.35324368 0.7561723 -1.1308193 -0.29160893 1.6952726 -0.0489583 -0.24961431 1.0208848 -0.215557 -0.5428125 -0.24774414 1.2577151 0.032733027 0.043141928 -0.20341583 0.15445182
26 0.09944336 -0.66031915 0.5601428 0.42861745 0.33958098 -1.55308 -0.36651477 -0.7248444 -0.8715963 -0.1051718 0.08121053 -1.5789193 -0.47863948 -1.039812 0.945608 1.2346953 -0.044920534 0.59996223 0.91094875 0.15073305 -0.2911983 1.3082813 0.77200633 0.81272984 0.12427514 -0.21545431 -0.2495658 -0.165588 0.4606732 -1.2863129 0.003284437 -0.81062233 0.08393014 0.75886005 -1.1163645 -0.11368957 0.730724 -0.24613802 0.011593994 0.91106904 0.5554994 -0.40329763 0.056525305 -0.16145462 0.94926226 -0.5503328 -0.21339086 -0.83668894 0.3355043 0.70812076 -1.0736873 -0.29138392 1.6376567 -0.06715993 -0.24164365 0.98485565 -0.20450662 -0.5392946 -0.23832606 1.2095275 0.033409934 0.03989161 -0.19154368 0.14670299
57 0.1053496 -0.7131589 0.580456 0.45520365 0.37836957 -1.6325736 -0.38658062 -0.75328374 -0.92090297 -0.09836603 0.094942674 -1.682141 -0.50265557 -1.0879401 0.99411386 1.3308936 -0.052918844 0.6420073 0.9491649 0.17749314 -0.3181019 1.3871638 0.8182996 0.8376981 0.12032683 -0.21584669 -0.2641283 -0.17898244 0.4706366 -1.3696648 0.025579004 -0.8741469 0.074230656 0.7913292 -1.1949941 -0.10878435 0.7795644 -0.27743602 0.00020152969 0.96284235 0.5602933 -0.4209935 0.033945013 -0.1687407 1.0288637 -0.58134407 -0.21478531 -0.8856109 0.35543558 0.78210455 -1.1484488 -0.29413262 1.7372228 -0.07583012 -0.2647686 1.0418404 -0.20793658 -0.55497134 -0.24936572 1.3127024 0.022957262 0.05545134 -0.22348289 0.16635692
47 0.11890423 -0.6890463 0.5741179 0.44812313 0.35380867 -1.5807574 -0.37823856 -0.7311909 -0.88835824 -0.11477571 0.08708491 -1.6496816 -0.47448674 -1.0400193 0.9729975 1.2947232 -0.04852035 0.61343014 0.92573905 0.16683249 -0.3082682 1.348961 0.80376685 0.82249916 0.124608725 -0.21700278 -0.23832062 -0.18078594 0.46118802 -1.3422507 0.012891794 -0.8598373 0.07210539 0.75686264 -1.1649017 -0.12305722 0.75239646 -0.27694404 -0.013811133 0.9413368 0.5648148 -0.41418162 0.040799886 -0.16317655 0.9920882 -0.55518395 -0.21399117 -0.8710298 0.35191026 0.744379 -1.1303656 -0.30635354 1.6608226 -0.06343304 -0.25054565 1.0125175 -0.21504186 -0.5556898 -0.23689446 1.2612916 0.034327887 0.058601994 -0.20513852 0.1485673
102 0.13223964 -0.25951928 0.14424424 0.1893977 0.09469151 -0.315737 -0.09824928 -0.20806053 -0.42092612 -0.15379031 0.1098342 -0.48550105 -0.23879299 -0.207711 0.28930175 0.53013545 -0.026556835 0.14317024 0.29734054 0.21450621 0.09750633 0.4555325 0.24608293 -0.03595712 0.067842774 0.031894255 -0.1492532 -0.08769727 0.17766124 -0.22855262 0.03148169 -0.21291882 0.008540234 0.21233088 -0.36964568 -0.15727007 0.23471726 -0.08285157 -0.022809051 0.19670707 0.07534289 -0.14533357 0.029568909 -0.084661216 0.29674315 -0.23649518 -0.051255252 -0.30325386 0.058690753 0.2184363 -0.21685177 -0.20782374 0.5276782 0.028004695 0.010498263 0.14919911 0.07680623 -0.12629853 -0.13085604 0.35811284 -0.037692558 0.025349442 -0.07229022 -0.0055493787
122 0.119908765 -0.27449512 0.1814256 0.1891552 0.0967894 -0.37760928 -0.107350364 -0.2132439 -0.43023977 -0.13283224 0.0874252 -0.51109964 -0.23623656 -0.24269858 0.29054683 0.54491735 -0.013656276 0.159233 0.31427422 0.17320178 0.052738674 0.46697956 0.26924324 0.004305239 0.0754192 0.017281825 -0.14674175 -0.08389399 0.17479151 -0.31070232 0.053785626 -0.24250124 -0.011426193 0.24085872 -0.37714902 -0.14920637 0.23881611 -0.10750268 -0.026009182 0.22543998 0.10415619 -0.16112047 0.032064665 -0.06450457 0.31435233 -0.24522191 -0.039634276 -0.31877813 0.069162175 0.24691308 -0.2552917 -0.19610976 0.54749274 0.016754098 0.010337171 0.18730055 0.051736727 -0.14629048 -0.12503721 0.40113914 -0.012722121 0.019451426 -0.0809276 0.022519967
78 0.10224 -0.25813824 0.16115743 0.20519604 0.087652266 -0.3456684 -0.08551664 -0.21547917 -0.42766428 -0.14496668 0.110813245 -0.49666876 -0.21398214 -0.2472582 0.29107362 0.5225927 0.0023154835 0.15236922 0.31808597 0.20177144 0.06444069 0.4728595 0.23936158 -0.028784586 0.067963846 0.005806452 -0.15425901 -0.08958815 0.17424893 -0.26503474 0.033980682 -0.20422368 -0.01897732 0.2054553 -0.3541908 -0.1288569 0.2385828 -0.086397134 -0.029045098 0.20110522 0.106673785 -0.15083094 0.027115183 -0.06755211 0.32662368 -0.21331275 -0.062070638 -0.3206885 0.07097703 0.24229561 -0.23411842 -0.18007395 0.542884 0.0085715335 0.014114307 0.14459509 0.041589703 -0.10884703 -0.118571304 0.37354496 -0.023708446 0.02181724 -0.054968145 0.022115909
65 0.11339067 -0.27803865 0.14801615 0.18413569 0.102056175 -0.32714787 -0.097132884 -0.20110315 -0.42787662 -0.14735052 0.104163624 -0.47251186 -0.21881422 -0.22195625 0.27087578 0.5239717 -0.00503287 0.14737944 0.30750972 0.20632154 0.09792039 0.44229728 0.25690523 -0.029188069 0.08427467 0.014187502 -0.14677471 -0.08172272 0.16652976 -0.24110222 0.05607829 -0.19023305 -0.0073134676 0.22251251 -0.34944814 -0.14838901 0.2217848 -0.10176747 -0.013260369 0.21076185 0.0948852 -0.14595199 0.032180917 -0.062856264 0.30523986 -0.23401453 -0.029925462 -0.2867503 0.06988364 0.22297041 -0.24403596 -0.19998366 0.5278712 0.01403082 -0.0012200674 0.15511882 0.072189756 -0.104722746 -0.1154293 0.3526606 -0.009064451 0.026417563 -0.04916483 0.021948198
76 0.1327419 -0.2877323 0.17893465 0.17682107 0.080670826 -0.36054966 -0.10710049 -0.19876355 -0.4073666 -0.1545498 0.1107526 -0.5021826 -0.21589725 -0.22226314 0.28360713 0.5177682 -0.027155573 0.15239097 0.31082875 0.19011956 0.09283476 0.45093134 0.23829645 -0.02850459 0.081553 0.003574172 -0.14943622 -0.08967188 0.19896813 -0.24942341 0.041348666 -0.20315234 0.0076050516 0.21617267 -0.35596576 -0.13527285 0.23659734 -0.08322293 -0.040151987 0.20756148 0.100977734 -0.14744255 0.024074702 -0.06279632 0.3244304 -0.24183832 -0.05336303 -0.32024798 0.083765 0.24187335 -0.24563715 -0.18586864 0.5200906 0.009445797 0.011142334 0.16354412 0.06359372 -0.119701825 -0.12315801 0.37385097 -0.02208721 0.022963118 -0.07096208 0.0026742022
84 0.11967108 -0.25647026 0.15457624 0.16368885 0.109905675 -0.33422923 -0.09446062 -0.1975225 -0.4058793 -0.1325501 0.10080874 -0.48505282 -0.20390561 -0.22554037 0.28238887 0.49992523 -0.019394157 0.13020192 0.30269465 0.17724241 0.07597189 0.44273528 0.24067885 -0.01655431 0.069727376 0.023592426 -0.14425594 -0.057056945 0.16294499 -0.25432134 0.042764246 -0.19811705 -0.007951795 0.20233557 -0.36000672 -0.12247078 0.21205968 -0.07500313 -0.032203767 0.19294974 0.08957798 -0.13735911 0.0069630626 -0.07849747 0.28924856 -0.20709562 -0.039250474 -0.28677616 0.06108007 0.23082653 -0.2500723 -0.18158565 0.49576747 0.014667724 0.00051215343 0.16818382 0.04398799 -0.13523832 -0.12367327 0.35077927 -0.011379527 0.042897202 -0.0683259 0.029865762
9 0.12370669 -0.70600533 0.546763 0.46098462 0.37125865 -1.5936074 -0.3792678 -0.7172355 -0.8990946 -0.092656754 0.07169025 -1.6492867 -0.48655522 -1.065332 0.9622454 1.2803144 -0.034533456 0.63472533 0.92317295 0.16819234 -0.28576684 1.3487589 0.81114936 0.82546514 0.1306077 -0.21620245 -0.25386852 -0.17716113 0.47745913 -1.337353 0.014846224 -0.8320392 0.08511573 0.7780295 -1.1781077 -0.11015667 0.773528 -0.27234927 0.0075969785 0.9434668 0.55606836 -0.41634646 0.044575416 -0.1597936 0.97619253 -0.559426 -0.21714044 -0.86341614 0.3393717 0.75124705 -1.1256434 -0.3097 1.6856618 -0.04748371 -0.25760657 1.0029551 -0.21906072 -0.5634968 -0.26179323 1.2682759 0.048502155 0.060660776 -0.19731545 0.16561362
43 0.10804215 -0.69033325 0.5525497 0.43199408 0.35692602 -1.5398924 -0.3632969 -0.69589144 -0.87362623 -0.101778634 0.0711539 -1.6020613 -0.48681664 -1.0087397 0.9297422 1.2624365 -0.062153846 0.6051089 0.8976403 0.13976479 -0.27968946 1.3241997 0.7783317 0.80138326 0.1243894 -0.19075358 -0.22817515 -0.18269075 0.44493717 -1.2939725 0.023208668 -0.82846355 0.07818443 0.7345598 -1.1284564 -0.09841304 0.7525379 -0.26105902 -0.01713995 0.88895917 0.5409732 -0.41270766 0.033893522 -0.13717274 0.97201055 -0.53623575 -0.21941154 -0.8545645 0.35373247 0.72885466 -1.0924923 -0.29982972 1.6260395 -0.053850353 -0.2426848 0.9771869 -0.21496426 -0.5497134 -0.2535135 1.223348 0.045049742 0.051202722 -0.20000082 0.15891735
145 0.114775516 -0.26769084 0.15075889 0.20877889 0.11244451 -0.34569323 -0.091220826 -0.19644755 -0.42082763 -0.14718373 0.1080183 -0.51953715 -0.21374227 -0.24949099 0.30388123 0.5204144 -0.014703537 0.13218997 0.29593647 0.18261431 0.06637986 0.46520355 0.24481876 -0.019140895 0.06946214 0.0037830442 -0.13121764 -0.07038501 0.19854839 -0.2641125 0.028891874 -0.21145278 -0.016036408 0.22036073 -0.38955227 -0.13100283 0.23764911 -0.08348775 -0.023412459 0.2070488 0.11201305 -0.16630971 0.033587094 -0.07034837 0.3131124 -0.236294 -0.05173758 -0.3232206 0.08535006 0.23238431 -0.2438763 -0.20611395 0.5467523 0.01838164 0.017727958 0.14357537 0.06319011 -0.13936506 -0.12816334 0.37893876 -0.022047836 0.021965025 -0.066613175 0.0045518796
130 0.12051227 -0.27044594 0.15892616 0.1976081 0.08713274 -0.34785548 -0.089549705 -0.19664346 -0.43770856 -0.13845012 0.11689381 -0.497281 -0.21387617 -0.24533378 0.2956153 0.5324944 -0.011262697 0.13604824 0.30116925 0.18985529 0.08459012 0.45688254 0.26017493 -0.013831127 0.09216657 0.009223575 -0.12786786 -0.08185141 0.1914558 -0.25735152 0.039893206 -0.20921497 -0.008575485 0.21028204 -0.377112 -0.1416323 0.23772606 -0.09347464 -0.029126577 0.21291813 0.10608609 -0.16566724 0.018943282 -0.08554711 0.31972122 -0.21706334 -0.036435705 -0.29888597 0.080865614 0.24086165 -0.23502044 -0.18055114 0.52321273 0.033818677 0.018234437 0.14258271 0.06781529 -0.11693405 -0.10793956 0.38592482 -0.00701219 0.030906966 -0.05129202 0.020311326
18 0.122980684 -0.71321756 0.58186525 0.46508175 0.35894212 -1.6170028 -0.36855248 -0.75460494 -0.9055255 -0.12346001 0.07433374 -1.6599953 -0.48962873 -1.0770125 0.99164444 1.3226122 -0.060087685 0.62350845 0.9350452 0.15618765 -0.30124766 1.3940928 0.82082796 0.8295102 0.13252617 -0.20189503 -0.23826848 -0.1660327 0.48226598 -1.3652275 0.014150432 -0.87041044 0.09014219 0.77861345 -1.2002388 -0.100779966 0.79435265 -0.27466726 0.010723047 0.9449264 0.56242657 -0.42119974 0.046531353 -0.16209999 1.0126235 -0.55690646 -0.20691942 -0.8991496 0.35285297 0.7481995 -1.1224499 -0.29268718 1.6958189 -0.058433007 -0.26696452 1.0178834 -0.19809726 -0.5641777 -0.2628353 1.2705477 0.03467061 0.044751063 -0.20770457 0.17547822
95 0.11917582 -0.2702837 0.17442484 0.19409356 0.095853224 -0.3073494 -0.07993012 -0.19097586 -0.44324818 -0.14623505 0.12297083 -0.4732634 -0.23612462 -0.21685803 0.2922801 0.525213 -0.0015289495 0.14437747 0.32311636 0.19853795 0.09318969 0.4664906 0.23409589 -0.06681276 0.06971796 0.023969388 -0.15134978 -0.06702342 0.20581496 -0.24465567 0.048415743 -0.20749913 -0.010649668 0.19633664 -0.3523185 -0.15624505 0.2295955 -0.077590354 -0.028167408 0.2047036 0.09592617 -0.16065893 0.023576984 -0.075690076 0.32542333 -0.22399189 -0.043108255 -0.29984438 0.05001557 0.24226137 -0.22034027 -0.20838253 0.5359972 0.017192248 0.017958317 0.1411838 0.07984175 -0.12147387 -0.12234647 0.37729713 -0.01051347 0.02372852 -0.07204512 0.008047634
52 0.116900675 -0.25918737 0.146014 0.18500891 0.07918182 -0.31997955 -0.09837381 -0.22315808 -0.4169267 -0.14043249 0.10447433 -0.4917126 -0.22286595 -0.22102334 0.26162025 0.53794587 -0.024891194 0.1272361 0.29749355 0.18624435 0.09013013 0.46984008 0.2517129 -0.028003365 0.07662049 0.019184308 -0.15059553 -0.09060407 0.18763483 -0.24803494 0.02820681 -0.21757935 -0.021799 0.20258436 -0.3544554 -0.12732776 0.22535947 -0.0868934 -0.018790731 0.20317358 0.09050733 -0.17055711 0.018593933 -0.07941135 0.31143105 -0.21493375 -0.052253403 -0.31415364 0.05547408 0.22248118 -0.23860793 -0.19106284 0.52427274 0.011697855 0.007261029 0.13741894 0.07226511 -0.11137316 -0.13136649 0.36706325 -0.029932203 0.029154211 -0.056519758 0.019679703
138 0.12976576 -0.270888 0.15764683 0.17681557 0.09473093 -0.34816185 -0.09834929 -0.20329842 -0.42920128 -0.13180251 0.08755656 -0.49724942 -0.23786366 -0.21685614 0.2894504 0.5327703 -0.010743827 0.14372537 0.29579666 0.20370322 0.08690756 0.45554218 0.24232936 -0.027428187 0.08594201 0.013377418 -0.13798136 -0.078275 0.19131437 -0.25137138 0.045509562 -0.22059174 -0.010017103 0.22186954 -0.3690323 -0.1411032 0.21986723 -0.08919576 -0.039130375 0.22063558 0.08866353 -0.16191036 0.024095401 -0.07929238 0.29671234 -0.23265468 -0.044435993 -0.31751207 0.06907344 0.23247589 -0.24517646 -0.18642765 0.52625954 0.03416411 0.010710597 0.1502655 0.060179733 -0.12634633 -0.13436536 0.38637683 -0.025049737 0.0125900395 -0.0693381 0.0081458185
97 0.1256907 -0.26639044 0.17038713 0.17922005 0.09549678 -0.3507412 -0.105960816 -0.20420167 -0.41734356 -0.15976627 0.09066076 -0.50686276 -0.23389274 -0.22360417 0.2949785 0.51370364 -0.030192694 0.15613455 0.30453786 0.18432823 0.09155871 0.4532899 0.25804335 -0.02299227 0.067149304 0.014325767 -0.13523866 -0.063553005 0.19318414 -0.25619683 0.035259437 -0.22111982 -0.010107112 0.21995567 -0.3733004 -0.14509445 0.21242745 -0.07896623 -0.02550759 0.21041529 0.09202736 -0.14587107 0.007006694 -0.06826028 0.32121646 -0.21839589 -0.035575934 -0.31555754 0.07560484 0.23308678 -0.26471022 -0.19845754 0.5389559 0.03347174 0.023445329 0.16472755 0.04346786 -0.11834334 -0.13597642 0.38122037 -0.021360168 0.04384645 -0.05438272 0.027959483
141 0.12590413 -0.26787522 0.15287326 0.18063849 0.106665075 -0.36192915 -0.105031334 -0.20425299 -0.41462535 -0.15267414 0.09497197 -0.49134955 -0.22134873 -0.23112738 0.27884805 0.52000374 -0.0054027014 0.15106641 0.3146066 0.17611833 0.07829171 0.4402506 0.25553453 -0.02117729 0.07102361 -0.004534711 -0.14215589 -0.08544572 0.17445402 -0.27306968 0.043312345 -0.22207946 -0.0137071675 0.21055004 -0.36451596 -0.13900751 0.21079111 -0.09522593 -0.01729747 0.22229375 0.0842952 -0.1470946 0.008681698 -0.086905025 0.31619787 -0.22480103 -0.05711159 -0.3159464 0.068926945 0.24532019 -0.26731324 -0.1725934 0.5315597 0.01887657 0.017127668 0.17030425 0.04199393 -0.12587672 -0.111069135 0.39438805 -0.020047445 0.018725289 -0.060326483 0.009361707
3 0.11203977 -0.6879426 0.5699473 0.45977545 0.3447525 -1.5977068 -0.35725126 -0.7284249 -0.91336215 -0.10278934 0.08519946 -1.639395 -0.49753636 -1.04494 0.98611474 1.2733355 -0.049643714 0.6193955 0.91686666 0.15491886 -0.30920005 1.3681893 0.7870529 0.82454306 0.12637052 -0.20587379 -0.24311979 -0.15603033 0.4650337 -1.3405036 0.017854016 -0.8433773 0.07428571 0.75773823 -1.1759704 -0.1199729 0.77715826 -0.25830063 0.0093270475 0.9396376 0.5491102 -0.40986735 0.059370145 -0.14974713 0.99375993 -0.54732203 -0.22654186 -0.85557324 0.36089918 0.7567376 -1.1288089 -0.2886563 1.6833875 -0.063413374 -0.26361093 1.0089151 -0.2222274 -0.56010133 -0.24514148 1.2738438 0.052084304 0.039325997 -0.22376472 0.17157088
112 0.12880008 -0.2762682 0.14624022 0.18247734 0.087906286 -0.34228697 -0.09688301 -0.20669493 -0.4229428 -0.1585971 0.119584255 -0.49774858 -0.2391356 -0.21759234 0.28474116 0.5313943 -0.020956816 0.12936732 0.30434683 0.18847796 0.06713179 0.4507222 0.25300163 -0.018437078 0.08674136 0.020590084 -0.15159324 -0.08112453 0.17272887 -0.2502756 0.030422527 -0.2110495 -0.0046342015 0.20741735 -0.37507614 -0.13207577 0.21107242 -0.09430375 -0.02480769 0.22081137 0.08204033 -0.14606996 0.03147379 -0.08306525 0.30800572 -0.22014797 -0.036484323 -0.3022704 0.07787503 0.23244134 -0.2403386 -0.19344608 0.51675385 0.023945214 0.009152141 0.13770069 0.057134483 -0.123289905 -0.12249871 0.39084172 -0.027194295 0.019813653 -0.048891105 -0.00024670368
89 0.10375761 -0.26945052 0.14847954 0.18989454 0.10141924 -0.34386802 -0.10903623 -0.2060224 -0.4155012 -0.13937283 0.11897073 -0.47652915 -0.21361426 -0.24506767 0.29698277 0.5155404 0.000823478 0.14583997 0.30997634 0.17285307 0.06404229 0.46523306 0.24109524 -0.021626633 0.08374332 0.012462074 -0.12511197 -0.07783509 0.16806465 -0.27294248 0.039762713 -0.22821549 0.0091208145 0.22113955 -0.37832224 -0.12573247 0.23877409 -0.08075232 -0.016849464 0.19200727 0.09395414 -0.16752802 0.01194571 -0.07556905 0.31064257 -0.22648472 -0.042380676 -0.30153832 0.07619459 0.23980765 -0.2523493 -0.18119615 0.535901 0.034835577 0.016690811 0.14500026 0.045624398 -0.12539193 -0.12422158 0.3902652 -0.016527344 0.03623638 -0.0560794 0.00023114777
53 0.13098282 -0.25513828 0.15724416 0.19375876 0.0818655 -0.34992108 -0.08629153 -0.21369006 -0.4090505 -0.14916267 0.10496415 -0.47920653 -0.23487091 -0.23368582 0.28463873 0.5270039 -0.016964471 0.14437523 0.29398847 0.20638105 0.06672822 0.4675565 0.25429493 -0.041672427 0.06840949 0.0027994453 -0.15067784 -0.06603669 0.20037326 -0.25539976 0.041767623 -0.19882451 -0.010844142 0.21268387 -0.35878092 -0.15246612 0.20688091 -0.10742535 -0.0136592295 0.21477942 0.088328265 -0.1660831 0.017727021 -0.07309658 0.31166166 -0.22568265 -0.053405724 -0.29601452 0.070852324 0.24375097 -0.2573889 -0.20049013 0.5088898 0.016886361 0.00031557394 0.1528957 0.045951992 -0.13412955 -0.11037244 0.36269143 -0.021169167 0.019841144 -0.048514828 0.027496569
8 0.11982571 -0.7132804 0.5880085 0.45497164 0.38458008 -1.6561663 -0.36876395 -0.75269383 -0.94475955 -0.11690839 0.10104983 -1.7024013 -0.49622333 -1.0966913 1.0200267 1.3348734 -0.03930285 0.6399831 0.9701384 0.18200861 -0.30259526 1.4054475 0.83387405 0.8498829 0.1453535 -0.2022998 -0.24480067 -0.16647957 0.49727705 -1.3747766 0.018593602 -0.8727426 0.08158071 0.79764473 -1.2216979 -0.13163187 0.79099333 -0.2616823 -0.0095441025 0.95029855 0.5824808 -0.42784435 0.049625054 -0.15251133 1.031945 -0.5698457 -0.21951902 -0.90098685 0.37687024 0.77411026 -1.1604891 -0.301216 1.7416387 -0.057352886 -0.26448503 1.0367297 -0.20502435 -0.5581118 -0.25989264 1.2920699 0.038410626 0.04941649 -0.2101021 0.14604719
117 0.14525118 -0.28891677 0.17048587 0.1791276 0.11247443 -0.3210451 -0.100320876 -0.21229035 -0.42908275 -0.15082058 0.099291585 -0.4816244 -0.22814125 -0.22184257 0.27071315 0.547885 -0.014931953 0.14211923 0.2919508 0.20553356 0.10670712 0.47259358 0.24122813 -0.057787962 0.07111482 0.019237733 -0.16128309 -0.09263244 0.18339638 -0.25435388 0.026045129 -0.21859507 -0.0033257864 0.23022518 -0.3631768 -0.15239134 0.21674667 -0.10658386 -0.028701678 0.2203947 0.09918651 -0.16089267 0.017170671 -0.09431796 0.31166336 -0.24267793 -0.03411275 -0.31301728 0.058318146 0.2183134 -0.2437657 -0.21344925 0.5276812 0.0148293795 0.008741656 0.13613726 0.050108325 -0.12432569 -0.12359445 0.3689704 -0.034373242 0.025321372 -0.07504198 0.0120155625
125 0.12779711 -0.26979157 0.16296756 0.19514821 0.10573432 -0.32618204 -0.08290845 -0.21817735 -0.42958617 -0.1606438 0.09405561 -0.49573043 -0.2377527 -0.23025924 0.28273982 0.5109913 -0.030694347 0.15104091 0.30358654 0.199267 0.09393366 0.46393114 0.24758579 -0.02443014 0.06708345 0.019580288 -0.13468243 -0.06330119 0.17827517 -0.2503618 0.0321754 -0.21547934 0.011696004 0.20734483 -0.3638512 -0.15546468 0.20536114 -0.079760365 -0.03766642 0.21190098 0.08026249 -0.1570264 0.0052623195 -0.058865387 0.32066593 -0.21916017 -0.03184286 -0.30536824 0.05154149 0.24525373 -0.24716865 -0.17911637 0.5338017 0.01793836 -0.0029558816 0.14438428 0.06676357 -0.13530445 -0.11917353 0.36002713 -0.0074422867 0.026317868 -0.04737833 0.0040616966
116 0.1004892 -0.27982223 0.15703698 0.1950769 0.09593873 -0.3324014 -0.09299851 -0.19934037 -0.40559798 -0.13203432 0.10298914 -0.4752143 -0.2368051 -0.22987178 0.28182778 0.51534057 -0.00027628275 0.14050463 0.30199724 0.18362442 0.073030695 0.44528487 0.25525862 -0.03132439 0.08737441 0.012852346 -0.13550617 -0.07185461 0.1809593 -0.2587107 0.03528638 -0.20713556 -0.0018178985 0.20908922 -0.37447542 -0.15318635 0.22458686 -0.10220458 -0.030171577 0.20281379 0.08205516 -0.14907044 0.025530133 -0.07664513 0.30250528 -0.22232038 -0.05284914 -0.3110591 0.0656605 0.22873741 -0.25332126 -0.20323244 0.53973585 0.023206782 0.0020127366 0.16623197 0.049637027 -0.111770764 -0.12208556 0.39078903 -0.020778028 0.021077044 -0.069927864 0.026622716
20 0.100785926 -0.63954663 0.5322052 0.40049303 0.32734346 -1.4860334 -0.35098454 -0.69068795 -0.82628244 -0.08927412 0.08262066 -1.5092489 -0.44658178 -0.9667356 0.89611685 1.1920648 -0.031798534 0.57902545 0.86745864 0.13160984 -0.27267462 1.2584329 0.74452364 0.74783707 0.11536133 -0.19151112 -0.23428151 -0.16893628 0.43930748 -1.2458113 0.008170537 -0.7723927 0.063051894 0.7255215 -1.0781403 -0.09210444 0.70518345 -0.25185665 -0.017980328 0.8602291 0.51124996 -0.3874489 0.055254165 -0.15316577 0.90626025 -0.52284557 -0.20930631 -0.8192346 0.32462803 0.7031371 -1.0229223 -0.28092167 1.5350463 -0.061005406 -0.2499934 0.92205864 -0.20743676 -0.5055324 -0.24203815 1.1680579 0.03913553 0.052028947 -0.19777368 0.12978473
50 0.12857607 -0.2815906 0.17256895 0.19681564 0.114404544 -0.35143244 -0.10390124 -0.20318992 -0.4351817 -0.16550818 0.11661411 -0.50475925 -0.23868586 -0.24296197 0.2733164 0.5308217 -0.017918171 0.14107957 0.3187998 0.20036814 0.087347664 0.45084575 0.2453769 -0.03601947 0.064712666 0.0068849092 -0.14703293 -0.09192379 0.17606778 -0.27307856 0.052868098 -0.21970612 0.01074477 0.20797692 -0.37935784 -0.14266783 0.24428827 -0.09176592 -0.025155142 0.21776868 0.102994345 -0.16982636 0.023863105 -0.06810698 0.33143666 -0.22792712 -0.06294769 -0.31902823 0.079432145 0.2370543 -0.27006295 -0.18609129 0.53177935 0.030662436 0.015246368 0.1527645 0.056351267 -0.12097952 -0.12659718 0.38584113 -0.0064462344 0.045108687 -0.08241695 0.026212897
68 0.13526973 -0.27954635 0.1669949 0.18662213 0.10958292 -0.3526411 -0.09390304 -0.19903067 -0.42068395 -0.16429217 0.103917964 -0.5039558 -0.23274048 -0.2313717 0.30485138 0.537083 -0.0019645959 0.13486482 0.30329356 0.19690901 0.0859618 0.4644077 0.24608466 -0.026068587 0.06507432 0.029837755 -0.13631363 -0.092033386 0.19449428 -0.26150262 0.03395831 -0.2317041 -0.0012873759 0.23585281 -0.39244133 -0.14170718 0.21583994 -0.09552908 -0.023555143 0.20709676 0.095890835 -0.1568426 0.005954976 -0.06434762 0.32969937 -0.24985506 -0.050238103 -0.3083328 0.05653519 0.2265678 -0.26751384 -0.20538592 0.55723023 0.033665173 0.0079144025 0.14358376 0.06462318 -0.12355591 -0.124190025 0.37222776 -0.027742932 0.032946207 -0.076907024 0.022799969
101 0.1200606 -0.27895638 0.14907359 0.19736224 0.07918798 -0.3528212 -0.09078391 -0.21056357 -0.4213554 -0.15738155 0.1040533 -0.48123908 -0.23625562 -0.23887298 0.27243218 0.50812614 -0.025363404 0.1256762 0.31611773 0.20350106 0.071113676 0.43855554 0.24918948 -0.029419921 0.09024698 0.01714506 -0.14832985 -0.08472763 0.1648534 -0.2556982 0.034497585 -0.21715641 0.0041623963 0.22652987 -0.35651416 -0.15130778 0.2321001 -0.1110038 -0.041683376 0.19701302 0.09095108 -0.1507545 0.011296656 -0.068400845 0.326835 -0.2177132 -0.05071906 -0.28753534 0.07095497 0.22780736 -0.25748894 -0.17882718 0.5088567 0.015121662 0.017667092 0.14759453 0.055607226 -0.14012247 -0.10930509 0.39153633 -0.035870083 0.024367327 -0.052028753 0.020216363
27 0.11276791 -0.71068496 0.5595309 0.47278664 0.360641 -1.6313012 -0.37132463 -0.74434537 -0.93458647 -0.10028763 0.07900395 -1.6822702 -0.48992714 -1.0658032 1.0072668 1.3172618 -0.050099287 0.6240387 0.9550908 0.1772064 -0.30769062 1.3828642 0.80850935 0.83187467 0.11934015 -0.20807008 -0.2504012 -0.16142462 0.4664342 -1.3690981 0.009348334 -0.8778361 0.08601458 0.7939636 -1.1921418 -0.10692666 0.7702507 -0.2717636 -0.015358495 0.9553696 0.56588787 -0.4102808 0.042674117 -0.14492773 1.0193849 -0.5671966 -0.21862648 -0.87834656 0.36274257 0.7743781 -1.135804 -0.2958368 1.7183139 -0.07362965 -0.26890612 1.0255727 -0.21432486 -0.56052136 -0.2544593 1.2982411 0.03226202 0.04795041 -0.20108685 0.1613176
15 0.11865336 -0.7038581 0.57356185 0.4441107 0.36937818 -1.6424377 -0.3822914 -0.76414585 -0.9251733 -0.11825933 0.09467674 -1.6824453 -0.4840095 -1.0921592 0.9872815 1.3184438 -0.05531298 0.64020073 0.9419815 0.15853488 -0.31783476 1.3711445 0.82503325 0.8392311 0.13851164 -0.22912575 -0.24593087 -0.19125804 0.4866893 -1.3553278 0.010000096 -0.855581 0.07321426 0.7753929 -1.192301 -0.10509874 0.7724663 -0.28466937 0.012004765 0.9561391 0.5729673 -0.41941673 0.040755987 -0.15298237 1.0161891 -0.55486745 -0.22726244 -0.887124 0.36942136 0.7510852 -1.1567373 -0.29068345 1.722891 -0.06895836 -0.25188038 1.0269812 -0.22509222 -0.56721455 -0.26536077 1.3000393 0.042289764 0.03491939 -0.21466692 0.155996
59 0.115371086 -0.67732316 0.5607981 0.43787003 0.3424934 -1.5417596 -0.35479417 -0.71902055 -0.88706684 -0.10378199 0.06993781 -1.5909677 -0.49044782 -1.038551 0.952985 1.251408 -0.038529694 0.6019185 0.903094 0.15455903 -0.29022264 1.322674 0.79252017 0.8104484 0.11125403 -0.2096605 -0.2498704 -0.17616011 0.4491379 -1.3174424 0.03220359 -0.8243592 0.075162485 0.7423393 -1.1523844 -0.11860053 0.76149726 -0.26145688 0.004814895 0.9026301 0.5613842 -0.39700896 0.04676571 -0.15229426 0.9678758 -0.5449823 -0.19696502 -0.8412878 0.34456155 0.7306951 -1.0854337 -0.2976681 1.6469668 -0.058197565 -0.25838476 0.9929502 -0.21111582 -0.52603024 -0.24605863 1.2406015 0.041863788 0.037362516 -0.21137111 0.16710423
0 0.11464592 -0.70625836 0.5624458 0.44550222 0.36144632 -1.6025279 -0.3578502 -0.7294683 -0.89323777 -0.09860293 0.0752234 -1.6333727 -0.49206048 -1.0693331 0.98794687 1.3049808 -0.03435712 0.618585 0.91692495 0.16587256 -0.31225368 1.3706256 0.8032405 0.8272904 0.13633451 -0.2105487 -0.24904244 -0.17205077 0.48278686 -1.3440001 0.016301038 -0.8508149 0.08724446 0.78140175 -1.1757678 -0.1052406 0.7627665 -0.2592167 0.010239518 0.93815815 0.55181944 -0.41909298 0.058664754 -0.13747025 1.0014306 -0.56264263 -0.21780246 -0.88264287 0.34462053 0.75048035 -1.1288545 -0.30851996 1.690569 -0.045819677 -0.24007379 1.0040716 -0.22487105 -0.5630995 -0.24996445 1.2483062 0.02685681 0.049579073 -0.21436082 0.1435563
132 0.13098672 -0.28547764 0.15298696 0.18738669 0.10318214 -0.34679037 -0.106278345 -0.19849181 -0.41370183 -0.16473664 0.12687142 -0.4816097 -0.24469051 -0.23593861 0.29172474 0.53870445 -0.020535199 0.13132171 0.31723335 0.17887862 0.07056277 0.45722616 0.26085657 -0.037190925 0.08414129 0.016399257 -0.14185694 -0.06918401 0.18766299 -0.2538485 0.04624323 -0.23204903 0.013526688 0.20939565 -0.36113006 -0.14990734 0.21697907 -0.1066711 -0.019007571 0.21180187 0.09873699 -0.1715502 0.010898377 -0.086648434 0.3295401 -0.24620599 -0.041867223 -0.30950645 0.06744746 0.2480559 -0.2555038 -0.20363674 0.53761923 0.03270137 0.021337643 0.14597115 0.0594579 -0.12083174 -0.13165179 0.3970513 -0.032030236 0.034270488 -0.058073577 0.022914506
131 0.10851145 -0.26073524 0.17090844 0.20349605 0.084717706 -0.33018303 -0.090849936 -0.2097746 -0.4016584 -0.15545778 0.10148976 -0.49849492 -0.23299721 -0.23273854 0.27462578 0.50807303 -0.0030691482 0.13602161 0.29645738 0.20354974 0.09337759 0.45689908 0.25101262 -0.02047541 0.0740033 0.025637744 -0.15124309 -0.07717912 0.1850027 -0.26609462 0.04414218 -0.2095717 0.012658428 0.22004187 -0.34810036 -0.14884995 0.23272862 -0.09725328 -0.035278946 0.21202166 0.086971566 -0.15846065 0.023529483 -0.058836717 0.2998192 -0.24142452 -0.051538877 -0.2917842 0.0523317 0.24700975 -0.2470224 -0.18668596 0.5280664 0.010561442 0.011890603 0.16375004 0.04073918 -0.1271688 -0.11672147 0.3832919 -0.0067329323 0.02589134 -0.051205963 0.007142614
1 0.10512592 -0.66570807 0.55809414 0.4237114 0.34689337 -1.5701171 -0.36360124 -0.7067918 -0.8962155 -0.09359169 0.089910135 -1.6084197 -0.49357533 -1.034058 0.94723153 1.264261 -0.032518893 0.61301243 0.9053165 0.15767066 -0.30472198 1.3248299 0.7774562 0.8154126 0.11372423 -0.21757635 -0.23751059 -0.1642241 0.44407701 -1.313468 0.016424716 -0.8341583 0.06250575 0.74739313 -1.1471692 -0.09720951 0.75308794 -0.2566374 -0.0030473173 0.9071579 0.5512255 -0.40389097 0.053716075 -0.14927974 0.9559865 -0.54369533 -0.19505057 -0.8609635 0.33592114 0.72507095 -1.0798222 -0.29126984 1.6520185 -0.07228294 -0.23491289 0.9640986 -0.19255406 -0.53644145 -0.24247113 1.2254828 0.050845932 0.055976745 -0.21359457 0.13882005
72 0.12777711 -0.27689755 0.14437559 0.19141833 0.08432132 -0.3472767 -0.07733416 -0.21047881 -0.42143026 -0.15568693 0.09836823 -0.4896184 -0.23704118 -0.23285584 0.2680523 0.5292633 -0.004452819 0.13553189 0.3085999 0.17886075 0.09642917 0.4618374 0.24498981 -0.04017607 0.072114795 0.024706224 -0.14637 -0.07009856 0.1996567 -0.24604996 0.031626265 -0.20230505 -0.0055892332 0.19810605 -0.34629345 -0.15611124 0.21923108 -0.09583081 -0.04157289 0.20581603 0.10521905 -0.15807949 0.0067638434 -0.0640947 0.30711693 -0.23971348 -0.048296526 -0.30131343 0.07695926 0.23367436 -0.22710058 -0.20524126 0.5311263 0.02842003 0.009316371 0.1450833 0.05557944 -0.1240789 -0.13613977 0.367185 -0.023632227 0.02536519 -0.04850349 0.011990888
19 0.12228319 -0.7065136 0.5859627 0.44012958 0.36847168 -1.6245558 -0.3725227 -0.7450856 -0.93171775 -0.09218948 0.07907002 -1.6676388 -0.5097329 -1.0683665 1.0077012 1.3101847 -0.038283207 0.63526577 0.9579092 0.17598194 -0.3095976 1.3794883 0.7987253 0.8511447 0.12502602 -0.21109998 -0.25301018 -0.1632585 0.4877762 -1.3573277 0.024250645 -0.85447806 0.08472434 0.7955823 -1.1908133 -0.11466445 0.7914157 -0.2753123 -0.007902923 0.9646799 0.55397165 -0.42740867 0.04263231 -0.14594552 1.0240165 -0.57834625 -0.2096519 -0.8888086 0.34296474 0.7551361 -1.1421757 -0.31055218 1.7074939 -0.07016162 -0.2502153 1.0367647 -0.21902642 -0.5572863 -0.2567929 1.285571 0.027531568 0.04978493 -0.20760909 0.17069468
106 0.12974654 -0.27005908 0.17355427 0.18093283 0.09617806 -0.35899565 -0.090683304 -0.1964234 -0.43541566 -0.14779432 0.11422752 -0.49607196 -0.22796479 -0.24785158 0.30397987 0.51663166 -0.023510765 0.13755257 0.3004766 0.18936671 0.06555642 0.46325484 0.24697289 -0.031341616 0.087729216 0.020905059 -0.14164548 -0.079335265 0.20230407 -0.26578614 0.050408714 -0.20425425 -0.02009845 0.20317581 -0.35522076 -0.13903356 0.22453748 -0.090599604 -0.035505243 0.20318131 0.0841668 -0.14809687 0.011878357 -0.086755544 0.3117996 -0.22189957 -0.052449953 -0.32119718 0.06617269 0.2334651 -0.25810662 -0.19565971 0.5459813 0.02192945 -0.0001556798 0.16028841 0.063161984 -0.14472488 -0.13037589 0.39895603 -0.03438069 0.03127652 -0.07533965 0.02968312
79 0.09930695 -0.6802181 0.538394 0.42883626 0.35578498 -1.51645 -0.3558743 -0.700113 -0.8628371 -0.100349225 0.06950006 -1.5782858 -0.46714944 -1.0017297 0.9309088 1.2237884 -0.039262526 0.6151538 0.88206214 0.1514121 -0.2970384 1.3149614 0.7826788 0.7876936 0.13040817 -0.19366282 -0.23007186 -0.17801103 0.4525394 -1.2855155 0.014189115 -0.80775714 0.07493436 0.7568587 -1.1250701 -0.103782155 0.73616886 -0.26830542 -0.01751096 0.9051567 0.52751535 -0.39375687 0.047803223 -0.15696149 0.9487991 -0.5447738 -0.21814741 -0.83852184 0.35273123 0.7068913 -1.0828114 -0.27278543 1.6255761 -0.043515693 -0.2604107 0.97052854 -0.2134371 -0.5203899 -0.2323679 1.2079266 0.048109934 0.03165676 -0.19370557 0.15765935
10 0.11746534 -0.67237544 0.54592437 0.4436109 0.34021613 -1.5646483 -0.35773927 -0.72940654 -0.8849254 -0.101041 0.0919811 -1.6139284 -0.48224643 -1.035849 0.9425574 1.2594994 -0.04191788 0.6018744 0.9056592 0.16818862 -0.29504094 1.3205994 0.79160327 0.801318 0.1244271 -0.19171381 -0.22737113 -0.16371165 0.46068636 -1.3067286 0.03107138 -0.8207866 0.06895922 0.7446782 -1.1437685 -0.119457126 0.7569061 -0.2729844 -0.006268976 0.91606814 0.55077106 -0.40043187 0.029648503 -0.1422754 0.9775596 -0.5392952 -0.19673622 -0.8501714 0.35322028 0.7427057 -1.0953168 -0.29360905 1.6408331 -0.07096734 -0.23960988 0.96991456 -0.21229824 -0.54186225 -0.23422973 1.2368073 0.036451556 0.040940385 -0.20694174 0.15091334
147 0.10897732 -0.26914838 0.15900375 0.19470048 0.0983987 -0.33218753 -0.09474648 -0.2124956 -0.42617124 -0.13484256 0.108399205 -0.49291456 -0.21529754 -0.21553506 0.27209318 0.5105415 -0.029711092 0.15191838 0.29779273 0.18947339 0.09367622 0.43664846 0.23102854 -0.017572854 0.062114835 -0.0015777654 -0.15407732 -0.07779013 0.177322 -0.26235044 0.03745489 -0.20005172 0.013373004 0.20435947 -0.34462118 -0.15270655 0.22211252 -0.088550225 -0.029439373 0.20511658 0.094534405 -0.15004227 0.0020344078 -0.081070215 0.29933187 -0.21803497 -0.047244076 -0.31466463 0.07661817 0.2315363 -0.23971057 -0.1772321 0.51691407 0.029740587 -0.0068800636 0.14762188 0.0391494 -0.12266532 -0.13078158 0.38864774 -0.011936477 0.018429842 -0.053794123 0.02499732
118 0.10104532 -0.25822878 0.14867145 0.19765997 0.10339138 -0.35341322 -0.11422442 -0.2080459 -0.41126502 -0.13983014 0.11543232 -0.49649003 -0.23710103 -0.25072148 0.28387403 0.51461285 -0.013624224 0.14401272 0.31724226 0.1811416 0.08059486 0.460049 0.2375422 -0.010714879 0.06347996 -0.00075616624 -0.14329882 -0.06581502 0.17900337 -0.2552993 0.03432058 -0.22678958 0.0062138787 0.2226552 -0.3687973 -0.13580492 0.21509485 -0.086691506 -0.038595162 0.1996082 0.0853508 -0.13758756 0.020520449 -0.060464736 0.32962558 -0.23785728 -0.040091373 -0.298944 0.0805176 0.22530356 -0.23961794 -0.19443864 0.5383109 0.028535 0.0025591813 0.16798948 0.056392066 -0.12545104 -0.10845403 0.38405132 -0.020238264 0.04247574 -0.0553278 0.011082253
24 0.10983461 -0.6689037 0.54863536 0.42132443 0.33756366 -1.5288395 -0.34941593 -0.71195555 -0.856375 -0.107221305 0.08868139 -1.5694655 -0.46051463 -1.0192177 0.9278542 1.241162 -0.051820222 0.6088465 0.8833696 0.15547803 -0.28854746 1.3014333 0.7708567 0.7823287 0.1162765 -0.21729492 -0.23265938 -0.15759382 0.43772596 -1.2638429 0.023852557 -0.82068616 0.073716454 0.74599427 -1.132539 -0.10266896 0.7460971 -0.24393469 0.0054005273 0.9000768 0.53386724 -0.40637162 0.0563571 -0.15785763 0.94838095 -0.5396851 -0.19510855 -0.8465444 0.34152886 0.71933466 -1.0800742 -0.299157 1.5963331 -0.053200677 -0.2572689 0.969465 -0.20646144 -0.54412955 -0.251064 1.2230006 0.034804467 0.053944137 -0.21573801 0.13520177
129 0.10848145 -0.26553676 0.1497683 0.1725395 0.08232114 -0.33528817 -0.08356365 -0.21617773 -0.42976496 -0.14728996 0.10675874 -0.5040552 -0.21366107 -0.24058586 0.2849563 0.5322629 -0.0027887803 0.15022162 0.31595537 0.2033256 0.07581961 0.45943418 0.23541248 -0.043514676 0.08599144 0.0061692023 -0.15366156 -0.0851003 0.18597935 -0.24745801 0.04808912 -0.2015933 -0.010476843 0.22177023 -0.3743699 -0.15010114 0.21350536 -0.094512805 -0.020610493 0.21505132 0.08661227 -0.15294175 0.030721305 -0.08237206 0.30075258 -0.22837238 -0.051728208 -0.28956625 0.07607624 0.24232337 -0.21999905 -0.20458308 0.52142286 0.0055124657 0.0016224609 0.13084944 0.06526701 -0.12220303 -0.13118075 0.3831534 -0.018172521 0.029145187 -0.067774095 0.009072218
54 0.10966697 -0.25281337 0.1645402 0.1774824 0.09997654 -0.34221837 -0.10212731 -0.19510412 -0.41627297 -0.13039975 0.09241582 -0.4991166 -0.22659655 -0.2394945 0.28168902 0.5074274 -0.0046634264 0.1517665 0.29749176 0.1906198 0.07150023 0.45021656 0.24410781 -0.018153636 0.0677528 0.0055161156 -0.14011462 -0.074632235 0.16508995 -0.25265783 0.03537856 -0.21845728 -0.0108904075 0.20731342 -0.37013265 -0.1524892 0.22101502 -0.10589254 -0.03507502 0.19867137 0.11319117 -0.15389575 0.005731492 -0.06485446 0.29350686 -0.22656696 -0.041891314 -0.3103053 0.056093812 0.21769205 -0.23384404 -0.1728471 0.52821577 0.020737844 0.010200799 0.14755867 0.06651633 -0.116453305 -0.11385303 0.38825995 -0.034172315 0.029420665 -0.04882163 0.015265218
13 0.103165224 -0.71072084 0.5664448 0.45054254 0.35953456 -1.6010518 -0.37479576 -0.7348814 -0.9246723 -0.09479774 0.073915355 -1.6766732 -0.50514865 -1.0802866 0.9807716 1.3090513 -0.04605012 0.6345261 0.9502258 0.15949176 -0.30036902 1.3772622 0.8225835 0.8402033 0.1258901 -0.21097052 -0.26008 -0.18262833 0.46302053 -1.3515552 0.012501922 -0.86455274 0.082814835 0.786381 -1.2002834 -0.110901706 0.78845775 -0.26104102 -0.0069229295 0.9593432 0.58039314 -0.42034128 0.047859777 -0.1682908 0.99886423 -0.56604916 -0.21089192 -0.88411814 0.34194273 0.7647979 -1.1450682 -0.2901958 1.7088648 -0.07146366 -0.2516068 1.0257584 -0.22216578 -0.5687802 -0.24036963 1.2831503 0.0528534 0.032017976 -0.21479724 0.16966434
92 0.11929765 -0.28165 0.15583219 0.18600635 0.08935314 -0.34179196 -0.102305934 -0.2301968 -0.42235002 -0.1559896 0.10872709 -0.50970566 -0.23021819 -0.24927785 0.29417646 0.5370983 0.003180346 0.15877151 0.320159 0.18637317 0.0907697 0.47915515 0.24766701 -0.031588666 0.07194922 0.019190857 -0.16194162 -0.089012556 0.20551054 -0.27768296 0.054958515 -0.22296269 -0.012410285 0.21529411 -0.37993494 -0.13608818 0.22734678 -0.105402306 -0.039808664 0.2293404 0.099592954 -0.15379934 0.012912118 -0.091173515 0.32352397 -0.23849949 -0.043361675 -0.3321306 0.060735065 0.23029773 -0.24983394 -0.2056414 0.550337 0.025921935 0.014983129 0.15945628 0.049338043 -0.12813158 -0.13530424 0.3818377 -0.006722963 0.024519145 -0.07831177 0.020748263
55 0.13341007 -0.26251957 0.15699105 0.17757395 0.08091871 -0.32815555 -0.10368925 -0.21077077 -0.4190213 -0.13923916 0.12246038 -0.46915594 -0.22268762 -0.19922411 0.2715213 0.5022739 -0.0097285295 0.13808356 0.28849375 0.18695626 0.108069666 0.45125005 0.22326021 -0.05706879 0.07664637 0.02226707 -0.15579806 -0.06177974 0.17269957 -0.22905843 0.061287563 -0.19932316 0.0027568028 0.20040615 -0.3629379 -0.14132893 0.21005723 -0.10602297 -0.016696 0.18474141 0.09405879 -0.15710427 -0.0011467271 -0.08922516 0.31149387 -0.2324203 -0.033780027 -0.29768613 0.0739916 0.23443532 -0.2107751 -0.17913923 0.49364525 0.0064911004 0.0061204517 0.13037674 0.070394196 -0.11003032 -0.1211292 0.36696845 -0.029402649 0.017177863 -0.0527766 -0.003563937
137 0.1229799 -0.27819106 0.17071396 0.18499343 0.10048942 -0.3508665 -0.078865565 -0.2168124 -0.4171051 -0.1477877 0.124431156 -0.49672157 -0.23485981 -0.23742552 0.29350096 0.51535857 -0.0026639197 0.13895607 0.3192964 0.18746763 0.08650132 0.45584083 0.23125705 -0.020692445 0.07297706 0.029399382 -0.14662811 -0.069999136 0.1868273 -0.24059595 0.028520575 -0.1985655 0.013000368 0.21423891 -0.35607433 -0.13987216 0.23091495 -0.101633556 -0.025006087 0.20956281 0.09945145 -0.1403214 0.0059637125 -0.073088706 0.30117083 -0.23574468 -0.0621141 -0.2997825 0.06354652 0.23302944 -0.2315441 -0.20556007 0.5297547 0.013986259 0.0051558353 0.13450977 0.04186543 -0.10735123 -0.13273592 0.38579163 -0.030150542 0.030756168 -0.062283874 -0.003992844
28 0.09923973 -0.6881113 0.5316673 0.42635575 0.3416279 -1.542867 -0.35890916 -0.7217349 -0.8847503 -0.10630237 0.06976251 -1.6008915 -0.48033845 -1.035753 0.93150514 1.2392619 -0.0422664 0.59332246 0.89587957 0.16541198 -0.28124925 1.3064733 0.78541213 0.7811657 0.123116285 -0.19532305 -0.244078 -0.1523713 0.45019495 -1.2860662 0.030021021 -0.83749706 0.06679647 0.73591316 -1.1369288 -0.117897555 0.74639666 -0.27003416 -0.0029264276 0.90377396 0.5527425 -0.4161949 0.03897897 -0.13851047 0.9772828 -0.5441202 -0.20573011 -0.85586405 0.34220868 0.71158034 -1.0963088 -0.28760704 1.6265529 -0.05181033 -0.26141915 0.9755396 -0.20187049 -0.54421973 -0.24285106 1.2349328 0.026668591 0.04585641 -0.19756247 0.15459366
38 0.11631372 -0.6830368 0.5721361 0.45200744 0.36855292 -1.6008015 -0.35748518 -0.72485733 -0.91281843 -0.113802075 0.092273615 -1.6274574 -0.5054005 -1.0507674 0.97008836 1.2880098 -0.038649376 0.60997635 0.9419925 0.14443676 -0.2899485 1.3697789 0.79151094 0.80223256 0.13664472 -0.2250759 -0.25963032 -0.17371777 0.45522168 -1.3161017 0.03105939 -0.84485644 0.09047404 0.78335834 -1.1585829 -0.10379719 0.77515143 -0.25523287 0.0041068974 0.94117457 0.54705846 -0.39938763 0.059619404 -0.1381806 0.975927 -0.5607989 -0.21224266 -0.8658456 0.33704755 0.7449087 -1.1055802 -0.28303552 1.6687552 -0.05935909 -0.24320652 0.99730426 -0.20722835 -0.5656118 -0.24972339 1.2671157 0.045309015 0.029743493 -0.2167238 0.1602609
144 0.11227886 -0.2719317 0.16973631 0.18771945 0.08633578 -0.33466187 -0.11375188 -0.21050546 -0.38767278 -0.13627265 0.087712206 -0.48438075 -0.2263515 -0.24654835 0.267322 0.51223814 -0.032096308 0.15505789 0.2930113 0.18628453 0.061662965 0.43663496 0.2545649 -0.015968515 0.07477424 0.005967801 -0.14618172 -0.08764543 0.18981385 -0.27856487 0.04364214 -0.23065013 0.00414246 0.21416326 -0.3681305 -0.13496901 0.20787673 -0.10054865 -0.027486818 0.2105863 0.09231398 -0.16524991 0.021769581 -0.07308245 0.32271987 -0.21645942 -0.033703502 -0.30602697 0.056776512 0.23258005 -0.26553625 -0.16952772 0.5371563 0.015074426 0.010486719 0.17724724 0.050791346 -0.11932923 -0.100726716 0.37599695 -0.03164387 0.013198937 -0.06509837 0.016308667
121 0.13226986 -0.28581724 0.15652923 0.1997326 0.09370642 -0.35926723 -0.09737238 -0.21744232 -0.4269099 -0.15790534 0.103362 -0.48133564 -0.22074026 -0.22027682 0.30082515 0.5247327 -0.025429713 0.1605921 0.2912315 0.18267806 0.092441685 0.4680119 0.24000853 -0.031881724 0.08783062 0.0064543653 -0.14673217 -0.063554086 0.19406119 -0.25478432 0.037661985 -0.20209128 0.012552232 0.22844386 -0.35048506 -0.14850684 0.22382756 -0.0975364 -0.017961556 0.22674209 0.10524511 -0.14583515 0.024193997 -0.06480554 0.31610104 -0.2401538 -0.047494683 -0.29343423 0.061810415 0.2353633 -0.24153969 -0.2002975 0.5436908 0.022414887 0.0071829 0.16547087 0.05779734 -0.12679917 -0.13772489 0.39320725 -0.036127843 0.043396477 -0.05155162 0.01577182
115 0.10106451 -0.24640326 0.15352756 0.19593017 0.087417245 -0.34429696 -0.09548929 -0.21588962 -0.42111278 -0.16060252 0.11279924 -0.47451925 -0.2269229 -0.21820049 0.2753459 0.4958426 -0.010244263 0.12989368 0.29938173 0.19940826 0.07881581 0.4526003 0.2497982 -0.026924746 0.06519214 0.025956905 -0.13472657 -0.0779513 0.18297541 -0.26344466 0.04323355 -0.21527223 0.005278911 0.20383076 -0.36023843 -0.12746802 0.20707324 -0.09459476 -0.04314313 0.20741493 0.10044108 -0.14512214 0.015801303 -0.07237308 0.31256008 -0.22462963 -0.036825966 -0.3054746 0.06090369 0.21844405 -0.25951374 -0.20021953 0.52367496 0.027125327 -0.0027423222 0.13288435 0.04268837 -0.11833733 -0.13302952 0.38160366 -0.010868512 0.04049395 -0.070777394 0.02149271
98 0.10639549 -0.69426054 0.56316054 0.45267928 0.370924 -1.6145146 -0.36609554 -0.749456 -0.9154533 -0.12439369 0.09516911 -1.6672012 -0.5076007 -1.0694904 0.986407 1.3101772 -0.05242618 0.6173416 0.93065125 0.15412718 -0.31572846 1.3719348 0.82511145 0.8213183 0.11701947 -0.22280198 -0.24606779 -0.18007869 0.47078735 -1.356754 0.029557133 -0.8723199 0.06809688 0.7936208 -1.1980371 -0.1096889 0.7793417 -0.2546976 0.0034398958 0.94805676 0.5701706 -0.41807595 0.05022498 -0.15809642 1.0155352 -0.5572578 -0.20414813 -0.8872147 0.35457146 0.7670659 -1.1461046 -0.30488387 1.6931462 -0.052942637 -0.2713362 1.0185905 -0.19770391 -0.56235677 -0.26979592 1.2706028 0.041975178 0.039068718 -0.2039057 0.15579557
81 0.117725626 -0.68172854 0.5416864 0.42806086 0.35064313 -1.566851 -0.35165977 -0.72043216 -0.8909497 -0.09899252 0.070758305 -1.6163359 -0.4857644 -1.0348707 0.9531935 1.2634345 -0.038438186 0.6225906 0.9178994 0.15140301 -0.3077707 1.3411444 0.7778866 0.81366575 0.12130404 -0.1990299 -0.23234947 -0.17835243 0.4505733 -1.3063241 0.02183334 -0.8448355 0.08589911 0.75997615 -1.143039 -0.11050089 0.739675 -0.24635997 -0.01709611 0.9008489 0.55579334 -0.41812766 0.03954456 -0.15063325 0.96766144 -0.5541624 -0.20379925 -0.850828 0.34972054 0.7265767 -1.0844955 -0.30432174 1.648205 -0.06857565 -0.24705294 0.9729192 -0.21377194 -0.5501227 -0.25060442 1.2502521 0.042733908 0.04757587 -0.21455823 0.16293801
12 0.09324547 -0.67353004 0.5296196 0.41999906 0.3472842 -1.5389082 -0.35171437 -0.6992631 -0.8786068 -0.1011048 0.07307356 -1.5928262 -0.48539415 -1.0151582 0.9434451 1.2365707 -0.054338392 0.6072247 0.8955506 0.13602002 -0.2814194 1.3168561 0.7570912 0.7917747 0.131267 -0.20927177 -0.2354039 -0.17204982 0.45758855 -1.2754668 0.020213025 -0.8234602 0.07457909 0.7359336 -1.1396449 -0.09226318 0.7389987 -0.25518143 0.008920946 0.88517797 0.5496354 -0.41043502 0.035921514 -0.13761637 0.9487525 -0.54120374 -0.21647257 -0.84368014 0.33553505 0.7111541 -1.0643097 -0.27098992 1.611856 -0.058227554 -0.25495917 0.9786793 -0.21320933 -0.52373093 -0.22630861 1.2238307 0.036374032 0.05355938 -0.19008411 0.14393233
40 0.1051302 -0.64888537 0.5410593 0.42204085 0.34260115 -1.5167987 -0.3656753 -0.70026714 -0.86195016 -0.097255625 0.069915414 -1.5523843 -0.45120195 -0.9839949 0.932786 1.2220683 -0.051236294 0.5949238 0.8753072 0.1337203 -0.2759532 1.2685527 0.76182437 0.772376 0.11122587 -0.20320882 -0.24240772 -0.15082198 0.42966446 -1.2761097 0.026725616 -0.79670495 0.08211798 0.7336439 -1.1107745 -0.11110452 0.73107815 -0.2366251 -0.011125013 0.88041866 0.53272945 -0.3815797 0.032804217 -0.1509576 0.93399304 -0.52602774 -0.19422881 -0.8169893 0.31906718 0.7170052 -1.0640546 -0.28667352 1.5723863 -0.066744484 -0.22654732 0.95584977 -0.2149594 -0.518601 -0.24910532 1.1809362 0.04181005 0.047088467 -0.19585015 0.16217321
143 0.12954226 -0.27892107 0.16875492 0.19265917 0.10226151 -0.3460126 -0.113748 -0.22050288 -0.42069122 -0.13506177 0.10235451 -0.4906712 -0.23670155 -0.26020902 0.27929765 0.5190901 0.00035276674 0.14260483 0.30624318 0.19902407 0.05714675 0.46471238 0.26404426 -0.023310425 0.07437961 0.0067691375 -0.13270734 -0.08759557 0.17233445 -0.25879192 0.03348881 -0.20663074 -0.015658636 0.23451549 -0.38010228 -0.15283372 0.22809677 -0.09782413 -0.03061598 0.21873644 0.09237052 -0.16228184 0.012793536 -0.06096081 0.33128962 -0.2363829 -0.059086505 -0.3023966 0.05757213 0.24000348 -0.2508772 -0.19497876 0.52975 0.0018027768 -0.011497425 0.17730166 0.05366383 -0.12914097 -0.105912946 0.37487704 -0.017802903 0.032061763 -0.07908446 0.0029696764
80 0.12329628 -0.72014844 0.565675 0.4701738 0.35660452 -1.6407834 -0.37756675 -0.7563002 -0.93915826 -0.11309863 0.06836737 -1.6797504 -0.50940484 -1.0836774 1.0017546 1.3162383 -0.037261803 0.65014684 0.95196307 0.15895776 -0.3092745 1.4025027 0.83338976 0.84128654 0.12809956 -0.2228565 -0.25221416 -0.1870828 0.47414836 -1.3830874 0.021495651 -0.86802834 0.0876574 0.78751135 -1.1904914 -0.12163202 0.8046899 -0.26985526 0.00055697095 0.96439046 0.5760178 -0.42124528 0.05064231 -0.16989851 1.0115077 -0.5748606 -0.23281084 -0.8900277 0.36744028 0.76142323 -1.1366397 -0.30774575 1.7189798 -0.054031964 -0.27521214 1.0187027 -0.20730641 -0.5785653 -0.24353372 1.3040936 0.028398141 0.059630852 -0.20499568 0.15037526
45 0.09274869 -0.6967414 0.55998164 0.44910327 0.34758443 -1.5630684 -0.37724715 -0.72597283 -0.8784916 -0.11595316 0.06454574 -1.6082941 -0.49286777 -1.0475503 0.9621904 1.2745489 -0.061709285 0.62556696 0.92639804 0.16027416 -0.30361742 1.3464911 0.77175105 0.8011426 0.12814339 -0.22075938 -0.25651848 -0.16468716 0.4695748 -1.3189399 0.009909195 -0.82695574 0.07862999 0.74408597 -1.1371335 -0.11009772 0.76055825 -0.25483957 0.011706898 0.93010145 0.5601998 -0.41854748 0.04686753 -0.14950232 0.97424227 -0.5322447 -0.2025879 -0.86892265 0.36125228 0.7309305 -1.098384 -0.2822605 1.6353407 -0.060572017 -0.24976382 0.9970595 -0.20216662 -0.54504895 -0.25955066 1.2326474 0.05213518 0.029798424 -0.18944079 0.1529615
114 0.115321964 -0.24167511 0.17161538 0.19825344 0.10708105 -0.34719682 -0.081213824 -0.21854465 -0.4210936 -0.15957366 0.10484837 -0.4639733 -0.23411249 -0.22708349 0.2710306 0.49989462 -0.015542266 0.14638802 0.30323085 0.18297301 0.073569216 0.43686545 0.23561591 -0.019615823 0.090278305 0.025634605 -0.15357342 -0.08696997 0.16189548 -0.2626276 0.04521615 -0.21920748 0.0029591457 0.22329019 -0.34700543 -0.13698216 0.23356967 -0.07965973 -0.03420738 0.19360188 0.08802001 -0.13781206 0.03039757 -0.07772772 0.31784102 -0.21955726 -0.03905148 -0.3058507 0.07180851 0.22583924 -0.25108925 -0.17613873 0.50158185 0.0098693855 0.011969432 0.15867397 0.050281353 -0.110662386 -0.1139913 0.3746906 -0.033160806 0.040264197 -0.07398344 0.009194978
34 0.115265034 -0.6838449 0.5525085 0.42720848 0.34691212 -1.5508657 -0.36670235 -0.71207297 -0.8590114 -0.091983214 0.062931664 -1.5940987 -0.4680226 -1.0340084 0.953396 1.2526852 -0.060966443 0.6159821 0.9104607 0.14657004 -0.29178467 1.3015448 0.78145427 0.8080995 0.12766254 -0.22021435 -0.22903709 -0.17070279 0.44638485 -1.2826521 0.021592915 -0.81249976 0.067902416 0.7533245 -1.1351109 -0.10501895 0.75333 -0.2487514 0.00919822 0.89639634 0.5471893 -0.3887252 0.039766017 -0.13686123 0.94530284 -0.52446973 -0.2024696 -0.83429766 0.34523046 0.7279702 -1.0875425 -0.29505876 1.6173518 -0.05749739 -0.25086218 0.95810026 -0.2161793 -0.520328 -0.2278288 1.229562 0.029483665 0.04632975 -0.21589677 0.16262835
61 0.11842923 -0.24841018 0.14254357 0.18102212 0.09603836 -0.30509433 -0.10241516 -0.20797311 -0.40765107 -0.16537264 0.11771362 -0.45670062 -0.2278887 -0.22404806 0.25094628 0.5045062 -0.0005389672 0.12971048 0.2806974 0.20959613 0.076682575 0.44456494 0.2493537 -0.045133464 0.060756844 0.03217599 -0.1548526 -0.08580894 0.19338143 -0.25237164 0.031048374 -0.20931561 -0.0030062718 0.20820057 -0.35812062 -0.14727114 0.22865273 -0.07723165 -0.016360652 0.19435875 0.09149563 -0.1480465 0.021303218 -0.06488065 0.30308166 -0.21899252 -0.04733208 -0.30482516 0.07399739 0.21007384 -0.22270148 -0.1921578 0.49719775 0.01445879 0.0237091 0.11787753 0.051004656 -0.11792263 -0.10851025 0.36856177 -0.022059245 0.043256063 -0.0695843 0.0071859453
21 0.10364342 -0.7307338 0.59466004 0.45016417 0.3558366 -1.6619778 -0.36720148 -0.76240987 -0.938013 -0.11897119 0.08187215 -1.6964322 -0.51223737 -1.1031903 0.9969493 1.3391279 -0.06657968 0.64693594 0.9588067 0.17909865 -0.31038547 1.414275 0.8159064 0.83163834 0.1403558 -0.21733512 -0.26352206 -0.18285428 0.4952252 -1.3936148 0.014253302 -0.87665606 0.081149206 0.81326747 -1.213546 -0.12642589 0.7836444 -0.29051062 -0.016164176 0.95464694 0.5688467 -0.43201995 0.04723856 -0.1653695 1.0306442 -0.57217944 -0.20722248 -0.90991926 0.3719725 0.7833467 -1.1629105 -0.32204768 1.7313043 -0.07344294 -0.25153828 1.0506417 -0.203983 -0.58473885 -0.25253075 1.3152517 0.047936942 0.035777967 -0.21750644 0.15012148
64 0.09156748 -0.6662816 0.55665994 0.44038498 0.33427057 -1.5277604 -0.36244905 -0.6881742 -0.8835432 -0.08462503 0.06770348 -1.5883399 -0.46860105 -1.017425 0.92262137 1.2379193 -0.04777876 0.5921204 0.90337 0.15373199 -0.27759528 1.3155469 0.7585428 0.79705924 0.13064098 -0.19626975 -0.22923604 -0.17424852 0.4529712 -1.2817422 0.018914651 -0.82661337 0.077938594 0.7501919 -1.1392812 -0.09104656 0.74546456 -0.254896 -0.007919697 0.8979391 0.5474974 -0.39043152 0.03459938 -0.13414004 0.95228434 -0.54985523 -0.19309136 -0.83151037 0.34320703 0.7306043 -1.0893003 -0.29449424 1.6107996 -0.06508965 -0.24785462 0.96426517 -0.21792336 -0.5276358 -0.23869374 1.2142198 0.04463347 0.047402885 -0.19322681 0.14790419
25 0.13080567 -0.7278416 0.5895839 0.46177852 0.38071343 -1.646494 -0.382255 -0.7457113 -0.95749986 -0.097606756 0.08821498 -1.706971 -0.5176859 -1.1068661 1.0086871 1.3462471 -0.040945545 0.6612226 0.9527555 0.18202873 -0.32229984 1.418361 0.84234744 0.840613 0.12131693 -0.23171723 -0.2563324 -0.18045996 0.470265 -1.378284 0.023845214 -0.8739751 0.09004914 0.8062978 -1.2314287 -0.107349694 0.80542594 -0.287168 -0.0077952347 0.9675811 0.578949 -0.43224636 0.039714858 -0.15878855 1.037762 -0.5826132 -0.22061457 -0.9032631 0.3570717 0.7630706 -1.1444588 -0.3280202 1.7389919 -0.06439638 -0.27401066 1.0408376 -0.20427299 -0.5756121 -0.24914151 1.3129663 0.029862856 0.04620555 -0.21784751 0.17109089
105 0.13356413 -0.26907706 0.15994798 0.18335657 0.109719485 -0.35495138 -0.09552845 -0.21462639 -0.41845724 -0.16547097 0.122908905 -0.52726686 -0.23804072 -0.23461145 0.28213045 0.54797894 -0.025267156 0.13985842 0.3226669 0.19701351 0.07198996 0.48570293 0.25091222 -0.017910188 0.09190184 0.017928815 -0.15622051 -0.07684821 0.17934611 -0.27453515 0.04788732 -0.21601368 0.008439061 0.21825793 -0.36582363 -0.15377894 0.24591918 -0.11124884 -0.03993618 0.22038083 0.08901835 -0.16704164 0.019761529 -0.07637402 0.3091939 -0.24664585 -0.062037256 -0.31619614 0.07698111 0.24055699 -0.24266924 -0.20332521 0.5658463 0.028214881 0.01900154 0.1614052 0.05438917 -0.12889022 -0.13812655 0.40774265 -0.026531948 0.041307516 -0.06412997 0.021429453
42 0.10793616 -0.7098303 0.5639229 0.4510349 0.34183073 -1.5951684 -0.37222224 -0.7383925 -0.8963363 -0.101176664 0.08915282 -1.6468257 -0.49772134 -1.0441725 0.981861 1.2943332 -0.04251553 0.6118978 0.9392858 0.14741834 -0.31370163 1.366043 0.79175127 0.80365896 0.12239031 -0.20251888 -0.24972299 -0.16453053 0.46538332 -1.3256156 0.020483308 -0.8607143 0.07261271 0.7825976 -1.1644851 -0.118709944 0.7769679 -0.25266558 0.007861704 0.9304369 0.54438514 -0.41858947 0.053114932 -0.16046938 1.0054306 -0.5707751 -0.22670515 -0.8772738 0.36117196 0.7329654 -1.1042823 -0.3123299 1.6786184 -0.056025486 -0.25318766 1.0158254 -0.20514959 -0.5495955 -0.24432102 1.2703475 0.043204263 0.060592327 -0.21211217 0.14315948
113 0.11045997 -0.27404347 0.15235224 0.18573268 0.108161695 -0.3480504 -0.09110488 -0.20130739 -0.42628172 -0.15093595 0.116164416 -0.5015922 -0.22120295 -0.21444958 0.2772463 0.5125237 -0.030688966 0.12863788 0.31269214 0.20300443 0.097301826 0.4516333 0.2523742 -0.026818538 0.060799208 0.0030155205 -0.1412626 -0.089659885 0.17932925 -0.26741165 0.05384962 -0.22002289 0.012355407 0.21650556 -0.3752661 -0.14893712 0.22569399 -0.10636261 -0.015741954 0.22510664 0.100039914 -0.16767158 0.008233819 -0.07644741 0.3152095 -0.23680323 -0.033524208 -0.30137327 0.06127832 0.2374106 -0.2370562 -0.18877101 0.543274 0.016384734 -0.002760342 0.14691128 0.04477624 -0.11013564 -0.13585141 0.37952557 -0.02678486 0.03138166 -0.05402643 0.0020757283
133 0.10903976 -0.25923792 0.16207229 0.19347215 0.09222408 -0.32573456 -0.1061354 -0.19319262 -0.4198359 -0.14307089 0.095590614 -0.48624948 -0.20927882 -0.2216518 0.25699386 0.49287662 -0.012772513 0.12646897 0.3021649 0.19605203 0.09135002 0.43164006 0.25147244 -0.047489233 0.08439008 0.01464835 -0.14479177 -0.06852216 0.17256096 -0.25559255 0.039057005 -0.21600842 -0.0031385324 0.19881913 -0.3455043 -0.15253843 0.21508348 -0.104286514 -0.0447829 0.1982976 0.07581254 -0.1580395 0.023530923 -0.07530992 0.30793247 -0.20816708 -0.06181523 -0.2878165 0.04946641 0.23402685 -0.22400026 -0.17153929 0.4988799 0.023302788 -0.0030524167 0.13815579 0.04711373 -0.13304935 -0.10961429 0.37114596 -0.026229683 0.016981378 -0.05560529 0.006383062
35 0.0980624 -0.70402867 0.55606365 0.4613831 0.34622246 -1.5728672 -0.35773247 -0.7373431 -0.9088092 -0.11141271 0.0876538 -1.6367548 -0.49517098 -1.0636586 0.98050636 1.2732219 -0.06323323 0.6246338 0.9308547 0.16030873 -0.29584137 1.3604549 0.79961854 0.822846 0.121758744 -0.22041202 -0.25954506 -0.15973885 0.46819896 -1.3368794 0.02941579 -0.83308256 0.0915767 0.7581607 -1.1747546 -0.11430368 0.7573385 -0.2577671 0.0051680407 0.91810083 0.5680363 -0.42624485 0.054978564 -0.15987967 0.9936124 -0.56236935 -0.20866549 -0.8595221 0.34799352 0.73609966 -1.1268005 -0.29370853 1.6789082 -0.04969628 -0.25950226 0.9803982 -0.19708839 -0.55784416 -0.24491017 1.2726367 0.031420406 0.048628204 -0.2151245 0.14631209
83 0.09905484 -0.26557532 0.15313159 0.18281488 0.094961464 -0.3578008 -0.10062966 -0.2033454 -0.40268984 -0.1410083 0.086874485 -0.48572364 -0.20588934 -0.26203784 0.29348853 0.52290136 -0.0020644632 0.13903466 0.3047211 0.17599061 0.0651711 0.452322 0.24732515 0.022795402 0.083095565 0.0031248336 -0.1462067 -0.08350908 0.16921543 -0.28199834 0.04036222 -0.22777307 -0.011312145 0.21802878 -0.36178818 -0.11815834 0.23796307 -0.096875146 -0.010439097 0.22662435 0.11216641 -0.14513302 0.0040193186 -0.06279775 0.33459705 -0.21648535 -0.04255733 -0.29863915 0.071723975 0.22496437 -0.26325974 -0.17877553 0.5233494 0.01672679 0.003510161 0.16264254 0.040664844 -0.122178264 -0.1309746 0.3930497 -0.027315132 0.015316275 -0.05262995 0.010625195
17 0.10703293 -0.71084815 0.55377555 0.43780273 0.36066535 -1.5981745 -0.38414505 -0.7474268 -0.9112653 -0.10670229 0.071621865 -1.6552067 -0.48447388 -1.0557317 0.9873326 1.2992922 -0.051753886 0.632074 0.9462769 0.15813042 -0.30203816 1.3630699 0.7871103 0.835667 0.13526823 -0.21438998 -0.231451 -0.18179439 0.47120062 -1.3536545 0.0044928915 -0.85041255 0.08603494 0.784599 -1.1882353 -0.10040865 0.7761073 -0.25990433 -0.0038634376 0.9462446 0.5736057 -0.4285522 0.02904569 -0.1409225 0.9947883 -0.5741901 -0.22126716 -0.87399834 0.3664028 0.7470275 -1.127814 -0.30935478 1.6713793 -0.059734087 -0.25803858 0.99725616 -0.21416578 -0.56882405 -0.25739142 1.2749208 0.040167578 0.058237433 -0.2003253 0.15556945
37 0.11498158 -0.66969943 0.56159705 0.4505389 0.35591915 -1.5429988 -0.34958348 -0.71522284 -0.8905472 -0.087590724 0.08020541 -1.6056278 -0.47883594 -1.0355228 0.9626901 1.2610193 -0.04163555 0.61645305 0.9177832 0.14712533 -0.3041079 1.315245 0.7722777 0.78353727 0.12315037 -0.2195088 -0.2245518 -0.1738222 0.44326863 -1.3121518 0.013635239 -0.842473 0.07805783 0.7598473 -1.1444682 -0.09424698 0.7458626 -0.26967055 -0.007444723 0.90361345 0.53287375 -0.41983837 0.038162958 -0.14911735 0.9746736 -0.55538213 -0.21581674 -0.8479634 0.33994344 0.73159194 -1.0928456 -0.28390864 1.6472243 -0.071896054 -0.2422919 0.9858967 -0.20736986 -0.52776647 -0.25216028 1.2225764 0.025067614 0.06067813 -0.21771073 0.14688747
71 0.11220957 -0.272558 0.17939441 0.17902029 0.088346824 -0.3432279 -0.11498078 -0.19931984 -0.42346194 -0.13236848 0.09895249 -0.50740707 -0.23577061 -0.2542991 0.29990783 0.5310185 -0.013570729 0.16041683 0.31719977 0.18969837 0.07263713 0.44365668 0.26883218 -0.016407846 0.06939295 0.010380902 -0.13053381 -0.09176967 0.1847935 -0.27051288 0.026001357 -0.20916797 -0.008972325 0.23657764 -0.38133067 -0.1241985 0.24484488 -0.106063925 -0.027137728 0.20564385 0.11517303 -0.14007092 0.0054457625 -0.0731098 0.3188359 -0.23847456 -0.046637673 -0.32303318 0.07474204 0.22479954 -0.24963957 -0.17446919 0.5335567 0.00983855 -0.014180647 0.17268251 0.050049204 -0.116425715 -0.11389883 0.38098845 -0.015489312 0.044014744 -0.05086677 0.032617874
146 0.112261094 -0.29588166 0.18297267 0.18831934 0.10713569 -0.35652277 -0.10808083 -0.21191886 -0.4517202 -0.14496629 0.11667052 -0.51181865 -0.25412402 -0.23127723 0.31364155 0.54606944 -0.009595724 0.16510043 0.32140175 0.2084857 0.07759647 0.48049155 0.2623595 -0.024789106 0.07735617 0.0013389818 -0.14514111 -0.06560791 0.20502092 -0.27146378 0.035941146 -0.21946351 -0.009147384 0.22378206 -0.3657399 -0.13844629 0.23159674 -0.11211263 -0.020133615 0.23089936 0.11322746 -0.17097485 0.016103473 -0.07945405 0.32989126 -0.23848289 -0.061228003 -0.31451514 0.06916231 0.25931123 -0.26604074 -0.18680303 0.56007886 0.028545601 -0.004159132 0.15016374 0.052453555 -0.13840245 -0.11148172 0.4058124 -0.031399354 0.04388306 -0.065749526 0.0023762207
41 0.11670962 -0.6780523 0.5287877 0.44932666 0.3578681 -1.5251533 -0.3561335 -0.6960282 -0.86934465 -0.11210069 0.09385276 -1.591635 -0.49054927 -1.008058 0.93395257 1.2608315 -0.06030963 0.6185713 0.8908279 0.1593114 -0.27628824 1.3213838 0.7689025 0.7834191 0.107848756 -0.1974182 -0.22506312 -0.17479713 0.46089154 -1.2794029 0.005006475 -0.81711787 0.06558233 0.7405506 -1.1306041 -0.118427806 0.7384686 -0.268231 -0.014444683 0.8915455 0.5563058 -0.38809744 0.043514658 -0.1505274 0.9713022 -0.5379758 -0.22158428 -0.8557656 0.34224126 0.7348695 -1.0793205 -0.27377793 1.6342423 -0.058257274 -0.23108701 0.98254603 -0.19127318 -0.51838326 -0.25915876 1.2293231 0.024376815 0.034625363 -0.21636067 0.15770976
128 0.12014842 -0.28529298 0.17617765 0.2076306 0.106503196 -0.34793544 -0.10711237 -0.22616377 -0.42026496 -0.15278353 0.09376574 -0.5010466 -0.23692311 -0.25184143 0.2991757 0.5449158 -0.0024271193 0.1535694 0.32893807 0.1946201 0.08756064 0.468785 0.25942218 -0.004316474 0.06312984 0.019804439 -0.14334215 -0.06731955 0.18756808 -0.27955753 0.032713942 -0.22776511 -0.004412664 0.21672447 -0.37383312 -0.1294083 0.24282601 -0.10864102 -0.04140173 0.21646944 0.10745558 -0.17188552 0.02987674 -0.071814045 0.31746227 -0.22019896 -0.037534263 -0.31158566 0.079814754 0.22628672 -0.2726548 -0.19859302 0.5614235 0.024911936 0.016439874 0.1514086 0.057708003 -0.13164248 -0.1255406 0.3865742 -0.011634008 0.01657622 -0.05873343 0.027716748
5 0.10188977 -0.6777532 0.5276349 0.42129916 0.33537874 -1.5248837 -0.36242637 -0.707019 -0.8856883 -0.108306915 0.07715666 -1.5892409 -0.46747002 -0.99922824 0.94286877 1.2432368 -0.056337927 0.59792894 0.8967169 0.15632583 -0.27508518 1.3039515 0.779063 0.7948474 0.12729275 -0.19239482 -0.245725 -0.1728155 0.45898533 -1.268512 0.023655217 -0.82282424 0.08684303 0.7437657 -1.1250474 -0.091457516 0.7450027 -0.24883999 -0.003799101 0.8817965 0.5334534 -0.39576718 0.0362259 -0.13666533 0.9657778 -0.55002695 -0.21333413 -0.8501352 0.3371818 0.71397454 -1.0789104 -0.28995514 1.6195664 -0.044095542 -0.2515359 0.95034176 -0.19629478 -0.54178405 -0.23030671 1.2199337 0.024327146 0.031842966 -0.2170854 0.15341277
14 0.11307082 -0.6717165 0.544665 0.43698028 0.35110423 -1.5424651 -0.36926696 -0.7097193 -0.87378436 -0.106894664 0.07721741 -1.5905813 -0.465076 -1.0259899 0.95753396 1.2426776 -0.06380757 0.5940367 0.8921727 0.15687773 -0.28118777 1.3188243 0.7884333 0.7909889 0.13191526 -0.20368485 -0.24195705 -0.157559 0.45476666 -1.2769927 0.0050427876 -0.83451235 0.07577331 0.7438151 -1.1367894 -0.10851156 0.7383927 -0.2693602 0.01050745 0.8975521 0.5360439 -0.40376425 0.043488946 -0.16122875 0.95845175 -0.542817 -0.19400367 -0.85740536 0.33279815 0.7187937 -1.0777835 -0.29931566 1.6161946 -0.0698557 -0.2376185 0.9561073 -0.20798385 -0.5334881 -0.24272153 1.2075891 0.050083492 0.0409231 -0.20236549 0.13763379
36 0.09728444 -0.6831367 0.5632302 0.44720745 0.36339295 -1.5828528 -0.367663 -0.72630876 -0.8956057 -0.09652025 0.082860716 -1.6323358 -0.47985986 -1.0311465 0.9533242 1.2788872 -0.056277186 0.6318597 0.92412627 0.1584001 -0.2997197 1.3267671 0.8024938 0.8062573 0.13617152 -0.20343502 -0.25606456 -0.1716543 0.46350408 -1.3220422 0.033524286 -0.84726363 0.06636678 0.7678298 -1.1611246 -0.11960686 0.76337826 -0.25371087 -0.01231726 0.91406983 0.5405809 -0.40670323 0.03807141 -0.13701308 0.9812812 -0.54745674 -0.21709618 -0.85037047 0.34591007 0.7243846 -1.1163846 -0.29415116 1.668978 -0.056024097 -0.25930887 0.98075426 -0.22500072 -0.53857 -0.26388368 1.2523931 0.04101062 0.044532064 -0.22378653 0.16530415
32 0.10665731 -0.700277 0.54209733 0.45324036 0.35538608 -1.5822287 -0.36440307 -0.712023 -0.90267736 -0.11389783 0.07907989 -1.6291844 -0.48122835 -1.0360174 0.97114545 1.2685477 -0.046912137 0.6211105 0.906358 0.1651335 -0.29893884 1.3339345 0.7702296 0.8104789 0.13556659 -0.20769157 -0.25421408 -0.17359926 0.44854948 -1.3044834 0.008195509 -0.82746565 0.06914163 0.74787915 -1.1630772 -0.10008066 0.7430171 -0.26932237 -0.012283104 0.9126711 0.54552394 -0.40406668 0.05619555 -0.15171224 0.96775764 -0.54396564 -0.20172256 -0.86754495 0.3382648 0.7417309 -1.0931981 -0.3024478 1.6628287 -0.07682992 -0.26302502 0.9796166 -0.20641902 -0.54327077 -0.24171232 1.2532737 0.046140946 0.039083462 -0.216863 0.14101255
119 0.11497244 -0.25478733 0.15040077 0.19539027 0.108808786 -0.35639617 -0.11158292 -0.22232631 -0.42859715 -0.15828124 0.1119881 -0.50814855 -0.23021781 -0.23160326 0.28829527 0.50808275 -0.022420878 0.15456183 0.31421354 0.18177111 0.07416451 0.46091282 0.25459322 -0.017972922 0.08387617 0.0021240804 -0.13173279 -0.09281738 0.18102093 -0.26002806 0.03435705 -0.20939358 0.0076536704 0.21037781 -0.36827835 -0.14549462 0.21434133 -0.09506535 -0.018382698 0.23162076 0.09245931 -0.16040885 0.008512601 -0.072383314 0.32066858 -0.24484298 -0.04164715 -0.32230562 0.07015141 0.24005523 -0.2629087 -0.19087498 0.5336867 0.0031822715 -0.0019756535 0.16550373 0.03834308 -0.13929625 -0.1221186 0.39366233 -0.013679452 0.04656779 -0.07349349 0.033168636
96 0.103761695 -0.2753829 0.15103099 0.18562135 0.08895763 -0.33939594 -0.10117243 -0.20309953 -0.39515635 -0.15402335 0.09620385 -0.49738082 -0.23553294 -0.23100553 0.2846227 0.5048845 -0.02103305 0.13731702 0.29701602 0.18221875 0.07892893 0.4628193 0.24227488 -0.001798102 0.06896603 0.001281833 -0.14425875 -0.079639986 0.18778378 -0.27883327 0.02675814 -0.22612642 0.009588177 0.21908028 -0.35406175 -0.11821001 0.21322395 -0.099784814 -0.016002556 0.21835084 0.10769552 -0.13599102 0.033170026 -0.075127 0.31422332 -0.21394226 -0.033498928 -0.28545117 0.056111593 0.22312272 -0.24190532 -0.1812706 0.5227876 0.027666738 0.012620426 0.15082179 0.041285936 -0.14263546 -0.104795285 0.37976357 -0.022897912 0.030123098 -0.048583485 0.028804798
4 0.12293758 -0.7008153 0.5714276 0.465484 0.36234528 -1.6066396 -0.38921195 -0.73562396 -0.9312048 -0.098913774 0.07529224 -1.6594776 -0.49588597 -1.0663669 0.9687977 1.3122034 -0.060352053 0.61501735 0.94652665 0.16199757 -0.29138896 1.3606646 0.808682 0.82086754 0.13960329 -0.2273962 -0.24093114 -0.18976836 0.4608216 -1.3441468 0.015601477 -0.86254454 0.06967875 0.7853833 -1.1964699 -0.111908846 0.78394616 -0.26888782 -0.0061878413 0.9524237 0.5485529 -0.4336356 0.054253716 -0.14094217 0.9910047 -0.5786576 -0.21707062 -0.89913756 0.35879079 0.7699621 -1.1393898 -0.31525603 1.7094876 -0.06258537 -0.2597007 1.007797 -0.22511743 -0.5651176 -0.25974813 1.276524 0.039974257 0.059953455 -0.19984719 0.1528063
120 0.10339953 -0.2599292 0.15008377 0.20228015 0.103384666 -0.32905003 -0.08801877 -0.21109235 -0.4235268 -0.1503657 0.12069835 -0.47324365 -0.22034112 -0.21527791 0.27148816 0.53066784 -0.02504273 0.13218954 0.2920548 0.20905338 0.080048084 0.44215614 0.25943214 -0.04984757 0.07273974 0.021428097 -0.1524952 -0.063756675 0.17961317 -0.2600253 0.05122615 -0.19529074 -0.004625139 0.2258636 -0.36902428 -0.1485825 0.23869222 -0.084656514 -0.026597144 0.20136267 0.09777247 -0.14843757 0.03411086 -0.07448629 0.31927738 -0.2357922 -0.05585187 -0.30458817 0.067786016 0.22339498 -0.22875525 -0.20407507 0.5074235 0.029407104 0.019456793 0.13439722 0.05355871 -0.12628873 -0.11951117 0.38536367 -0.01728595 0.024920264 -0.06656669 0.011323118
103 0.10160761 -0.25495195 0.14710116 0.18675567 0.08474623 -0.33167112 -0.089256056 -0.21135266 -0.41408154 -0.15169773 0.12068517 -0.49711168 -0.21729852 -0.24068409 0.29754707 0.5349537 -0.0032326635 0.1444753 0.30406943 0.17605652 0.092890754 0.4416665 0.24017958 -0.012941323 0.07369179 0.023551945 -0.15481089 -0.06640518 0.1840174 -0.2785362 0.04863514 -0.22347388 0.009600019 0.22507721 -0.3820481 -0.12819457 0.23439723 -0.08256056 -0.040168032 0.2000336 0.08254523 -0.14439851 0.010871369 -0.06688118 0.3244841 -0.21610178 -0.045362044 -0.30845794 0.072558604 0.23767696 -0.2624352 -0.1964798 0.5265704 0.027171561 0.005615233 0.13913353 0.04982173 -0.1150902 -0.1103201 0.3861707 -0.027719783 0.024141856 -0.06755446 0.0058046696
23 0.09958053 -0.7094175 0.57494336 0.4619603 0.369423 -1.6045134 -0.38482994 -0.7303463 -0.92637175 -0.10596838 0.07715587 -1.6726216 -0.5003067 -1.0822763 1.0039805 1.3173397 -0.053350583 0.63671297 0.95660514 0.15340735 -0.29955727 1.380839 0.81658995 0.82715315 0.11406332 -0.20467377 -0.25281706 -0.18757237 0.4746763 -1.3637719 0.030499725 -0.873555 0.07818395 0.78349465 -1.195631 -0.116666205 0.7914621 -0.26637933 -0.019041015 0.9474629 0.55230176 -0.42580262 0.05576315 -0.1500379 1.0001929 -0.565589 -0.20862694 -0.89818066 0.35097873 0.7540882 -1.1504252 -0.29998973 1.714493 -0.058293145 -0.25521412 1.0173104 -0.21630079 -0.57068324 -0.2571382 1.293552 0.043418232 0.04774565 -0.20174955 0.1630709
100 0.10347278 -0.25758898 0.17612733 0.1748302 0.10768551 -0.36068505 -0.10311942 -0.20331086 -0.42488137 -0.16041179 0.09291341 -0.50958645 -0.23509736 -0.22112444 0.28742388 0.5053891 -0.004287779 0.16024643 0.32020947 0.20385332 0.061198466 0.45450884 0.25321835 -0.011725713 0.08214498 -0.001110063 -0.13359939 -0.059917185 0.17109618 -0.25391126 0.044643946 -0.2242994 -0.004065669 0.20455433 -0.37919298 -0.1249605 0.21908523 -0.08027351 -0.04091877 0.20115855 0.110326976 -0.14106055 0.022337897 -0.060733166 0.32816967 -0.23618655 -0.035278086 -0.3167752 0.06517393 0.22469915 -0.24124733 -0.19436751 0.53515965 0.014439607 0.0033635837 0.14570189 0.040774245 -0.13532242 -0.11662803 0.38203797 -0.023134153 0.03385149 -0.06940976 0.032875832
46 0.1021427 -0.66588193 0.5280411 0.4330093 0.33556286 -1.5090926 -0.36023414 -0.69862556 -0.8552371 -0.08494519 0.06415311 -1.540291 -0.46001384 -0.98864114 0.90541285 1.2227639 -0.050486863 0.596796 0.859676 0.1540936 -0.29867426 1.2722178 0.75018245 0.77156013 0.11777259 -0.2006234 -0.22366768 -0.16445537 0.43106157 -1.2679979 0.030546885 -0.7910001 0.091220796 0.73511827 -1.1076319 -0.08873154 0.7145311 -0.24366215 -0.008145843 0.8796797 0.5344516 -0.3937356 0.03734211 -0.14628324 0.93425035 -0.51394993 -0.21013999 -0.812566 0.32384133 0.6889329 -1.0628686 -0.2775418 1.5914304 -0.04586508 -0.22565544 0.95662856 -0.20599575 -0.5243593 -0.22294715 1.198921 0.044964913 0.05390889 -0.19558662 0.15255785
62 0.09608356 -0.2532348 0.17492679 0.17337394 0.10193699 -0.33528864 -0.09682417 -0.19785963 -0.3955997 -0.14164071 0.115443684 -0.479872 -0.22159423 -0.23525964 0.3005382 0.51628906 -0.025701838 0.14066714 0.29689118 0.1848306 0.06763481 0.43246135 0.2535458 0.010632299 0.07537616 0.016764449 -0.13256972 -0.06339885 0.19201271 -0.26680595 0.036449227 -0.21015179 -0.013865094 0.22950749 -0.37252674 -0.119944245 0.20935035 -0.09629577 -0.01036787 0.2063786 0.09401287 -0.14550823 0.03292548 -0.072675414 0.30283812 -0.20733128 -0.061340686 -0.30249637 0.08021765 0.21848004 -0.261793 -0.19732556 0.5277529 0.023821903 -0.013755544 0.1592036 0.060224034 -0.13605586 -0.11218195 0.38439253 -0.0223387 0.019999972 -0.0510556 0.013624099
56 0.13940492 -0.28272846 0.17140584 0.2070937 0.10295634 -0.34762576 -0.11151642 -0.19999705 -0.43853986 -0.16215426 0.12159855 -0.49511492 -0.24486756 -0.23827022 0.30261412 0.53887475 -0.013451059 0.16111329 0.32924563 0.19115162 0.08021926 0.48684177 0.2592381 -0.04513122 0.08002968 0.003843403 -0.14686963 -0.08106786 0.18268918 -0.27702186 0.05821969 -0.21549074 0.0014295651 0.23045728 -0.36725786 -0.15385064 0.24346289 -0.10058082 -0.04367214 0.20229365 0.09243281 -0.14437792 0.019637188 -0.0917843 0.32803252 -0.24680197 -0.054822396 -0.3052981 0.079242155 0.24274695 -0.25086513 -0.19952172 0.5360513 0.026682846 0.020197332 0.16016813 0.059803016 -0.13597266 -0.12141463 0.3800645 -0.018337945 0.03499957 -0.06672002 0.011431545
39 0.11681171 -0.6946092 0.56490713 0.46300605 0.36275962 -1.5883065 -0.37417865 -0.74135756 -0.92292744 -0.11256945 0.09050796 -1.6280861 -0.49137387 -1.0605075 0.9801909 1.2850925 -0.051075008 0.6361804 0.94267124 0.15942706 -0.3078682 1.3646662 0.8129016 0.82821125 0.12511484 -0.199594 -0.2334622 -0.18832089 0.48113546 -1.3314396 0.01184207 -0.8420078 0.09254225 0.7601359 -1.1596209 -0.12165542 0.75722355 -0.25661445 -0.009895608 0.93928885 0.5690745 -0.40070596 0.05482074 -0.16496126 0.9984312 -0.57271105 -0.21480206 -0.8580231 0.34281385 0.7521291 -1.1258152 -0.3122014 1.6909683 -0.055450566 -0.24046475 1.0055932 -0.20780316 -0.5459362 -0.26448327 1.2748398 0.030068388 0.053982243 -0.21822459 0.15827502
58 0.12069155 -0.26687568 0.1463387 0.171713 0.07960237 -0.3288404 -0.10430114 -0.2106025 -0.42175555 -0.14676388 0.09101845 -0.48336616 -0.21002914 -0.22757079 0.29448542 0.51136136 0.002164736 0.15552366 0.30449465 0.18463147 0.059574928 0.44514686 0.25832373 -0.024679784 0.07550884 0.00057478587 -0.12241554 -0.07554658 0.17911467 -0.27122274 0.049224477 -0.22461514 -0.014609549 0.2275222 -0.3671903 -0.13837856 0.23078807 -0.085592136 -0.01702346 0.22623093 0.109632686 -0.16607611 0.025112767 -0.057175353 0.3017848 -0.22343951 -0.04989413 -0.30695906 0.08188886 0.22768441 -0.2392513 -0.19451909 0.5298729 0.012905855 -0.007233456 0.15834227 0.0655103 -0.13706648 -0.11342494 0.37140515 -0.029933626 0.019332303 -0.075216815 0.02582477
66 0.11805343 -0.2865128 0.16791917 0.19865283 0.112956926 -0.35990334 -0.10089464 -0.21498664 -0.43875897 -0.15426654 0.124935456 -0.5060381 -0.22110905 -0.23538321 0.28949854 0.5496096 -0.0013079209 0.14560182 0.3168731 0.20900367 0.07487599 0.4730218 0.259954 -0.03999818 0.089870766 0.0119990315 -0.14031357 -0.08944328 0.19608791 -0.26002324 0.055017807 -0.23151053 -0.016658181 0.23394185 -0.37041914 -0.144336 0.22071823 -0.099278726 -0.044993248 0.21684034 0.092937045 -0.15963961 0.02345974 -0.07241666 0.31275642 -0.23468088 -0.059625115 -0.32077402 0.07087844 0.25041217 -0.2581034 -0.19829011 0.55831826 0.035622817 0.01745237 0.14085963 0.066552274 -0.11470677 -0.116826154 0.39224207 -0.026598237 0.04050239 -0.056412745 0.031007588
29 0.10406763 -0.70774937 0.57216305 0.43693164 0.35726652 -1.5893112 -0.37164167 -0.73706895 -0.9011691 -0.11968456 0.084393576 -1.642689 -0.4980837 -1.0478852 0.9747026 1.2905738 -0.04878407 0.607693 0.9429499 0.15129854 -0.30531353 1.3646262 0.79715276 0.82407707 0.13101922 -0.20769227 -0.2345311 -0.15814203 0.46484244 -1.3364309 0.024239758 -0.8586205 0.09218493 0.7730792 -1.1564225 -0.10427314 0.76352215 -0.26192823 -0.009411455 0.94571114 0.56648606 -0.407275 0.038639948 -0.16384363 1.0018941 -0.55068547 -0.2205116 -0.8830776 0.34492388 0.7456869 -1.1312263 -0.29587442 1.6782186 -0.07674835 -0.25285473 0.9924545 -0.21779545 -0.5532223 -0.26663667 1.254262 0.028894847 0.033872303 -0.2062008 0.15868151
109 0.13299759 -0.2598108 0.1527814 0.17858377 0.10847022 -0.33921838 -0.087672435 -0.21928589 -0.43614292 -0.1588696 0.09189124 -0.48577496 -0.23840904 -0.22185306 0.28013074 0.5438184 -0.02002102 0.16158085 0.30401123 0.1842639 0.09573063 0.4433747 0.23757792 -0.020531032 0.06344761 0.02413308 -0.142222 -0.089853294 0.19121033 -0.26058966 0.057620145 -0.21055529 -0.011094011 0.2123394 -0.3566024 -0.1559927 0.24028589 -0.101092026 -0.035889134 0.20701632 0.10031037 -0.17195691 0.023069844 -0.083438605 0.3353894 -0.24186622 -0.06107665 -0.30472246 0.08437611 0.2406999 -0.25293985 -0.19034131 0.52519107 0.011986548 -3.683124e-05 0.15531541 0.045723192 -0.1369357 -0.13715778 0.39444393 -0.017544815 0.045529094 -0.059360687 0.023413448
51 0.12071259 -0.2569399 0.15396945 0.18719348 0.0945889 -0.34374425 -0.10979092 -0.21279785 -0.40040708 -0.15013193 0.08963139 -0.47895354 -0.22464737 -0.23654477 0.27228928 0.5257045 -0.014212504 0.14482066 0.30250308 0.17967525 0.07722129 0.43556234 0.2501742 -0.017528147 0.0911192 0.014843685 -0.15022485 -0.07531627 0.17146772 -0.25874874 0.0526086 -0.21247977 0.014861888 0.20908089 -0.35513866 -0.14020719 0.20873912 -0.09831303 -0.0263088 0.2061109 0.09178404 -0.15280266 0.019989807 -0.08795121 0.32232717 -0.21959603 -0.061954133 -0.30430806 0.059167396 0.24457541 -0.25483894 -0.17025673 0.53155416 0.011088852 -0.011346754 0.14580975 0.061637297 -0.12981953 -0.11980264 0.38055944 -0.032776084 0.03503673 -0.072131075 0.032571275
104 0.10505794 -0.24765678 0.1538797 0.18596366 0.08852192 -0.3382437 -0.09029792 -0.20695226 -0.41185862 -0.13376755 0.09341797 -0.496884 -0.23762025 -0.22262049 0.2742307 0.50563043 -0.0037488635 0.12955213 0.3061923 0.20586194 0.08811855 0.448723 0.25044924 -0.014117668 0.085625626 0.0063612494 -0.13686502 -0.08740587 0.17303365 -0.25987428 0.043922413 -0.22119637 0.003041646 0.20864762 -0.3700043 -0.15320215 0.2339415 -0.08297036 -0.03178321 0.2190566 0.09774856 -0.16606638 0.004880894 -0.08130916 0.29780453 -0.2149234 -0.036778644 -0.2991423 0.06784998 0.21492201 -0.23343703 -0.19483575 0.5162315 0.010651334 0.0036354333 0.13406728 0.060453463 -0.13372725 -0.10830515 0.35656008 -0.031675942 0.026732558 -0.07759972 0.02316598
31 0.1052758 -0.69420046 0.573082 0.4505192 0.35446194 -1.5657723 -0.36828056 -0.7184332 -0.896059 -0.12001386 0.08644331 -1.6459266 -0.4923114 -1.0311354 0.9624265 1.2791247 -0.044585012 0.63105005 0.9348153 0.15121077 -0.28317213 1.3617141 0.7855562 0.80305386 0.12586643 -0.22298625 -0.2518656 -0.15688522 0.45903465 -1.3345904 0.014032095 -0.8571873 0.0810137 0.7757005 -1.1631849 -0.116698585 0.77970076 -0.27793744 -0.012521407 0.9089059 0.56771094 -0.41689283 0.036785077 -0.16563985 0.9996303 -0.56149536 -0.22119676 -0.8627834 0.33630475 0.7557359 -1.0992792 -0.30666742 1.6624471 -0.057762127 -0.2661667 0.9975395 -0.20036985 -0.53882664 -0.26644316 1.2546148 0.028366815 0.056392156 -0.19273531 0.15332124
142 0.10180692 -0.25005883 0.15327753 0.18106875 0.08219241 -0.32017687 -0.0982321 -0.18311462 -0.41409078 -0.15202948 0.0962711 -0.47471473 -0.21159944 -0.21891378 0.26324213 0.48130286 -0.027231684 0.1398254 0.29125133 0.1684638 0.09402729 0.4453644 0.24648172 -0.033124033 0.070572436 0.030098751 -0.1466474 -0.08544703 0.16383322 -0.23580591 0.024353819 -0.20237806 0.011258864 0.20592934 -0.3638325 -0.123449616 0.22145735 -0.10247787 -0.020620473 0.21023655 0.10000608 -0.15334855 0.023288086 -0.075299844 0.28822085 -0.21468887 -0.049444694 -0.2939772 0.054734208 0.20691395 -0.23467575 -0.18584755 0.50552154 0.03260432 0.0146677615 0.124474816 0.039027676 -0.121448666 -0.12213021 0.34790912 -0.005101794 0.039044075 -0.070971 0.025591807
69 0.11175316 -0.2823475 0.16797188 0.2007883 0.09323998 -0.36312145 -0.10528562 -0.20925418 -0.4121454 -0.15527219 0.08686591 -0.5023993 -0.22040889 -0.23850249 0.29669333 0.52393234 -0.017702488 0.15749028 0.31108844 0.19338419 0.073704585 0.47449452 0.24931456 -0.0024445849 0.07997262 0.00041106844 -0.12545213 -0.06611961 0.1945731 -0.28190586 0.056275755 -0.218703 -0.0028820569 0.22893009 -0.36291578 -0.12313648 0.23192494 -0.09111939 -0.032909427 0.21126732 0.091167375 -0.15964577 0.0117133735 -0.07291182 0.31994313 -0.22558708 -0.040353075 -0.32068297 0.08208104 0.24845423 -0.24920768 -0.18607399 0.5405017 0.019430753 -0.011747564 0.15445234 0.052112672 -0.13720782 -0.11494661 0.37936115 -0.009305982 0.02492355 -0.0543887 0.014983667
134 0.11329216 -0.26638818 0.16153194 0.18433087 0.09336838 -0.334195 -0.11300028 -0.20531814 -0.42566773 -0.13229404 0.109266534 -0.48892367 -0.23078546 -0.23788339 0.27544725 0.5205985 -0.0049541974 0.13070704 0.3135075 0.1948671 0.09101799 0.4535662 0.25881162 -0.03468995 0.075906254 0.026878547 -0.1355669 -0.088016815 0.17956175 -0.28108767 0.041117165 -0.2093976 -0.014087448 0.22928305 -0.37402648 -0.1306809 0.233162 -0.09173481 -0.03196183 0.20166536 0.09103484 -0.15782233 -0.00050890073 -0.060855065 0.3194169 -0.23231857 -0.034214824 -0.31781015 0.071223155 0.23501721 -0.23860073 -0.18777788 0.5273901 0.011144801 -0.007778211 0.16191703 0.061829027 -0.11576852 -0.115142755 0.3641011 -0.004971559 0.017468838 -0.061622843 0.017551392
127 0.12756564 -0.28048247 0.16403134 0.17234321 0.09328268 -0.3202143 -0.11140818 -0.18619788 -0.4275073 -0.13485861 0.088713944 -0.48979315 -0.23700023 -0.21413329 0.2723032 0.5110833 -0.03167956 0.15616025 0.30497777 0.17885062 0.074827366 0.45676553 0.24712397 -0.041232456 0.08045704 0.0027797897 -0.13446397 -0.062910624 0.17721242 -0.25207078 0.04919543 -0.22031721 0.0040349197 0.21676372 -0.37208745 -0.14362265 0.23006073 -0.090080015 -0.009868472 0.2060721 0.11180504 -0.16537596 0.02268231 -0.087225854 0.31226444 -0.21204452 -0.045689974 -0.286636 0.049751233 0.22611752 -0.23178303 -0.19763385 0.5301221 0.0050269035 0.001102708 0.16451211 0.06857044 -0.123957925 -0.10233433 0.3521648 -0.026042365 0.03246078 -0.06400753 0.026431901
108 0.12607569 -0.27371922 0.16304193 0.2033849 0.090453774 -0.37730697 -0.10232917 -0.22672616 -0.41457388 -0.13758832 0.09024257 -0.50145626 -0.23086469 -0.24837062 0.2953864 0.5250255 -0.01839154 0.16255635 0.3104205 0.1944597 0.068732336 0.46500102 0.27027833 -0.005267002 0.075126596 0.0012034101 -0.13203458 -0.08863296 0.17778623 -0.26696953 0.033859164 -0.21549143 -7.9997364e-05 0.22700511 -0.3729723 -0.14813884 0.24716842 -0.08176431 -0.043138266 0.2091364 0.10720922 -0.15296343 0.014416538 -0.058445673 0.30401134 -0.23471211 -0.03889327 -0.30895418 0.065250345 0.2475156 -0.24852233 -0.19530435 0.52443266 0.014441865 0.013057192 0.1659429 0.050086327 -0.13408495 -0.11480343 0.3865617 -0.011037495 0.04755606 -0.07788775 0.026006501
124 0.09785882 -0.28461722 0.17845196 0.19244036 0.11211918 -0.39249563 -0.09078495 -0.23655502 -0.43072525 -0.13515684 0.090121485 -0.5096684 -0.23200125 -0.26528412 0.30515015 0.5227997 -0.006229984 0.15203924 0.31547827 0.18487538 0.07041381 0.46847883 0.24407081 0.010147148 0.083200246 0.015040766 -0.1503784 -0.071161866 0.20216474 -0.3108209 0.03867898 -0.23071197 -0.009779569 0.22059801 -0.3730504 -0.13912515 0.22914019 -0.092674196 -0.009311301 0.24365506 0.10249197 -0.16467877 0.033956457 -0.07523857 0.31915146 -0.24297291 -0.06057754 -0.30632266 0.08094812 0.23016283 -0.25797406 -0.1885174 0.54985064 0.0041722804 -0.003178357 0.1815691 0.043134537 -0.14273979 -0.12819502 0.39067736 -0.020693267 0.028391913 -0.05466208 0.02482494
126 0.12847461 -0.26387596 0.16506386 0.1908916 0.11289171 -0.33995643 -0.11425576 -0.19766259 -0.42713907 -0.14918734 0.09204547 -0.5079905 -0.23596741 -0.22816128 0.2870386 0.520686 -0.023834325 0.15380934 0.32038683 0.19933252 0.07639836 0.44161847 0.26462248 -0.02146977 0.08002775 0.021725466 -0.12798715 -0.081355885 0.17484571 -0.26725614 0.04322012 -0.2159542 -0.005166681 0.23655051 -0.3626864 -0.14757401 0.24178067 -0.106239974 -0.034543104 0.22139068 0.08911306 -0.14225535 0.006364116 -0.08687653 0.30340138 -0.22642809 -0.039167672 -0.29767102 0.07487443 0.24021874 -0.25451306 -0.2024445 0.548735 0.009952219 0.016802723 0.15263821 0.050703034 -0.13069032 -0.11051315 0.3741126 -0.017767163 0.03407382 -0.05811222 0.006651187
139 0.100265466 -0.28532356 0.157413 0.18924727 0.08194027 -0.3352016 -0.09466575 -0.22338101 -0.42663044 -0.15918611 0.08651589 -0.49643457 -0.23093496 -0.22542173 0.2953597 0.5209453 0.00095849833 0.13994391 0.2957174 0.18730643 0.06442723 0.450831 0.25505272 -0.027551644 0.07339615 0.014957408 -0.1394889 -0.08033957 0.18375783 -0.25381353 0.045278084 -0.2236018 -0.010846464 0.20864572 -0.37328565 -0.14341654 0.20616652 -0.09529795 -0.033475656 0.20748663 0.096584745 -0.15641652 0.02846861 -0.065472715 0.3358056 -0.21763624 -0.04003621 -0.3042966 0.07851313 0.23477605 -0.23807372 -0.20461802 0.53614134 0.022421412 0.017381014 0.15051626 0.067153744 -0.12049225 -0.12945008 0.39494002 -0.027286317 0.041912545 -0.076160826 0.012107954
99 0.12211778 -0.26960486 0.15005994 0.18541856 0.08680289 -0.34664753 -0.08856544 -0.21346886 -0.4026403 -0.14689605 0.1079152 -0.4951416 -0.23809066 -0.23649962 0.27852455 0.5274259 -0.024496494 0.16200529 0.30760077 0.19522041 0.08011755 0.4734948 0.24908677 -0.0049224882 0.07594707 0.0054351683 -0.14495173 -0.0669097 0.19565639 -0.2590074 0.043421783 -0.21326607 -0.0016389089 0.221265 -0.37386987 -0.14074357 0.21481872 -0.08623029 -0.037908714 0.22737041 0.09274374 -0.15254155 0.0052844756 -0.06130165 0.32595143 -0.22431971 -0.04628244 -0.31422526 0.05851146 0.24868062 -0.26755035 -0.1795871 0.5411451 0.034826387 0.0069754766 0.16431122 0.055175312 -0.12020669 -0.13454096 0.37369192 -0.018973634 0.030991698 -0.055206623 0.014305409
149 0.11166436 -0.26402664 0.16792475 0.20180622 0.10926331 -0.35336876 -0.098370045 -0.22717 -0.40497035 -0.14871268 0.10816489 -0.49535745 -0.21089439 -0.2282459 0.3028394 0.5208002 -0.024678282 0.1368065 0.29362327 0.18685846 0.08422148 0.4703462 0.24799651 -0.0076214354 0.06090153 0.02033866 -0.13087773 -0.07481139 0.19955978 -0.28600377 0.023748772 -0.20738518 0.007330587 0.20256926 -0.35589325 -0.14263578 0.22861134 -0.08894524 -0.040649965 0.22811793 0.0941878 -0.16417418 0.024900943 -0.0623318 0.33100355 -0.22251472 -0.044353 -0.32092187 0.06897833 0.23266682 -0.2517864 -0.17576557 0.546224 0.017033346 -0.0070355423 0.17433405 0.059538398 -0.14157243 -0.1147176 0.39744985 -0.020294597 0.03352014 -0.07093105 0.00077712623
111 0.1073879 -0.27874243 0.14537606 0.19856009 0.08882161 -0.33263013 -0.09769747 -0.21399114 -0.43265635 -0.15539163 0.110453464 -0.47490156 -0.23253247 -0.22104359 0.27872726 0.5366592 -0.018953118 0.13456978 0.31221473 0.1893388 0.08859944 0.44192484 0.25376666 -0.015478843 0.08989478 0.011132253 -0.14681035 -0.089142784 0.18892287 -0.27255914 0.050381448 -0.20464891 0.009940375 0.23268208 -0.37519506 -0.12586053 0.21286532 -0.08276919 -0.035750456 0.21240914 0.094332635 -0.15277182 0.029502131 -0.07266359 0.29988715 -0.22012526 -0.039919112 -0.31320292 0.07981389 0.22918713 -0.23851702 -0.19795333 0.53821486 0.027809728 0.004454281 0.13831016 0.05211218 -0.12104204 -0.13305451 0.36518717 -0.021500455 0.033373825 -0.06979062 0.0060501527
87 0.12243141 -0.2475784 0.14779332 0.17281438 0.09796106 -0.36271185 -0.099631965 -0.22425729 -0.42269385 -0.14769538 0.10632403 -0.48829797 -0.23733824 -0.2520477 0.27602816 0.5163291 -0.028081393 0.15121043 0.3204812 0.16623895 0.059683178 0.47078496 0.25699195 -0.0022993106 0.0628634 -0.008570316 -0.14744373 -0.076320395 0.19320978 -0.27919596 0.054711733 -0.2337357 0.011276014 0.22613691 -0.37441555 -0.1179789 0.21722472 -0.08512735 -0.042457975 0.2156405 0.09931601 -0.14194483 0.024151215 -0.08677413 0.31244507 -0.23398893 -0.061134987 -0.3024623 0.0832999 0.22172526 -0.23849578 -0.17751862 0.5193744 0.015818179 0.004849944 0.17621966 0.04111444 -0.11090491 -0.12660287 0.36570695 -0.033828914 0.038325373 -0.07333207 0.0038372942
88 0.110593915 -0.2728571 0.17381725 0.18433502 0.10126515 -0.3322899 -0.08269792 -0.19852278 -0.44137534 -0.17087805 0.1054251 -0.48683983 -0.22245982 -0.21281607 0.2897619 0.5385578 -0.009216705 0.14377311 0.31637773 0.2012132 0.09024862 0.44380087 0.23644069 -0.04928519 0.06784212 0.034441717 -0.15431884 -0.09157528 0.19162919 -0.23753853 0.05673208 -0.22015797 0.0054480326 0.21516615 -0.3727516 -0.15314557 0.21778138 -0.10696624 -0.027494933 0.21622126 0.08980608 -0.1513215 0.023337035 -0.06179074 0.30698028 -0.22823797 -0.048055544 -0.30042565 0.062494945 0.22108752 -0.23588504 -0.21301432 0.5438541 0.0073447563 0.00891743 0.15529744 0.05361605 -0.13867177 -0.1278595 0.36445397 -0.013091677 0.021115359 -0.07197124 0.0007719818
16 0.12447048 -0.68698394 0.5409751 0.43969852 0.34929657 -1.5401701 -0.3641853 -0.72405356 -0.89508706 -0.117995284 0.09548704 -1.5878394 -0.47709 -1.0388194 0.9469041 1.2677912 -0.056682054 0.62258136 0.9180311 0.15420248 -0.30178016 1.3408965 0.77886194 0.7909052 0.12936227 -0.21738578 -0.25575358 -0.15752912 0.45559937 -1.296959 0.03470187 -0.83367974 0.068372086 0.7382851 -1.1297176 -0.11482611 0.7616014 -0.25565067 -0.016804839 0.91170317 0.55942535 -0.4131625 0.0453859 -0.1512944 0.9790679 -0.5502201 -0.21471739 -0.8667673 0.33740148 0.7328934 -1.0941416 -0.29253915 1.65229 -0.048004568 -0.23590444 0.986681 -0.19725052 -0.5419395 -0.24512835 1.241667 0.026786651 0.050011903 -0.21106964 0.16468813
123 0.1251993 -0.2797867 0.16674738 0.18470176 0.08519975 -0.35699522 -0.098098345 -0.22285816 -0.4127621 -0.13927588 0.08820455 -0.4994393 -0.23037311 -0.23076032 0.29841992 0.52708113 -0.010101057 0.13595305 0.30599463 0.20047885 0.090135515 0.46870843 0.25527784 0.0019345236 0.06557806 0.0014798788 -0.14119665 -0.08418945 0.19488275 -0.25898466 0.03496039 -0.234847 -0.006776007 0.20434998 -0.38310897 -0.13201308 0.23482245 -0.10291396 -0.038071856 0.21880063 0.10195883 -0.15199089 0.030345798 -0.0773249 0.3042694 -0.21964279 -0.037233356 -0.31686965 0.08509125 0.24368776 -0.25954217 -0.19095878 0.5465461 0.033711273 0.015207333 0.15039349 0.045441654 -0.14119555 -0.13773596 0.37975743 -0.024533628 0.021128293 -0.057914533 0.009683142
60 0.1054314 -0.6716844 0.54320765 0.43608573 0.35795072 -1.5226859 -0.36207816 -0.6940228 -0.8581834 -0.09698132 0.09150431 -1.5788944 -0.46165007 -1.0230281 0.93980736 1.2475297 -0.060680084 0.60329294 0.8990976 0.14138055 -0.30251682 1.2937024 0.77122664 0.7920237 0.13292146 -0.20568049 -0.2268036 -0.17935199 0.44702905 -1.2873425 0.018621994 -0.8115006 0.09118997 0.7497593 -1.1162933 -0.112810895 0.74876595 -0.26183206 -0.006275663 0.89360046 0.5338662 -0.40404204 0.054207407 -0.1352089 0.9512925 -0.5316456 -0.20984207 -0.84429055 0.3297088 0.7141552 -1.0874002 -0.28509304 1.6130745 -0.066396706 -0.2384112 0.9675162 -0.20416775 -0.5220825 -0.23827654 1.2026477 0.043665864 0.03777437 -0.18682384 0.14100212
85 0.12063614 -0.2808055 0.16074862 0.19402444 0.11093765 -0.3372243 -0.09368346 -0.1921704 -0.41310295 -0.14760943 0.09896905 -0.50410324 -0.22490036 -0.24372612 0.29124233 0.51965904 -0.005138685 0.13366938 0.29487017 0.19186759 0.08348305 0.4481777 0.25297534 -0.022170773 0.08637395 0.007628041 -0.13502367 -0.08235006 0.19173308 -0.25290164 0.035048675 -0.23218642 -0.0073117693 0.23221792 -0.3794874 -0.15247658 0.23192406 -0.109583616 -0.032605037 0.20358293 0.091205984 -0.14293619 0.006346608 -0.063911736 0.3296522 -0.23880899 -0.035786808 -0.30293158 0.077941425 0.2338813 -0.23978709 -0.20104267 0.5375465 0.028714914 0.01408112 0.15432799 0.045828525 -0.13643256 -0.12652399 0.37049195 -0.02869805 0.033057276 -0.057065357 0.003263314
